{
  "model_type": "DeepONet",
  "meta": {
    "input_dim": 14,
    "output_shape": null,
    "param_bounds": [
      [
        0.4652281105518341,
        -0.9584252238273621,
        0.020294763147830963,
        0.008500431664288044,
        0.00850065890699625,
        0.008503000251948833,
        0.008501138538122177,
        0.008500218391418457,
        0.008501983247697353,
        0.00850468035787344,
        0.008504069410264492,
        0.008502279408276081,
        0.008500821888446808,
        0.008503429591655731
      ],
      [
        4.034492492675781,
        -0.0919187068939209,
        0.5046061277389526,
        0.1614972949028015,
        0.1614983230829239,
        0.16149872541427612,
        0.1614992767572403,
        0.16149911284446716,
        0.16149988770484924,
        0.16149939596652985,
        0.16149722039699554,
        0.16149982810020447,
        0.16149987280368805,
        0.16149172186851501
      ]
    ],
    "output_scaler": {
      "mean_": [
        0.2648113351259331
      ],
      "scale_": [
        0.09362598762620018
      ]
    },
    "strikes": [
      0.5,
      0.6000000238418579,
      0.699999988079071,
      0.800000011920929,
      0.8999999761581421,
      1.0,
      1.100000023841858,
      1.2000000476837158,
      1.2999999523162842,
      1.399999976158142,
      1.5
    ],
    "maturities": [
      0.10000000149011612,
      0.30000001192092896,
      0.5,
      0.699999988079071,
      0.8999999761581421,
      1.100000023841858,
      1.2999999523162842,
      1.5,
      1.7000000476837158,
      1.899999976158142,
      2.0999999046325684
    ]
  },
  "layers": [],
  "branch_layers": [
    {
      "W": [
        [
          0.8626965284347534,
          -0.7059454321861267,
          -0.250349223613739,
          -0.09804259985685349,
          -0.21434198319911957,
          -0.060134220868349075,
          0.433749258518219,
          0.11491142958402634,
          -0.138627290725708,
          -0.0873272567987442,
          0.5499336123466492,
          0.1330522894859314,
          0.1321759670972824,
          -0.817067563533783,
          -0.4690314829349518,
          -0.4800613522529602,
          0.03050963580608368,
          0.5705615878105164,
          0.07846427708864212,
          -0.39227965474128723,
          0.3647301197052002,
          -0.15221840143203735,
          -0.051280856132507324,
          0.6757357716560364,
          0.3213788568973541,
          0.7747602462768555,
          0.10436546802520752,
          0.2169504463672638,
          -0.4218071401119232,
          -0.042166292667388916,
          -0.2511197030544281,
          -0.05078570172190666,
          -0.05529037117958069,
          -0.15570902824401855,
          0.12131150811910629,
          -0.3301970362663269,
          0.0994611531496048,
          -0.717677891254425,
          -0.06389747560024261,
          0.18904511630535126,
          0.5005072951316833,
          0.1507129818201065,
          -1.0326865911483765,
          0.3225504159927368,
          0.5057721138000488,
          -0.25037360191345215,
          -0.04926319420337677,
          -0.9324483871459961,
          -0.705919623374939,
          -0.5861802101135254,
          0.05453922599554062,
          0.04130787402391434,
          -0.10634460300207138,
          -0.28841322660446167,
          -0.01962539367377758,
          -0.5067178606987,
          0.060089096426963806,
          0.015815166756510735,
          0.6929298043251038,
          0.043451711535453796,
          -0.09978599101305008,
          0.18726679682731628,
          -0.22119353711605072,
          0.5257202982902527
        ],
        [
          -0.018882738426327705,
          0.5395214557647705,
          0.01600387878715992,
          -0.03860921412706375,
          0.0833011120557785,
          -0.011197397485375404,
          -0.02870093658566475,
          0.07042558491230011,
          -0.351231187582016,
          0.004157814662903547,
          -0.050052762031555176,
          -0.018537987023591995,
          -0.031216200441122055,
          -0.6805129051208496,
          -0.0030629548709839582,
          -0.10120662301778793,
          -0.03945128247141838,
          -0.06286463886499405,
          -0.018054615706205368,
          0.039704225957393646,
          -0.10306886583566666,
          -0.009292212314903736,
          0.029562130570411682,
          -0.2662222385406494,
          -0.1907285749912262,
          0.631681501865387,
          0.01045316830277443,
          -0.05473272129893303,
          0.040915317833423615,
          0.4796876907348633,
          0.006134037859737873,
          -0.028934262692928314,
          -0.8476763367652893,
          0.2675805985927582,
          -0.9152957797050476,
          0.011357974261045456,
          0.003163293469697237,
          -0.004339152481406927,
          0.04453815147280693,
          0.07824750244617462,
          -0.2345125824213028,
          -0.2618825137615204,
          0.2936517596244812,
          -0.04751350358128548,
          0.10730519890785217,
          0.01796206459403038,
          0.4523810148239136,
          -0.2344234734773636,
          0.27704066038131714,
          0.07594883441925049,
          -0.5191775560379028,
          -0.46032676100730896,
          0.04207485914230347,
          -0.009206671267747879,
          0.04447583481669426,
          0.17339840531349182,
          0.6558272242546082,
          0.039962299168109894,
          -0.533207356929779,
          0.014818307012319565,
          0.022323573008179665,
          -0.07310298830270767,
          0.04739337041974068,
          0.11482466757297516
        ],
        [
          -0.4308681786060333,
          -0.5547280311584473,
          -0.009832517243921757,
          0.03300146386027336,
          0.7501991987228394,
          0.0070877159014344215,
          0.07428591698408127,
          0.2688302993774414,
          0.2275112271308899,
          -0.041558947414159775,
          -0.8602059483528137,
          0.0431758388876915,
          0.03884916007518768,
          0.18557260930538177,
          -0.08149655163288116,
          -0.3551943004131317,
          -0.02152223512530327,
          0.15443101525306702,
          0.0004884044756181538,
          -0.05656993389129639,
          -0.30539241433143616,
          -0.09699920564889908,
          -0.00692805927246809,
          -0.07515968382358551,
          -1.0220401287078857,
          -0.1722608506679535,
          0.07301957905292511,
          0.19244138896465302,
          -0.11895627528429031,
          -0.06534545123577118,
          0.009909432381391525,
          0.05422700196504593,
          0.046677365899086,
          0.39279454946517944,
          -0.005030595697462559,
          -0.6384945511817932,
          -0.09730880707502365,
          0.35245245695114136,
          -0.032853301614522934,
          -1.0240259170532227,
          -0.3159239590167999,
          -0.3851909637451172,
          0.0525188110768795,
          -0.07023044675588608,
          0.375925749540329,
          0.0363883450627327,
          -0.27047377824783325,
          0.17762495577335358,
          0.07516617327928543,
          -0.12610504031181335,
          0.3080751597881317,
          0.06390024721622467,
          0.5945799946784973,
          0.0689859390258789,
          0.004422333091497421,
          0.0422748439013958,
          0.02998489886522293,
          -0.01768541894853115,
          0.542687714099884,
          0.02799173630774021,
          0.0013573071919381618,
          -0.09733085334300995,
          0.14157934486865997,
          0.3163594901561737
        ],
        [
          -0.10041984170675278,
          -0.2846924662590027,
          -0.04510468617081642,
          -0.06467796117067337,
          0.007490917108952999,
          -1.1456626653671265,
          0.02702478878200054,
          -0.7719305753707886,
          0.11600571125745773,
          -0.008492611348628998,
          0.015157543122768402,
          0.007968384772539139,
          -0.009537678211927414,
          -0.01700454019010067,
          0.11012926697731018,
          -0.0052821822464466095,
          0.018042581155896187,
          0.011510990560054779,
          0.046104416251182556,
          -0.04728793725371361,
          0.10118940472602844,
          -0.030997930094599724,
          0.006352081894874573,
          0.17932826280593872,
          -0.0049532256089150906,
          0.0071420068852603436,
          0.023762719705700874,
          0.0030393474735319614,
          -0.006841705646365881,
          0.09421824663877487,
          -0.07089680433273315,
          -0.05817096680402756,
          -0.09453031420707703,
          -0.4560551643371582,
          0.14316615462303162,
          -0.012105988338589668,
          0.02095588855445385,
          0.08040893822908401,
          -0.00014976534293964505,
          -0.018502123653888702,
          0.0949709489941597,
          0.4352307915687561,
          0.0147370845079422,
          -0.4503176808357239,
          0.005429601296782494,
          -0.174549400806427,
          0.7022519111633301,
          0.03320040926337242,
          -0.18689069151878357,
          -0.025799784809350967,
          -0.8023701906204224,
          -0.09049532562494278,
          0.040075622498989105,
          -0.899823784828186,
          -0.025148387998342514,
          0.0223765280097723,
          0.10140568017959595,
          0.0016399252926930785,
          0.27607491612434387,
          -0.5989925861358643,
          -0.05445997044444084,
          0.6605682373046875,
          0.17298437654972076,
          0.0531085804104805
        ],
        [
          -0.06848325580358505,
          -0.23521184921264648,
          -0.10114102810621262,
          -0.115191750228405,
          0.012621565721929073,
          0.05428037419915199,
          0.05422140285372734,
          -0.030593307688832283,
          0.19209006428718567,
          -0.008121512830257416,
          0.00839975755661726,
          0.01410076767206192,
          -0.0024074844550341368,
          -0.08028437197208405,
          0.07785430550575256,
          0.4897253215312958,
          0.3164106607437134,
          0.003675159066915512,
          -0.020853424444794655,
          -0.09492269158363342,
          0.09449708461761475,
          0.03777889534831047,
          -0.03973782807588577,
          -0.05625544860959053,
          0.0014135498786345124,
          0.0718480795621872,
          -0.03310064598917961,
          -0.21799242496490479,
          -0.022552935406565666,
          -0.003181542968377471,
          -0.16828857362270355,
          -0.5999493598937988,
          0.017947833985090256,
          0.44049233198165894,
          0.05922111123800278,
          0.030088607221841812,
          0.08442360162734985,
          0.0603889636695385,
          0.00018699749489314854,
          -0.016785878688097,
          0.052805788815021515,
          -0.4309351146221161,
          0.0019917646422982216,
          -0.3087266981601715,
          -0.5208063721656799,
          -0.6197968125343323,
          0.2851109802722931,
          0.028471283614635468,
          0.05562032386660576,
          -0.042053330689668655,
          -0.3293621838092804,
          0.002631277311593294,
          0.026437899097800255,
          -0.08838976919651031,
          -0.11430442333221436,
          0.0010388725204393268,
          0.06949089467525482,
          -0.0017353917937725782,
          0.23072686791419983,
          0.20855659246444702,
          0.019388064742088318,
          -0.03589830920100212,
          0.03058122843503952,
          0.0039465357549488544
        ],
        [
          -0.0021084421314299107,
          -0.13378357887268066,
          -0.1073075383901596,
          -0.4717012047767639,
          0.005404808092862368,
          -0.01802307367324829,
          0.05399835482239723,
          0.01325929258018732,
          -0.04285760223865509,
          -0.021571625024080276,
          0.004214750602841377,
          0.01456186082214117,
          -0.004157224204391241,
          -0.054395999759435654,
          0.03833989426493645,
          0.19575795531272888,
          -0.08580619096755981,
          0.023654988035559654,
          -0.004252694081515074,
          -0.11271785944700241,
          0.001677619875408709,
          -0.0019089140696451068,
          0.06972973048686981,
          -0.38794034719467163,
          -0.0010827929945662618,
          0.05390234291553497,
          -0.0001710764627205208,
          -0.29944780468940735,
          -0.017842059955000877,
          -0.23863211274147034,
          -0.18516889214515686,
          0.1676178127527237,
          0.0022574474569410086,
          0.021843312308192253,
          0.008431242778897285,
          0.04290987178683281,
          0.09571494162082672,
          0.007446290925145149,
          -0.014939628541469574,
          -0.0020988075993955135,
          0.008035571314394474,
          -0.02425873838365078,
          -0.00013049750123172998,
          -0.03256085515022278,
          -0.20625916123390198,
          -0.09625299274921417,
          0.05493874102830887,
          0.034248534590005875,
          0.40374675393104553,
          -0.051560331135988235,
          -0.06403618305921555,
          0.23161226511001587,
          0.019501380622386932,
          0.00334134791046381,
          0.20184259116649628,
          0.004476542118936777,
          0.010637159459292889,
          0.0030629949178546667,
          0.1323528289794922,
          0.0035794086288660765,
          -0.00023240871087182313,
          0.04971836507320404,
          -0.007364469580352306,
          -0.01888830028474331
        ],
        [
          0.00023082939151208848,
          0.015515708364546299,
          -0.16232407093048096,
          0.05286793038249016,
          -0.0004320014559198171,
          -0.018239155411720276,
          0.13515298068523407,
          0.008163196966052055,
          -0.03446943312883377,
          0.00918799452483654,
          0.007575859781354666,
          0.011626023799180984,
          0.015518685802817345,
          0.0034658138174563646,
          0.010894272476434708,
          -0.04734272509813309,
          0.09831055253744125,
          0.035790156573057175,
          0.02380044385790825,
          -0.10554628819227219,
          -0.029359940439462662,
          0.01586936227977276,
          -0.025884239003062248,
          -0.22208282351493835,
          -0.0048674182035028934,
          -0.0025194284971803427,
          -0.018113791942596436,
          -0.08961121737957001,
          -0.01832566037774086,
          -0.2999434471130371,
          -0.17917992174625397,
          -0.009409740567207336,
          -0.000937620410695672,
          -0.027643518522381783,
          0.0015942583559080958,
          0.028272729367017746,
          0.0698162317276001,
          0.009135975502431393,
          -0.0026005988474935293,
          0.004865325056016445,
          -0.015728848055005074,
          0.022844450548291206,
          0.007502111606299877,
          -0.02369481325149536,
          0.0462193489074707,
          0.007874080911278725,
          0.08779925853013992,
          0.007497248239815235,
          0.22972284257411957,
          -0.05036636069417,
          -0.09858144819736481,
          0.2839323580265045,
          0.006700849160552025,
          0.004922904074192047,
          -0.022195447236299515,
          0.0037453591357916594,
          0.011648207902908325,
          0.21321046352386475,
          -0.013709120452404022,
          0.01184653490781784,
          -0.034336116164922714,
          -0.013327134773135185,
          0.009378510527312756,
          -0.023295927792787552
        ],
        [
          0.017074495553970337,
          0.027254432439804077,
          -0.24024122953414917,
          0.008499419316649437,
          -0.000914703356102109,
          -0.0008406950510106981,
          0.011312456801533699,
          0.0020758549217134714,
          -0.010021582245826721,
          0.020074263215065002,
          0.003425717819482088,
          0.013179675675928593,
          0.017195405438542366,
          0.023758620023727417,
          0.012833017855882645,
          0.0064882333390414715,
          0.023975247517228127,
          0.06965533643960953,
          0.15913265943527222,
          -0.1109505295753479,
          -0.018998954445123672,
          -0.04727981239557266,
          -0.09087103605270386,
          -0.12339659780263901,
          0.00020133182988502085,
          -0.020273122936487198,
          0.03096732310950756,
          -0.016873156651854515,
          -0.01698201708495617,
          -0.11579735577106476,
          -0.009267895482480526,
          -0.007844872772693634,
          -0.0038838402833789587,
          -0.0197193194180727,
          0.003081206465139985,
          0.01812148652970791,
          0.06322133541107178,
          -0.0095274792984128,
          0.17281736433506012,
          0.004305222071707249,
          -0.011717507615685463,
          0.016767289489507675,
          0.006694894749671221,
          -0.002608517650514841,
          -0.007758527994155884,
          -0.0002811875310726464,
          0.028728283941745758,
          0.0007864526705816388,
          0.12949304282665253,
          -0.06319289654493332,
          -0.03133266046643257,
          0.1128767654299736,
          0.007196273189038038,
          -0.0007670882623642683,
          -0.0009878978598862886,
          0.0004384255444165319,
          0.004912135656923056,
          -0.04061618447303772,
          -0.025569234043359756,
          0.00836541410535574,
          -0.1937119960784912,
          0.012632512487471104,
          0.002651572460308671,
          -0.016227534040808678
        ],
        [
          -0.0006958921439945698,
          0.06297579407691956,
          -0.012468147091567516,
          0.0016003998462110758,
          -0.001317830989137292,
          0.005764664616435766,
          -0.006592001765966415,
          -0.0018195566954091191,
          0.01645503006875515,
          0.04863261803984642,
          -0.008675701916217804,
          0.016164537519216537,
          0.022698845714330673,
          0.01837303675711155,
          0.0019598533399403095,
          0.01791023090481758,
          0.016895338892936707,
          0.09404512494802475,
          0.21518927812576294,
          -0.16999532282352448,
          -0.015563505701720715,
          -0.11902499943971634,
          -0.01090084295719862,
          -0.035880643874406815,
          0.002785901539027691,
          -0.01740483194589615,
          0.08802967518568039,
          -0.024805203080177307,
          -0.015510208904743195,
          -0.07124414294958115,
          0.014753223396837711,
          -0.0026378240436315536,
          0.004970683250576258,
          -0.010073632001876831,
          0.01719413697719574,
          0.016474515199661255,
          0.06915897130966187,
          0.004648489411920309,
          -0.02478475123643875,
          0.00407068245112896,
          -0.004542899318039417,
          0.009300490841269493,
          0.019212817773222923,
          -0.00023743463680148125,
          -0.01989796571433544,
          0.00347955827601254,
          0.027238793671131134,
          -0.0036031880881637335,
          0.036337193101644516,
          -0.08730319887399673,
          -0.0306354109197855,
          0.07041759043931961,
          -0.002187438542023301,
          -0.0016396547434851527,
          0.001253284397535026,
          0.018717730417847633,
          0.0008822042727842927,
          -0.006829966325312853,
          -0.05918039008975029,
          0.003584272926673293,
          -0.2565285861492157,
          -0.001337866997346282,
          0.003670869627967477,
          -0.0072510200552642345
        ],
        [
          0.001098185428418219,
          0.06638993322849274,
          0.013747557997703552,
          -0.004247006494551897,
          -0.0027740388177335262,
          -0.0042226859368383884,
          -0.008705825544893742,
          0.010697565041482449,
          0.0229091364890337,
          -0.12147074192762375,
          0.008389205671846867,
          0.04451580345630646,
          0.026736654341220856,
          0.018152767792344093,
          -0.0017398193012923002,
          0.0022513456642627716,
          0.040143322199583054,
          0.1078459769487381,
          0.18075168132781982,
          -0.03573821112513542,
          -0.003499269485473633,
          -0.02374221570789814,
          0.009570196270942688,
          -0.029307896271348,
          0.0006555497529916465,
          -0.01649150624871254,
          0.016755612567067146,
          0.003598620882257819,
          -0.04363230988383293,
          -0.029406681656837463,
          0.007358700968325138,
          -0.012235150672495365,
          0.008090347051620483,
          0.0007091430015861988,
          0.002373667899519205,
          0.007693678606301546,
          0.05316726863384247,
          0.005134955979883671,
          -0.035346824675798416,
          0.001041974755935371,
          -0.014205859042704105,
          0.0009571942500770092,
          0.018349304795265198,
          -0.0046808235347270966,
          -0.0008833457250148058,
          0.0031963258516043425,
          0.0066993446089327335,
          0.0017096647061407566,
          0.030581654980778694,
          -0.11067565530538559,
          -0.007106181234121323,
          0.03083343245089054,
          -0.015233216807246208,
          0.0006870582001283765,
          0.004344012122601271,
          0.01116413064301014,
          0.0061743538826704025,
          0.000998358242213726,
          -0.06289505958557129,
          -0.0004259084817022085,
          -0.2175120860338211,
          0.00420534098520875,
          -0.0024789858143776655,
          -0.01665831170976162
        ],
        [
          -0.003144951071590185,
          0.04554184898734093,
          -0.006573676131665707,
          -0.006462646182626486,
          -0.003726702881976962,
          4.29161918873433e-05,
          -0.0008477696683257818,
          -0.015965400263667107,
          0.012317346408963203,
          -0.09245346486568451,
          0.003290280234068632,
          -0.005042005330324173,
          0.06394295394420624,
          0.019959742203354836,
          0.011244631372392178,
          0.008108980022370815,
          0.04661891236901283,
          0.09246684610843658,
          0.06839020550251007,
          0.015715081244707108,
          0.002215433167293668,
          -0.11483128368854523,
          0.057169076055288315,
          -0.007490090560168028,
          -0.0008455496863462031,
          -0.018114589154720306,
          0.08498978614807129,
          -0.004985888954252005,
          0.024429578334093094,
          -0.026204761117696762,
          0.005217567086219788,
          0.0018492154777050018,
          -0.0032184238079935312,
          -0.019922638311982155,
          0.008468086831271648,
          0.004095227923244238,
          0.03188236802816391,
          0.004204956814646721,
          0.016287656500935555,
          0.005980470683425665,
          -0.0013776025734841824,
          0.02140566147863865,
          0.0021118943113833666,
          0.0015587633242830634,
          -0.007542573846876621,
          0.001477951998822391,
          0.013406235724687576,
          0.00011446043936302885,
          0.009745124727487564,
          -0.0841408371925354,
          -0.01582443155348301,
          0.025826171040534973,
          -0.012243100441992283,
          0.006168908439576626,
          -0.0003338747483212501,
          0.00837075524032116,
          0.0019667313899844885,
          -0.002634142292663455,
          -0.0421919971704483,
          0.004062206018716097,
          -0.08138183504343033,
          -0.017806440591812134,
          0.00465535931289196,
          -0.0036153297405689955
        ],
        [
          -0.00021447693870868534,
          0.03315136954188347,
          0.0008407371933571994,
          0.001991240307688713,
          -0.003132917219772935,
          0.0020627921912819147,
          7.618677773280069e-05,
          -0.0018578108865767717,
          0.02033071406185627,
          -0.016031663864850998,
          -0.00737773859873414,
          -0.05674756318330765,
          0.07321994006633759,
          0.020859990268945694,
          0.0009214369929395616,
          0.009632284753024578,
          0.05305042490363121,
          0.05987123027443886,
          -0.013490644283592701,
          -0.0007412911509163678,
          0.00247148796916008,
          -0.20966894924640656,
          0.0255859587341547,
          -0.008053096942603588,
          0.0023964738938957453,
          -0.018684694543480873,
          0.15491048991680145,
          -0.007154196035116911,
          0.016940457746386528,
          -0.0047122519463300705,
          -0.0002172493695979938,
          0.0031685971189290285,
          0.0018379039829596877,
          -0.019198114052414894,
          0.002684623235836625,
          0.004659425467252731,
          0.03568745404481888,
          -0.0006603330839425325,
          0.006912353448569775,
          0.00880189798772335,
          0.004861575551331043,
          0.018910719081759453,
          0.004167150240391493,
          0.006799970753490925,
          -0.00825408473610878,
          0.002120652236044407,
          0.009178209118545055,
          -0.0009505930356681347,
          0.008955010212957859,
          -0.045393943786621094,
          -0.01054568961262703,
          0.006194682791829109,
          -0.00490634934976697,
          -0.0053026084788143635,
          -0.0015339902602136135,
          0.005293393973261118,
          -0.005068051628768444,
          -0.0023617232218384743,
          -0.031155986711382866,
          0.00317835109308362,
          0.016835343092679977,
          -0.010609041899442673,
          -0.00035508928704075515,
          -0.0026073369663208723
        ],
        [
          0.006261537782847881,
          0.02532142959535122,
          -0.0025019310414791107,
          0.0019328745547682047,
          -0.004477161448448896,
          -0.002812000224366784,
          -0.005138678941875696,
          0.009175143204629421,
          0.02441048063337803,
          -0.00783616490662098,
          -0.0009425142197869718,
          -0.04523051157593727,
          0.04545344039797783,
          0.011500383727252483,
          0.0006320017855614424,
          0.005191695410758257,
          0.04908057674765587,
          0.03538986295461655,
          -0.02982071228325367,
          -0.0019523523515090346,
          0.003267876571044326,
          -0.16934062540531158,
          -0.048026759177446365,
          -0.021746009588241577,
          -0.00033739887294359505,
          -0.01102636381983757,
          0.12612853944301605,
          -0.002136579481884837,
          -0.07793773710727692,
          0.02348298393189907,
          -0.0008344709640368819,
          0.0026414894964545965,
          0.005982129834592342,
          -0.004437051713466644,
          -0.0015407237224280834,
          0.0048705823719501495,
          0.028272807598114014,
          -0.00309889018535614,
          -0.01669333316385746,
          0.0068320007994771,
          0.00093384477077052,
          0.006195865571498871,
          0.013350777328014374,
          -0.008477473631501198,
          -0.003688967553898692,
          0.003017258597537875,
          -0.009222331456840038,
          -0.0023359591141343117,
          0.022133663296699524,
          -0.02235512249171734,
          0.010820272378623486,
          -0.02061660774052143,
          -1.4963733519834932e-05,
          0.001349707948975265,
          0.0007880220073275268,
          -1.2955457350471988e-05,
          -0.0007861966732889414,
          0.002409387845546007,
          -0.023270754143595695,
          -0.0039240894839167595,
          0.03677548095583916,
          0.015215937979519367,
          0.006093379110097885,
          -0.004339114297181368
        ],
        [
          0.0031335088424384594,
          0.01612863317131996,
          -0.006809786893427372,
          -0.00162160221952945,
          -0.00025509961415082216,
          0.005545713473111391,
          -0.003196397330611944,
          -0.009822041727602482,
          -0.0019431583350524306,
          -0.013734269887208939,
          -0.0003058548318222165,
          -0.019120685756206512,
          0.020910613238811493,
          0.0015563019551336765,
          0.0015535391867160797,
          0.004167570732533932,
          0.024662457406520844,
          0.015784036368131638,
          -0.01780541054904461,
          0.008746318519115448,
          0.0012034331448376179,
          -0.08394410461187363,
          -0.05806303769350052,
          -0.014727792702615261,
          -0.00019535604224074632,
          -0.0011079231044277549,
          0.062133993953466415,
          0.0034915159922093153,
          -0.08693448454141617,
          0.016159819439053535,
          -9.18154401006177e-05,
          0.0009019516292028129,
          0.007226498797535896,
          0.004315393045544624,
          -0.0036896795500069857,
          0.0043663037940859795,
          -0.0009935835842043161,
          -0.00040656246710568666,
          -0.014979777857661247,
          0.004346383269876242,
          -0.0006224775570444763,
          -0.002325785346329212,
          0.010171526111662388,
          -0.0022226814180612564,
          -0.0037528465036302805,
          0.00030027152388356626,
          -0.013071323744952679,
          0.0014662572648376226,
          0.01547003723680973,
          -0.008667164482176304,
          0.014792725443840027,
          -0.015190616250038147,
          -0.005388318095356226,
          -0.0026768362149596214,
          0.0013165391283109784,
          -0.0011514638317748904,
          0.001588543294928968,
          0.0021468186751008034,
          -0.014983356930315495,
          -0.00010188418673351407,
          0.02085103839635849,
          0.020701801404356956,
          0.0073786224238574505,
          -0.0010771030792966485
        ]
      ],
      "b": [
        0.10231433063745499,
        0.08015064150094986,
        -0.26596009731292725,
        -0.310258150100708,
        0.22591419517993927,
        -0.7759009003639221,
        -0.3214432895183563,
        -0.4488779604434967,
        -0.36379295587539673,
        0.22165127098560333,
        -0.3457221984863281,
        0.040857166051864624,
        -0.03074672259390354,
        -0.3584590554237366,
        -0.11654757708311081,
        0.11461209505796432,
        0.5313968062400818,
        -0.30695152282714844,
        0.09228946268558502,
        -0.3780193030834198,
        0.04575808718800545,
        -0.13594600558280945,
        0.2542552649974823,
        0.2463730275630951,
        -0.6274619102478027,
        0.33546221256256104,
        0.09547825157642365,
        -0.38732874393463135,
        -0.2215230017900467,
        0.028433214873075485,
        -0.1354672908782959,
        -0.4187658727169037,
        -0.4306117296218872,
        0.0343865230679512,
        -0.6543505191802979,
        -0.2805464267730713,
        -0.07565857470035553,
        -0.083853580057621,
        0.19820794463157654,
        -0.6657636165618896,
        -0.34408095479011536,
        -0.026753952726721764,
        -0.3740095794200897,
        -0.5767694115638733,
        -0.1217181608080864,
        -0.35247138142585754,
        0.2569507956504822,
        -0.4576028287410736,
        -0.2554807960987091,
        -0.06093797832727432,
        -0.2956162691116333,
        -0.028082014992833138,
        -0.10013363510370255,
        -0.3111829459667206,
        0.07331113517284393,
        0.09181322902441025,
        -0.34137067198753357,
        0.10796754062175751,
        -0.0797245129942894,
        -0.17457865178585052,
        -0.11503962427377701,
        0.8496255278587341,
        0.1293584406375885,
        0.034307390451431274
      ],
      "act": null
    },
    {
      "W": null,
      "b": null,
      "act": "relu"
    },
    {
      "W": [
        [
          -0.054830364882946014,
          -0.043380215764045715,
          0.09691356122493744,
          -0.06319355219602585,
          0.044054821133613586,
          0.028328299522399902,
          -0.2733149230480194,
          0.024503737688064575,
          -0.12029445171356201,
          -0.19552981853485107,
          -0.1665983498096466,
          -0.08271007984876633,
          -0.20566672086715698,
          0.08764051645994186,
          0.026466714218258858,
          -0.06959501653909683,
          0.1866706758737564,
          -0.14294110238552094,
          0.34902358055114746,
          -0.07606564462184906,
          0.04171227663755417,
          -0.13098980486392975,
          -0.08752744644880295,
          0.5044366121292114,
          0.337902307510376,
          0.23213407397270203,
          -0.13233889639377594,
          0.03922821581363678,
          -0.11168421804904938,
          0.1942531019449234,
          0.14093779027462006,
          0.2386743575334549,
          -0.04196146875619888,
          -0.12917983531951904,
          0.25337299704551697,
          -0.13874875009059906,
          0.10856331884860992,
          -0.004141487181186676,
          -0.08314421027898788,
          0.24554987251758575,
          -0.008633481338620186,
          -0.32126545906066895,
          0.06347180157899857,
          -0.27523255348205566,
          0.3429727852344513,
          -0.27123233675956726,
          -0.08230014890432358,
          -0.01675502024590969,
          -0.12893138825893402,
          -0.017061354592442513,
          0.09795086830854416,
          0.027254456654191017,
          -0.18664152920246124,
          0.0322546660900116,
          -0.07114071398973465,
          0.05275768041610718,
          -0.04086289554834366,
          -0.5085096955299377,
          0.10724393278360367,
          0.2671051025390625,
          -0.5684890151023865,
          -0.228373721241951,
          -0.2031937837600708,
          -0.12318067252635956
        ],
        [
          0.2663552761077881,
          -0.18897877633571625,
          0.055588189512491226,
          0.10369161516427994,
          0.03019789420068264,
          0.21248920261859894,
          0.2779151499271393,
          -0.4800665080547333,
          0.3848864734172821,
          0.16751745343208313,
          -0.1307845264673233,
          -0.06119413673877716,
          0.08277273178100586,
          -0.0021508359350264072,
          0.3017972707748413,
          0.1680806577205658,
          -0.061009731143713,
          -0.4936954379081726,
          -0.24956735968589783,
          0.24183008074760437,
          -0.0821475014090538,
          -0.11770936846733093,
          0.3622978925704956,
          0.1379023790359497,
          -0.2479018270969391,
          0.13913187384605408,
          0.2561127245426178,
          -0.1392076015472412,
          0.28760042786598206,
          0.1075582280755043,
          0.13288375735282898,
          0.24157001078128815,
          0.25590652227401733,
          0.05806349217891693,
          -0.11428583413362503,
          0.14340081810951233,
          0.14089256525039673,
          0.23901525139808655,
          -0.08723321557044983,
          0.011255040764808655,
          -0.198022723197937,
          0.0158672034740448,
          0.1291561871767044,
          0.04089665785431862,
          0.22418101131916046,
          0.32530099153518677,
          0.27596813440322876,
          -0.07609149068593979,
          0.28428658843040466,
          0.22398467361927032,
          0.4394656717777252,
          0.3909408152103424,
          -0.1532972902059555,
          0.09211912006139755,
          -0.11034300923347473,
          0.018926365301012993,
          -0.013449909165501595,
          0.2885712683200836,
          -0.2758173644542694,
          0.1915888637304306,
          -0.48984310030937195,
          0.39378952980041504,
          0.03958433121442795,
          0.1101456731557846
        ],
        [
          0.31629669666290283,
          0.06321793049573898,
          0.0007521566585637629,
          -0.3236939311027527,
          0.21551990509033203,
          0.04893636330962181,
          0.29274100065231323,
          0.19068200886249542,
          0.018889572471380234,
          0.030183829367160797,
          0.06604696810245514,
          -0.029836565256118774,
          -0.01162960845977068,
          0.12009897083044052,
          -0.029645010828971863,
          -0.017744041979312897,
          0.04907401651144028,
          0.15774255990982056,
          0.10783430933952332,
          0.09087418019771576,
          0.045568034052848816,
          -0.02921632118523121,
          -0.010261299088597298,
          -0.05270502343773842,
          -0.013979550451040268,
          0.23468263447284698,
          0.5492353439331055,
          0.06063239276409149,
          0.12602074444293976,
          0.07308065891265869,
          0.1049475371837616,
          -0.04979877546429634,
          -0.032989390194416046,
          -0.10415516793727875,
          0.28070205450057983,
          0.37206175923347473,
          -0.044401537626981735,
          0.027552219107747078,
          0.18474535644054413,
          -0.19767622649669647,
          0.00020955629588570446,
          0.18204021453857422,
          0.02803155779838562,
          0.13851521909236908,
          0.3063300848007202,
          -0.06681043654680252,
          0.08200760185718536,
          0.030607564374804497,
          -0.032914310693740845,
          -0.06589239090681076,
          0.22478674352169037,
          0.11867266148328781,
          0.03694159537553787,
          0.14617741107940674,
          -0.012613312341272831,
          -0.048205599188804626,
          -0.029181411489844322,
          -0.14995533227920532,
          0.9362950325012207,
          0.10450354218482971,
          0.013189731165766716,
          0.14539247751235962,
          0.27777084708213806,
          0.005800605285912752
        ],
        [
          0.23746202886104584,
          -0.09570061415433884,
          0.0009969024686142802,
          0.21184735000133514,
          0.051579222083091736,
          0.02420128509402275,
          -0.05530839040875435,
          0.32092010974884033,
          -0.10343173891305923,
          0.08193212747573853,
          -0.03963411599397659,
          0.10263773053884506,
          -0.10975521802902222,
          -0.05562267825007439,
          0.3185555636882782,
          -0.3603314161300659,
          0.03478497639298439,
          0.5689606666564941,
          0.29824697971343994,
          0.17847810685634613,
          -0.047565169632434845,
          0.02402767352759838,
          -0.11505357921123505,
          -0.0085466168820858,
          -0.019619029015302658,
          0.15231730043888092,
          -0.046116482466459274,
          -0.1741771399974823,
          0.006224228534847498,
          -0.322696715593338,
          -0.11750795692205429,
          0.018041817471385002,
          0.09170647710561752,
          -0.1191631630063057,
          0.0030795319471508265,
          0.07959151268005371,
          -0.195915088057518,
          -0.02717614732682705,
          0.054649077355861664,
          -0.06436960399150848,
          0.047743059694767,
          -0.04023297503590584,
          0.2806987762451172,
          0.1860082596540451,
          0.016971934586763382,
          0.32921531796455383,
          0.08266831934452057,
          0.13023072481155396,
          0.021408231928944588,
          -0.03453657776117325,
          0.08243479579687119,
          -0.09885497391223907,
          0.10438041388988495,
          0.056837864220142365,
          -0.17010755836963654,
          -0.20895349979400635,
          -0.1820487231016159,
          0.0443236343562603,
          -0.037047453224658966,
          -0.1481284499168396,
          -0.23867209255695343,
          0.1731591373682022,
          -0.1143556535243988,
          0.08383310586214066
        ],
        [
          -0.011574700474739075,
          -0.009813523851335049,
          -0.10870681703090668,
          0.036788806319236755,
          -0.009526657871901989,
          0.1423046886920929,
          0.20672067999839783,
          -0.656194806098938,
          0.14075928926467896,
          0.10282561928033829,
          0.39932191371917725,
          -0.12421396374702454,
          -0.01898825354874134,
          0.0047024693340063095,
          0.07148436456918716,
          -0.06713764369487762,
          0.1439327448606491,
          -0.41169503331184387,
          -0.4098379909992218,
          0.1287713646888733,
          0.061599746346473694,
          -0.10994391143321991,
          0.3768000602722168,
          -0.1763906478881836,
          -0.13250350952148438,
          0.15909075736999512,
          0.17076817154884338,
          -0.14338110387325287,
          0.08549097180366516,
          0.03456887975335121,
          0.13431048393249512,
          0.025922229513525963,
          0.11217130720615387,
          0.08691807836294174,
          -0.17234259843826294,
          0.016568053513765335,
          -0.35656288266181946,
          0.4908481538295746,
          -0.027014780789613724,
          -0.16044557094573975,
          -0.07100199908018112,
          -0.11813123524188995,
          -0.008267773315310478,
          -0.004404917359352112,
          -0.06618145108222961,
          0.11344271898269653,
          0.14030392467975616,
          0.08979568630456924,
          0.09509215503931046,
          0.08468035608530045,
          0.09768614172935486,
          0.0646057203412056,
          -0.03499273583292961,
          -0.03392885625362396,
          -0.1831214725971222,
          0.06139235571026802,
          -0.05686131864786148,
          0.39198362827301025,
          -0.23262429237365723,
          0.20402169227600098,
          -0.3910086750984192,
          0.06265601515769958,
          -0.20831075310707092,
          0.16129083931446075
        ],
        [
          0.06412772834300995,
          -0.19114871323108673,
          0.423575222492218,
          0.024656174704432487,
          -0.13002561032772064,
          -0.0427112877368927,
          0.6196368932723999,
          -0.7647005319595337,
          0.12818452715873718,
          0.00715447636321187,
          0.033477019518613815,
          0.06668530404567719,
          -0.02140042744576931,
          -0.03453933820128441,
          0.3465611934661865,
          -0.12055134773254395,
          -0.015300040133297443,
          -0.31056907773017883,
          0.0003327233134768903,
          -0.12135587632656097,
          -0.09314458817243576,
          -0.03681563585996628,
          -0.10080175846815109,
          -0.05429999157786369,
          -0.054337553679943085,
          -0.03047873266041279,
          -0.016414443030953407,
          0.25640901923179626,
          0.018003379926085472,
          0.0316905714571476,
          -0.004365375731140375,
          -0.3488580882549286,
          -0.024285607039928436,
          0.11172562837600708,
          0.058865614235401154,
          -0.06347743421792984,
          -0.04243946447968483,
          -0.08828552812337875,
          0.14307047426700592,
          0.08617532253265381,
          0.04409883916378021,
          0.42965859174728394,
          0.040478311479091644,
          -0.03850653022527695,
          1.2102959156036377,
          -0.125748872756958,
          0.37991005182266235,
          0.69632488489151,
          0.03215773031115532,
          0.04961510747671127,
          0.046712733805179596,
          -0.09613562375307083,
          0.05575226619839668,
          0.06611351668834686,
          -0.14216534793376923,
          0.3154877722263336,
          -0.09559329599142075,
          0.43937456607818604,
          -0.03319011628627777,
          -0.11680679023265839,
          0.10935106873512268,
          0.07972363382577896,
          0.3217087686061859,
          0.06592408567667007
        ],
        [
          -0.5047039985656738,
          0.01388993114233017,
          -0.08991789072751999,
          0.21000710129737854,
          -0.1287839114665985,
          -0.14747726917266846,
          -0.027679476886987686,
          0.046125032007694244,
          -0.03760097920894623,
          0.23380064964294434,
          -0.019461998715996742,
          0.142968088388443,
          -0.03928474336862564,
          -0.14382587373256683,
          -0.028964290395379066,
          -0.24227769672870636,
          0.0056057944893836975,
          -0.001957867993041873,
          -0.07118155807256699,
          0.0612780936062336,
          -0.10310743004083633,
          -0.03351107984781265,
          -0.66396164894104,
          -0.05418214574456215,
          -0.001183176296763122,
          -0.025541717186570168,
          0.3609883785247803,
          -0.027465391904115677,
          0.3417748510837555,
          -0.0698246881365776,
          -0.14158090949058533,
          0.11998727172613144,
          0.3830934762954712,
          -0.0329560749232769,
          0.03617184981703758,
          0.03653331100940704,
          -0.06316567212343216,
          0.1455676555633545,
          0.04012514650821686,
          0.014333902858197689,
          0.03944321721792221,
          0.25352421402931213,
          0.12215477973222733,
          0.1239681988954544,
          0.0888744592666626,
          -0.138381227850914,
          0.01958233118057251,
          -0.07272883504629135,
          0.14675118029117584,
          0.08349817246198654,
          0.03812823072075844,
          -0.2567138075828552,
          -0.005306284874677658,
          0.14681436121463776,
          -0.10517910122871399,
          0.009547906927764416,
          -0.26983970403671265,
          -0.4282851219177246,
          -0.09767715632915497,
          0.026502782478928566,
          -0.030978478491306305,
          0.3903425633907318,
          -0.14786818623542786,
          0.08404421806335449
        ],
        [
          -0.08812402933835983,
          0.16688013076782227,
          -0.262331485748291,
          0.02327168732881546,
          -0.12196480482816696,
          0.09383976459503174,
          0.12864378094673157,
          0.20843392610549927,
          0.07768994569778442,
          -0.048548538237810135,
          -0.13767017424106598,
          -0.007045028731226921,
          0.1577913463115692,
          0.01332754734903574,
          -0.16972355544567108,
          -0.1559087485074997,
          0.11709219962358475,
          -0.09077069163322449,
          0.09946116805076599,
          -0.11911725997924805,
          0.023843636736273766,
          0.10308824479579926,
          -0.12642733752727509,
          -0.011839277110993862,
          0.05331313610076904,
          -0.07204864174127579,
          0.053613465279340744,
          0.09964556992053986,
          -0.01984640583395958,
          0.03234580159187317,
          -0.3207668364048004,
          -0.09672198444604874,
          0.02785247564315796,
          -0.08965988457202911,
          -0.09481089562177658,
          0.08344999700784683,
          -0.17543664574623108,
          0.3629266321659088,
          0.12493495643138885,
          0.11041859537363052,
          0.02101857401430607,
          0.3137950897216797,
          0.11703220754861832,
          0.057348404079675674,
          0.2826467454433441,
          0.06151758134365082,
          0.2666999399662018,
          0.04734304919838905,
          -0.017954520881175995,
          -0.017311621457338333,
          0.03416534885764122,
          0.053463805466890335,
          0.20807962119579315,
          -0.12933249771595,
          0.007141462992876768,
          0.46190449595451355,
          -0.05939258262515068,
          0.26923274993896484,
          -0.03273998200893402,
          -0.09184269607067108,
          -0.15834279358386993,
          -0.12877923250198364,
          -0.7384622097015381,
          0.06932242214679718
        ],
        [
          -0.011434672400355339,
          -0.07583192735910416,
          -0.1663336455821991,
          0.261106014251709,
          -0.3198797404766083,
          -0.2803376317024231,
          -0.18883493542671204,
          0.5007278323173523,
          0.08729295432567596,
          -0.11383401602506638,
          0.13870781660079956,
          -0.01827736385166645,
          -0.16104213893413544,
          0.13255643844604492,
          -0.6871209740638733,
          -0.11869849264621735,
          -0.08225822448730469,
          -0.1508912742137909,
          -0.08813190460205078,
          0.10065875202417374,
          0.13285425305366516,
          -0.11859868466854095,
          0.09511367231607437,
          0.09582458436489105,
          0.014379010535776615,
          -0.2799719274044037,
          -0.03552694618701935,
          -0.0663059875369072,
          0.07523825764656067,
          -0.010329527780413628,
          0.2587471604347229,
          0.030088547617197037,
          -0.11780393868684769,
          -0.05001381039619446,
          0.09299399703741074,
          0.0058899736031889915,
          0.008935353718698025,
          0.1052391454577446,
          0.0910215750336647,
          -0.20600536465644836,
          -0.009837924502789974,
          -0.7252616286277771,
          0.25927260518074036,
          -0.19783073663711548,
          0.29759740829467773,
          0.22710971534252167,
          0.051250167191028595,
          0.27248653769493103,
          0.14715324342250824,
          -0.13269096612930298,
          -0.1375250220298767,
          -0.10551371425390244,
          -0.0619787834584713,
          0.10112042725086212,
          -0.06589792668819427,
          -0.13808573782444,
          -0.2048652023077011,
          -0.3109123706817627,
          0.012637722305953503,
          -0.15093187987804413,
          -0.17130400240421295,
          0.14341020584106445,
          0.16248825192451477,
          -0.0836922749876976
        ],
        [
          0.21710950136184692,
          0.1386716663837433,
          0.024043507874011993,
          0.313788503408432,
          0.07436134666204453,
          0.10789754241704941,
          -0.05590486526489258,
          -0.02212562970817089,
          0.052451904863119125,
          -0.09681348502635956,
          0.06847154349088669,
          -0.013677935115993023,
          0.0897240862250328,
          0.019639283418655396,
          -0.15938954055309296,
          -0.06554041057825089,
          -0.03902526944875717,
          -0.06469341367483139,
          0.06371881812810898,
          0.08927639573812485,
          0.010718783363699913,
          0.0961684137582779,
          0.06444647908210754,
          0.029845483601093292,
          -0.07197368890047073,
          -0.06531337648630142,
          0.03148794174194336,
          -0.043208763003349304,
          0.39326730370521545,
          0.1365668922662735,
          0.019998203963041306,
          0.047624118626117706,
          0.22595259547233582,
          0.28175416588783264,
          0.20101138949394226,
          -0.32154256105422974,
          -0.0030499573331326246,
          -0.06991694867610931,
          0.09310641139745712,
          -0.0330209955573082,
          -0.0015524969203397632,
          0.0445563904941082,
          -0.11943253874778748,
          0.006954310927540064,
          -0.16966912150382996,
          0.12989461421966553,
          0.07226796448230743,
          0.14252634346485138,
          -0.7918269634246826,
          0.1215711385011673,
          0.08224111795425415,
          0.03886163607239723,
          -0.0390506312251091,
          -0.06059616431593895,
          0.07151870429515839,
          0.09313727170228958,
          -0.5808097720146179,
          -0.0489579513669014,
          -0.08835850656032562,
          0.1073269471526146,
          -0.15024089813232422,
          -0.14071080088615417,
          0.005305984057486057,
          0.06887198239564896
        ],
        [
          -0.011783942580223083,
          0.003337171161547303,
          -0.0034589432179927826,
          0.07968166470527649,
          -0.0027710371650755405,
          -0.037523265928030014,
          -0.49580708146095276,
          -0.7386764883995056,
          -0.015209968201816082,
          0.23528212308883667,
          0.3061845004558563,
          -0.01068728044629097,
          0.009743441827595234,
          0.06538788229227066,
          -0.05390886962413788,
          -0.08731649070978165,
          0.17135308682918549,
          0.07041824609041214,
          0.15599319338798523,
          -0.010862450115382671,
          -0.05784540995955467,
          0.06912891566753387,
          0.2851434350013733,
          0.3598127067089081,
          0.19236835837364197,
          0.369047075510025,
          -0.04089675471186638,
          -0.0876779556274414,
          0.24604132771492004,
          -0.06072486937046051,
          -0.07783161848783493,
          0.14104677736759186,
          0.0666215717792511,
          -0.08131647855043411,
          -0.10347671061754227,
          0.12956562638282776,
          -0.064030721783638,
          0.7350917458534241,
          -0.09761790931224823,
          0.3131200969219208,
          0.04065138101577759,
          -0.6285772919654846,
          -0.03409137576818466,
          -0.6498461365699768,
          0.011196335777640343,
          -0.01322229951620102,
          0.1963379979133606,
          -0.021712632849812508,
          -0.0018367365701124072,
          0.08851208537817001,
          0.11632481962442398,
          0.15229906141757965,
          -0.13042910397052765,
          -0.05117562413215637,
          -0.11401006579399109,
          -0.13027659058570862,
          0.04814364016056061,
          0.19069454073905945,
          0.15449513494968414,
          0.024668782949447632,
          -0.035340938717126846,
          0.45821478962898254,
          0.42966756224632263,
          -0.12978796660900116
        ],
        [
          -0.07721029222011566,
          0.0514846071600914,
          0.04477342590689659,
          0.06752382218837738,
          -0.01266145147383213,
          0.48371919989585876,
          -0.18169939517974854,
          0.054448194801807404,
          -0.029737237840890884,
          -0.06858325749635696,
          0.021540990099310875,
          -0.018217455595731735,
          0.19927552342414856,
          0.029224716126918793,
          -0.03052585758268833,
          -0.05816133692860603,
          0.09683344513177872,
          -0.06281351298093796,
          -0.02666768990457058,
          0.17435315251350403,
          0.0013187539298087358,
          -0.061127226799726486,
          -0.056453656405210495,
          -0.04634876549243927,
          0.12232423573732376,
          0.03345752879977226,
          0.04123946279287338,
          -0.018574774265289307,
          -0.07595968246459961,
          0.02747267857193947,
          0.1364348828792572,
          -0.008725213818252087,
          -0.2427813559770584,
          0.22703731060028076,
          0.0004367301007732749,
          -0.10310331732034683,
          -0.07432310283184052,
          0.02295488491654396,
          0.07385631650686264,
          -0.06890826672315598,
          -0.02300219051539898,
          0.00855833850800991,
          0.22804108262062073,
          -0.1912451833486557,
          0.04790467768907547,
          0.0687912255525589,
          0.1281173676252365,
          -0.03342300280928612,
          -0.1155293881893158,
          0.010490469634532928,
          0.01735915243625641,
          -0.07514001429080963,
          -0.015042304061353207,
          0.20468918979167938,
          -0.06388557702302933,
          -0.06864210963249207,
          -0.39796096086502075,
          0.019375145435333252,
          0.1395796537399292,
          0.17246659100055695,
          0.014238282106816769,
          0.08842018991708755,
          0.010628750547766685,
          0.08453035354614258
        ],
        [
          0.061722856014966965,
          0.015869000926613808,
          0.005737000145018101,
          0.1922244429588318,
          0.08112144470214844,
          -0.1505037397146225,
          0.13444697856903076,
          -0.003993402700871229,
          -0.061102382838726044,
          -0.3579396605491638,
          0.12672387063503265,
          0.025894878432154655,
          0.258278489112854,
          -0.013275272212922573,
          -0.018915874883532524,
          -0.05586674436926842,
          0.13214917480945587,
          0.11096376180648804,
          0.11028920859098434,
          -0.05987529084086418,
          0.013931750319898129,
          -0.12272775173187256,
          0.013373104855418205,
          0.08630643784999847,
          0.06555933505296707,
          -0.01417575590312481,
          -0.02075159177184105,
          0.007713411934673786,
          0.31713077425956726,
          -0.02359842136502266,
          0.10543651878833771,
          0.009861400350928307,
          -0.17020587623119354,
          -0.33189085125923157,
          0.11973410099744797,
          0.06296521425247192,
          -0.013805790804326534,
          0.22827264666557312,
          0.1115063801407814,
          0.10580208897590637,
          -0.001307466416619718,
          -0.01523629855364561,
          -0.024004602804780006,
          -0.34058406949043274,
          0.019376184791326523,
          0.0018523535691201687,
          -0.03512287512421608,
          0.05441182106733322,
          0.0801989883184433,
          -0.07701858878135681,
          -0.04406984522938728,
          -0.03631215915083885,
          -0.07144083827733994,
          -0.053002484142780304,
          -0.01860981248319149,
          0.027713574469089508,
          -0.025644633919000626,
          -0.17726896703243256,
          -0.017767803743481636,
          0.036014143377542496,
          -0.0011366514954715967,
          -0.37915873527526855,
          -0.14918428659439087,
          0.12508876621723175
        ],
        [
          0.04937038943171501,
          -0.06321202963590622,
          -0.31118160486221313,
          0.2764170467853546,
          -0.0665447786450386,
          0.16169653832912445,
          0.30135709047317505,
          0.19443680346012115,
          0.15709660947322845,
          0.2964489459991455,
          0.15926706790924072,
          0.17580771446228027,
          0.16469793021678925,
          -0.1171339675784111,
          0.12162265181541443,
          0.017658859491348267,
          -0.04145238921046257,
          0.2943110764026642,
          -0.3038707673549652,
          0.04175211861729622,
          -0.23409239947795868,
          -0.03840624913573265,
          0.4885966181755066,
          -0.20719461143016815,
          -0.30221667885780334,
          0.08170623332262039,
          0.19280485808849335,
          0.3728954493999481,
          0.1950509399175644,
          -0.02015642449259758,
          -0.0855526551604271,
          -0.45741820335388184,
          0.14964336156845093,
          0.007778426632285118,
          -0.20632611215114594,
          -0.035874541848897934,
          0.009287999011576176,
          0.2906085252761841,
          0.039222847670316696,
          -0.1541496068239212,
          -0.2950246334075928,
          0.14781707525253296,
          0.10904581844806671,
          0.43394505977630615,
          -0.18518567085266113,
          0.10577457398176193,
          0.017834290862083435,
          -0.18652839958667755,
          0.06401336193084717,
          0.09355270862579346,
          0.05413930490612984,
          0.2228594869375229,
          0.11658988893032074,
          0.33298981189727783,
          0.2296411246061325,
          0.030862653627991676,
          0.07757147401571274,
          0.3994130492210388,
          -0.21960867941379547,
          -0.37681281566619873,
          0.7318287491798401,
          0.31796830892562866,
          0.2209811508655548,
          -0.21563981473445892
        ],
        [
          -0.1335373818874359,
          -0.02274218201637268,
          -0.25100165605545044,
          -0.1332981139421463,
          -0.18889084458351135,
          0.09028062969446182,
          0.06273864954710007,
          0.5715318322181702,
          0.06317447125911713,
          -0.061820026487112045,
          0.03717251121997833,
          -0.06033894047141075,
          -0.0747489184141159,
          0.2223166674375534,
          -0.3975105583667755,
          -0.15846092998981476,
          -0.15997599065303802,
          -0.18166542053222656,
          0.15825171768665314,
          -0.043314527720212936,
          0.08595819771289825,
          0.07685554027557373,
          -0.18094958364963531,
          -0.08836783468723297,
          -0.06818588078022003,
          -0.43280890583992004,
          0.033999964594841,
          -0.4766186475753784,
          -0.16487441956996918,
          0.2392023801803589,
          -0.0724397599697113,
          -0.2521354854106903,
          -0.06368837505578995,
          -0.015422938391566277,
          0.13514754176139832,
          -0.010647148825228214,
          0.08147013932466507,
          0.2383994162082672,
          0.23505625128746033,
          -0.17859198153018951,
          0.4154733121395111,
          -0.04391217231750488,
          0.05347933620214462,
          0.1533690094947815,
          -0.22968868911266327,
          0.1636606603860855,
          0.03110792301595211,
          0.12694714963436127,
          0.00455936836078763,
          -0.09771045297384262,
          0.0861537829041481,
          -0.031941935420036316,
          0.03166325017809868,
          -0.14698860049247742,
          -0.05331684648990631,
          0.03622417896986008,
          -0.09893292188644409,
          0.07951252907514572,
          -0.40014219284057617,
          0.11775489896535873,
          -0.36113807559013367,
          0.11070910841226578,
          -0.34988003969192505,
          -0.1495947241783142
        ],
        [
          -0.33108124136924744,
          0.33160486817359924,
          -0.0776817798614502,
          -0.004431926645338535,
          0.05259007588028908,
          0.19466711580753326,
          -0.03952106460928917,
          -0.164203941822052,
          -0.27869823575019836,
          0.00015313846233766526,
          -0.21313630044460297,
          0.06173647940158844,
          0.19474898278713226,
          0.2848711907863617,
          -0.8129488229751587,
          -0.3487982153892517,
          0.11680343002080917,
          -0.2048642635345459,
          -0.260879784822464,
          0.14098435640335083,
          0.1372254490852356,
          -0.007514678407460451,
          0.37578627467155457,
          0.18181723356246948,
          -0.06381256133317947,
          0.3153703808784485,
          0.11600150167942047,
          -0.21474714577198029,
          0.2098875343799591,
          0.09076964855194092,
          -0.13366787135601044,
          0.010836249217391014,
          0.16785608232021332,
          0.013238972052931786,
          -0.11454277485609055,
          0.22003260254859924,
          0.14896827936172485,
          0.37376973032951355,
          0.26881757378578186,
          0.3047599196434021,
          -0.2467205822467804,
          0.09563926607370377,
          -0.26907625794410706,
          0.3249223530292511,
          0.1826535165309906,
          -0.2595372796058655,
          0.03372548148036003,
          0.3588476777076721,
          0.047572385519742966,
          0.1938173472881317,
          -0.016961537301540375,
          0.12300172448158264,
          -0.03861021250486374,
          0.37646931409835815,
          0.03408857434988022,
          -0.021669968962669373,
          0.032041240483522415,
          0.0580410361289978,
          -0.14719192683696747,
          0.10338037461042404,
          -0.051720257848501205,
          0.20827966928482056,
          0.12468403577804565,
          -0.12722940742969513
        ],
        [
          0.11536721885204315,
          0.2452360838651657,
          0.010122963227331638,
          -0.1299954652786255,
          0.20629006624221802,
          0.0624912790954113,
          -0.11169514805078506,
          -0.15770107507705688,
          -0.20206981897354126,
          -0.3007873296737671,
          0.04930960759520531,
          0.09500245004892349,
          0.13381080329418182,
          0.004458202980458736,
          -0.9541531205177307,
          -0.3427385687828064,
          -0.03754191845655441,
          0.029794881120324135,
          -0.04440084844827652,
          0.08982997387647629,
          -0.09586773067712784,
          -0.1174866259098053,
          0.01700102724134922,
          0.14495064318180084,
          0.11937329173088074,
          -0.056212641298770905,
          -0.15612873435020447,
          0.19785042107105255,
          -0.25049757957458496,
          -0.0742865651845932,
          -0.266738623380661,
          0.027039408683776855,
          -0.21808741986751556,
          -0.03661814704537392,
          -0.11406629532575607,
          -0.11591356992721558,
          0.046052735298871994,
          -0.19893446564674377,
          -0.020574942231178284,
          -0.048655059188604355,
          0.08419428765773773,
          0.22284092009067535,
          0.26615089178085327,
          0.012037158943712711,
          -0.04164225235581398,
          0.474948912858963,
          -0.06742291897535324,
          0.5324497818946838,
          0.09013079106807709,
          -0.037132155150175095,
          0.13988882303237915,
          0.18530599772930145,
          0.1768312007188797,
          0.24233859777450562,
          0.18207743763923645,
          0.04834222421050072,
          0.0885888934135437,
          -0.051582254469394684,
          0.04759723320603371,
          0.08546258509159088,
          0.02421550080180168,
          -0.022906560450792313,
          -0.04731769859790802,
          -0.019923951476812363
        ],
        [
          0.059474918991327286,
          -0.012488998472690582,
          -0.16814936697483063,
          -0.18924367427825928,
          -0.1461779624223709,
          0.0282585546374321,
          0.3072535991668701,
          0.09925876557826996,
          0.07504303753376007,
          0.2699344754219055,
          0.06742794066667557,
          -0.07393336296081543,
          -0.25036561489105225,
          -0.10355466604232788,
          -0.10563928633928299,
          0.0077333515509963036,
          -0.3216707110404968,
          -0.2553446590900421,
          -0.24056373536586761,
          0.1306183934211731,
          0.0071811373345553875,
          0.019140176475048065,
          -0.2577102780342102,
          -0.17838165163993835,
          -0.08220068365335464,
          -0.3204556405544281,
          0.1326676607131958,
          -0.43053483963012695,
          0.19814804196357727,
          0.06683921068906784,
          -0.043623678386211395,
          -0.0021472612861543894,
          -0.037443842738866806,
          0.04674975574016571,
          0.0504208467900753,
          -0.2840938866138458,
          -0.013242552988231182,
          0.09050219506025314,
          -0.06377685070037842,
          0.06959962844848633,
          -0.13927170634269714,
          0.15178914368152618,
          -0.11470811069011688,
          0.1825656294822693,
          0.22875440120697021,
          0.002596458652988076,
          -0.022144362330436707,
          0.027762271463871002,
          0.09155599027872086,
          -0.09234829246997833,
          -0.21210609376430511,
          -0.11624886840581894,
          -0.0323580764234066,
          -0.26989760994911194,
          0.034742843359708786,
          -0.08586972951889038,
          -0.06909581273794174,
          0.3499855101108551,
          -0.04463915899395943,
          0.030556056648492813,
          -0.16254182159900665,
          0.042993489652872086,
          -0.03919997066259384,
          -0.07329728454351425
        ],
        [
          -0.18844418227672577,
          -0.0844404473900795,
          -0.016378624364733696,
          0.260774701833725,
          0.2769526243209839,
          -0.5477392077445984,
          -0.11162532866001129,
          -0.0382380411028862,
          -0.08172778785228729,
          0.18547317385673523,
          0.04526026174426079,
          0.0026366591919213533,
          -0.029802456498146057,
          0.04853467643260956,
          -0.015550834126770496,
          -0.10715115815401077,
          0.06913832575082779,
          0.23067298531532288,
          0.18259170651435852,
          -0.11013247817754745,
          -0.020547449588775635,
          -0.021501345559954643,
          -0.06885770708322525,
          -0.03654209151864052,
          0.032561447471380234,
          -0.01577869988977909,
          -0.03563356399536133,
          0.11764366924762726,
          -0.3357348144054413,
          -0.09111245721578598,
          -0.00349028711207211,
          -0.029575642198324203,
          0.1686195582151413,
          -0.12255199253559113,
          0.08540204167366028,
          0.22724272310733795,
          -0.036486443132162094,
          -0.11563782393932343,
          0.13423222303390503,
          -0.06866217404603958,
          0.11933823674917221,
          -0.09442076832056046,
          -0.3702281415462494,
          -0.044223517179489136,
          -0.10018613189458847,
          -0.07405734062194824,
          -0.1259041130542755,
          0.09030281007289886,
          -0.34928271174430847,
          -0.016655119135975838,
          0.38769736886024475,
          0.018334032967686653,
          0.06957059353590012,
          -0.006460316479206085,
          0.015505335293710232,
          0.17342616617679596,
          -0.1906629055738449,
          -0.11930322647094727,
          0.03735459968447685,
          -0.10214750468730927,
          -0.05951053649187088,
          0.03707299008965492,
          -0.01499446015805006,
          0.04634517431259155
        ],
        [
          0.14973460137844086,
          0.08271293342113495,
          -0.15605893731117249,
          -0.08115454018115997,
          0.30530214309692383,
          0.30110353231430054,
          -0.153813436627388,
          -0.660418689250946,
          0.03958011791110039,
          -0.11810535192489624,
          -0.04071378335356712,
          -0.07942710071802139,
          -0.12267954647541046,
          0.009953336790204048,
          0.17899742722511292,
          -0.46040526032447815,
          0.037433087825775146,
          0.009786752983927727,
          -0.07213610410690308,
          -0.12160724401473999,
          -0.14684239029884338,
          -0.07313944399356842,
          -0.015735728666186333,
          0.03508685156702995,
          -0.00764823891222477,
          0.5727936625480652,
          0.33401748538017273,
          0.0648617371916771,
          -0.0870903730392456,
          -0.04685508832335472,
          -0.02559688314795494,
          -0.009573064744472504,
          0.07083089649677277,
          0.024083755910396576,
          -0.008234255015850067,
          0.07592868059873581,
          0.04745861515402794,
          0.14199134707450867,
          0.3173969089984894,
          0.0697917491197586,
          -0.10800231993198395,
          -0.3518012762069702,
          0.003356386674568057,
          -0.18815003335475922,
          -0.057133011519908905,
          0.0233357734978199,
          0.25570178031921387,
          -0.01824161782860756,
          0.4729340374469757,
          0.08960385620594025,
          0.1252097487449646,
          -0.14849595725536346,
          0.034498073160648346,
          0.01343267597258091,
          -0.01867300271987915,
          0.061527788639068604,
          0.0015682084485888481,
          0.18201781809329987,
          1.1214731931686401,
          0.06265760958194733,
          -0.7815831303596497,
          -0.023136930540204048,
          -0.10070683062076569,
          0.09026794135570526
        ],
        [
          0.08919768780469894,
          -0.18955302238464355,
          0.10676167160272598,
          0.007105635944753885,
          0.11925169825553894,
          0.009807908907532692,
          -0.5452640652656555,
          -0.05085267871618271,
          -0.11673760414123535,
          -0.09948653727769852,
          -0.42343902587890625,
          0.051794908940792084,
          -0.28799349069595337,
          0.06911719590425491,
          -0.08514215797185898,
          -0.21744820475578308,
          0.17354728281497955,
          0.3470057547092438,
          0.14174017310142517,
          -0.11748800426721573,
          -0.1842280626296997,
          -0.045649245381355286,
          0.14657104015350342,
          0.06043364107608795,
          0.11845076084136963,
          0.3211968243122101,
          -0.08301649987697601,
          -0.08858045190572739,
          0.14102062582969666,
          -0.04195651039481163,
          -0.2600453495979309,
          0.07926876097917557,
          0.1923529952764511,
          0.10665769129991531,
          -0.022597327828407288,
          0.039941657334566116,
          -0.1807260811328888,
          0.3628646731376648,
          0.11663208156824112,
          0.015666324645280838,
          0.03285651654005051,
          -0.044946108013391495,
          -0.016049211844801903,
          -0.21695029735565186,
          0.06916484236717224,
          -0.14996959269046783,
          0.29254573583602905,
          0.01638815551996231,
          0.1022132933139801,
          0.17977871000766754,
          0.10202323645353317,
          -0.02873993292450905,
          0.14478136599063873,
          -0.013871530070900917,
          0.014836293645203114,
          0.019899899140000343,
          -0.11403251439332962,
          0.18181467056274414,
          -0.051568225026130676,
          -0.026495952159166336,
          -0.07071875035762787,
          -0.01902610808610916,
          0.05393196642398834,
          0.04648285731673241
        ],
        [
          0.3282165229320526,
          0.025916600599884987,
          -0.02422209270298481,
          0.15222376585006714,
          -0.01547844149172306,
          -0.06905683875083923,
          0.02871805988252163,
          -0.0915948748588562,
          0.028101611882448196,
          -0.10177823156118393,
          -0.04926835373044014,
          -0.01186923123896122,
          0.03303978592157364,
          0.0031120385974645615,
          -0.14838047325611115,
          0.06609431654214859,
          0.02477109804749489,
          -0.1784435361623764,
          -0.10871892422437668,
          -0.036211732774972916,
          0.0340208038687706,
          -0.08678058534860611,
          0.1427687257528305,
          0.04428115487098694,
          -0.08545626699924469,
          0.0812443345785141,
          0.008501814678311348,
          -0.1702607274055481,
          0.3142150640487671,
          -0.1203497126698494,
          -0.114421047270298,
          0.023604990914463997,
          0.396281898021698,
          -0.3796978294849396,
          0.1328069269657135,
          0.029012810438871384,
          0.06167053431272507,
          0.13641290366649628,
          0.16311007738113403,
          0.120204858481884,
          -0.058395907282829285,
          -0.11755166947841644,
          -0.07392552495002747,
          0.11417878419160843,
          0.1954442709684372,
          0.08791898190975189,
          -0.1429724246263504,
          0.15738819539546967,
          0.22546356916427612,
          0.12914839386940002,
          0.0291710514575243,
          0.1060720831155777,
          -0.0979384183883667,
          -0.22243894636631012,
          0.028906796127557755,
          0.05881204456090927,
          0.3756885230541229,
          -0.12175128608942032,
          -0.10804953426122665,
          -0.010589036159217358,
          -0.07484675943851471,
          -0.213166281580925,
          0.0010563282994553447,
          -0.07131130993366241
        ],
        [
          -0.008964777924120426,
          -0.04702547565102577,
          0.01225609052926302,
          -0.09078457951545715,
          -0.07825295627117157,
          0.11514198780059814,
          -0.06057192385196686,
          -0.14152167737483978,
          0.1010422632098198,
          -0.0696578100323677,
          0.12942107021808624,
          0.02483653835952282,
          0.044232770800590515,
          0.08202864229679108,
          -0.11177252233028412,
          0.057706620544195175,
          -0.14036443829536438,
          -0.030405472964048386,
          0.03253212198615074,
          0.08477669209241867,
          0.1831837147474289,
          -0.015375909395515919,
          0.0017159953713417053,
          -0.06645769625902176,
          0.06593235582113266,
          -0.19133663177490234,
          0.04292724281549454,
          0.22233924269676208,
          -0.18152673542499542,
          0.05707469955086708,
          -0.033859916031360626,
          0.08416417241096497,
          0.42298948764801025,
          0.7487316131591797,
          0.121029332280159,
          0.3837376832962036,
          -0.018210601061582565,
          -0.2712157070636749,
          0.047201454639434814,
          -0.17591366171836853,
          0.01961350627243519,
          0.022191129624843597,
          0.028091611340641975,
          -0.05337836593389511,
          -0.2001664936542511,
          -0.12987297773361206,
          0.004946004133671522,
          -0.023044204339385033,
          0.09928219020366669,
          -0.7509133219718933,
          0.06010220944881439,
          0.09488585591316223,
          0.029179831966757774,
          0.08905602991580963,
          0.10413576662540436,
          0.09811879694461823,
          0.11373152583837509,
          -0.03065529651939869,
          -0.11505439877510071,
          0.055989716202020645,
          -0.18849126994609833,
          -0.0222095288336277,
          0.06266054511070251,
          0.1955430805683136
        ],
        [
          -0.004422283731400967,
          0.05653318017721176,
          0.022518642246723175,
          0.023198287934064865,
          -0.11848552525043488,
          -0.007564744912087917,
          -0.36007338762283325,
          0.11508247256278992,
          -0.10061676055192947,
          0.4167430102825165,
          -0.02549249492585659,
          0.14188407361507416,
          -0.0778764858841896,
          -0.07591278851032257,
          -0.13459710776805878,
          -0.1464024782180786,
          0.08609361201524734,
          0.27121835947036743,
          -0.0005173853714950383,
          0.01007025595754385,
          -0.30573317408561707,
          -0.0014490532921627164,
          -0.11159652471542358,
          0.04137932509183884,
          0.25256526470184326,
          0.14949382841587067,
          0.2123999446630478,
          -0.120364248752594,
          -0.06022843345999718,
          -0.05314891040325165,
          -0.038874052464962006,
          -0.04453446343541145,
          0.12232911586761475,
          0.18685519695281982,
          0.48296037316322327,
          0.21444155275821686,
          0.002494509331882,
          -0.06026393920183182,
          -0.08877811580896378,
          0.15810205042362213,
          -0.05178755894303322,
          0.09066564589738846,
          -0.11049202084541321,
          0.16219663619995117,
          -0.22813907265663147,
          0.25557342171669006,
          0.038045018911361694,
          0.16939407587051392,
          -0.03233001008629799,
          -0.22476106882095337,
          0.049828242510557175,
          -0.16052211821079254,
          0.2568502426147461,
          0.042467258870601654,
          0.07347340136766434,
          -0.024442441761493683,
          -0.01225436944514513,
          -0.25784429907798767,
          -0.22437918186187744,
          -0.0004731578810606152,
          0.046735670417547226,
          -0.0803496390581131,
          0.04488101974129677,
          -0.09891274571418762
        ],
        [
          -0.0597064234316349,
          0.1536996215581894,
          0.4338574707508087,
          -0.11250046640634537,
          -0.1774037927389145,
          0.19400936365127563,
          0.40582141280174255,
          0.11598842591047287,
          0.15280592441558838,
          0.0790947824716568,
          -0.015571048483252525,
          -0.034237731248140335,
          0.09535013884305954,
          0.14991149306297302,
          -0.2159765511751175,
          -0.048402201384305954,
          0.0550156906247139,
          -0.6661847233772278,
          -0.23295892775058746,
          -0.017496803775429726,
          0.15955166518688202,
          -0.12988965213298798,
          0.36847123503685,
          0.1054350733757019,
          -0.2220000922679901,
          -0.14504660665988922,
          0.2083870768547058,
          0.12552031874656677,
          0.3625783622264862,
          -0.03256652131676674,
          0.2926841080188751,
          0.677476704120636,
          0.09585358947515488,
          0.05054767429828644,
          -0.1831120401620865,
          -0.0069869267754256725,
          -0.6916367411613464,
          0.42392444610595703,
          0.007068050093948841,
          0.6790244579315186,
          0.018071066588163376,
          -1.0667330026626587,
          0.065121591091156,
          -0.19939157366752625,
          0.18403936922550201,
          0.2426198124885559,
          -0.03143675625324249,
          -0.06586099416017532,
          0.053817927837371826,
          0.024343423545360565,
          0.26371368765830994,
          0.20163984596729279,
          -0.14325430989265442,
          -0.16972260177135468,
          -0.40442490577697754,
          0.01864585094153881,
          -0.01846570521593094,
          0.5081025958061218,
          -0.18504786491394043,
          -0.16505251824855804,
          0.11238353699445724,
          0.4784175753593445,
          -0.24192433059215546,
          0.07339652627706528
        ],
        [
          -0.01624487340450287,
          0.12881183624267578,
          0.3253280520439148,
          -0.09865135699510574,
          0.007573824375867844,
          -0.1580210030078888,
          -0.04109496995806694,
          -1.0869293212890625,
          -0.14621751010417938,
          -0.2601246237754822,
          -0.1477234661579132,
          -0.07713142037391663,
          -0.2014927715063095,
          -0.20921644568443298,
          -0.17453482747077942,
          0.006617948412895203,
          0.0377802811563015,
          -0.33433058857917786,
          0.3268450200557709,
          -0.09252074360847473,
          0.4976603388786316,
          -0.0036725227255374193,
          -0.14708946645259857,
          0.150657519698143,
          0.2060329020023346,
          -0.17172369360923767,
          -0.20606355369091034,
          0.11724959313869476,
          -0.19436649978160858,
          0.11951152235269547,
          -0.13315756618976593,
          0.4218919575214386,
          -0.13329662382602692,
          0.019454963505268097,
          -0.006010675337165594,
          0.05147466063499451,
          0.1664181500673294,
          -0.31611084938049316,
          -0.0058990418910980225,
          -0.18196450173854828,
          0.24464914202690125,
          -0.7141344547271729,
          -0.03546663001179695,
          -0.6519722938537598,
          0.08201692998409271,
          -0.09516400098800659,
          -0.008273288607597351,
          0.19612519443035126,
          -0.09090017527341843,
          -0.03765549510717392,
          0.022563202306628227,
          -0.22995822131633759,
          -0.015080973505973816,
          -0.29342010617256165,
          -0.2496444284915924,
          -0.03811759129166603,
          0.013413173146545887,
          -0.25560134649276733,
          0.1925273835659027,
          -0.10191114246845245,
          -0.515304684638977,
          -0.2642282247543335,
          -0.012237791903316975,
          0.19658803939819336
        ],
        [
          -0.2980542778968811,
          0.013478892855346203,
          0.035708799958229065,
          -0.1668470948934555,
          0.05558721721172333,
          0.08876350522041321,
          0.003174844663590193,
          0.024544645100831985,
          -0.016154609620571136,
          0.14928904175758362,
          0.045310910791158676,
          -0.02747395634651184,
          -0.08984147757291794,
          0.04330058395862579,
          0.1902606189250946,
          -0.00554211949929595,
          0.004116747993975878,
          0.11487015336751938,
          0.10796301811933517,
          0.05480315908789635,
          0.03512716665863991,
          0.05983484163880348,
          -0.14496076107025146,
          -0.0629827082157135,
          0.06444475054740906,
          -0.0745210126042366,
          -0.016800444573163986,
          0.13278576731681824,
          -0.38972151279449463,
          0.058118078857660294,
          0.06819628179073334,
          -0.005962839350104332,
          -0.5369424223899841,
          0.38423535227775574,
          0.06756540387868881,
          -0.011681336909532547,
          -0.029405254870653152,
          -0.13791051506996155,
          -0.04656846821308136,
          -0.12490636110305786,
          0.1553942710161209,
          -0.08450254797935486,
          0.11182136833667755,
          -0.10850800573825836,
          0.006609965581446886,
          -0.17962422966957092,
          0.10864761471748352,
          -0.18107403814792633,
          -0.32506194710731506,
          -0.24538128077983856,
          0.15298525989055634,
          -0.13932640850543976,
          0.05140217766165733,
          0.4015398621559143,
          -0.06669332832098007,
          -0.07491369545459747,
          -0.33692941069602966,
          -0.09980706125497818,
          0.10848376899957657,
          -0.04268337041139603,
          0.038499101996421814,
          0.36565086245536804,
          0.12039490789175034,
          0.14061611890792847
        ],
        [
          -0.10879077017307281,
          0.29630187153816223,
          0.002270261524245143,
          0.12101821601390839,
          0.08119520545005798,
          0.10514425486326218,
          0.3894083797931671,
          0.05956857278943062,
          0.045835185796022415,
          0.04977303743362427,
          0.14621520042419434,
          0.1500205099582672,
          -0.33907440304756165,
          0.09851764887571335,
          -0.06969695538282394,
          -0.1777346283197403,
          0.01872233673930168,
          -0.20985345542430878,
          -0.14336076378822327,
          0.18485039472579956,
          -0.00016291040810756385,
          -0.11775288730859756,
          0.03177730366587639,
          0.028209857642650604,
          -0.049038395285606384,
          -0.12825234234333038,
          0.18775469064712524,
          -0.24082037806510925,
          -0.08906936645507812,
          -0.08203089237213135,
          -0.05633470416069031,
          -0.02469390258193016,
          0.082450732588768,
          0.03903218358755112,
          0.2687380909919739,
          0.2308168113231659,
          0.6685108542442322,
          -0.27579638361930847,
          -0.007662650663405657,
          0.0712110623717308,
          0.31746411323547363,
          0.12643024325370789,
          0.39083871245384216,
          0.18051713705062866,
          -0.272784024477005,
          -0.07419557124376297,
          0.02810543030500412,
          -0.12556597590446472,
          0.0449095144867897,
          0.024616174399852753,
          0.23077093064785004,
          0.2910488545894623,
          0.006651381030678749,
          -0.05896526202559471,
          -0.08913999795913696,
          -0.0731821283698082,
          0.017853448167443275,
          -0.3348582983016968,
          0.039237167686223984,
          0.026785578578710556,
          0.030631346628069878,
          -0.3230728507041931,
          0.28948742151260376,
          -0.3407648205757141
        ],
        [
          -0.029221026226878166,
          0.07403794676065445,
          -0.061676960438489914,
          0.15077315270900726,
          0.03078865446150303,
          -0.010151369497179985,
          -0.16894394159317017,
          -1.0192909240722656,
          -0.019121864810585976,
          0.07370240986347198,
          0.11572106927633286,
          -0.060473620891571045,
          -0.037150513380765915,
          -0.24795855581760406,
          0.228531613945961,
          -0.245385080575943,
          -0.09374307096004486,
          -0.16911186277866364,
          0.2768690884113312,
          0.1501067876815796,
          0.0035829381085932255,
          0.09354811906814575,
          -0.19395709037780762,
          0.09222714602947235,
          0.001323560019955039,
          0.05874136462807655,
          -0.09167735278606415,
          -0.5944575667381287,
          -0.11621110886335373,
          -0.14673863351345062,
          0.116267628967762,
          -0.0730225071310997,
          0.20928753912448883,
          0.2748092710971832,
          -0.026851259171962738,
          0.1436302214860916,
          0.04899609088897705,
          0.02419457957148552,
          0.02171834371984005,
          -0.08501885086297989,
          0.12013019621372223,
          -0.22398142516613007,
          -0.011491586454212666,
          -0.12731269001960754,
          0.13764426112174988,
          -0.043378796428442,
          0.13303770124912262,
          0.00572115508839488,
          -0.17903588712215424,
          -0.5404699444770813,
          -0.09404978901147842,
          0.08005090057849884,
          0.06879625469446182,
          -0.09458466619253159,
          -0.1149992123246193,
          -0.08412781357765198,
          0.11446360498666763,
          0.2278992086648941,
          0.18890784680843353,
          -0.15516701340675354,
          0.4354614317417145,
          -0.10844004154205322,
          -0.19515708088874817,
          -0.08395299315452576
        ],
        [
          -0.46781784296035767,
          0.19174157083034515,
          -0.04107388108968735,
          0.02614741586148739,
          -0.14463338255882263,
          0.111253522336483,
          -0.18244750797748566,
          -0.28105559945106506,
          -0.025461824610829353,
          0.5454620718955994,
          0.07442279905080795,
          -0.09099368751049042,
          -0.0005133430240675807,
          -0.054461635649204254,
          -0.06275061517953873,
          -0.2950747013092041,
          -0.058080170303583145,
          -0.01903853565454483,
          -0.02125050127506256,
          -0.0985344722867012,
          0.025233911350369453,
          -0.13433712720870972,
          0.010277396999299526,
          -0.087853342294693,
          -0.27762889862060547,
          -0.12773042917251587,
          0.3091582953929901,
          -0.12177689373493195,
          0.13960517942905426,
          0.04572858288884163,
          0.1124361902475357,
          0.0673716589808464,
          -0.05933595448732376,
          -0.08388279378414154,
          0.22028136253356934,
          -0.00959050003439188,
          -0.09288576990365982,
          0.007408274337649345,
          -0.12239615619182587,
          -0.10130446404218674,
          0.04819146543741226,
          -0.39146938920021057,
          -0.22650134563446045,
          0.07111067324876785,
          -0.1351153403520584,
          -0.08531161397695541,
          0.12003175169229507,
          -0.0068747918121516705,
          0.13474097847938538,
          0.25010818243026733,
          0.14179067313671112,
          -0.05013030767440796,
          0.13664290308952332,
          -0.06261266767978668,
          -0.16972745954990387,
          -0.021036896854639053,
          0.03635100647807121,
          0.27036428451538086,
          -0.19673189520835876,
          0.0019775526598095894,
          -0.46334195137023926,
          0.0848855972290039,
          -0.09373535960912704,
          0.13701985776424408
        ],
        [
          -0.25565704703330994,
          -0.02579389698803425,
          -0.016897423192858696,
          0.4299899637699127,
          0.0032837584149092436,
          0.05542533099651337,
          0.19242724776268005,
          0.27768459916114807,
          -0.0778646171092987,
          0.35890090465545654,
          -0.028839701786637306,
          0.06688525527715683,
          0.003317119786515832,
          0.04577324911952019,
          0.2577442526817322,
          0.04273111745715141,
          0.1895977407693863,
          -0.06976380199193954,
          0.12093496322631836,
          0.07834477722644806,
          0.020197350531816483,
          0.005363848526030779,
          -0.015163878910243511,
          0.012039667926728725,
          -0.0012351369950920343,
          -0.0022870637476444244,
          0.08973939716815948,
          0.19705265760421753,
          0.04270358383655548,
          0.05586407706141472,
          -0.20533855259418488,
          -0.026293126866221428,
          0.033450886607170105,
          -0.07876981049776077,
          0.16269177198410034,
          0.12168705463409424,
          0.03623386099934578,
          0.07594531774520874,
          0.13758330047130585,
          -0.03411665931344032,
          0.0839955285191536,
          0.01389670092612505,
          0.1441344916820526,
          -0.06383591890335083,
          -0.15328212082386017,
          0.11231538653373718,
          -0.04391052946448326,
          0.005608133040368557,
          0.03064483404159546,
          0.024081064388155937,
          0.2246657907962799,
          -0.18981941044330597,
          -0.011072030290961266,
          0.1571270376443863,
          0.004060161765664816,
          -0.006651329807937145,
          -0.09489472955465317,
          -0.3730928301811218,
          0.4891399145126343,
          0.12804536521434784,
          0.03335459157824516,
          0.17348620295524597,
          0.0060589248314499855,
          0.0028490100521594286
        ],
        [
          -0.05113625153899193,
          0.03084118664264679,
          0.09383416920900345,
          -0.026048243045806885,
          -0.08162388950586319,
          -0.02184722200036049,
          -0.3127652704715729,
          -0.10403326153755188,
          0.2880098223686218,
          -0.14670680463314056,
          0.0445714145898819,
          -0.29011231660842896,
          0.010688578709959984,
          -0.01765652559697628,
          0.3130286633968353,
          0.06524968892335892,
          -0.03838542848825455,
          0.5693663954734802,
          0.015836477279663086,
          -0.0832027718424797,
          0.2139270156621933,
          -0.12515562772750854,
          -0.08944202959537506,
          0.0016217537922784686,
          -0.004742298275232315,
          0.20573320984840393,
          0.10282442718744278,
          -0.26808029413223267,
          -0.027886975556612015,
          -0.46426519751548767,
          0.14950411021709442,
          -0.08756697922945023,
          -0.05093392729759216,
          0.014820254407823086,
          0.12177537381649017,
          -0.0013936283066868782,
          -0.1122368574142456,
          -0.05569811910390854,
          0.18080668151378632,
          -0.05847999453544617,
          -0.0547226257622242,
          -0.05763962119817734,
          -0.08168051391839981,
          -0.13402904570102692,
          -0.05982869118452072,
          -0.08705869317054749,
          0.24000385403633118,
          0.08722026646137238,
          -0.07255402952432632,
          0.0033345860429108143,
          0.08085138350725174,
          0.016310881823301315,
          0.08843465894460678,
          0.07543367147445679,
          -0.1665334850549698,
          0.01893789693713188,
          0.047773461788892746,
          0.1472293585538864,
          -0.0001554436021251604,
          -0.2400975078344345,
          -0.3851516842842102,
          0.04380416125059128,
          0.18497918546199799,
          0.05128851160407066
        ],
        [
          0.1153641790151596,
          0.02878379076719284,
          0.5562785863876343,
          -0.027621427550911903,
          -0.04299769923090935,
          -0.07281755656003952,
          0.06577707827091217,
          0.553219199180603,
          -0.01277513150125742,
          0.01717221550643444,
          0.054002586752176285,
          0.30926379561424255,
          -0.046329282224178314,
          -0.09572553634643555,
          0.1694977730512619,
          0.08735240995883942,
          0.023234233260154724,
          0.10237110406160355,
          0.12159942835569382,
          0.04525504261255264,
          0.036159053444862366,
          0.029568403959274292,
          0.09261474013328552,
          -0.0433206744492054,
          0.0811677873134613,
          0.33918508887290955,
          -0.09484391659498215,
          0.0006639931234531105,
          -0.018457381054759026,
          0.06392484903335571,
          -0.012225520797073841,
          -0.40092933177948,
          0.056788139045238495,
          -0.04866934195160866,
          0.060857005417346954,
          -0.16420328617095947,
          -0.004323070403188467,
          0.2548736333847046,
          0.09114804118871689,
          0.0388452522456646,
          0.030770959332585335,
          0.3382197618484497,
          -0.14077575504779816,
          0.11949107050895691,
          0.28484106063842773,
          -0.014960192143917084,
          -0.07633041590452194,
          -0.10700008273124695,
          -0.0566047765314579,
          -0.0385737344622612,
          0.1329246610403061,
          -0.14425484836101532,
          -0.1629178673028946,
          0.3109864294528961,
          0.08355593681335449,
          -0.14617322385311127,
          0.21075625717639923,
          0.6208212971687317,
          0.028378458693623543,
          0.009485105983912945,
          0.44077837467193604,
          0.1900823563337326,
          0.5039120316505432,
          0.04015278071165085
        ],
        [
          0.10385257005691528,
          0.315949410200119,
          0.07779771089553833,
          0.0790681540966034,
          -0.02568942867219448,
          -0.1345672607421875,
          0.1329471468925476,
