{
  "model_type": "DeepONet",
  "meta": {
    "input_dim": 14,
    "output_shape": null,
    "param_bounds": [
      [
        0.32525694370269775,
        -0.992405891418457,
        0.001302159740589559,
        0.0025005547795444727,
        0.0025007871445268393,
        0.002503735013306141,
        0.0025039047468453646,
        0.0025007918011397123,
        0.0025025722570717335,
        0.0025049413088709116,
        0.0025058072060346603,
        0.0025023757480084896,
        0.0025067878887057304,
        0.002503990661352873
      ],
      [
        4.174463748931885,
        -0.05793805420398712,
        0.5235987305641174,
        0.1674971729516983,
        0.167497456073761,
        0.16749854385852814,
        0.16749587655067444,
        0.16748793423175812,
        0.16749978065490723,
        0.16749805212020874,
        0.16749687492847443,
        0.16749972105026245,
        0.16749046742916107,
        0.16748911142349243
      ]
    ],
    "output_scaler": {
      "mean_": [
        0.26470939339345545
      ],
      "scale_": [
        0.09358192787788164
      ]
    },
    "strikes": [
      0.5,
      0.6000000238418579,
      0.699999988079071,
      0.800000011920929,
      0.8999999761581421,
      1.0,
      1.100000023841858,
      1.2000000476837158,
      1.2999999523162842,
      1.399999976158142,
      1.5
    ],
    "maturities": [
      0.10000000149011612,
      0.30000001192092896,
      0.5,
      0.699999988079071,
      0.8999999761581421,
      1.100000023841858,
      1.2999999523162842,
      1.5,
      1.7000000476837158,
      1.899999976158142,
      2.0999999046325684
    ]
  },
  "layers": [],
  "branch_layers": [
    {
      "W": [
        [
          -0.399122953414917,
          -0.4027864336967468,
          0.3771817088127136,
          -0.3469190001487732,
          0.5079116225242615,
          -0.21529532968997955,
          0.19824597239494324,
          0.4230060875415802,
          -0.3760296702384949,
          -0.7922852039337158,
          0.00018834274669643492,
          0.557858407497406,
          -0.07219613343477249,
          -0.013209125958383083,
          -0.46509116888046265,
          -0.08106584846973419,
          -0.378235399723053,
          -0.008234155364334583,
          -0.2924368977546692,
          -0.046836987137794495,
          -0.03022634983062744,
          0.4820932447910309,
          0.41802290081977844,
          -0.3955411911010742,
          -0.000579451909288764,
          -0.42779555916786194,
          -0.973132312297821,
          0.7453399896621704,
          -0.08529336005449295,
          -0.6191339492797852,
          0.3381102383136749,
          -0.11883149296045303,
          -0.0811426192522049,
          0.23766553401947021,
          0.536585807800293,
          -0.34181416034698486,
          -0.0685197189450264,
          0.04836563766002655,
          0.12991280853748322,
          0.07293722033500671,
          0.06626308709383011,
          -0.48516324162483215,
          -0.0353003591299057,
          0.6455090045928955,
          -0.16867245733737946,
          0.2250768393278122,
          0.6800526976585388,
          -0.5278685092926025,
          0.05811281129717827,
          -0.2739352583885193,
          0.6748427152633667,
          0.3146657347679138,
          -0.015542278997600079,
          0.18702203035354614,
          0.41047996282577515,
          -0.5194314122200012,
          -0.038661547005176544,
          0.004916970152407885,
          -0.22610917687416077,
          0.39446568489074707,
          -0.3145049810409546,
          -0.49357888102531433,
          0.2793671190738678,
          -0.3118390142917633
        ],
        [
          0.04302913323044777,
          0.055385760962963104,
          -0.03147975355386734,
          0.0919986143708229,
          0.19825638830661774,
          0.014465338550508022,
          -0.14897462725639343,
          -0.2252642661333084,
          0.03499390557408333,
          -5.630626401398331e-05,
          -0.03320561349391937,
          -0.4832167625427246,
          -0.3215517997741699,
          -0.19202758371829987,
          0.045915160328149796,
          0.011908183805644512,
          0.06572184711694717,
          0.02336358278989792,
          -0.8065325617790222,
          -0.23022480309009552,
          -0.3944624364376068,
          -0.34967145323753357,
          -0.376139760017395,
          0.005174829624593258,
          0.1863151639699936,
          -0.045781176537275314,
          -0.07408716529607773,
          0.27948376536369324,
          -0.05819685012102127,
          -0.009767921641469002,
          0.22971609234809875,
          -0.049406226724386215,
          -0.12669211626052856,
          -0.10676198452711105,
          -0.07157957553863525,
          0.00017595768440514803,
          -0.019288424402475357,
          0.2552659213542938,
          0.11481873691082001,
          0.1044420674443245,
          -0.4093893766403198,
          0.06360071152448654,
          0.2619956135749817,
          0.0691688284277916,
          -0.01969394087791443,
          -0.11235621571540833,
          0.22210033237934113,
          0.3809710741043091,
          0.2002054750919342,
          0.0004701431607827544,
          0.21046851575374603,
          -0.055239930748939514,
          4.850181085203076e-06,
          0.12373382598161697,
          -0.5651581883430481,
          -0.01207607239484787,
          -0.5983895063400269,
          0.1850399225950241,
          0.24972504377365112,
          -0.13880279660224915,
          0.02293379418551922,
          -0.19166231155395508,
          -0.21284493803977966,
          0.050157517194747925
        ],
        [
          0.009490067139267921,
          -0.16902869939804077,
          0.05427466332912445,
          0.04931808263063431,
          -0.017829660326242447,
          -0.2402743250131607,
          -0.7680070996284485,
          -0.2583053708076477,
          -0.02699154056608677,
          -0.2480219006538391,
          0.0944780483841896,
          -0.3997219502925873,
          0.16250333189964294,
          0.5716540813446045,
          -0.23071463406085968,
          0.20384849607944489,
          0.23975113034248352,
          -0.028986362740397453,
          0.14665868878364563,
          -0.146513432264328,
          0.18936628103256226,
          -0.08713948726654053,
          0.03913285583257675,
          -0.03372453898191452,
          0.038057196885347366,
          -0.7751008868217468,
          0.3664957880973816,
          0.05940433591604233,
          0.053077973425388336,
          -0.4431822896003723,
          0.007845059968531132,
          -0.019927073270082474,
          0.021149808540940285,
          -0.8372573852539062,
          0.04983048513531685,
          0.5419846177101135,
          0.03294317051768303,
          0.17204760015010834,
          -0.01842612214386463,
          -0.03329537436366081,
          0.21976877748966217,
          -0.20949417352676392,
          -0.10184291750192642,
          -0.6261693239212036,
          0.01694098860025406,
          -0.08838725835084915,
          -0.4419553279876709,
          0.09415328502655029,
          0.11635757982730865,
          0.5648348927497864,
          0.07575417309999466,
          -0.07875523716211319,
          -0.05656208097934723,
          -0.1683063805103302,
          0.15437281131744385,
          -0.03765740990638733,
          0.011839414946734905,
          -0.5847728252410889,
          0.4684637784957886,
          0.0648030936717987,
          0.00018363028357271105,
          0.013952815905213356,
          -0.013586499728262424,
          -0.052568335086107254
        ],
        [
          -0.08355812728404999,
          -0.02252470888197422,
          0.028481075540184975,
          -0.06815216690301895,
          -0.018964454531669617,
          0.047127000987529755,
          0.01366329099982977,
          0.012351278215646744,
          -0.05675947293639183,
          -0.019672095775604248,
          -0.16480682790279388,
          0.01829415000975132,
          -0.03888332471251488,
          0.3007299602031708,
          -0.008852687664330006,
          -0.18457522988319397,
          -0.45706748962402344,
          0.37883299589157104,
          0.03165789693593979,
          0.44099435210227966,
          -0.10467534512281418,
          -0.36652249097824097,
          0.03357996791601181,
          -0.05415615066885948,
          0.2765495479106903,
          -0.016404347494244576,
          0.06897899508476257,
          0.04011471942067146,
          -0.8057825565338135,
          -0.04943658784031868,
          -0.016776826232671738,
          0.024144914001226425,
          0.10318688303232193,
          -0.004371317103505135,
          0.028133926913142204,
          0.004691584501415491,
          -0.8308901786804199,
          -0.502331018447876,
          -0.04491882026195526,
          -0.16870442032814026,
          -0.21772907674312592,
          -0.023790745064616203,
          0.006799960043281317,
          -0.04116271436214447,
          -0.026767827570438385,
          0.1966526210308075,
          -0.04259016364812851,
          0.4060230851173401,
          -0.6603518724441528,
          0.023525414988398552,
          -0.04771268740296364,
          0.10715114325284958,
          0.21030277013778687,
          0.3569928705692291,
          0.045056045055389404,
          -0.23153069615364075,
          0.03421206772327423,
          -0.29581117630004883,
          -0.000992818851955235,
          0.018208516761660576,
          -0.07456211000680923,
          0.019531546160578728,
          0.059886641800403595,
          -0.02746066078543663
        ],
        [
          -0.21011650562286377,
          -0.015101753175258636,
          0.07497667521238327,
          0.3003236651420593,
          -0.2647709548473358,
          -0.008316881954669952,
          -0.006810937542468309,
          -0.0013259516563266516,
          -0.12576380372047424,
          -0.0023087356239557266,
          -0.657294511795044,
          0.02343827113509178,
          0.035951316356658936,
          0.03958578780293465,
          -0.010685141198337078,
          0.2439267784357071,
          -0.012456526048481464,
          -0.07527228444814682,
          0.03507110849022865,
          0.5071617960929871,
          0.05312484875321388,
          -0.15897086262702942,
          0.012851358391344547,
          -0.1348099708557129,
          -0.20056316256523132,
          0.012239376083016396,
          -0.0028793395031243563,
          0.019332898780703545,
          -0.03709741681814194,
          0.01660717837512493,
          -0.04219010844826698,
          -0.05496039241552353,
          -0.8107594847679138,
          -0.007737134583294392,
          0.08222594112157822,
          -0.0591142401099205,
          -0.017989959567785263,
          -0.5984787344932556,
          0.2503277063369751,
          0.47393420338630676,
          -0.19962958991527557,
          -0.02417624741792679,
          -0.013308923691511154,
          0.0032076251227408648,
          -0.06532683968544006,
          0.019468072801828384,
          -0.01715758815407753,
          0.1703864336013794,
          0.2710201144218445,
          0.0470607690513134,
          -0.01919659413397312,
          0.31261056661605835,
          0.008403340354561806,
          0.006864398252218962,
          -0.021053491160273552,
          -0.44800546765327454,
          0.03884010389447212,
          -0.0414046049118042,
          -0.006778432987630367,
          -0.04880991578102112,
          -0.19345201551914215,
          0.2518329918384552,
          -0.053094614297151566,
          -0.04580993577837944
        ],
        [
          -0.0888829454779625,
          -0.013508855365216732,
          0.08967150747776031,
          0.036947835236787796,
          -0.37283921241760254,
          -0.04359973594546318,
          -0.004862459842115641,
          0.05931901931762695,
          -0.15545526146888733,
          0.009707571007311344,
          0.1670696884393692,
          0.002993705915287137,
          0.09157432615756989,
          0.029660318046808243,
          -0.017881739884614944,
          0.010137945413589478,
          0.003982905298471451,
          -0.07884108275175095,
          0.01854047365486622,
          0.14714442193508148,
          0.06860093027353287,
          -0.01413916889578104,
          0.00857197679579258,
          -0.14231744408607483,
          -0.03833340108394623,
          0.03029879741370678,
          0.023857416585087776,
          -0.004531088285148144,
          0.01478077657520771,
          0.043588824570178986,
          0.007463919930160046,
          -0.0613776296377182,
          -0.04021478071808815,
          -0.0024263011291623116,
          0.08290925621986389,
          -0.009113782085478306,
          -0.0009373344364576042,
          -0.1717754751443863,
          -0.022663909941911697,
          -0.014917762950062752,
          -0.036402806639671326,
          -0.021717054769396782,
          0.27585965394973755,
          0.006254660431295633,
          -0.4357896149158478,
          0.046743303537368774,
          0.007341452408581972,
          0.017871348187327385,
          -0.027026578783988953,
          0.02880058065056801,
          -0.009730139747262001,
          0.186319038271904,
          -0.25649020075798035,
          0.015357071533799171,
          -0.05486056208610535,
          -0.05751391500234604,
          0.020417433232069016,
          -0.03213438764214516,
          -0.006340317893773317,
          0.021423911675810814,
          -0.2508757412433624,
          0.3541358709335327,
          0.004385199397802353,
          -0.06711512058973312
        ],
        [
          0.037595849484205246,
          -0.02634059637784958,
          0.10252521932125092,
          0.005029727704823017,
          -0.43494004011154175,
          -0.02914755791425705,
          0.010935031808912754,
          0.05867740511894226,
          -0.20450244843959808,
          0.016419701278209686,
          -0.0011191811645403504,
          -0.015957839787006378,
          -0.04199773818254471,
          0.0313299223780632,
          0.017582211643457413,
          -0.006189761683344841,
          -0.005618478637188673,
          -0.07318021357059479,
          0.018306221812963486,
          -0.037691909819841385,
          0.02932058647274971,
          -0.01093613263219595,
          0.020905883982777596,
          -0.17229527235031128,
          0.021401865407824516,
          0.031635504215955734,
          -0.007837237790226936,
          -0.01779922842979431,
          0.0010734598618000746,
          0.032773591578006744,
          0.02607089839875698,
          -0.07169142365455627,
          0.008619324304163456,
          -0.0007923872908577323,
          0.13293151557445526,
          -0.00262938579544425,
          -0.0020740944892168045,
          0.041374146938323975,
          0.007870231755077839,
          -0.0007265803287737072,
          0.0027244940865784883,
          -0.008151874877512455,
          -0.040007006376981735,
          0.015297329053282738,
          0.04250066354870796,
          0.08700747042894363,
          -0.0035511816386133432,
          0.011967185884714127,
          -0.015101292170584202,
          0.02494196966290474,
          0.014712434262037277,
          -0.03740778565406799,
          0.05056361109018326,
          0.06042000278830528,
          -0.012277170084416866,
          0.031708717346191406,
          0.02566133812069893,
          -0.03932395949959755,
          0.010559938848018646,
          0.03436162695288658,
          -0.256061851978302,
          0.41974562406539917,
          -0.010238896124064922,
          -0.08884920924901962
        ],
        [
          0.007768539711833,
          -0.01697896607220173,
          0.12266279011964798,
          -0.006696354132145643,
          -0.3262421190738678,
          -0.003636664478108287,
          0.011631748639047146,
          0.02650323137640953,
          -0.0023183305747807026,
          0.014643586240708828,
          0.005271979607641697,
          -0.014659848995506763,
          -0.051817119121551514,
          -0.016062233597040176,
          0.012026744894683361,
          -0.01392284594476223,
          0.00385378859937191,
          0.14126704633235931,
          0.007006089668720961,
          -0.037961166352033615,
          -0.008868446573615074,
          -0.0015039107529446483,
          0.03045336715877056,
          -0.18482033908367157,
          -0.0035526584833860397,
          0.021494966000318527,
          0.004067608155310154,
          -0.014920277521014214,
          0.004796502646058798,
          0.012708944268524647,
          0.027194390073418617,
          0.0330786257982254,
          -0.0049492293037474155,
          0.004614746663719416,
          0.13516449928283691,
          -0.004492322448641062,
          0.0011746309464797378,
          0.04149213805794716,
          0.07291743904352188,
          0.0060792225413024426,
          0.0004891533753834665,
          -0.016977926716208458,
          -0.003129089018329978,
          0.01313649583607912,
          0.021060829982161522,
          0.06923157721757889,
          0.0017886244459077716,
          0.0008821337833069265,
          -0.010054384358227253,
          0.01788429170846939,
          0.010650647804141045,
          -0.019580967724323273,
          0.04316847398877144,
          -0.10804793983697891,
          -0.008191854692995548,
          0.03773924708366394,
          0.018229762092232704,
          0.013327602297067642,
          0.015882622450590134,
          0.003906157799065113,
          -0.041514646261930466,
          0.31712111830711365,
          -0.0069028465077281,
          -0.1823521852493286
        ],
        [
          -0.018179984763264656,
          -0.12824147939682007,
          0.11630136519670486,
          -0.01925981603562832,
          -0.24669905006885529,
          -0.0018133148550987244,
          0.013727616518735886,
          0.005584524478763342,
          0.02824259176850319,
          0.029963133856654167,
          -0.00992350373417139,
          -0.010576237924396992,
          0.024237854406237602,
          -0.04718203470110893,
          -0.057088810950517654,
          -0.008063300512731075,
          -0.01742369495332241,
          0.04766401648521423,
          0.005871738772839308,
          0.017527107149362564,
          0.002970498288050294,
          0.04968639835715294,
          0.001859575742855668,
          -0.1533571183681488,
          0.030672453343868256,
          0.01642434298992157,
          0.012934897094964981,
          0.0004200538678560406,
          0.0013047948013991117,
          0.020834222435951233,
          0.03327318653464317,
          -0.030400335788726807,
          0.0059357089921832085,
          0.006204262841492891,
          0.08638393878936768,
          0.012856190092861652,
          -0.0023494756314903498,
          -0.01910279132425785,
          0.02206653729081154,
          0.005086005199700594,
          -0.010203804820775986,
          0.02660132385790348,
          0.028522133827209473,
          -0.00016192163457162678,
          -0.0026701618917286396,
          -0.11024197936058044,
          0.01093740202486515,
          -0.05041804537177086,
          0.005583828315138817,
          0.0033737088087946177,
          0.008161715231835842,
          -0.020000945776700974,
          0.11274801939725876,
          -0.008932152763009071,
          0.001646073767915368,
          -0.009670735336840153,
          0.007576386444270611,
          0.04826967418193817,
          0.021609794348478317,
          -0.03209578990936279,
          0.020987436175346375,
          0.2415212243795395,
          0.09649928659200668,
          -0.0018666147952899337
        ],
        [
          0.016088787466287613,
          -0.06294315308332443,
          0.06637562811374664,
          0.012501465156674385,
          -0.1262562870979309,
          0.05166826769709587,
          0.01028471440076828,
          0.018778016790747643,
          0.020980658009648323,
          -0.016151396557688713,
          0.0008610358345322311,
          0.014982431195676327,
          0.024188043549656868,
          -0.05960861220955849,
          -0.1841500699520111,
          -0.01054671686142683,
          0.010606532916426659,
          0.09302426874637604,
          0.0036026104353368282,
          0.0008739684126339853,
          -0.015551651827991009,
          -0.018829192966222763,
          0.01178279984742403,
          -0.08836206793785095,
          -0.03177223354578018,
          0.006640932057052851,
          0.003780338680371642,
          -0.009553776122629642,
          -0.0030300638172775507,
          0.004232569597661495,
          0.0013577024219557643,
          -0.014898297376930714,
          0.00488040316849947,
          0.0027324443217366934,
          0.04920034855604172,
          0.0010279025882482529,
          0.0015216644387692213,
          -0.0029678812716156244,
          0.02467731013894081,
          -0.002141847973689437,
          0.006274872459471226,
          0.01851959340274334,
          -0.036201514303684235,
          -0.001962377456948161,
          -0.006543727591633797,
          -0.038810212165117264,
          0.0015447516925632954,
          0.019293691962957382,
          0.0013811971293762326,
          0.003210515948012471,
          -0.0006156919989734888,
          0.014311552047729492,
          0.012922427617013454,
          -0.00020505285647232085,
          0.011063755489885807,
          -0.007975053042173386,
          0.017610130831599236,
          0.06850292533636093,
          0.0045017520897090435,
          0.06369096040725708,
          0.014218175783753395,
          0.12454584985971451,
          -0.07169497013092041,
          0.08621340245008469
        ],
        [
          -0.00427157711237669,
          0.1290273219347,
          0.03645836189389229,
          0.003140856744721532,
          -0.08071573823690414,
          0.03621845319867134,
          0.013444110751152039,
          -0.036721121519804,
          -0.006469004787504673,
          0.01557905226945877,
          0.0006640819483436644,
          -0.005583032499998808,
          -0.010106982663273811,
          -0.04825710877776146,
          -0.16774888336658478,
          -0.004769203718751669,
          -0.0043957289308309555,
          0.012177941389381886,
          0.0047783516347408295,
          0.03160358592867851,
          -0.004230152349919081,
          0.04346480593085289,
          0.007713306229561567,
          -0.045353397727012634,
          0.017071008682250977,
          0.0010192547924816608,
          0.0004725133185274899,
          0.0006622819928452373,
          -0.0021973848342895508,
          -0.010485830716788769,
          -0.0010949131101369858,
          0.055654142051935196,
          0.0031609684228897095,
          0.0037783891893923283,
          0.034491486847400665,
          0.023830831050872803,
          0.0003145817026961595,
          -0.036179203540086746,
          -0.025565018877387047,
          -0.0022241550032049417,
          0.0010311355581507087,
          -0.0310394074767828,
          0.006954740732908249,
          0.002610224299132824,
          -0.0035503304097801447,
          -0.0156942680478096,
          -0.008281434886157513,
          -0.04623672738671303,
          -0.005314825568348169,
          -0.009247093461453915,
          0.011554105207324028,
          0.00319191487506032,
          0.043962422758340836,
          0.00473279831930995,
          -0.006514296401292086,
          -0.0022383553441613913,
          0.0010689407354220748,
          0.05901890620589256,
          0.016217511147260666,
          0.01893993653357029,
          0.009034709073603153,
          0.07965777814388275,
          -0.032392024993896484,
          0.06232936680316925
        ],
        [
          -0.008636807091534138,
          0.07871744781732559,
          0.02352301776409149,
          -0.0006825366290286183,
          -0.06145301088690758,
          0.021687278524041176,
          0.010906076990067959,
          -0.03822961822152138,
          -0.0024017589166760445,
          0.04057709500193596,
          0.0021589226089417934,
          -0.014981099404394627,
          -0.01387964840978384,
          -0.04355514422059059,
          -0.08932769298553467,
          -0.0019068792462348938,
          -0.005015980917960405,
          -0.04642127454280853,
          -0.002011164790019393,
          0.038602814078330994,
          -0.0008857673965394497,
          0.04143896326422691,
          -0.0010820284951478243,
          -0.029680948704481125,
          0.011493409052491188,
          4.6805227611912414e-05,
          0.010453492403030396,
          0.007440644316375256,
          -0.0038147103041410446,
          -0.004592863842844963,
          0.018052158877253532,
          0.07211567461490631,
          -0.012211612425744534,
          0.004385988228023052,
          0.025547904893755913,
          -0.002206874080002308,
          0.0036190201062709093,
          -0.040287312120199203,
          -0.06473834812641144,
          0.012025072239339352,
          0.0018886649049818516,
          -0.10950564593076706,
          0.016111526638269424,
          1.098362645279849e-05,
          -0.006410622503608465,
          -0.011754139326512814,
          -0.002967868000268936,
          -0.042945921421051025,
          0.0025372656527906656,
          -0.0055235386826097965,
          0.018216025084257126,
          -0.011749041266739368,
          0.06885368376970291,
          0.001999873900786042,
          0.0021799271926283836,
          -0.002008947543799877,
          -0.0003571337729226798,
          0.05303596332669258,
          0.019295016303658485,
          -0.01565362699329853,
          0.00941732432693243,
          0.06059827283024788,
          0.031220881268382072,
          0.041969187557697296
        ],
        [
          0.012418906204402447,
          -0.07169383019208908,
          0.012491333298385143,
          0.0017093397909775376,
          -0.016450555995106697,
          0.028081314638257027,
          0.0031604396644979715,
          -0.0035808917600661516,
          0.013160341419279575,
          0.025021446868777275,
          0.006476307287812233,
          0.013634082861244678,
          0.009861130267381668,
          -0.03730028495192528,
          -0.04483978822827339,
          0.0009358644019812346,
          0.005779154133051634,
          -0.029720818623900414,
          0.0030638324096798897,
          0.012729568406939507,
          -0.008242855779826641,
          -0.02296571619808674,
          0.0005319094052538276,
          -0.006909601856023073,
          -0.016241557896137238,
          0.008355985395610332,
          0.010813739150762558,
          0.003142614383250475,
          0.00040098369936458766,
          0.00475651677697897,
          0.03353907912969589,
          0.04309581220149994,
          -0.0020805280655622482,
          0.003018478862941265,
          0.008421380072832108,
          -0.003918265923857689,
          0.001435530954040587,
          -0.014374514110386372,
          -0.046216029673814774,
          0.0006362106068991125,
          -0.005758348386734724,
          -0.13449139893054962,
          -0.015358300879597664,
          -0.0017791918944567442,
          -0.010265962220728397,
          0.025905072689056396,
          0.0023772800341248512,
          0.02490789256989956,
          -0.0034034964628517628,
          -0.005301443859934807,
          0.01572447456419468,
          -0.0072929332964122295,
          0.047683123499155045,
          -0.028429020196199417,
          0.0075324042700231075,
          -0.016562998294830322,
          0.0014987001195549965,
          0.04666835442185402,
          0.0014852620661258698,
          3.854803435388021e-05,
          0.006928515620529652,
          0.015249745920300484,
          -0.006201554089784622,
          0.016994178295135498
        ],
        [
          0.015616212971508503,
          -0.09351132065057755,
          0.006513295229524374,
          -0.00120781478472054,
          0.0011671738466247916,
          0.02142159454524517,
          -0.003028057049959898,
          0.006491126026958227,
          0.017373191192746162,
          0.012899466790258884,
          -0.00335568911395967,
          0.022392872720956802,
          0.018938446417450905,
          -0.030843067914247513,
          -0.015368036925792694,
          -0.005468030460178852,
          0.004318747203797102,
          -0.011412875726819038,
          0.0028389734216034412,
          -0.005780241452157497,
          -0.008058915846049786,
          -0.0366102010011673,
          0.0016617592191323638,
          0.003575322451069951,
          -0.0064821261912584305,
          0.009256578050553799,
          0.003013171721249819,
          -0.003311944892629981,
          -0.001466663321480155,
          0.006485716439783573,
          0.023527085781097412,
          0.022465387359261513,
          -0.0008038663654588163,
          0.0022440319880843163,
          0.0009602531208656728,
          -0.012245615012943745,
          -0.002206631703302264,
          0.005842321552336216,
          -0.01698238216340542,
          -0.0015530436066910625,
          0.002506999531760812,
          -0.08892952650785446,
          -0.027694830670952797,
          -0.002576656173914671,
          -0.007782667875289917,
          0.03482379764318466,
          0.0017150990897789598,
          0.039664775133132935,
          0.005300050135701895,
          0.00016270104970317334,
          0.006798765622079372,
          -0.00551071111112833,
          0.016679737716913223,
          -0.020727107301354408,
          0.0028357477858662605,
          -0.016475560143589973,
          0.0018264668760821223,
          0.03732306510210037,
          -0.00320180831477046,
          0.00480685057118535,
          0.0014527718303725123,
          -0.0015699416399002075,
          -0.022856170311570168,
          0.005114932078868151
        ]
      ],
      "b": [
        0.1276698112487793,
        0.014035713858902454,
        0.046819962561130524,
        0.07090984284877777,
        0.03397759795188904,
        0.17644888162612915,
        -0.28313493728637695,
        0.10961245000362396,
        0.040626272559165955,
        -0.2717685401439667,
        -0.481440931558609,
        -0.2657005786895752,
        0.516649603843689,
        0.12859520316123962,
        0.05202213674783707,
        0.18682776391506195,
        0.4479715824127197,
        0.5360106825828552,
        -0.528883695602417,
        0.19677625596523285,
        0.06743787229061127,
        -0.05954609811306,
        0.184903085231781,
        -0.38373157382011414,
        -0.021016761660575867,
        -0.3572775721549988,
        -0.3138279318809509,
        -0.3185175359249115,
        -0.22688989341259003,
        0.18160539865493774,
        0.39667022228240967,
        0.18528005480766296,
        -0.3532589077949524,
        -0.5311242341995239,
        -0.2564806044101715,
        -0.006805678829550743,
        -0.5897688269615173,
        -0.2313666045665741,
        0.44139572978019714,
        0.26320740580558777,
        -0.32364219427108765,
        -0.11782441288232803,
        0.42604804039001465,
        -0.22182871401309967,
        -0.17864727973937988,
        0.5573333501815796,
        0.14773209393024445,
        0.06718748062849045,
        -0.24798084795475006,
        0.15711525082588196,
        0.22931118309497833,
        0.153461754322052,
        0.49335426092147827,
        0.5211046934127808,
        -0.25764212012290955,
        -0.2708962559700012,
        0.08751819282770157,
        -0.13455210626125336,
        0.3482845425605774,
        0.4839324951171875,
        -0.33243536949157715,
        -0.03560417890548706,
        0.4961612820625305,
        -0.07230642437934875
      ],
      "act": null
    },
    {
      "W": null,
      "b": null,
      "act": "relu"
    },
    {
      "W": [
        [
          0.021093318238854408,
          0.15770070254802704,
          0.060283202677965164,
          0.10075680166482925,
          0.053613416850566864,
          0.004448742140084505,
          -0.01365115586668253,
          -0.07472781836986542,
          -0.15401451289653778,
          -0.07685548812150955,
          -0.30522680282592773,
          0.19575724005699158,
          0.06643790751695633,
          -0.2388227880001068,
          -0.0661330297589302,
          0.32329627871513367,
          0.15290847420692444,
          -0.30364465713500977,
          -0.061651963740587234,
          0.06923311203718185,
          0.05027489736676216,
          0.04311436414718628,
          -0.08277782797813416,
          0.051388319581747055,
          0.13004806637763977,
          0.10162973403930664,
          -0.04093371331691742,
          -0.0477433018386364,
          -0.07472403347492218,
          0.08918571472167969,
          -0.0774870365858078,
          -0.012638607993721962,
          -0.09023191779851913,
          0.07361573725938797,
          0.04769737273454666,
          0.029093358665704727,
          0.1964310258626938,
          -0.04139570891857147,
          -0.02561776153743267,
          -0.03715469315648079,
          0.024548284709453583,
          -0.13355612754821777,
          0.011202397756278515,
          0.10592469573020935,
          0.32010936737060547,
          0.09697457402944565,
          -0.023748891428112984,
          0.032489895820617676,
          -0.0338994599878788,
          -0.1830071359872818,
          0.08446047455072403,
          0.04032200574874878,
          -0.14205901324748993,
          0.1503242552280426,
          -0.009705010801553726,
          -0.025744305923581123,
          -0.15474513173103333,
          0.07860730588436127,
          0.02924860455095768,
          -0.08745183795690536,
          0.08950503915548325,
          -0.022708233445882797,
          -0.048807065933942795,
          0.03404621407389641
        ],
        [
          0.01973460428416729,
          -0.014156057499349117,
          -0.06632523983716965,
          -0.07587693631649017,
          -0.06486336886882782,
          0.06363432854413986,
          -0.3537064492702484,
          0.04420013353228569,
          -0.054748378694057465,
          0.41483861207962036,
          -0.04625112935900688,
          -0.14755965769290924,
          -0.016817910596728325,
          0.09709786623716354,
          -0.03109738789498806,
          0.008250617422163486,
          -0.02417900785803795,
          -0.10849179327487946,
          -0.14177359640598297,
          -0.03348732739686966,
          -0.06175023317337036,
          -0.13471496105194092,
          -0.1426224261522293,
          -0.0534314401447773,
          -0.06287598609924316,
          0.07601437717676163,
          0.03669695928692818,
          0.0037452075630426407,
          -0.06869757175445557,
          0.048370201140642166,
          0.0065927221439778805,
          -0.09269582480192184,
          0.17578956484794617,
          0.08702008426189423,
          0.04291175678372383,
          -0.05902206152677536,
          -0.09132000803947449,
          0.1511811912059784,
          -0.04473377764225006,
          -0.05465243384242058,
          0.014725045301020145,
          -0.01813242956995964,
          -0.07464419305324554,
          -0.0163661427795887,
          0.1287737786769867,
          -0.008796514011919498,
          -0.08102216571569443,
          0.22625264525413513,
          -0.03183352202177048,
          0.13941027224063873,
          -0.016376659274101257,
          0.03086218424141407,
          0.06491541117429733,
          0.06887888163328171,
          -0.0673227608203888,
          0.04204116389155388,
          0.4452823996543884,
          -0.49877458810806274,
          0.28881943225860596,
          0.04542943835258484,
          -0.01253606379032135,
          -0.05166099593043327,
          -0.05199434235692024,
          0.028620384633541107
        ],
        [
          0.03096757084131241,
          -0.03455694764852524,
          0.08663713186979294,
          -0.23111288249492645,
          0.009044495411217213,
          -0.17125417292118073,
          -0.04994582384824753,
          0.0152159808203578,
          -0.15621839463710785,
          -0.1620243340730667,
          -0.05235776677727699,
          0.3995910882949829,
          -0.2229587882757187,
          0.0831417664885521,
          -0.04182906076312065,
          0.043243955820798874,
          -0.07354487478733063,
          -0.03191503882408142,
          -0.09640628099441528,
          0.006566250696778297,
          0.14892132580280304,
          -0.04092215374112129,
          -0.1131349503993988,
          -0.015634557232260704,
          0.16487103700637817,
          -0.019468173384666443,
          0.16304869949817657,
          0.17856749892234802,
          -0.013262294232845306,
          0.08595667779445648,
          0.036396510899066925,
          0.010732684284448624,
          -0.026267526671290398,
          -0.04169697314500809,
          -0.08699554204940796,
          0.10989386588335037,
          -0.16422304511070251,
          -0.014770248904824257,
          -0.04140946641564369,
          -0.027778908610343933,
          -0.0006735465140081942,
          -0.1498381495475769,
          0.0822436660528183,
          0.013081612065434456,
          0.06521635502576828,
          -0.2270120531320572,
          0.039272475987672806,
          -0.08632209151983261,
          -0.0771927535533905,
          0.02347780391573906,
          0.05682926997542381,
          0.120669424533844,
          -0.04874395206570625,
          -0.08630923926830292,
          -0.006654536351561546,
          -0.04156553000211716,
          -0.0195403341203928,
          -0.0010327440686523914,
          0.0307873897254467,
          0.10344050079584122,
          0.03360616788268089,
          0.08624444901943207,
          -0.09434019774198532,
          0.10543937981128693
        ],
        [
          0.14348292350769043,
          0.14759378135204315,
          0.02686586230993271,
          0.020960194990038872,
          0.10269955545663834,
          -0.10631447285413742,
          -0.07994069159030914,
          -0.017164357006549835,
          0.0953778624534607,
          0.1481616348028183,
          0.029988054186105728,
          -0.023424554616212845,
          -0.043123759329319,
          0.16966357827186584,
          -0.0631430372595787,
          0.01234285719692707,
          0.06333349645137787,
          0.06235845759510994,
          0.18951168656349182,
          0.1668461263179779,
          -0.16778172552585602,
          0.09614068269729614,
          0.036053549498319626,
          -0.04004475101828575,
          -0.32324135303497314,
          -0.15269029140472412,
          -0.0023442613892257214,
          0.146352156996727,
          -0.10541364550590515,
          0.12956637144088745,
          -0.0828319564461708,
          0.13263970613479614,
          0.09387146681547165,
          0.09504857659339905,
          -0.03529692813754082,
          -0.41816192865371704,
          -0.07561942934989929,
          0.10660938918590546,
          0.06701333075761795,
          -0.09012387692928314,
          -0.16257205605506897,
          0.08385282009840012,
          -0.04867522045969963,
          -0.03485563397407532,
          0.14497965574264526,
          0.0008420879603363574,
          -0.4170719385147095,
          -0.057169198989868164,
          -0.07247652858495712,
          -0.07101914286613464,
          0.2338196337223053,
          0.02141643315553665,
          -0.13992734253406525,
          0.0789862647652626,
          0.0457208976149559,
          0.3799436092376709,
          0.08444774895906448,
          -0.04095693677663803,
          -0.04514836519956589,
          -0.09208718687295914,
          0.05428173765540123,
          0.022444279864430428,
          -0.04343704879283905,
          0.09445726871490479
        ],
        [
          -0.0023351407144218683,
          0.059934038668870926,
          0.06512057036161423,
          -0.02291216142475605,
          -0.14698486030101776,
          -0.17851313948631287,
          -0.16833333671092987,
          0.09324739873409271,
          0.052406225353479385,
          -0.11504106223583221,
          0.02678832784295082,
          0.1795833259820938,
          -0.16764239966869354,
          0.13409560918807983,
          -0.056478843092918396,
          0.06148764491081238,
          -0.07578251510858536,
          0.22181546688079834,
          -0.1286090910434723,
          -0.07691454142332077,
          0.05326549708843231,
          -0.035880956798791885,
          0.002601043786853552,
          0.007104290183633566,
          -0.14435119926929474,
          -0.17423652112483978,
          -0.0012949338415637612,
          -0.1260615736246109,
          -0.007012236397713423,
          0.004353092052042484,
          0.010863078758120537,
          0.023119837045669556,
          0.14699193835258484,
          0.0071691712364554405,
          -0.06776459515094757,
          -0.04943786934018135,
          -0.11025528609752655,
          -0.1452733874320984,
          -0.039419710636138916,
          -0.04028233885765076,
          0.042096126824617386,
          0.09009305387735367,
          -0.047972049564123154,
          0.04745061323046684,
          -0.20491164922714233,
          -0.18760009109973907,
          0.03980189189314842,
          -0.04042903333902359,
          -0.06525123119354248,
          0.07384747266769409,
          0.1329391449689865,
          0.26781612634658813,
          -0.11717337369918823,
          -0.003986777272075415,
          -0.062107086181640625,
          -0.14250804483890533,
          0.0018808187451213598,
          -0.04740450903773308,
          -0.030949505046010017,
          -0.022381367161870003,
          0.08735302835702896,
          0.15779711306095123,
          0.008400061167776585,
          0.6462727189064026
        ],
        [
          -0.005215875804424286,
          0.21836501359939575,
          -0.0698394626379013,
          0.07017456740140915,
          -0.10626449435949326,
          0.03897596895694733,
          -0.0061505818739533424,
          0.15558139979839325,
          -0.0984017476439476,
          0.058174099773168564,
          0.02361426129937172,
          0.12189600616693497,
          0.10510720312595367,
          -0.04663580283522606,
          -0.1049172505736351,
          -0.007523226551711559,
          0.0556488074362278,
          0.30673789978027344,
          0.08572179079055786,
          0.023096388205885887,
          0.03248145431280136,
          0.06141471117734909,
          0.05477220192551613,
          0.039955660700798035,
          0.037575557827949524,
          -0.06526479125022888,
          0.05896103382110596,
          -0.19695115089416504,
          -0.01418009027838707,
          -0.03712654113769531,
          -0.023545164614915848,
          -0.10821528732776642,
          0.0628591999411583,
          0.11902829259634018,
          0.03903215751051903,
          0.18493275344371796,
          0.0747571513056755,
          0.15988776087760925,
          0.007485394831746817,
          0.03326531872153282,
          -0.02732267417013645,
          0.010575220920145512,
          -0.04339633136987686,
          -0.16870278120040894,
          0.14273594319820404,
          0.14853216707706451,
          0.11171292513608932,
          0.021594513207674026,
          0.09717687219381332,
          0.013919372111558914,
          0.06691595166921616,
          0.05148937925696373,
          0.048394761979579926,
          0.10991288721561432,
          -0.20376740396022797,
          -0.10143579542636871,
          -0.08358300477266312,
          -0.1087876632809639,
          -0.06479115039110184,
          0.015254683792591095,
          -0.0239175483584404,
          0.13156116008758545,
          -0.08493157476186752,
          -0.09749937802553177
        ],
        [
          -0.28413718938827515,
          0.1335284560918808,
          -0.04290604591369629,
          -0.10519923269748688,
          -0.26775920391082764,
          0.18007637560367584,
          0.024644605815410614,
          0.09408122301101685,
          -0.10386090725660324,
          0.10420972853899002,
          -0.30201658606529236,
          -0.0037709567695856094,
          0.09006375074386597,
          0.1328362673521042,
          -0.3295828104019165,
          0.07350210845470428,
          -0.07407402247190475,
          0.08980575948953629,
          0.023516720160841942,
          0.1186874583363533,
          0.0033460967242717743,
          -0.03517787531018257,
          0.015448498539626598,
          0.40567687153816223,
          -0.20323164761066437,
          -1.0260182619094849,
          -0.3672209680080414,
          -0.335092693567276,
          0.01975570060312748,
          -0.3439273238182068,
          0.06100229173898697,
          -0.5348002314567566,
          0.16250328719615936,
          0.31275537610054016,
          -0.14038299024105072,
          -0.10249162465333939,
          -0.00750720826908946,
          -0.00606513163074851,
          0.041618019342422485,
          -0.03988049551844597,
          -0.011225176975131035,
          0.3303532898426056,
          0.04364944249391556,
          0.07800417393445969,
          0.04032722860574722,
          0.12221316248178482,
          -0.2351725697517395,
          0.08442283421754837,
          -0.15010417997837067,
          0.3025950491428375,
          0.17933493852615356,
          -0.051407333463430405,
          -0.026697618886828423,
          0.18218709528446198,
          -0.6695271730422974,
          -0.2597099840641022,
          0.15173110365867615,
          0.04311954975128174,
          -0.11952570825815201,
          -0.01814870350062847,
          0.034463491290807724,
          -0.14735612273216248,
          -0.034322477877140045,
          -0.04209689795970917
        ],
        [
          0.15821950137615204,
          0.03353608027100563,
          0.11458016186952591,
          -0.01653568632900715,
          0.06300882995128632,
          0.16832613945007324,
          0.03977954387664795,
          -0.04962734505534172,
          -0.0595131441950798,
          0.0684947669506073,
          -0.0303810928016901,
          0.027646014466881752,
          0.12631367146968842,
          0.0012521500466391444,
          -0.017598923295736313,
          -0.22308902442455292,
          0.031510502099990845,
          0.19463779032230377,
          -0.049045637249946594,
          -0.2708965241909027,
          -0.0006091699469834566,
          0.01808832958340645,
          -0.05690909922122955,
          0.19871334731578827,
          0.03946935757994652,
          -0.23212572932243347,
          0.22362945973873138,
          -0.027543004602193832,
          -0.11819890886545181,
          -0.20598828792572021,
          0.05945485085248947,
          0.073452427983284,
          -0.005479140672832727,
          -0.11233042925596237,
          -0.013060485012829304,
          -0.0011654228437691927,
          0.15312370657920837,
          -0.040551383048295975,
          -0.2530485689640045,
          0.08721306920051575,
          0.11440209299325943,
          0.1283801943063736,
          -0.014047907665371895,
          0.16649509966373444,
          0.14017809927463531,
          -0.04742822051048279,
          0.09705442190170288,
          -0.17976932227611542,
          0.02297019213438034,
          0.1172584593296051,
          -0.032024841755628586,
          0.13892214000225067,
          -0.07478013634681702,
          -0.029555806890130043,
          0.1278715878725052,
          0.08910921961069107,
          0.01628068834543228,
          -0.0732564926147461,
          -0.16004294157028198,
          0.017970038577914238,
          0.04027114436030388,
          0.0012734438059851527,
          -0.06348967552185059,
          0.007688811048865318
        ],
        [
          0.03407277911901474,
          0.11609658598899841,
          -0.017396962270140648,
          0.07722713053226471,
          -0.0029750282410532236,
          -0.12858326733112335,
          0.047709401696920395,
          0.048505112528800964,
          -0.14484348893165588,
          0.6525269150733948,
          -0.08242879062891006,
          -0.023864232003688812,
          0.04014567658305168,
          -0.17934875190258026,
          -0.11818768829107285,
          0.06038876622915268,
          -0.07496682554483414,
          0.5953241586685181,
          0.03550538793206215,
          0.15490788221359253,
          0.15380991995334625,
          -0.10759273916482925,
          0.030357470735907555,
          -0.011007911525666714,
          0.1114685982465744,
          0.1709839403629303,
          0.016625601798295975,
          -0.026882322505116463,
          0.03955285996198654,
          0.02930469997227192,
          0.056886568665504456,
          0.07546764612197876,
          0.06891164928674698,
          0.08334653824567795,
          -0.04757353663444519,
          -0.08121370524168015,
          0.06534910202026367,
          0.009793009608983994,
          0.023557476699352264,
          0.027464069426059723,
          -0.007753008510917425,
          -0.08438872545957565,
          0.08838657289743423,
          0.06778493523597717,
          -0.11160346865653992,
          -0.040078580379486084,
          -0.025819776579737663,
          -0.022583456709980965,
          -0.04225774109363556,
          -0.08673033863306046,
          -0.060021888464689255,
          0.007120373658835888,
          -0.00421864353120327,
          0.0022776960395276546,
          0.10523275285959244,
          0.10752316564321518,
          -0.22705377638339996,
          0.2714119255542755,
          -0.10349798202514648,
          -0.06910441815853119,
          -0.0479113943874836,
          0.09299447387456894,
          0.01974465511739254,
          0.19341930747032166
        ],
        [
          -0.06838349997997284,
          -0.041884876787662506,
          -0.15558354556560516,
          -0.13428156077861786,
          -0.43384426832199097,
          0.023590363562107086,
          0.24051441252231598,
          0.1452496200799942,
          0.06735298037528992,
          0.17605556547641754,
          -0.2666376233100891,
          0.06506668031215668,
          0.12870678305625916,
          -0.06657902151346207,
          -0.12292102724313736,
          0.013267214410007,
          -0.4830451011657715,
          0.07079276442527771,
          -0.017689969390630722,
          0.18937188386917114,
          0.2896379828453064,
          -0.1301100105047226,
          0.0064657991752028465,
          0.01351387519389391,
          -0.4728160500526428,
          -0.034869447350502014,
          0.05528664216399193,
          -0.34411659836769104,
          0.07467330247163773,
          -0.11015261709690094,
          -0.5447716116905212,
          -0.17384374141693115,
          0.15078042447566986,
          0.17375989258289337,
          -0.25552669167518616,
          -0.41911908984184265,
          -0.07626944035291672,
          -0.1668909192085266,
          0.017117546871304512,
          -0.15925835072994232,
          0.014546027407050133,
          -0.3533829152584076,
          0.022426296025514603,
          -0.494504451751709,
          -0.1359376609325409,
          -0.0808832198381424,
          -0.2643122673034668,
          -0.03356088325381279,
          -0.16582293808460236,
          -0.1858862340450287,
          0.0950026661157608,
          -0.03899756446480751,
          -0.12953372299671173,
          -0.014781009405851364,
          -0.19928517937660217,
          -0.4434914290904999,
          0.1265096217393875,
          -0.3098808825016022,
          0.04012295603752136,
          -0.0213259719312191,
          -0.4154258668422699,
          0.10174573212862015,
          -0.0972379595041275,
          -0.0039747003465890884
        ],
        [
          0.06924682855606079,
          -0.24998559057712555,
          0.18157793581485748,
          0.0057414923794567585,
          0.02218320593237877,
          -0.06659983843564987,
          -0.1247352883219719,
          -0.07045043259859085,
          -0.06735748797655106,
          0.1424281746149063,
          -0.29311850666999817,
          0.051577936857938766,
          -0.0012468661880120635,
          0.2164500504732132,
          -0.012745162472128868,
          -0.22319917380809784,
          -0.29156622290611267,
          0.13733458518981934,
          0.1410011500120163,
          0.11364103108644485,
          0.1962479054927826,
          0.025084327906370163,
          -0.007167439442127943,
          0.07181491702795029,
          -0.3789880573749542,
          -0.2970844507217407,
          -0.05597865954041481,
          -0.2035127431154251,
          -0.06909296661615372,
          0.03153276443481445,
          -0.23025034368038177,
          0.3180809020996094,
          -0.20160414278507233,
          0.027125002816319466,
          -0.21035492420196533,
          0.14407223463058472,
          -0.033050522208213806,
          0.028434811159968376,
          0.15729910135269165,
          0.10437198728322983,
          -0.11879881471395493,
          0.08000819385051727,
          0.4341431260108948,
          0.04037755727767944,
          0.13219867646694183,
          -0.05300786718726158,
          0.13612715899944305,
          0.019718442112207413,
          -0.43877896666526794,
          -0.060638852417469025,
          0.24917826056480408,
          0.040175195783376694,
          -0.2554062604904175,
          0.5596500039100647,
          -0.22289884090423584,
          0.20811215043067932,
          -0.0785798728466034,
          0.0962548777461052,
          -0.13707825541496277,
          0.1551745980978012,
          -0.13481558859348297,
          0.007531657349318266,
          -0.07792682945728302,
          -0.14727362990379333
        ],
        [
          0.07694999128580093,
          -0.15434761345386505,
          0.0836072489619255,
          0.17449116706848145,
          0.17279739677906036,
          -0.10554316639900208,
          -0.04728013649582863,
          -0.17329660058021545,
          0.04254715144634247,
          0.03628884255886078,
          0.2115539312362671,
          -0.02798026241362095,
          -0.058530960232019424,
          -0.1071169301867485,
          -0.19334660470485687,
          -0.1793203353881836,
          0.006349900271743536,
          -0.08572030067443848,
          0.26063960790634155,
          -0.03296758607029915,
          0.15441812574863434,
          -0.07664430141448975,
          -0.1173374280333519,
          0.09490297734737396,
          0.008733360096812248,
          0.17847499251365662,
          0.3981224000453949,
          0.06792142987251282,
          0.08888569474220276,
          0.0671430379152298,
          -0.14422091841697693,
          0.21829649806022644,
          0.04501589387655258,
          0.09587311744689941,
          -0.030548587441444397,
          -0.14216972887516022,
          -0.07600531727075577,
          -0.11248157173395157,
          -0.2639664113521576,
          0.005107887089252472,
          0.29521551728248596,
          0.18481303751468658,
          -0.10805795341730118,
          0.044995035976171494,
          0.03739190846681595,
          -0.028048351407051086,
          0.25028330087661743,
          -0.3692094385623932,
          0.21099528670310974,
          -0.0009436156833544374,
          0.015359773300588131,
          0.2469237893819809,
          -0.03978988900780678,
          -0.16498501598834991,
          0.3363192677497864,
          0.048367083072662354,
          -0.04452865943312645,
          0.03157742694020271,
          0.046744946390390396,
          -0.13133712112903595,
          0.07802924513816833,
          -0.0627526342868805,
          -0.03775714337825775,
          -0.034727539867162704
        ],
        [
          0.25931596755981445,
          0.0018685414688661695,
          -0.09932658076286316,
          -0.015215991996228695,
          0.143771231174469,
          -0.01850772835314274,
          0.19894786179065704,
          0.13429753482341766,
          -0.13826927542686462,
          -0.2613418996334076,
          0.12448205053806305,
          -0.08814755082130432,
          -0.08152328431606293,
          0.11341170221567154,
          0.010807600803673267,
          -0.018919892609119415,
          -0.07901354134082794,
          0.4132002294063568,
          0.027853114530444145,
          0.016747435554862022,
          -0.19338269531726837,
          -0.13933782279491425,
          0.07318858802318573,
          -0.25526008009910583,
          0.17880962789058685,
          0.22558385133743286,
          0.02670900896191597,
          0.025806766003370285,
          0.04940732195973396,
          0.1467331498861313,
          0.012042861431837082,
          -0.015571742318570614,
          -0.24570170044898987,
          -0.12267197668552399,
          0.14946739375591278,
          0.036034949123859406,
          0.03941342234611511,
          0.06967683136463165,
          0.08577319234609604,
          0.1377711147069931,
          -0.16041040420532227,
          -0.17787256836891174,
          0.25565168261528015,
          0.028757402673363686,
          0.007214952725917101,
          0.08490760624408722,
          0.015152999199926853,
          -0.0749804750084877,
          -0.03700795769691467,
          -0.1486099511384964,
          -0.14780285954475403,
          -0.04504169151186943,
          0.07245173305273056,
          0.08626366406679153,
          0.024634795263409615,
          0.024892685934901237,
          0.020292242988944054,
          0.22784197330474854,
          0.02568635530769825,
          0.053006693720817566,
          0.12538671493530273,
          0.06786413490772247,
          0.2714900076389313,
          0.13152599334716797
        ],
        [
          -0.08722042292356491,
          -0.07141806930303574,
          -0.14801454544067383,
          -0.2438470721244812,
          -0.013400343246757984,
          0.1026356890797615,
          -0.021795164793729782,
          -0.0917300209403038,
          0.06820498406887054,
          0.12636366486549377,
          0.12373596429824829,
          -0.1482846438884735,
          -0.24784955382347107,
          0.23908860981464386,
          -0.07659126073122025,
          0.07036314159631729,
          -0.04588029906153679,
          -0.3796081840991974,
          0.07191170006990433,
          -0.00113768654409796,
          -0.03201740235090256,
          0.05840061604976654,
          -0.0628369078040123,
          -0.160030797123909,
          0.1374940574169159,
          0.1837279349565506,
          0.13766904175281525,
          -0.047210387885570526,
          -0.09930859506130219,
          0.15424016118049622,
          -0.09943829476833344,
          0.08329705148935318,
          0.12606073915958405,
          -0.09789057821035385,
          0.056163396686315536,
          0.05097389966249466,
          0.08904149383306503,
          0.12670102715492249,
          -0.11101879179477692,
          -0.09176269918680191,
          -0.3302915692329407,
          -0.11209259927272797,
          -0.05993334949016571,
          0.037315499037504196,
          -0.008322462439537048,
          -0.27210599184036255,
          -0.21781712770462036,
          0.1384258270263672,
          -0.3011384606361389,
          -0.2257121503353119,
          0.012662283144891262,
          -0.07286618649959564,
          -0.08194822818040848,
          0.05500109866261482,
          0.12224545329809189,
          0.06275889277458191,
          0.06488964706659317,
          0.17248457670211792,
          0.03274419531226158,
          -0.13752131164073944,
          0.015541882254183292,
          0.12399425357580185,
          -0.036004532128572464,
          0.14493554830551147
        ],
        [
          0.013058203272521496,
          -0.043530430644750595,
          -0.1669224202632904,
          0.11175613105297089,
          -0.06746003031730652,
          0.0985269546508789,
          0.22569002211093903,
          0.14284178614616394,
          -0.10129103809595108,
          0.22213704884052277,
          0.04975244402885437,
          0.03379123657941818,
          -0.05529935285449028,
          0.20352588593959808,
          -0.48214972019195557,
          0.01571790501475334,
          -0.023864315822720528,
          -0.34921157360076904,
          0.15055228769779205,
          0.011559633538126945,
          -0.05127592384815216,
          -0.11937906593084335,
          -0.03900500386953354,
          -0.027259936556220055,
          -0.02460266649723053,
          0.06136060133576393,
          -0.0881548821926117,
          0.011044364422559738,
          -0.03014473058283329,
          -0.006719085853546858,
          -0.1120210587978363,
          -0.10233023017644882,
          0.06544637680053711,
          0.1403280794620514,
          -0.028104843571782112,
          0.15967796742916107,
          0.01649564690887928,
          -0.18530245125293732,
          0.044370923191308975,
          -0.0020239006262272596,
          -0.049733664840459824,
          -0.015798378735780716,
          -0.053966082632541656,
          0.03223749250173569,
          -0.01143463421612978,
          -0.31106075644493103,
          -0.012822960503399372,
          -0.00310512469150126,
          0.07766327261924744,
          0.05135979503393173,
          0.15754343569278717,
          -0.007942971773445606,
          -0.1113959327340126,
          0.024652179330587387,
          0.004775495734065771,
          0.1417563557624817,
          0.1436920464038849,
          0.3559974730014801,
          0.061240654438734055,
          -0.05740869790315628,
          0.007947771809995174,
          -0.04619098827242851,
          0.10182300955057144,
          0.25487473607063293
        ],
        [
          0.033148739486932755,
          -0.008363298140466213,
          -0.004821955692023039,
          0.08057575672864914,
          0.03431278467178345,
          -0.07034504413604736,
          0.07850540429353714,
          0.3129180669784546,
          -0.01971254125237465,
          -0.019200986251235008,
          0.14522726833820343,
          -0.006827939301729202,
          0.05199246108531952,
          0.12099318206310272,
          -0.11185359209775925,
          -0.04568914324045181,
          0.08484605699777603,
          -0.11334631592035294,
          -0.03275774419307709,
          0.04399944469332695,
          -0.001261437893845141,
          0.007159445900470018,
          -0.11252455413341522,
          0.005408704746514559,
          0.07027700543403625,
          0.021463273093104362,
          -0.15591533482074738,
          -0.07109898328781128,
          -0.08433594554662704,
          0.04566909000277519,
          -0.019131692126393318,
          0.05870097875595093,
          -0.0452537015080452,
          0.007326859049499035,
          0.08875445276498795,
          0.21165192127227783,
          0.10517062246799469,
          -0.044920675456523895,
          0.10919985920190811,
          -0.009755690582096577,
          0.3359529972076416,
          -0.0065289647318422794,
          -0.062130801379680634,
          0.031735606491565704,
          -0.05886489525437355,
          -0.04805818572640419,
          0.07726551592350006,
          -0.04810392111539841,
          0.09660810232162476,
          -0.010205716826021671,
          -0.15376786887645721,
          -0.13004283607006073,
          0.10315161943435669,
          -0.1913844645023346,
          0.12672440707683563,
          -0.33740150928497314,
          -0.10762862861156464,
          0.0005582611192949116,
          0.16012565791606903,
          -0.0860910713672638,
          0.16105780005455017,
          -0.001358525245450437,
          -0.05951007083058357,
          0.04694487527012825
        ],
        [
          0.20122937858104706,
          0.07280223071575165,
          0.11253190040588379,
          0.13063953816890717,
          0.031531497836112976,
          0.13293986022472382,
          -0.05677581578493118,
          0.4333336055278778,
          0.07481583207845688,
          -0.020271919667720795,
          -0.1679943948984146,
          0.1138877347111702,
          0.16218741238117218,
          -0.00490554329007864,
          0.05148454010486603,
          -0.05288310721516609,
          0.1663639098405838,
          0.06656190752983093,
          0.04544668272137642,
          0.1712626814842224,
          0.2618032991886139,
          -0.058098338544368744,
          -0.08389350771903992,
          -0.02933555468916893,
          0.04868258163332939,
          0.02592923864722252,
          0.028169889003038406,
          -0.04396481439471245,
          -0.13676410913467407,
          0.055847108364105225,
          -0.03734052926301956,
          0.18815381824970245,
          -0.029740815982222557,
          -0.05553904175758362,
          -0.04763462767004967,
          0.07078874111175537,
          -0.04562035948038101,
          0.004106813110411167,
          0.30592411756515503,
          -0.006829288322478533,
          0.05808370187878609,
          0.01236097700893879,
          0.0017789768753573298,
          0.072879858314991,
          0.08226755261421204,
          0.12052985280752182,
          0.07651734352111816,
          -0.24968324601650238,
          0.2201099395751953,
          -0.09164455533027649,
          0.017231926321983337,
          0.11385367810726166,
          -0.07965801656246185,
          0.12920227646827698,
          -0.0006700326921418309,
          0.027371525764465332,
          0.1371084451675415,
          0.04872887581586838,
          -0.14996646344661713,
          -0.07950513809919357,
          0.011399588547647,
          -0.2276274710893631,
          0.16571949422359467,
          0.009071857668459415
        ],
        [
          -0.005049420055001974,
          0.07670078426599503,
          0.042683109641075134,
          -0.027585243806242943,
          0.11119581013917923,
          -0.006781215779483318,
          -0.0534290187060833,
          -0.19070330262184143,
          -0.09425412118434906,
          0.5353711843490601,
          0.019866405054926872,
          -0.4019595980644226,
          0.14019553363323212,
          -0.1565902829170227,
          0.08559758216142654,
          -0.014063514769077301,
          0.08215809613466263,
          0.2673884332180023,
          0.03877038508653641,
          -0.23832981288433075,
          -0.06838725507259369,
          0.05108648166060448,
          -0.12896277010440826,
          -0.0010580914095044136,
          -0.047964051365852356,
          -0.17817671597003937,
          -0.09016260504722595,
          0.016480209305882454,
          -0.12656915187835693,
          -0.003153618425130844,
          0.08326003700494766,
          0.12110227346420288,
          0.1819908320903778,
          -0.0635085478425026,
          0.009228597395122051,
          -0.020690657198429108,
          0.13263946771621704,
          0.1508171260356903,
          -0.21924740076065063,
          -0.03808361664414406,
          -0.01970086805522442,
          -0.039871443063020706,
          -0.016183719038963318,
          0.007184240035712719,
          -0.0906229019165039,
          0.11825058609247208,
          -0.05792954936623573,
          -0.006055338773876429,
          -0.36666420102119446,
          0.07892897725105286,
          -0.22712117433547974,
          -0.09730201959609985,
          0.021634139120578766,
          0.08308444917201996,
          -0.03752977401018143,
          0.09469142556190491,
          -0.12613040208816528,
          0.37368616461753845,
          0.040033575147390366,
          0.12061963230371475,
          0.1497965008020401,
          0.2669352889060974,
          -0.09627881646156311,
          0.11503296345472336
        ],
        [
          0.025644540786743164,
          0.2533305585384369,
          0.0805075392127037,
          -0.13363611698150635,
          0.06464143097400665,
          0.18070060014724731,
          0.06507519632577896,
          0.12319868057966232,
          0.0774141475558281,
          0.27269038558006287,
          0.4119832217693329,
          0.02423921413719654,
          0.2566119432449341,
          0.16510643064975739,
          -0.015470889396965504,
          0.026864182204008102,
          -0.4069947600364685,
          0.16464771330356598,
          0.07405629754066467,
          0.22230465710163116,
          -0.031053466722369194,
          -0.03243717551231384,
          0.09595224261283875,
          0.0340023972094059,
          0.11798108369112015,
          0.4294885993003845,
          -0.1396215409040451,
          0.11444242298603058,
          -0.008890469558537006,
          0.13998839259147644,
          -0.04686853289604187,
          -0.23443655669689178,
          -0.1343575417995453,
          0.313162237405777,
          0.09202489256858826,
          -0.5139182209968567,
          0.03381061926484108,
          0.09400536864995956,
          0.040130358189344406,
          -0.034173402935266495,
          -0.19385655224323273,
          0.018268773332238197,
          -0.05232301726937294,
          -0.640084981918335,
          0.2874573767185211,
          0.09030627459287643,
          -0.3925240933895111,
          0.16454023122787476,
          -0.2316831797361374,
          -1.0601060390472412,
          0.21781964600086212,
          -0.03694765269756317,
          0.028222976252436638,
          0.021440984681248665,
          -0.07180875539779663,
          -0.5875678658485413,
          -0.03585866093635559,
          0.013834990561008453,
          0.11263734847307205,
          -0.10577760636806488,
          -0.17668747901916504,
          0.13897347450256348,
          -0.03420570492744446,
          0.18562369048595428
        ],
        [
          -0.029573172330856323,
          -0.08221936970949173,
          -0.18821510672569275,
          0.0064881411381065845,
          -0.04031385853886604,
          -0.14229749143123627,
          -0.0906413346529007,
          0.03359132260084152,
          -0.09421868622303009,
          -0.07433071732521057,
          0.22486913204193115,
          0.016138296574354172,
          0.03376898542046547,
          0.4383179843425751,
          -0.049367934465408325,
          -0.41736045479774475,
          -0.12491065263748169,
          0.297254741191864,
          -0.00993174035102129,
          -0.20648109912872314,
          0.09522776305675507,
          -0.12341028451919556,
          0.009615927934646606,
          0.07232848554849625,
          0.15458227694034576,
          0.12551382184028625,
          -0.042031578719615936,
          -0.031741395592689514,
          -0.003913007210940123,
          -0.0874570831656456,
          -0.003813783871009946,
          0.17523953318595886,
          -0.21615412831306458,
          0.044856585562229156,
          0.08879140019416809,
          -0.022976109758019447,
          -0.004890072159469128,
          0.19967761635780334,
          -0.17304280400276184,
          0.09262578934431076,
          0.06083542853593826,
          -0.05573255568742752,
          0.014940229244530201,
          -0.10909163951873779,
          -0.19808506965637207,
          -0.025998132303357124,
          -0.12618565559387207,
          0.12788155674934387,
          -0.1806701272726059,
          -0.07742978632450104,
          -0.007333099376410246,
          -0.0499868206679821,
          -0.12021836638450623,
          -0.2593967616558075,
          0.25463631749153137,
          -0.28110232949256897,
          -0.046914901584386826,
          -0.19332951307296753,
          0.15223799645900726,
          -0.06284275650978088,
          0.10365738719701767,
          0.24247664213180542,
          0.03719884157180786,
          -0.10837825387716293
        ],
        [
          -0.0524059534072876,
          -0.1591838300228119,
          -0.10033594071865082,
          -0.08424307405948639,
          0.09423739463090897,
          -0.0390753410756588,
          0.038073234260082245,
          0.17089544236660004,
          -0.019529415294528008,
          -0.01644020527601242,
          0.3224834203720093,
          0.016897037625312805,
          0.03758164867758751,
          -0.17942290008068085,
          -8.065874135354534e-05,
          -0.048130083829164505,
          0.1403573751449585,
          -0.03786589577794075,
          -0.06057385355234146,
          0.04958542808890343,
          0.00799754448235035,
          -0.023442357778549194,
          -0.1319505274295807,
          -0.03434217721223831,
          0.1670718640089035,
          0.3141518533229828,
          -0.08808394521474838,
          -0.043703410774469376,
          -0.07854965329170227,
          0.17959019541740417,
          -0.10140299797058105,
          0.12235300242900848,
          0.09240315854549408,
          -0.11325471103191376,
          0.11862201243638992,
          0.2268291711807251,
          0.10755141824483871,
          0.017356716096401215,
          -0.10002625733613968,
          -0.04485652595758438,
          0.002348146867007017,
          0.17733725905418396,
          -0.09133946895599365,
          0.2224404215812683,
          0.012137423269450665,
          0.024510227143764496,
          -0.05803961679339409,
          0.12774842977523804,
          0.14567987620830536,
          0.1384614259004593,
          -0.039018381386995316,
          -0.05807150527834892,
          -0.12058734148740768,
          -0.037777263671159744,
          0.2993762791156769,
          -0.1409820169210434,
          0.11332976818084717,
          -0.0022091844584792852,
          -0.012438740581274033,
          0.013519112952053547,
          0.1526491641998291,
          -0.008886681869626045,
          0.05861470475792885,
          0.08127585053443909
        ],
        [
          -0.051250435411930084,
          0.048988789319992065,
          0.06126086413860321,
          0.10006938129663467,
          0.1558239609003067,
          -0.21161246299743652,
          -0.1892303228378296,
          0.218280628323555,
          -0.12268077582120895,
          0.08167605847120285,
          -0.007920056581497192,
          -0.39092791080474854,
          -0.17445683479309082,
          -0.32347729802131653,
          0.10974111407995224,
          0.052807025611400604,
          -0.18605726957321167,
          -0.05527026951313019,
          -0.0030720504000782967,
          0.052379947155714035,
          -0.12278643250465393,
          -0.06471915543079376,
          0.03939776122570038,
          0.0221827682107687,
          0.11034776270389557,
          0.07445733994245529,
          0.22809311747550964,
          0.16137932240962982,
          -0.10721304267644882,
          -0.17452602088451385,
          0.06585465371608734,
          0.05849502980709076,
          0.21297693252563477,
          -0.17990171909332275,
          0.129320427775383,
          0.2526371479034424,
          0.1465686708688736,
          -0.03738082945346832,
          -0.06872054189443588,
          -0.04978848993778229,
          0.056253623217344284,
          0.007822276093065739,
          -0.04290163516998291,
          0.1462392508983612,
          0.06624636054039001,
          -0.05317060649394989,
          0.23726843297481537,
          -0.25291189551353455,
          0.35556861758232117,
          -0.045847296714782715,
          -0.16851763427257538,
          0.333610475063324,
          0.1944132298231125,
          0.001902622519992292,
          0.2311408519744873,
          0.1514328122138977,
          -0.010096746496856213,
          -0.08496005833148956,
          0.047531288117170334,
          0.03926964849233627,
          0.18724393844604492,
          -0.08893464505672455,
          0.147382915019989,
          0.007321868557482958
        ],
        [
          0.30564621090888977,
          -0.13667146861553192,
          0.14609794318675995,
          -0.10857940465211868,
          0.1772872507572174,
          -0.19505086541175842,
          -0.02480204589664936,
          0.07382657378911972,
          0.07823643088340759,
          -0.1791437566280365,
          0.16318784654140472,
          0.020827414467930794,
          0.03348993510007858,
          0.1921669840812683,
          0.16390061378479004,
          -0.0460808128118515,
          0.15739910304546356,
          -0.03344504162669182,
          -0.08163962513208389,
          -0.30319809913635254,
          0.032416343688964844,
          0.028695128858089447,
          0.07157881557941437,
          -0.06232534721493721,
          0.13987886905670166,
          0.14288577437400818,
          -0.030691882595419884,
          0.1760396957397461,
          -0.11065247654914856,
          -0.0026490117888897657,
          0.07273636758327484,
          0.21790170669555664,
          -0.0666988417506218,
          0.10773415863513947,
          0.11774062365293503,
          -0.0005656821886077523,
          0.07433381676673889,
          -0.048011574894189835,
          0.07220332324504852,
          0.09310808032751083,
          0.025364749133586884,
          -0.04076458141207695,
          0.04886768013238907,
          0.27512142062187195,
          -0.004305353853851557,
          -0.08903615921735764,
          0.06566591560840607,
          0.03866003826260567,
          -0.12107955664396286,
          0.06327155232429504,
          -0.10412584990262985,
          0.08826669305562973,
          -0.12971733510494232,
          0.09219103306531906,
          0.2556264102458954,
          -0.13408294320106506,
          -0.10567238926887512,
          0.01911337859928608,
          0.029167190194129944,
          0.0002884532150346786,
          0.05302060395479202,
          -0.011726207099854946,
          -0.03733401745557785,
          0.09680884331464767
        ],
        [
          -0.02521420083940029,
          -0.051695629954338074,
          0.01752564124763012,
          -0.02315782569348812,
          -0.06178896501660347,
          0.2017262578010559,
          -0.009212987497448921,
          0.018763970583677292,
          -0.07626283168792725,
          -0.176057368516922,
          0.008276400156319141,
          0.4025329053401947,
          0.05216393992304802,
          0.07643306255340576,
          -0.1817006915807724,
          -0.0004833440179936588,
          0.17370888590812683,
          0.1810023933649063,
          0.015706440433859825,
          0.026134181767702103,
          0.05178135260939598,
          -0.08734878897666931,
          -0.1267215609550476,
          -0.046778276562690735,
          0.13795335590839386,
          0.0826566144824028,
          -0.38666167855262756,
          0.3289841115474701,
          0.03537476807832718,
          0.049697622656822205,
          -0.013879978097975254,
          -0.026380732655525208,
          0.1640896499156952,
          0.013706053607165813,
          0.13618582487106323,
          0.09073416143655777,
          0.010763308964669704,
          0.09204154461622238,
          -0.06833318620920181,
          -0.03156758472323418,
          0.015411557629704475,
          -0.041415054351091385,
          0.0015235793543979526,
          -0.12015283852815628,
          0.1076589971780777,
          0.06461873650550842,
          -0.12139450758695602,
          0.10123255103826523,
          0.18428537249565125,
          -0.06659351289272308,
          0.3004301190376282,
          0.3128003776073456,
          0.14312918484210968,
          -0.08413896709680557,
          -0.2667003870010376,
          0.208907812833786,
          -0.007375666871666908,
          -0.03657814860343933,
          0.0316077321767807,
          -0.17541305720806122,
          0.07477293163537979,
          0.04140537604689598,
          0.14815838634967804,
          0.6182553768157959
        ],
        [
          -0.03489013388752937,
          0.023293383419513702,
          -0.1445012241601944,
          -0.12240143865346909,
          -0.036499299108982086,
          0.12716054916381836,
          0.012587364763021469,
          0.19319124519824982,
          0.040311992168426514,
          -0.11045250296592712,
          -0.11994589120149612,
          0.032186198979616165,
          0.07692250609397888,
          -0.10372864454984665,
          -0.03214932605624199,
          0.06190675497055054,
          0.03443795442581177,
          -0.10985151678323746,
          -0.17141996324062347,
          0.26208582520484924,
          0.02998117357492447,
          -0.12174781411886215,
          -0.0985434353351593,
          0.030419442802667618,
          -0.004470823798328638,
          -0.5868096351623535,
          0.042093221098184586,
          -0.0058214240707457066,
          -0.09453460574150085,
          0.02475982904434204,
          -0.0917019322514534,
          0.14554107189178467,
          -0.0440414622426033,
          0.04811612889170647,
          -0.1699954718351364,
          -0.027012277394533157,
          -0.09622922539710999,
          -0.04164974391460419,
          -0.12034479528665543,
          -0.03236300125718117,
          0.06620902568101883,
          0.026720309630036354,
          -0.020214149728417397,
          0.03763652220368385,
          -0.15503478050231934,
          -0.049988359212875366,
          0.00553526496514678,
          0.0796259343624115,
          -0.3275313377380371,
          0.0992501899600029,
          -0.35087430477142334,
          -0.0978984534740448,
          -0.03799950331449509,
          0.06308501958847046,
          -0.09634209424257278,
          -0.000899043632671237,
          0.07679682970046997,
          -0.07048822194337845,
          0.2850007712841034,
          -0.07112254947423935,
          -0.09518032521009445,
          0.12629272043704987,
          0.006728475913405418,
          0.022456593811511993
        ],
        [
          -0.5649651885032654,
          0.06774485111236572,
          -0.3537020683288574,
          -0.32384616136550903,
          -0.11424950510263443,
          0.22908946871757507,
          0.07989156991243362,
          0.03481455147266388,
          -0.11784550547599792,
          -0.11022531986236572,
          -0.012781360186636448,
          0.1004708781838417,
          -0.08616482466459274,
          0.18122437596321106,
          -0.10843310505151749,
          0.17181336879730225,
          -0.18520735204219818,
          0.03737739473581314,
          -0.03546488285064697,
          0.2725234627723694,
          0.252307265996933,
          -0.04548146575689316,
          -0.013927105814218521,
          0.3879047930240631,
          -0.006789787672460079,
          0.06688255071640015,
          -1.310339093208313,
          0.15050935745239258,
          0.08333417773246765,
          -0.4664519727230072,
          0.17435239255428314,
          0.11272026598453522,
          0.17041215300559998,
          0.11326491087675095,
          -0.11266359686851501,
          -0.37148815393447876,
          -0.02330179326236248,
          0.058422647416591644,
          0.16567382216453552,
          -0.20707808434963226,
          -0.08498451113700867,
          -0.1807103306055069,
          0.07291469722986221,
          -0.24982208013534546,
          -0.3052218556404114,
          0.3185652196407318,
          -0.5389664173126221,
          0.1633385270833969,
          0.006593954749405384,
          -0.019432472065091133,
          -0.08788152039051056,
          -0.07735869288444519,
          0.045697666704654694,
          0.19728407263755798,
          0.03890761360526085,
          -0.449965238571167,
          0.12529824674129486,
          0.17983093857765198,
          -0.1515309065580368,
          -0.27139636874198914,
          -0.1232689693570137,
          -0.1500568389892578,
          0.022436099126935005,
          0.0492355115711689
        ],
        [
          -0.013025912456214428,
          -0.1670091301202774,
          -0.08063412457704544,
          -0.4331069886684418,
          -0.3661894202232361,
          -0.0858902707695961,
          0.04744928330183029,
          -0.11233630776405334,
          -0.06314302235841751,
          -0.10020051151514053,
          -0.4455740749835968,
          0.1827276200056076,
          -0.09094701707363129,
          -0.19967924058437347,
          -0.06514717638492584,
          -0.0043211099691689014,
          -0.554368257522583,
          0.12917464971542358,
          0.3794850707054138,
          -0.04009716212749481,
          0.03467525541782379,
          -0.11083520203828812,
          0.04400233179330826,
          -0.5166094303131104,
          -0.19935427606105804,
          -0.7577531337738037,
          -0.11124207824468613,
          -0.10842886567115784,
          0.05476789548993111,
          -0.2282993495464325,
          -0.6596924662590027,
          -0.055793192237615585,
          0.1668938547372818,
          0.33905816078186035,
          -0.006868557073175907,
          -0.35674041509628296,
          -0.222063347697258,
          0.029996924102306366,
          -0.20545421540737152,
          -0.18433114886283875,
          0.258405864238739,
          -0.3152789771556854,
          -0.056735288351774216,
          -0.37665849924087524,
          0.09565386176109314,
          -0.012730810791254044,
          -0.5546027421951294,
          0.04788331687450409,
          -0.9586397409439087,
          -0.1607123762369156,
          -0.06667787581682205,
          0.05386526137590408,
          0.05195052549242973,
          -0.10148758441209793,
          -0.17262442409992218,
          -0.1591748148202896,
          -0.04817674309015274,
          0.005796198267489672,
          -0.13141155242919922,
          -0.2590351700782776,
          -0.3410589396953583,
          0.18984989821910858,
          -0.13939861953258514,
          -0.021324126049876213
        ],
        [
          0.26316654682159424,
          -0.09697763621807098,
          0.1821313351392746,
          0.12682200968265533,
          -0.07700761407613754,
          -0.1800418645143509,
          0.07788470387458801,
          -0.06511238217353821,
          -0.13808146119117737,
          0.0036174424458295107,
          -0.06141180545091629,
          -0.15597903728485107,
          -0.21452613174915314,
          0.06227586418390274,
          0.009818258695304394,
          -0.13414713740348816,
          -0.1807948797941208,
          -0.02696707658469677,
          -0.018533404916524887,
          0.15561246871948242,
          0.3523155152797699,
          -0.13242506980895996,
          0.025163833051919937,
          -0.5055022239685059,
          0.07061582803726196,
          -0.023745954036712646,
          -0.05797490105032921,
          0.05936601012945175,
          -0.11651741713285446,
          0.3859706521034241,
          -0.1787344217300415,
          0.08276449888944626,
          -0.019065842032432556,
          -0.3514689803123474,
          -0.056294508278369904,
          0.019594090059399605,
          0.07265196740627289,
          0.13755092024803162,
          0.2059212327003479,
          -0.05395912006497383,
          0.07184402644634247,
          -0.2966311275959015,
          -0.0772734135389328,
          -0.00840108934789896,
          0.20173487067222595,
          -0.20042544603347778,
          -0.2220604121685028,
          -0.03384905308485031,
          0.0598575621843338,
          -0.04038412496447563,
          -0.029110724106431007,
          0.14259816706180573,
          0.05695344880223274,
          -0.11011771857738495,
          -0.2965468466281891,
          -0.16721795499324799,
          -0.1793057769536972,
          -0.09953717142343521,
          -0.18874096870422363,
          0.055300209671258926,
          -0.1557999849319458,
          0.03677349165081978,
          -0.002081210957840085,
          0.10272665321826935
        ],
        [
          -0.09321624040603638,
          -0.03382369503378868,
          0.03040376491844654,
          0.026462849229574203,
          -0.0060440246015787125,
          0.019012343138456345,
          0.02354324422776699,
          0.518242359161377,
          -0.03683491051197052,
          -0.006019969936460257,
          -0.09372711181640625,
          0.0159362331032753,
          0.03569171950221062,
          0.03757137060165405,
          -0.004874971229583025,
          0.014942286536097527,
          -0.026138486340641975,
          -0.003554370254278183,
          -0.03072967194020748,
          0.3603789508342743,
          0.11757685244083405,
          -0.13312114775180817,
          -0.10846029222011566,
          0.0044480846263468266,
          0.06348024308681488,
          0.251444011926651,
          0.09502098709344864,
          -0.04214140772819519,
          0.043879445642232895,
          -0.015506546013057232,
          -0.060289204120635986,
          0.34440872073173523,
          -0.09169774502515793,
          -0.011820778250694275,
          -0.009615600109100342,
          0.20651742815971375,
          -0.013474959880113602,
          -0.061664219945669174,
          0.10705824196338654,
          -0.10159140825271606,
          0.07320012152194977,
          -0.1582169532775879,
          0.1368323117494583,
          0.026601001620292664,
          0.07746830582618713,
          0.038792941719293594,
          -0.014168249443173409,
          0.0036637336015701294,
          0.5059800148010254,
          -0.10425078123807907,
          -0.12569378316402435,
          0.11178038269281387,
          0.043263956904411316,
          0.001725481590256095,
          -0.016296589747071266,
          -0.040863338857889175,
          -0.028806880116462708,
          0.057099003344774246,
          0.08295577764511108,
          -0.30394357442855835,
          -0.07491384446620941,
          -0.12246833741664886,
          -0.03177502751350403,
          -0.03494446352124214
        ],
        [
          -0.10027666389942169,
          -0.03247528523206711,
          -0.21161270141601562,
          -0.2624974846839905,
          -0.12777486443519592,
          0.06861622631549835,
          0.11459699273109436,
          0.015227782540023327,
          -0.10909368842840195,
          -0.036222755908966064,
          0.16790132224559784,
          0.18989680707454681,
          0.1814895123243332,
          0.24025969207286835,
          -0.10620522499084473,
          0.204853817820549,
          0.04056491702795029,
          0.11184178292751312,
          -0.011707539670169353,
          0.11917150765657425,
          -0.2885032594203949,
          -0.0787244662642479,
          -0.06244945898652077,
          -0.031484588980674744,
          -0.26397159695625305,
          0.14175589382648468,
          -0.5186370611190796,
          -0.22640617191791534,
          0.007557514123618603,
          -0.03514157235622406,
          0.26703116297721863,
          0.022883951663970947,
          0.14547523856163025,
          0.2614399194717407,
          -0.14647053182125092,
          0.13390254974365234,
          -0.02591743879020214,
          -0.053468313068151474,
          0.11935710906982422,
          -0.1257939487695694,
          -0.40669524669647217,
          0.09140681475400925,
          0.03298439830541611,
          -0.3279220759868622,
          0.010709276422858238,
          0.09231042116880417,
          -0.31135299801826477,
          0.05734219029545784,
          0.02253657951951027,
          0.05205363407731056,
          0.1464766561985016,
          -0.12798021733760834,
          0.013771562837064266,
          0.17689155042171478,
          -0.1251024752855301,
          -0.391757071018219,
          -0.09841635078191757,
          0.26698407530784607,
          -0.009096991270780563,
          -0.15953359007835388,
          0.15219244360923767,
          -0.12601721286773682,
          0.03413208946585655,
          0.08608049899339676
        ],
        [
          -0.15165920555591583,
          0.016242340207099915,
          0.13718558847904205,
          0.036803267896175385,
          0.0409727543592453,
          -0.1406756192445755,
          0.27283093333244324,
          0.01972116157412529,
          -0.06026919558644295,
          0.23677413165569305,
          -0.14051619172096252,
          0.03636356443166733,
          -0.06064996123313904,
          -0.006531641818583012,
          0.1122690737247467,
          -0.058713797479867935,
          0.20172816514968872,
          0.17264431715011597,
          0.056225307285785675,
          -0.06773298233747482,
          -0.1149773821234703,
          -0.10454168170690536,
          0.04977201670408249,
          -0.2695263922214508,
          -0.20562656223773956,
          -0.4887329638004303,
          0.09796249121427536,
          0.1542988121509552,
          -0.12718679010868073,
          0.12163972854614258,
          0.010293969884514809,
          -0.20151978731155396,
          -0.09841965138912201,
          -0.03648609295487404,
          -0.13184227049350739,
          0.15450750291347504,
          0.0015367933083325624,
          -0.09508288651704788,
          -0.05129605531692505,
          -0.015090953558683395,
          0.039492953568696976,
          0.13648170232772827,
          0.27689021825790405,
          -0.05907252058386803,
          -0.12957602739334106,
          -0.023152310401201248,
          0.13241621851921082,
          -0.0959925577044487,
          0.02252051793038845,
          0.22679013013839722,
          0.12651607394218445,
          0.11160349100828171,
          0.1087581068277359,
          0.08236569911241531,
          -0.2970268130302429,
          0.15830126404762268,
          0.01108686625957489,
          -0.01080875750631094,
          -0.20696322619915009,
          0.046739108860492706,
          -0.08022746443748474,
          0.1341789960861206,
          0.1693742871284485,
          -0.0152849480509758
        ],
        [
          0.07469800859689713,
          -0.0758955106139183,
          -0.027670739218592644,
          -0.03953245282173157,
          0.1535249501466751,
          -0.11588989943265915,
          0.007185922469943762,
          -0.0993402972817421,
          0.00012814738147426397,
          0.5611974000930786,
          0.001172788324765861,
          0.2751155495643616,
          0.10299214720726013,
          0.07036937773227692,
          -0.029018942266702652,
          0.05237201973795891,
          0.021232184022665024,
          0.17535236477851868,
          0.00014049329911358654,
          0.025542952120304108,
          -0.018698833882808685,
          0.07685212790966034,
          -0.044828955084085464,
          -0.046840570867061615,
          0.06102403998374939,
          0.16352684795856476,
          0.02886791154742241,
          0.11701570451259613,
          -0.014269785955548286,
          0.06754085421562195,
          0.12297113239765167,
          0.22995588183403015,
          0.11858604848384857,
          -0.1032705083489418,
          0.00904906541109085,
          -0.017837530001997948,
          0.1048617884516716,
          0.13621549308300018,
          0.030307650566101074,
          -0.08948342502117157,
          0.00903268251568079,
          -0.07747672498226166,
          0.03337623178958893,
          0.052953094244003296,
          -0.07563373446464539,
          -0.06521297246217728,
          -0.06287340819835663,
          0.06603531539440155,
          -0.06728777289390564,
          -0.068272165954113,
          -0.1893923282623291,
          0.0957026481628418,
          0.07296528667211533,
          0.01647944748401642,
          0.17193521559238434,
          0.08511336147785187,
          0.004059976898133755,
          -0.2949424088001251,
          -0.11883541196584702,
          -0.00820824597030878,
          0.09484157711267471,
          0.007941167801618576,
          0.008037379942834377,
          0.15276506543159485
        ],
        [
          0.02767390012741089,
          0.06280767917633057,
          -0.050421055406332016,
          0.1256723403930664,
          0.02664637379348278,
          -0.025787711143493652,
          0.24478325247764587,
          -0.19221477210521698,
          -0.01429477147758007,
          -0.10172341763973236,
          -0.15254878997802734,
          -0.0637739971280098,
          -0.018908612430095673,
          0.14589270949363708,
          0.006642278283834457,
          0.25681179761886597,
          0.09795772284269333,
          0.06317372620105743,
          0.10650571435689926,
          -0.15988793969154358,
          0.21572622656822205,
          -0.01771606132388115,
          0.0021190715488046408,
          0.03701899200677872,
          -0.05881338194012642,
          -0.03667150065302849,
          0.2391262650489807,
          0.06625581532716751,
          -0.02538611739873886,
          0.09544755518436432,
          -0.151495561003685,
          0.2467469871044159,
          -0.2087799310684204,
          -0.015487713739275932,
          -0.09025444090366364,
          -0.194333016872406,
          0.3035844564437866,
          0.10123442858457565,
          -0.034851524978876114,
          -0.02385726384818554,
          0.045479822903871536,
          0.008078506216406822,
          0.2559606432914734,
          -0.04557647556066513,
          0.47767895460128784,
          -0.016190407797694206,
          0.03417706489562988,
          -0.1136976033449173,
          -0.8055181503295898,
          -0.13087503612041473,
          -0.3575693666934967,
          0.09210199117660522,
          0.16417962312698364,
          0.06077723950147629,
          0.01999196968972683,
          0.15672536194324493,
          0.3585629463195801,
          0.06320939213037491,
          0.03595767915248871,
          0.1191064640879631,
          -0.07080724835395813,
          -0.03247994929552078,
          -0.18575339019298553,
          0.2760031819343567
        ],
        [
          -1.116774559020996,
          0.02306140959262848,
