{
  "model_type": "DeepONet",
  "meta": {
    "input_dim": 14,
    "output_shape": null,
    "param_bounds": [
      [
        0.4652281105518341,
        -0.9584283232688904,
        0.020294763147830963,
        0.008500407449901104,
        0.00850065890699625,
        0.008503000251948833,
        0.008501138538122177,
        0.008500218391418457,
        0.008501983247697353,
        0.008501801639795303,
        0.008500685915350914,
        0.008502279408276081,
        0.008500821888446808,
        0.008500961586833
      ],
      [
        4.034492492675781,
        -0.09160931408405304,
        0.5046061277389526,
        0.1614997833967209,
        0.1614983230829239,
        0.16149872541427612,
        0.1614992767572403,
        0.16149911284446716,
        0.16149988770484924,
        0.16149942576885223,
        0.16149725019931793,
        0.16149982810020447,
        0.16149987280368805,
        0.16149775683879852
      ]
    ],
    "output_scaler": {
      "mean_": [
        0.2646933248836597
      ],
      "scale_": [
        0.09364998724533573
      ]
    },
    "strikes": [
      0.5,
      0.6000000238418579,
      0.699999988079071,
      0.800000011920929,
      0.8999999761581421,
      1.0,
      1.100000023841858,
      1.2000000476837158,
      1.2999999523162842,
      1.399999976158142,
      1.5
    ],
    "maturities": [
      0.10000000149011612,
      0.30000001192092896,
      0.5,
      0.699999988079071,
      0.8999999761581421,
      1.100000023841858,
      1.2999999523162842,
      1.5,
      1.7000000476837158,
      1.899999976158142,
      2.0999999046325684
    ]
  },
  "layers": [],
  "branch_layers": [
    {
      "W": [
        [
          0.028997039422392845,
          -0.07590488344430923,
          0.21773691475391388,
          0.160788893699646,
          0.25414881110191345,
          0.6712429523468018,
          -0.05216791480779648,
          -0.2205306440591812,
          -0.0748579353094101,
          -0.15928234159946442,
          0.02134237438440323,
          0.3923449218273163,
          -0.011346467770636082,
          0.06684314459562302,
          0.4974488317966461,
          -0.052421145141124725,
          0.447799414396286,
          -0.568656861782074,
          0.022467439994215965,
          -0.11414999514818192,
          0.4405210614204407,
          0.8624752163887024,
          -0.11630403995513916,
          0.05381510406732559,
          0.44071680307388306,
          -0.23961271345615387,
          -0.1085401102900505,
          -0.9850952625274658,
          -0.1958456188440323,
          0.4612049460411072,
          -0.27731409668922424,
          -0.15684691071510315,
          -0.2154219150543213,
          -0.7818724513053894,
          -0.26967954635620117,
          0.27011004090309143,
          -0.030933883041143417,
          0.301130086183548,
          -1.0216437578201294,
          0.3056204915046692,
          -0.0747017040848732,
          0.08528570830821991,
          0.3883202373981476,
          -0.2506818175315857,
          -0.03259608522057533,
          -0.12099333852529526,
          -0.08419807255268097,
          -0.13908495008945465,
          0.0015950343804433942,
          -0.10903184115886688,
          -0.053433120250701904,
          -0.14517466723918915,
          0.4039386808872223,
          0.6640644073486328,
          -0.015473945997655392,
          0.38435545563697815,
          -0.13626694679260254,
          -0.7569484710693359,
          0.15447667241096497,
          -0.43078264594078064,
          -0.05774063244462013,
          -0.07113678753376007,
          -0.02143878862261772,
          -0.023225728422403336
        ],
        [
          0.05859287828207016,
          0.015995221212506294,
          0.013822845183312893,
          0.048228323459625244,
          0.4019368290901184,
          -0.21280346810817719,
          0.013550478033721447,
          0.007835591211915016,
          -0.021525317803025246,
          0.028120344504714012,
          0.35741129517555237,
          -0.03711911663413048,
          -0.06538214534521103,
          0.04260026663541794,
          -0.046572938561439514,
          0.06405448168516159,
          0.0825348049402237,
          0.056264132261276245,
          -0.6884811520576477,
          -0.0035143489949405193,
          -0.20932155847549438,
          -0.3173408508300781,
          -0.02122511714696884,
          0.005237496457993984,
          -0.1498323678970337,
          -0.37980273365974426,
          0.00959976576268673,
          0.08791789412498474,
          0.022017059847712517,
          -0.25120559334754944,
          -0.8848569393157959,
          0.026444043964147568,
          0.026497166603803635,
          0.05404875427484512,
          0.08334891498088837,
          -0.18540363013744354,
          0.018965033814311028,
          -0.779784083366394,
          -0.19757415354251862,
          -0.5831214189529419,
          -0.0441233292222023,
          0.10173963010311127,
          -0.03939755633473396,
          0.026168884709477425,
          -0.0008053695200942457,
          0.030176866799592972,
          -0.026408929377794266,
          0.021657900884747505,
          -0.4875795245170593,
          -0.030019965022802353,
          -0.038897253572940826,
          0.017006848007440567,
          0.23781341314315796,
          0.04577472805976868,
          0.03802262991666794,
          0.05623087286949158,
          0.021717090159654617,
          0.2718248963356018,
          -0.041167911142110825,
          -0.25216519832611084,
          0.013680323027074337,
          0.015477756969630718,
          -0.34080955386161804,
          0.6909153461456299
        ],
        [
          -0.06609810888767242,
          0.018660172820091248,
          -0.08367803692817688,
          0.6244276762008667,
          0.05956844612956047,
          -0.06761356443166733,
          -0.005562064703553915,
          -0.0168884489685297,
          0.009158173575997353,
          -0.8893657326698303,
          -0.028369462117552757,
          0.20108415186405182,
          0.04886145889759064,
          -0.09571916610002518,
          0.2582527995109558,
          0.23529499769210815,
          -0.9126446843147278,
          -0.2207341343164444,
          0.15091201663017273,
          0.015041793696582317,
          -1.1181641817092896,
          -0.6363882422447205,
          0.013190245255827904,
          -0.09568427503108978,
          0.12347632646560669,
          -0.05591496080160141,
          -0.0995330959558487,
          -0.3842866122722626,
          -0.08386241644620895,
          -1.1890970468521118,
          0.08109390735626221,
          -0.05652103200554848,
          -0.03345363214612007,
          -0.36084404587745667,
          0.6983702182769775,
          -0.0002607836213428527,
          -0.01484820619225502,
          0.10297378152608871,
          0.07287301123142242,
          0.07828998565673828,
          0.10581377148628235,
          -0.013369007036089897,
          0.21329006552696228,
          -0.027994126081466675,
          0.024504708126187325,
          -1.1052690744400024,
          0.031106889247894287,
          -0.07355180382728577,
          -0.022923139855265617,
          0.048547014594078064,
          0.08159568160772324,
          0.008302227593958378,
          -0.5890029072761536,
          -0.0824151486158371,
          -0.006740598939359188,
          0.031000183895230293,
          -0.05179963260889053,
          0.5644011497497559,
          0.1682780236005783,
          0.6260534524917603,
          -0.03635523095726967,
          -0.0006211504805833101,
          0.02822769805788994,
          -0.1511356383562088
        ],
        [
          -0.01697501167654991,
          -0.04263588786125183,
          0.1713801920413971,
          -0.051709819585084915,
          -0.5938573479652405,
          -0.001583751174621284,
          0.003442605258896947,
          -0.036310262978076935,
          -0.4146241545677185,
          -0.026462849229574203,
          0.01373370736837387,
          -0.0006657138583250344,
          -1.0640687942504883,
          0.0060058352537453175,
          0.003514820709824562,
          0.23290131986141205,
          0.021920891478657722,
          -0.018733391538262367,
          -0.3736339509487152,
          -0.21244938671588898,
          0.011239186860620975,
          -0.017533693462610245,
          -0.3285849094390869,
          -0.1673641800880432,
          0.04727771133184433,
          0.5598868727684021,
          0.0035501522943377495,
          -0.04261339083313942,
          -0.0021713164169341326,
          -0.0013628246961161494,
          -0.02858019806444645,
          -0.004614799749106169,
          -0.012627268210053444,
          -0.03130286559462547,
          0.017732707783579826,
          0.4335981011390686,
          -0.014125864952802658,
          0.06300070881843567,
          -0.017201125621795654,
          0.04718312248587608,
          -0.013639487326145172,
          -0.03158652037382126,
          -0.015414665453135967,
          -0.014172464609146118,
          -1.1674466133117676,
          -0.006151620764285326,
          -0.008481811732053757,
          -0.0036144275218248367,
          0.03992915898561478,
          -0.9920255541801453,
          -1.139034628868103,
          -0.0011261393083259463,
          0.9374184012413025,
          -0.013436632230877876,
          0.009687211364507675,
          -0.005404259078204632,
          -0.0019699614495038986,
          0.024482566863298416,
          0.10128861665725708,
          -1.0070581436157227,
          -0.0067919231951236725,
          -0.0034954838920384645,
          -0.013719173148274422,
          0.372224897146225
        ],
        [
          -0.05014036223292351,
          -0.0706358402967453,
          -0.10658295452594757,
          0.07150144875049591,
          -0.38413339853286743,
          0.01811022311449051,
          -0.011276437900960445,
          -0.09122747927904129,
          -0.9199811816215515,
          -0.012047781608998775,
          -0.003076101653277874,
          0.0008789661224000156,
          -0.06805387139320374,
          0.29025745391845703,
          0.004909161012619734,
          -0.03638229891657829,
          -0.009157288819551468,
          -0.0033895494416356087,
          -0.6018078327178955,
          -0.44862839579582214,
          -0.0106091583147645,
          0.09355060011148453,
          -0.6860101222991943,
          0.16044768691062927,
          -0.006710606627166271,
          0.3648843467235565,
          -0.0029930081218481064,
          -0.0041031367145478725,
          -0.005998036824166775,
          -0.006293298210948706,
          -0.0028241213876754045,
          -0.011202405206859112,
          -0.014913646504282951,
          0.004090721718966961,
          0.00666663097217679,
          0.052362482994794846,
          -0.009306507185101509,
          0.008621681481599808,
          -0.01934230886399746,
          0.023753181099891663,
          -0.32361698150634766,
          0.02213207446038723,
          -0.012970047071576118,
          -0.07158666849136353,
          0.024984024465084076,
          0.004060391336679459,
          -0.050830502063035965,
          -0.008847556076943874,
          0.12925592064857483,
          0.017288468778133392,
          0.013179278001189232,
          -0.0056906105019152164,
          -0.3667370676994324,
          -0.009976661764085293,
          -0.014314538799226284,
          0.03843565657734871,
          -0.008581954054534435,
          -0.07598718255758286,
          -0.47589170932769775,
          0.39445680379867554,
          0.00035617395769804716,
          -0.0273344274610281,
          0.003381810849532485,
          0.6033732295036316
        ],
        [
          -0.0052440655417740345,
          -0.30520927906036377,
          -0.030464889481663704,
          0.037104323506355286,
          -0.01576572097837925,
          0.005485595669597387,
          -0.019070828333497047,
          -0.07291340082883835,
          -0.002984724473208189,
          0.003000835422426462,
          -0.40866124629974365,
          0.010156490840017796,
          0.029249753803014755,
          -0.38982388377189636,
          -0.00877118669450283,
          -0.015777548775076866,
          -0.007184880785644054,
          0.025894522666931152,
          -0.3081763982772827,
          0.0012562008341774344,
          -0.0004445574013516307,
          0.03152429684996605,
          -0.007280945777893066,
          0.04865749552845955,
          -0.2777199447154999,
          0.014615042135119438,
          0.0030382785480469465,
          0.005628725979477167,
          -0.0033236443996429443,
          -0.00029579189140349627,
          -0.006638202350586653,
          -0.012579696252942085,
          -0.022085944190621376,
          -0.0012206209357827902,
          0.003727919654920697,
          -0.011457309126853943,
          -0.014775514602661133,
          0.01848863996565342,
          0.002639967482537031,
          0.01198523212224245,
          0.42434820532798767,
          0.004749546758830547,
          -0.003635844448581338,
          -0.08533688634634018,
          -0.006910782773047686,
          -0.001868698513135314,
          -0.05352406948804855,
          -0.006948100868612528,
          0.02922865003347397,
          0.007547901012003422,
          -0.011985896155238152,
          -0.037529174238443375,
          -0.04848140478134155,
          -0.002661761362105608,
          -0.015119985677301884,
          -0.027101757004857063,
          -0.005567499902099371,
          -0.028050053864717484,
          -0.10867250710725784,
          0.0520513541996479,
          -0.0035603379365056753,
          -0.044810764491558075,
          0.389863520860672,
          0.3088788092136383
        ],
        [
          -0.013921726495027542,
          0.03812602534890175,
          -0.03746558353304863,
          0.030320007354021072,
          0.07612379640340805,
          -0.0004964888794347644,
          -0.019721996039152145,
          -0.08894875645637512,
          -0.003297060029581189,
          0.004878532141447067,
          -0.3464522957801819,
          0.009914015419781208,
          -0.04333408549427986,
          0.10792026668787003,
          0.018109116703271866,
          -0.0007104706019163132,
          -0.0016151199815794826,
          0.02898552082479,
          -0.1364782601594925,
          0.0004587823059409857,
          -0.0009818178368732333,
          -0.003924984950572252,
          -0.003210985567420721,
          -0.020423192530870438,
          -0.10248301178216934,
          -0.07403521984815598,
          0.006041815038770437,
          0.004477501846849918,
          0.0005602142191492021,
          -0.0027012114878743887,
          0.0052960775792598724,
          -0.012482685036957264,
          -0.020202111452817917,
          0.0070337275974452496,
          0.004110156558454037,
          -0.0127333365380764,
          0.19856253266334534,
          0.016514241695404053,
          0.005959634203463793,
          0.0036423930432647467,
          -0.12002673745155334,
          -0.0367635153234005,
          -0.0020462481770664454,
          -0.12190753221511841,
          0.018143635243177414,
          -0.00021337138605304062,
          -0.4463860094547272,
          -0.005516348872333765,
          0.015250450931489468,
          0.009018712677061558,
          -0.021669602021574974,
          -0.1636677384376526,
          0.033378683030605316,
          -0.00552529888227582,
          -0.019205493852496147,
          -0.043260008096694946,
          -0.007661567069590092,
          0.003962639719247818,
          -0.008003929629921913,
          -0.028977269306778908,
          -0.011074738577008247,
          -0.05565132945775986,
          0.3304770588874817,
          0.1367606520652771
        ],
        [
          0.1441008448600769,
          0.010856889188289642,
          -0.006150266155600548,
          -0.01626407355070114,
          0.03377696871757507,
          -0.007491449825465679,
          -0.0393802747130394,
          -0.34116488695144653,
          0.012276819907128811,
          0.00662961695343256,
          -0.191612109541893,
          0.019784003496170044,
          0.023678211495280266,
          0.13707521557807922,
          0.050678398460149765,
          -0.0023545725271105766,
          -0.0011612005764618516,
          0.03203244507312775,
          -0.08234119415283203,
          0.0002853304613381624,
          0.005072929430752993,
          -0.007759840693324804,
          -0.004297994542866945,
          -0.018393931910395622,
          -0.09246352314949036,
          -0.03368903696537018,
          0.004481628071516752,
          0.003911707550287247,
          0.023129068315029144,
          -0.0022170483134686947,
          -0.013672254979610443,
          -0.014702127315104008,
          -0.022308748215436935,
          0.0057020545937120914,
          0.0017782014328986406,
          -0.015591464936733246,
          -0.08697126060724258,
          0.01354809757322073,
          0.004070864524692297,
          0.004039168823510408,
          -0.1500042825937271,
          -0.090010866522789,
          0.000808318960480392,
          -0.12942713499069214,
          -0.011886289343237877,
          0.0006519409362226725,
          0.09662798047065735,
          -0.008866671472787857,
          0.010227725841104984,
          -0.0006508547230623662,
          0.007875622250139713,
          0.01480177603662014,
          0.01760093681514263,
          0.0014192200032994151,
          -0.003676741849631071,
          -0.04138015955686569,
          -0.004520977381616831,
          0.008045242168009281,
          -0.022280266508460045,
          -0.019583534449338913,
          -0.021078674122691154,
          0.17071418464183807,
          0.1812707781791687,
          0.08146515488624573
        ],
        [
          0.24320100247859955,
          0.0032912567257881165,
          0.023792577907443047,
          -0.029237324371933937,
          -0.025260694324970245,
          0.002314645564183593,
          -0.057030174881219864,
          0.08444985002279282,
          -0.0003713750629685819,
          0.008837873116135597,
          -0.009377192705869675,
          0.042186517268419266,
          -0.002037337515503168,
          0.029323464259505272,
          0.07707975059747696,
          0.010745016857981682,
          0.008783076889812946,
          0.013424376025795937,
          -0.058707498013973236,
          3.186403773725033e-05,
          -0.004539925139397383,
          0.013000879436731339,
          -0.002537844469770789,
          -0.04911261424422264,
          -0.04757482558488846,
          0.02400394156575203,
          0.01336583774536848,
          -0.002671187510713935,
          -0.019968241453170776,
          0.0037744867149740458,
          0.008635169826447964,
          -0.030658939853310585,
          -0.021240828558802605,
          -0.006638570223003626,
          0.0010455336887389421,
          -0.025121625512838364,
          -0.00035371360718272626,
          0.006518624722957611,
          0.012702052481472492,
          -0.006409396883100271,
          -0.03150704875588417,
          -0.1501666009426117,
          0.0017713203560560942,
          -0.1813090294599533,
          -0.015085726045072079,
          0.0033863261342048645,
          0.02222483977675438,
          0.004537380766123533,
          0.02829708904027939,
          -0.002384102437645197,
          0.00401389179751277,
          0.029464896768331528,
          -0.013218067586421967,
          -0.0068156118504703045,
          0.039569251239299774,
          -0.01495822612196207,
          -0.013102728873491287,
          -0.013273936696350574,
          -0.01679731346666813,
          0.015460588037967682,
          -0.020904740318655968,
          -0.06376171857118607,
          0.008152727968990803,
          0.05817655473947525
        ],
        [
          0.11143579334020615,
          0.0044198231771588326,
          -0.003864023834466934,
          -0.01274553220719099,
          0.04890768229961395,
          0.004852117970585823,
          -0.07995767891407013,
          0.016070540994405746,
          -0.003823969280347228,
          0.008034968748688698,
          0.057224392890930176,
          0.03638984635472298,
          -0.027700282633304596,
          0.01700778305530548,
          0.07295624911785126,
          -0.002354161348193884,
          0.007443502079695463,
          0.020371656864881516,
          -0.042139697819948196,
          0.0020806044340133667,
          0.002221116330474615,
          0.007227566093206406,
          0.0005484592402353883,
          -0.01703505963087082,
          0.002608384471386671,
          -0.046514809131622314,
          0.017416689544916153,
          9.659848001319915e-05,
          -0.15003396570682526,
          0.0028560396749526262,
          0.006232522893697023,
          -0.021698346361517906,
          -0.03739611431956291,
          0.008712971583008766,
          0.003926499746739864,
          0.036924995481967926,
          0.0015871197683736682,
          0.005601478740572929,
          0.006876558996737003,
          0.006129425019025803,
          -0.017773732542991638,
          -0.019675979390740395,
          0.0027440518606454134,
          -0.03553394228219986,
          0.017278414219617844,
          -0.0029514553025364876,
          0.003908433485776186,
          -0.0056547438725829124,
          0.02289937436580658,
          -0.00025380688020959496,
          -0.005201536230742931,
          0.006817320827394724,
          -0.008506640791893005,
          -0.003865901380777359,
          -0.05805770307779312,
          -0.12410949915647507,
          -0.018863163888454437,
          -0.008501422591507435,
          -0.010883883573114872,
          0.008392405696213245,
          0.005291834007948637,
          -0.01017614733427763,
          -0.054486021399497986,
          0.04191068559885025
        ],
        [
          0.004962860606610775,
          -0.002674546092748642,
          -0.014395433478057384,
          -0.023579921573400497,
          0.08694324642419815,
          0.006715264171361923,
          -0.09977248311042786,
          0.003034306922927499,
          -0.009565888904035091,
          0.0013681416166946292,
          0.0558074414730072,
          0.04218936339020729,
          -0.017557339742779732,
          0.004897438455373049,
          0.05558928847312927,
          0.00042630586540326476,
          0.010786396451294422,
          0.016037948429584503,
          -0.03728485852479935,
          -0.0023881972301751375,
          0.005855188705027103,
          -0.001025582430884242,
          -0.0020177436526864767,
          -0.020752117037773132,
          -0.025354964658617973,
          -0.08163999021053314,
          0.009751219302415848,
          0.0006631174474023283,
          -0.0312587171792984,
          0.002283624606207013,
          0.008921326138079166,
          0.0738251805305481,
          -0.09395173192024231,
          0.006857454311102629,
          -0.00018836792150978,
          0.010963622480630875,
          -0.005789014510810375,
          0.0066503193229436874,
          -0.002396860159933567,
          0.002845456125214696,
          -0.0044181011617183685,
          -0.05694572627544403,
          0.003364685457199812,
          0.0026983097195625305,
          0.015928572043776512,
          0.0015932804672047496,
          -0.0011997153051197529,
          -0.10916290432214737,
          0.05853783339262009,
          0.0056325290352106094,
          -0.015873853117227554,
          0.00613170163705945,
          0.013805557042360306,
          -0.00978368241339922,
          0.026867810636758804,
          -0.06356311589479446,
          -0.05357522889971733,
          -0.000251385266892612,
          -0.01718113012611866,
          -0.012183736078441143,
          0.06615307927131653,
          4.395400537759997e-06,
          -0.05314932391047478,
          0.03704708069562912
        ],
        [
          -0.03539411723613739,
          0.003695489838719368,
          0.002681609708815813,
          -0.006103535182774067,
          0.08225231617689133,
          0.004090210422873497,
          -0.08314407616853714,
          0.009778828360140324,
          -0.007283188868314028,
          -0.0020683512557297945,
          0.0567023828625679,
          0.04100941866636276,
          0.026551293209195137,
          -0.012792798690497875,
          0.03316285088658333,
          -0.009380944073200226,
          -0.001158728962764144,
          0.013394726440310478,
          -0.030667778104543686,
          -0.0008567152544856071,
          -0.0006183383520692587,
          -0.0002867151633836329,
          -0.0008575292304158211,
          0.006053060293197632,
          -0.01369973924010992,
          -0.07851619273424149,
          0.0005663551273755729,
          0.0007220391998998821,
          0.020298663526773453,
          0.0035282594617456198,
          0.016109943389892578,
          -0.04093072563409805,
          -0.027449723333120346,
          0.011245186440646648,
          0.0034473140258342028,
          -0.0037755363155156374,
          -0.007312221452593803,
          0.009151949547231197,
          -0.002800645539537072,
          0.0015700615476816893,
          0.012528330087661743,
          -0.09121931344270706,
          -0.0008556452812626958,
          0.0010883882641792297,
          -0.014420369639992714,
          0.0029635753016918898,
          0.004827331751585007,
          0.04264122620224953,
          0.060888923704624176,
          -0.004069963004440069,
          0.017244137823581696,
          0.0009109408129006624,
          0.023844704031944275,
          -0.008427646942436695,
          -0.03821169584989548,
          -0.019080178812146187,
          -0.01914622262120247,
          -0.0011534761870279908,
          -0.01565977744758129,
          -0.029101550579071045,
          0.018792353570461273,
          -0.008356735110282898,
          -0.0534694530069828,
          0.030368490144610405
        ],
        [
          -0.024890894070267677,
          -0.0005076550878584385,
          -0.001413166057318449,
          -0.0009695804910734296,
          0.05114247277379036,
          0.0004514456377364695,
          -0.040465306490659714,
          -0.007489742711186409,
          -0.00164895155467093,
          0.002479501999914646,
          0.03804906830191612,
          0.031244462355971336,
          0.04451094567775726,
          -0.011261800304055214,
          0.018536008894443512,
          -0.0004549309378489852,
          -0.0010845072101801634,
          0.009331982582807541,
          -0.015339133329689503,
          -0.0024987703654915094,
          0.004818398039788008,
          0.0029812753200531006,
          0.001413078629411757,
          0.030759640038013458,
          0.004552251193672419,
          -0.04777142032980919,
          -0.053587377071380615,
          -0.008023438043892384,
          0.0021089024376124144,
          0.001091083395294845,
          -0.0019224744755774736,
          -0.010947588831186295,
          0.0769401341676712,
          0.011332175694406033,
          0.0017178129637613893,
          0.012210776098072529,
          0.00525789987295866,
          0.008696837350726128,
          0.001284277532249689,
          0.0051600271835923195,
          0.012033659964799881,
          -0.06531501561403275,
          -0.0007833064300939441,
          0.0033739537466317415,
          -0.014971242286264896,
          0.0008508706232532859,
          -0.0032034849282354116,
          0.015469121746718884,
          0.0232832171022892,
          0.005774456076323986,
          -0.004237613640725613,
          -0.0005450634052976966,
          0.012986812740564346,
          0.003530890215188265,
          -0.020639320835471153,
          -0.020674336701631546,
          0.05732737481594086,
          0.00012474579853005707,
          -0.010181866586208344,
          -0.012054293416440487,
          -0.03771403431892395,
          0.005042903125286102,
          -0.03582552820444107,
          0.015234305523335934
        ],
        [
          -0.004461563657969236,
          -0.0018962261965498328,
          0.00024089429643936455,
          -0.008462890051305294,
          0.014347543939948082,
          0.003324269549921155,
          -0.026911506429314613,
          -0.00914963148534298,
          -0.007961266674101353,
          0.008951547555625439,
          0.01355742197483778,
          0.014492007903754711,
          0.00242848158814013,
          -0.001897188602015376,
          0.012924028560519218,
          0.007284407038241625,
          0.0012352635385468602,
          0.002996747149154544,
          -0.003673786763101816,
          -0.0031447254586964846,
          0.001815666677430272,
          0.001332577201537788,
          -0.0005149421631358564,
          0.029311947524547577,
          0.002035893965512514,
          -0.012448517605662346,
          -0.0750943273305893,
          -0.014911376871168613,
          0.002470932435244322,
          -0.0006999366451054811,
          0.001457835198380053,
          0.05545562133193016,
          0.08013436198234558,
          0.0017293228302150965,
          0.0012120219180360436,
          0.0053613255731761456,
          0.007587130181491375,
          0.005382757633924484,
          0.004964587744325399,
          -0.0018445751629769802,
          0.0018583603668957949,
          -0.025298351421952248,
          0.0015322499675676227,
          -0.0023172390647232533,
          -0.01233560312539339,
          -0.00011389102292014286,
          0.00016246398445218801,
          -0.05831335112452507,
          0.0017319852486252785,
          -0.008882679045200348,
          0.009545604698359966,
          -0.001988321077078581,
          0.004219432361423969,
          0.0018354518106207252,
          0.015365921892225742,
          -0.0182000994682312,
          0.05849829688668251,
          0.00010001701593864709,
          0.0001672965008765459,
          -0.0024086779449135065,
          -0.0232766754925251,
          -0.005998495500534773,
          -0.013001799583435059,
          0.003381888847798109
        ]
      ],
      "b": [
        0.5262082815170288,
        -0.056754760444164276,
        0.15134185552597046,
        -0.372904509305954,
        -0.05528292432427406,
        0.4605526626110077,
        -0.08058763295412064,
        -0.2630254030227661,
        -1.0360467433929443,
        -0.24330434203147888,
        0.002279756823554635,
        -0.03500516340136528,
        -0.9782478213310242,
        0.10301723331212997,
        -0.32938259840011597,
        -0.038313280791044235,
        -0.5390050411224365,
        0.45009636878967285,
        0.012688086368143559,
        -0.11533153802156448,
        -0.38198480010032654,
        -0.3607657253742218,
        -0.5425482988357544,
        0.407772034406662,
        -0.44667848944664,
        0.053383633494377136,
        0.04566747695207596,
        -0.41949447989463806,
        0.06861793249845505,
        -0.7179008722305298,
        -0.377708375453949,
        -0.018434161320328712,
        -0.14339487254619598,
        0.014184931293129921,
        0.237117201089859,
        0.8029157519340515,
        0.22681359946727753,
        -0.5987522006034851,
        -0.6526647210121155,
        -0.1980929672718048,
        -0.11404439061880112,
        0.46804332733154297,
        0.37863820791244507,
        -0.22716133296489716,
        -0.9782671332359314,
        -0.6737566590309143,
        -0.3194677233695984,
        0.008610283955931664,
        0.6718415021896362,
        -0.41313520073890686,
        -0.7634620666503906,
        0.04081033170223236,
        0.5316684246063232,
        -0.03406482934951782,
        0.10333678126335144,
        0.5987980365753174,
        0.013040679506957531,
        0.3128047287464142,
        -0.3399192988872528,
        -0.5660524368286133,
        0.07231687754392624,
        0.0066268788650631905,
        -0.0022562541998922825,
        -0.012835023924708366
      ],
      "act": null
    },
    {
      "W": null,
      "b": null,
      "act": "relu"
    },
    {
      "W": [
        [
          0.0991741269826889,
          -0.12596407532691956,
          -0.002355289878323674,
          -0.41974660754203796,
          -0.0712401270866394,
          0.2441587597131729,
          -0.018105149269104004,
          -0.0006946063367649913,
          -0.197305828332901,
          -0.05943204462528229,
          0.13530966639518738,
          0.04657478630542755,
          -0.15663661062717438,
          0.19482679665088654,
          -0.2720142602920532,
          -0.04304514825344086,
          -0.022058065980672836,
          -0.030858701094985008,
          0.20585033297538757,
          -0.1161225363612175,
          0.21576529741287231,
          -0.21570274233818054,
          0.4015721380710602,
          -0.08966612070798874,
          -0.17896823585033417,
          0.03225663676857948,
          0.22786173224449158,
          -0.0301530621945858,
          -0.29271042346954346,
          -0.032943788915872574,
          -0.1578400880098343,
          0.0728110671043396,
          -0.14527496695518494,
          -0.09366588294506073,
          -0.45441824197769165,
          0.1206403523683548,
          0.07031814008951187,
          0.24791699647903442,
          0.4581494927406311,
          0.15299493074417114,
          0.03745424374938011,
          0.06483406573534012,
          0.0868033915758133,
          0.14427149295806885,
          0.013852803036570549,
          0.05334647372364998,
          0.17544540762901306,
          -0.06858334690332413,
          -0.07833355665206909,
          -0.012756679207086563,
          0.10164852440357208,
          -0.0639493465423584,
          0.2057204693555832,
          -0.0010347794741392136,
          -0.49438849091529846,
          0.20258845388889313,
          0.05363040789961815,
          -0.18599028885364532,
          0.2807479500770569,
          0.17975187301635742,
          -0.09680122137069702,
          -0.05740344524383545,
          0.29754436016082764,
          0.187399759888649
        ],
        [
          -0.4582090377807617,
          -0.13500761985778809,
          0.032209526747465134,
          -0.10473669320344925,
          0.13350698351860046,
          -0.021696537733078003,
          -0.13366420567035675,
          0.04386107996106148,
          -0.06872917711734772,
          -0.0014817946357652545,
          -0.896668016910553,
          -0.23020993173122406,
          0.0055798115208745,
          0.00023167800100054592,
          0.5456765294075012,
          -0.09333532303571701,
          0.36150461435317993,
          0.034226685762405396,
          0.4035393297672272,
          0.3252696394920349,
          0.08971527963876724,
          0.26569464802742004,
          -0.16430054605007172,
          -0.013456126675009727,
          0.28021055459976196,
          0.26132386922836304,
          -0.14188551902770996,
          -0.04812822490930557,
          0.06352605670690536,
          0.2670908272266388,
          -0.008061891421675682,
          0.07798115164041519,
          0.16080819070339203,
          0.04481718689203262,
          -0.011761280708014965,
          0.027494128793478012,
          -0.2102026492357254,
          0.10017096996307373,
          0.051643308252096176,
          0.03634784370660782,
          -0.0271479282528162,
          -0.010248186998069286,
          0.03174212574958801,
          0.12142084538936615,
          0.019786344841122627,
          -0.10548322647809982,
          -0.052150238305330276,
          0.397079199552536,
          0.007602273020893335,
          0.29228898882865906,
          -0.0145108662545681,
          0.046755336225032806,
          0.012116288766264915,
          -0.11711933463811874,
          -0.15617842972278595,
          -0.20351220667362213,
          -0.034973688423633575,
          -0.00034997507464140654,
          0.12463408708572388,
          -0.05511174723505974,
          0.11835853010416031,
          0.004426486790180206,
          -0.12516218423843384,
          -0.12042955309152603
        ],
        [
          0.042557891458272934,
          0.027064574882388115,
          -0.015373757109045982,
          -0.07763586938381195,
          -0.02428450807929039,
          0.20566345751285553,
          0.005599368829280138,
          -0.016238713636994362,
          -0.1965559422969818,
          -0.09563293308019638,
          0.23809318244457245,
          -0.10728748142719269,
          0.00280383531935513,
          0.011266813613474369,
          0.21079249680042267,
          0.21680112183094025,
          -0.015500487759709358,
          0.0015923320315778255,
          -0.0036928607150912285,
          0.08824195712804794,
          -0.07813964784145355,
          0.20777353644371033,
          -0.12571628391742706,
          -0.029821600764989853,
          0.07229328155517578,
          0.33785054087638855,
          0.10158196836709976,
          0.301296591758728,
          0.015039532445371151,
          -0.07357688248157501,
          -0.09734713286161423,
          -0.06805293262004852,
          0.20406736433506012,
          -0.1815853714942932,
          0.1599017232656479,
          -0.05484345555305481,
          -0.7886065244674683,
          -0.055123016238212585,
          0.009854292497038841,
          -0.005928431171923876,
          -0.24522875249385834,
          0.12864013016223907,
          -0.040304072201251984,
          0.16769875586032867,
          -0.002773548010736704,
          0.012954539619386196,
          -0.004655239172279835,
          -0.04335176199674606,
          0.04460243508219719,
          -0.042017579078674316,
          0.009020891040563583,
          -0.14753520488739014,
          -0.1161351352930069,
          -0.006085620261728764,
          0.06273209303617477,
          -0.06552314013242722,
          0.0825793668627739,
          0.04054762050509453,
          0.025026019662618637,
          0.007649275008589029,
          0.04760406166315079,
          -0.000912236631847918,
          0.020239440724253654,
          -0.01662425883114338
        ],
        [
          -0.018594050779938698,
          -0.03145458176732063,
          0.08415922522544861,
          0.04298430308699608,
          0.05964108183979988,
          -0.10877314954996109,
          0.10228623449802399,
          0.2133488655090332,
          0.12085844576358795,
          0.12610597908496857,
          0.07316123694181442,
          -0.059432025998830795,
          -0.04080048203468323,
          -0.0016637539956718683,
          -0.17939133942127228,
          0.2621713876724243,
          0.031101150438189507,
          -0.06828533113002777,
          0.21415480971336365,
          0.12788112461566925,
          -0.09656911343336105,
          -0.6244063973426819,
          0.14103002846240997,
          -0.6351315975189209,
          -0.02887021191418171,
          0.23306995630264282,
          0.024334872141480446,
          -0.005925293546169996,
          0.15827934443950653,
          -0.08588124811649323,
          -0.010714561678469181,
          -0.040726203471422195,
          -0.05489974468946457,
          0.4524199962615967,
          0.003729446092620492,
          -0.045243605971336365,
          0.2928648889064789,
          -0.00011832817108370364,
          0.08881084620952606,
          0.021176449954509735,
          -0.12576371431350708,
          -0.006648835726082325,
          -0.03085525892674923,
          0.26829516887664795,
          0.03474060073494911,
          0.019942546263337135,
          0.031432248651981354,
          0.28169551491737366,
          0.04855388402938843,
          -0.0012462260201573372,
          -0.17017534375190735,
          -0.12033206224441528,
          0.021203061565756798,
          -0.08596882224082947,
          0.16097889840602875,
          0.0923311710357666,
          0.12973661720752716,
          0.039332274347543716,
          0.041883327066898346,
          0.19341862201690674,
          -0.4050728380680084,
          -0.08807837218046188,
          0.19639292359352112,
          -0.21712838113307953
        ],
        [
          -0.4562720060348511,
          0.06349964439868927,
          -0.24759654700756073,
          -0.01620958000421524,
          0.020726574584841728,
          0.2703801691532135,
          -0.03694477304816246,
          -0.13079436123371124,
          0.03797031193971634,
          0.2800288796424866,
          0.12209343910217285,
          0.08113522827625275,
          -0.15378397703170776,
          0.0285519827157259,
          -0.003971670754253864,
          -0.10464990139007568,
          -0.04156901687383652,
          -0.03343217819929123,
          0.43791112303733826,
          0.048207081854343414,
          0.09948018193244934,
          -0.45225274562835693,
          -0.3498701751232147,
          -0.19070681929588318,
          0.18117642402648926,
          0.37621453404426575,
          0.18068796396255493,
          0.34912627935409546,
          -0.09409429132938385,
          -0.04732424020767212,
          -0.1109410971403122,
          0.25525158643722534,
          -0.28494003415107727,
          -0.1001470759510994,
          0.1479128748178482,
          0.07375192642211914,
          0.39564287662506104,
          -0.25574010610580444,
          -0.038878340274095535,
          0.14561380445957184,
          -0.019409190863370895,
          -0.13054043054580688,
          0.2377006560564041,
          0.25896957516670227,
          -0.0751064270734787,
          0.20376163721084595,
          0.414932519197464,
          0.24766948819160461,
          0.018942436203360558,
          0.02617272175848484,
          -0.0029004584066569805,
          -0.0524161122739315,
          0.09121330827474594,
          -0.03118377923965454,
          -0.23189248144626617,
          0.10533442348241806,
          -0.10597637295722961,
          0.14194269478321075,
          -0.27188336849212646,
          0.19049058854579926,
          -0.3066438138484955,
          0.01775304786860943,
          0.02482934668660164,
          0.08887282013893127
        ],
        [
          -0.007757068146020174,
          -0.0825454592704773,
          0.05589789152145386,
          0.0361286923289299,
          0.013914813287556171,
          0.3019101619720459,
          0.22303332388401031,
          0.03280226141214371,
          -0.11463937908411026,
          0.13432417809963226,
          -0.23287297785282135,
          0.0987660214304924,
          -0.2677938938140869,
          -0.0416741706430912,
          -0.17416176199913025,
          0.05238663777709007,
          0.0964142233133316,
          0.24340136349201202,
          0.08459620922803879,
          0.26931509375572205,
          -0.13059832155704498,
          0.15959776937961578,
          -0.10259566456079483,
          0.03397050127387047,
          -0.12650606036186218,
          -0.08321820199489594,
          0.07229413837194443,
          0.0546359047293663,
          -0.0599360466003418,
          0.377469003200531,
          -0.13252897560596466,
          0.2174074649810791,
          0.18006905913352966,
          -0.5379329323768616,
          0.030345115810632706,
          0.34852302074432373,
          -0.09046568721532822,
          0.03710481896996498,
          0.050020601600408554,
          -0.026760444045066833,
          -0.0727594643831253,
          -0.04063015431165695,
          0.018361186608672142,
          0.049818653613328934,
          -0.025920869782567024,
          -0.09059461206197739,
          -0.017653673887252808,
          0.04160473495721817,
          0.056236058473587036,
          0.09100829064846039,
          0.025992387905716896,
          0.06325458735227585,
          0.026354627683758736,
          -0.04656515270471573,
          0.1299256533384323,
          0.14757664501667023,
          0.028015537187457085,
          -0.06637591123580933,
          0.04729031026363373,
          -0.11097188293933868,
          0.15770108997821808,
          0.3917909562587738,
          0.060263749212026596,
          -0.03897099569439888
        ],
        [
          -0.38501840829849243,
          -0.0762690007686615,
          0.024998148903250694,
          0.17416886985301971,
          0.02073857933282852,
          0.14776600897312164,
          -0.01548973098397255,
          -0.04171941056847572,
          0.05143168196082115,
          0.3981351852416992,
          0.06597580760717392,
          -0.13498355448246002,
          0.08203943818807602,
          0.07059181481599808,
          -0.11665366590023041,
          0.18705883622169495,
          0.30689284205436707,
          0.1241498813033104,
          0.2799586057662964,
          0.20887364447116852,
          -0.17455026507377625,
          -0.02801286056637764,
          0.37264782190322876,
          -0.11272315680980682,
          0.07511062920093536,
          -0.04681021347641945,
          0.11759843677282333,
          -0.2646596133708954,
          -0.018308531492948532,
          0.05626729875802994,
          0.17048460245132446,
          -0.06747552007436752,
          0.0486767552793026,
          -0.04575224965810776,
          -0.012166440486907959,
          -0.021267781034111977,
          0.1402488350868225,
          0.18239523470401764,
          0.19764263927936554,
          1.1229551091673784e-05,
          -0.0942995548248291,
          0.03656115010380745,
          -0.015978092327713966,
          -0.01751527562737465,
          0.07702537626028061,
          0.05153973400592804,
          -0.1099620908498764,
          0.11433479189872742,
          0.0605194978415966,
          0.45059823989868164,
          -0.014607309363782406,
          0.04360730201005936,
          0.06676030158996582,
          0.11172150075435638,
          0.4249260723590851,
          0.042527299374341965,
          -0.018503621220588684,
          -0.039692848920822144,
          0.01951845921576023,
          0.2032618671655655,
          0.06606467813253403,
          -0.016717983409762383,
          0.1243160292506218,
          0.16282720863819122
        ],
        [
          1.1452287435531616,
          -0.0007156723877415061,
          0.06150438264012337,
          -0.14345039427280426,
          0.09242025017738342,
          0.08013918250799179,
          -0.013462447561323643,
          -0.006648838520050049,
          -0.01690606400370598,
          0.02988726831972599,
          -0.027032744139432907,
          -0.03578013926744461,
          0.03459785506129265,
          -0.018199412152171135,
          0.15997706353664398,
          0.06406477093696594,
          -0.12137816101312637,
          -0.028142770752310753,
          0.06162474676966667,
          -0.363910973072052,
          0.046896182000637054,
          0.34761926531791687,
          0.10602547973394394,
          -0.09601598232984543,
          0.07015092670917511,
          -0.12744124233722687,
          -0.08292755484580994,
          0.14273808896541595,
          0.10938967019319534,
          0.48576462268829346,
          0.2956986725330353,
          0.049146585166454315,
          0.05118248611688614,
          0.043272994458675385,
          -0.014128713868558407,
          -0.008122475817799568,
          0.19319774210453033,
          -0.008696984499692917,
          -0.03497273847460747,
          0.017428627237677574,
          0.0350491888821125,
          0.06086301803588867,
          -0.031581513583660126,
          -0.027847301214933395,
          0.027917029336094856,
          -0.13990119099617004,
          0.029960235580801964,
          0.7642340660095215,
          0.021656662225723267,
          0.023749038577079773,
          -0.05944157391786575,
          0.09456180781126022,
          -0.1995859444141388,
          -0.0749226063489914,
          0.6894835829734802,
          -0.13693544268608093,
          -0.009279035031795502,
          -0.04308647662401199,
          0.20544320344924927,
          0.20923389494419098,
          -0.18733923137187958,
          0.00959761068224907,
          0.09251338988542557,
          -0.17276202142238617
        ],
        [
          -0.4825979173183441,
          -0.07911793142557144,
          0.22635985910892487,
          0.15264751017093658,
          -0.00046077807201072574,
          -0.08577559888362885,
          0.5824028253555298,
          -0.001214041723869741,
          0.3390144407749176,
          0.190538689494133,
          -0.11526809632778168,
          -0.16702266037464142,
          -0.02674879878759384,
          0.019361315295100212,
          0.024194011464715004,
          0.11967792361974716,
          0.06455697119235992,
          -0.1399298757314682,
          0.23094357550144196,
          -0.2276453971862793,
          -0.275795042514801,
          1.1152092218399048,
          0.26361656188964844,
          -0.6208390593528748,
          -0.2857348620891571,
          0.5192885398864746,
          0.2683051824569702,
          0.43772920966148376,
          0.12314402312040329,
          -0.44921085238456726,
          0.18319250643253326,
          -0.08348356932401657,
          0.07943318039178848,
          -0.013086751103401184,
          -0.12385361641645432,
          -0.09970543533563614,
          0.4176988899707794,
          -0.183243066072464,
          0.015090403147041798,
          1.065315842628479,
          -0.15946251153945923,
          -0.057362254709005356,
          0.3744845390319824,
          -0.27129921317100525,
          -0.0026116559747606516,
          0.002768470672890544,
          -0.6337892413139343,
          0.4270085096359253,
          0.03719348460435867,
          0.15525561571121216,
          0.1521218866109848,
          -0.6199293732643127,
          0.268745094537735,
          -0.27327045798301697,
          0.37655556201934814,
          0.0009852624498307705,
          0.08788178861141205,
          -0.2282264530658722,
          0.0213929396122694,
          0.3227013051509857,
          -0.11355463415384293,
          0.011786824092268944,
          -0.1803823560476303,
          0.0688374787569046
        ],
        [
          0.08596468716859818,
          0.06392168253660202,
          -0.07304184138774872,
          0.06637449562549591,
          -0.160360187292099,
          -0.2862240672111511,
          0.011657210066914558,
          0.08457788825035095,
          0.006567903328686953,
          0.1387844979763031,
          0.041766948997974396,
          0.23026637732982635,
          0.10499034821987152,
          0.05614147707819939,
          -0.053512897342443466,
          0.237919420003891,
          0.0005405152915045619,
          -0.2470099776983261,
          -0.16056105494499207,
          -0.6447786688804626,
          -0.19803689420223236,
          -0.15127864480018616,
          -0.008003623224794865,
          0.5646824240684509,
          0.12211637943983078,
          0.09627428650856018,
          -0.10374331474304199,
          -0.3655971884727478,
          0.08720275014638901,
          -0.2610546350479126,
          0.0018852585926651955,
          -0.11605051904916763,
          -0.2012311965227127,
          0.5669260621070862,
          -0.027488192543387413,
          -0.23639953136444092,
          0.5183887481689453,
          0.0014169694622978568,
          -0.01834527589380741,
          0.014647978357970715,
          0.05571158975362778,
          -0.12261425703763962,
          0.02892126515507698,
          0.10677522420883179,
          0.03805062919855118,
          0.2920558452606201,
          0.10392268002033234,
          0.10947481542825699,
          0.12775379419326782,
          -0.13765893876552582,
          -0.38414713740348816,
          0.02626824378967285,
          0.14980831742286682,
          0.21326066553592682,
          -0.22144357860088348,
          -0.17266005277633667,
          -0.06992333382368088,
          -0.12125112861394882,
          0.03654901310801506,
          -0.15113228559494019,
          -0.2087080329656601,
          -0.10642603784799576,
          0.08776944130659103,
          -0.049320463091135025
        ],
        [
          0.4189557135105133,
          -0.1332497000694275,
          0.05932159349322319,
          0.02758924476802349,
          -0.159442737698555,
          0.2049824446439743,
          -0.009123084135353565,
          -0.0022681872360408306,
          -0.045050717890262604,
          0.26360785961151123,
          -0.10549656301736832,
          0.022402837872505188,
          0.03618127852678299,
          0.18846802413463593,
          0.3376774787902832,
          -0.09579581022262573,
          0.44324010610580444,
          0.15813401341438293,
          -0.13429772853851318,
          -0.12453550100326538,
          -0.17257505655288696,
          -0.24444462358951569,
          -0.1418388932943344,
          -0.07688234001398087,
          -0.22194457054138184,
          -0.2857764959335327,
          0.3628651797771454,
          -0.3178372383117676,
          -0.11970558762550354,
          -0.137053444981575,
          0.47204700112342834,
          -0.0017002130625769496,
          -0.040551017969846725,
          0.032050009816884995,
          -0.1756948083639145,
          -0.08580146729946136,
          -0.016398150473833084,
          -0.04859170317649841,
          0.30455681681632996,
          -0.09948621690273285,
          0.12339960038661957,
          0.0013134817127138376,
          0.008480368182063103,
          0.09386919438838959,
          0.015098772943019867,
          0.044260650873184204,
          -0.009201357141137123,
          -0.3535735011100769,
          -0.03501483052968979,
          -0.2333858460187912,
          0.04138330742716789,
          0.019173014909029007,
          0.03034728206694126,
          -0.05505576357245445,
          -0.07813981920480728,
          -0.07469730824232101,
          -0.10960821807384491,
          0.2353348433971405,
          0.3823546767234802,
          0.16378596425056458,
          -0.2805614173412323,
          -0.01807061955332756,
          -0.24045591056346893,
          -0.1597365438938141
        ],
        [
          0.20878003537654877,
          0.024318698793649673,
          -0.05645037814974785,
          -0.0372835174202919,
          0.031990114599466324,
          0.1434536576271057,
          -0.14898109436035156,
          -0.08709007501602173,
          0.011075560003519058,
          -0.7259616851806641,
          -0.08459782600402832,
          -0.09833934903144836,
          0.13845600187778473,
          0.14709150791168213,
          0.056840311735868454,
          0.20236513018608093,
          -0.027796156704425812,
          -0.02584768459200859,
          -0.07490027695894241,
          0.18010777235031128,
          0.20242264866828918,
          -0.08034239709377289,
          -0.09747610986232758,
          0.10931677371263504,
          0.055003099143505096,
          0.1065143346786499,
          0.08880297094583511,
          -0.03614628314971924,
          -0.24505001306533813,
          0.003145477268844843,
          0.12255283445119858,
          -0.06308799237012863,
          0.08161404728889465,
          -0.6855202317237854,
          0.20281466841697693,
          0.11629245430231094,
          0.16708819568157196,
          -0.2828449010848999,
          -0.07223799079656601,
          0.03548576682806015,
          -0.12468472868204117,
          0.22096852958202362,
          0.025005977600812912,
          0.1028871163725853,
          0.06725837290287018,
          0.11679782718420029,
          -0.06712896376848221,
          0.06098294258117676,
          0.13697005808353424,
          0.033548496663570404,
          -0.1978963166475296,
          0.14909447729587555,
          -0.1864112764596939,
          0.021666940301656723,
          0.17009805142879486,
          0.12396907806396484,
          0.04476800933480263,
          -0.2531079947948456,
          -0.018840670585632324,
          -0.41837558150291443,
          -0.10281221568584442,
          0.20602834224700928,
          -0.20270070433616638,
          -0.06823462247848511
        ],
        [
          0.05343836918473244,
          -0.0818004235625267,
          0.11740422248840332,
          0.016890177503228188,
          -0.09507232159376144,
          0.06093504652380943,
          0.10430501401424408,
          -0.10539227724075317,
          -0.03772599250078201,
          -0.15810655057430267,
          -0.10118503868579865,
          -0.2902355492115021,
          -0.14440058171749115,
          -0.018367573618888855,
          -0.312825471162796,
          0.3756745159626007,
          -0.07452621310949326,
          0.1460796743631363,
          -0.1144006997346878,
          0.03310767188668251,
          -0.07399559020996094,
          -0.04068055748939514,
          -0.053354907780885696,
          -0.15682610869407654,
          -0.17460574209690094,
          0.11777079105377197,
          -0.060784704983234406,
          -0.06721922010183334,
          -0.0956461951136589,
          -0.15669094026088715,
          0.03522322326898575,
          -0.2819072902202606,
          0.04281281307339668,
          -0.3267047703266144,
          -0.004817152861505747,
          -0.09971072524785995,
          0.13972879946231842,
          0.02682601474225521,
          0.048961903899908066,
          0.06279340386390686,
          0.040430594235658646,
          0.1027015671133995,
          0.584490180015564,
          0.11863963305950165,
          0.01693340577185154,
          -0.016138190403580666,
          0.14445073902606964,
          0.5661389827728271,
          -0.10768740624189377,
          -0.13167740404605865,
          0.1533287912607193,
          0.30902066826820374,
          -0.15649749338626862,
          0.052755553275346756,
          -0.15326575934886932,
          0.03175395727157593,
          -0.16107843816280365,
          -0.0070422193966805935,
          -0.09477977454662323,
          -0.18508866429328918,
          -0.10278540849685669,
          0.031776923686265945,
          0.0046549830585718155,
          0.07570374757051468
        ],
        [
          -0.5628634691238403,
          -0.08547569811344147,
          0.44895726442337036,
          -0.12718512117862701,
          0.11847308278083801,
          0.03175174444913864,
          0.005447729025036097,
          -0.16092883050441742,
          0.06087017059326172,
          -0.07970497012138367,
          -0.3006178140640259,
          0.03422405943274498,
          0.028294309973716736,
          -0.0917535051703453,
          1.268264889717102,
          0.07106548547744751,
          0.5173879265785217,
          -0.021494966000318527,
          0.22102433443069458,
          -0.010521340183913708,
          -0.008819119073450565,
          -0.11202383041381836,
          0.08550925552845001,
          0.028260910883545876,
          0.20727063715457916,
          -0.39304205775260925,
          0.012299898080527782,
          -0.549741268157959,
          0.07466959953308105,
          -0.14873164892196655,
          -0.3566488027572632,
          0.00894786138087511,
          -0.007350044324994087,
          -0.002392007037997246,
          0.20979580283164978,
          0.020085971802473068,
          -0.032665643841028214,
          -0.07380277663469315,
          -0.2455735206604004,
          -0.13024047017097473,
          0.2833361327648163,
          0.014815633185207844,
          0.0027607958763837814,
          -0.024423442780971527,
          -0.025929756462574005,
          0.060909565538167953,
          0.03244590014219284,
          -0.1635393649339676,
          0.058551132678985596,
          -0.3025699257850647,
          -0.005576697178184986,
          -0.002413072856143117,
          0.04328303411602974,
          0.029783466830849648,
          -0.1328272819519043,
          0.034381695091724396,
          -0.005261020734906197,
          -0.0749138593673706,
          -0.38648948073387146,
          -0.03572668880224228,
          0.03705636039376259,
          0.031934142112731934,
          0.12378428131341934,
          0.02472704090178013
        ],
        [
          0.0512719564139843,
          0.12077507376670837,
          0.008361675776541233,
          0.4185846745967865,
          0.18878337740898132,
          -0.08072514832019806,
          0.004148388747125864,
          -0.13645203411579132,
          0.046310875564813614,
          -0.17725716531276703,
          -0.0710330680012703,
          0.08765602111816406,
          0.21127541363239288,
          -0.1886664479970932,
          0.06065451353788376,
          -0.022659508511424065,
          -0.09791690111160278,
          -0.12088125944137573,
          -0.09742352366447449,
          0.03898242861032486,
          0.34763094782829285,
          0.019850414246320724,
          -0.17545244097709656,
          -0.514868974685669,
          -0.1172957569360733,
          -0.08984091132879257,
          -0.2522534132003784,
          0.12091002613306046,
          -0.4139295518398285,
          -0.11629866063594818,
          -0.003652602666988969,
          0.12167681753635406,
          0.19092139601707458,
          -0.8415385484695435,
          -0.21819503605365753,
          -0.2178158164024353,
          0.3508903682231903,
          0.4982898533344269,
          -0.1148940846323967,
          0.05075395479798317,
          0.13604134321212769,
          0.04185478016734123,
          0.0067117358557879925,
          -0.16170671582221985,
          0.054090578109025955,
          0.0705832690000534,
          0.025002213194966316,
          0.22054089605808258,
          -0.15903611481189728,
          0.019704116508364677,
          0.059477727860212326,
          -0.004199157003313303,
          -0.3397482931613922,
          0.05726882070302963,
          0.352215051651001,
          -0.033494047820568085,
          0.04803314805030823,
          -0.07078539580106735,
          -0.14781205356121063,
          -0.12929360568523407,
          0.021309345960617065,
          -0.14394313097000122,
          -0.05691282078623772,
          -0.3754104673862457
        ],
        [
          0.08016585558652878,
          -0.019655290991067886,
          -0.0723312571644783,
          -0.015376743860542774,
          0.0015160412294790149,
          -0.0004047681577503681,
          0.2952432930469513,
          0.38191279768943787,
          0.11532452702522278,
          0.05318641662597656,
          -0.043990135192871094,
          0.30981555581092834,
          0.17871418595314026,
          0.02898101694881916,
          -0.005709783639758825,
          0.1097906157374382,
          0.1987476944923401,
          -0.10102076828479767,
          0.14118513464927673,
          0.3126358985900879,
          0.1769028902053833,
          -0.32985788583755493,
          0.07690664380788803,
          0.5428386926651001,
          -0.02600536309182644,
          -0.23363043367862701,
          0.27585020661354065,
          0.13204237818717957,
          0.004597431048750877,
          -0.0636925920844078,
          0.04667752981185913,
          -0.06075258180499077,
          0.12710732221603394,
          0.11039157211780548,
          -0.04864565655589104,
          0.00877248216420412,
          1.053959608078003,
          -0.2128935605287552,
          0.015824077650904655,
          0.0025871400721371174,
          0.026415186002850533,
          -0.1096724346280098,
          0.21352072060108185,
          0.12051565200090408,
          -0.011978608556091785,
          0.08116530627012253,
          -0.28053155541419983,
          0.026700438931584358,
          0.008803051896393299,
          0.06784234941005707,
          -0.07784666866064072,
          0.2664988040924072,
          -0.16411812603473663,
          -0.09645043313503265,
          -0.07409871369600296,
          -0.14057345688343048,
          0.1731092929840088,
          0.044949475675821304,
          0.02607833780348301,
          -0.17984096705913544,
          -0.5509113669395447,
          0.1563085913658142,
          0.054073598235845566,
          0.08133629709482193
        ],
        [
          0.2949638068675995,
          0.03680996596813202,
          0.07494200021028519,
          -0.05843937769532204,
          -0.12148120254278183,
          -0.04267716035246849,
          -0.0771961510181427,
          0.01871669851243496,
          0.14271777868270874,
          0.28852856159210205,
          0.07040676474571228,
          -0.4377610385417938,
          0.36425885558128357,
          0.14267981052398682,
          0.2750793993473053,
          0.2063320279121399,
          0.0035580284893512726,
          -0.0457039438188076,
          0.07541081309318542,
          0.038170699030160904,
          0.2581307888031006,
          -0.32484161853790283,
          0.21769732236862183,
          -0.03307213634252548,
          0.18476299941539764,
          -0.09854359924793243,
          0.37636885046958923,
          -0.9113616347312927,
          0.06995800882577896,
          0.16906942427158356,
          0.09773318469524384,
          0.28188198804855347,
          -0.11521168798208237,
          0.6463854312896729,
          0.05914635583758354,
          -0.2425394505262375,
          -0.9905895590782166,
          -0.08556176722049713,
          0.053829438984394073,
          -0.0019483534852042794,
          0.08605451136827469,
          0.06925828009843826,
          -0.05428837984800339,
          -0.9068909883499146,
          0.011785711161792278,
          -0.549616813659668,
          0.12211087346076965,
          -1.1439533233642578,
          0.06278014928102493,
          0.04363800585269928,
          -0.764171838760376,
          -0.48833051323890686,
          0.10337966680526733,
          -0.5235231518745422,
          -0.7496824264526367,
          -0.3102608025074005,
          -0.0888141393661499,
          0.05433505028486252,
          0.043035801500082016,
          0.10324244946241379,
          -0.3193581700325012,
          -0.3238246738910675,
          0.10260425508022308,
          0.25154566764831543
        ],
        [
          -0.4232703447341919,
          0.04658614471554756,
          0.12627309560775757,
          -0.18337729573249817,
          0.05070725828409195,
          -0.2563815116882324,
          0.1343000829219818,
          0.1040797159075737,
          0.040645696222782135,
          0.4231724143028259,
          0.07482742518186569,
          0.009791884571313858,
          0.39690902829170227,
          -0.03644222021102905,
          -0.2612842619419098,
          -0.02969186380505562,
          0.14220765233039856,
          0.07535891979932785,
          0.1664593666791916,
          -0.11663345247507095,
          -0.027152169495821,
          -0.1020875945687294,
          0.27722272276878357,
          -0.1673431098461151,
          0.031983382999897,
          -0.09110315144062042,
          0.04466322809457779,
          -0.12031686305999756,
          -0.06375159323215485,
          -0.2962382435798645,
          0.0778755471110344,
          -0.1263226866722107,
          -0.14452201128005981,
          0.2614085376262665,
          0.22569432854652405,
          -0.24463370442390442,
          0.08324867486953735,
          -0.07066266238689423,
          0.10983029752969742,
          0.0662742480635643,
          0.01029615942388773,
          0.5112787485122681,
          0.12971651554107666,
          -0.04578140377998352,
          0.047652944922447205,
          0.195082888007164,
          0.05057341605424881,
          0.10840994119644165,
          -0.03240985423326492,
          -0.08925779908895493,
          0.2918960154056549,
          -0.05217874050140381,
          0.23891615867614746,
          0.0817614272236824,
          -0.3216288685798645,
          -0.0728626623749733,
          0.07634644210338593,
          0.22999997437000275,
          -0.05827363207936287,
          0.056797850877046585,
          0.1321077197790146,
          -0.17201444506645203,
          0.18942393362522125,
          0.08503948897123337
        ],
        [
          0.16748151183128357,
          -0.07767727971076965,
          -0.46643030643463135,
          0.057271216064691544,
          0.02663164772093296,
          0.2565939426422119,
          0.18384891748428345,
          -0.016669468954205513,
          0.023834774270653725,
          -0.05637460574507713,
          0.021537141874432564,
          0.20735473930835724,
          -0.07531122118234634,
          0.009388454258441925,
          0.43933960795402527,
          0.19135628640651703,
          0.4059712290763855,
          0.013045230880379677,
          0.4136585295200348,
          -0.05355274677276611,
          0.07656493037939072,
          0.4153454005718231,
          0.1928771585226059,
          0.08542636781930923,
          0.02578986994922161,
          0.4121304154396057,
          -0.26724401116371155,
          0.5860718488693237,
          0.011430813930928707,
          -0.3491288423538208,
          0.08827898651361465,
          -0.2105942964553833,
          -0.020617401227355003,
          -0.008663983084261417,
          0.04552694410085678,
          0.12001174688339233,
          0.08491897583007812,
          0.02241828851401806,
          0.14374741911888123,
          0.26047685742378235,
          -0.15889351069927216,
          0.02898482047021389,
          0.04952210187911987,
          -0.27595654129981995,
          0.07454751431941986,
          -0.011013933457434177,
          0.16484563052654266,
          0.03901255875825882,
          -0.06991247087717056,
          -0.3613514006137848,
          0.03412806615233421,
          0.027965817600488663,
          0.03720293939113617,
          0.1925709992647171,
          -0.04794072359800339,
          0.15690918266773224,
          0.23989979922771454,
          -0.06971093267202377,
          -0.03856070712208748,
          -0.06098643317818642,
          0.3888489305973053,
          -0.005469652358442545,
          -0.11702730506658554,
          -0.032271817326545715
        ],
        [
          -0.2278541773557663,
          0.08990748971700668,
          -0.06049424782395363,
          -0.03335029259324074,
          0.06337526440620422,
          -0.02031106688082218,
          0.02137734554708004,
          0.038268450647592545,
          0.021336523815989494,
          -0.05917525291442871,
          0.362179160118103,
          -0.22778171300888062,
          0.03859216347336769,
          0.011575951240956783,
          0.12970905005931854,
          -0.034460924565792084,
          0.09270983934402466,
          0.002576162340119481,
          0.23437175154685974,
          0.129846453666687,
          -0.1951373964548111,
          0.025247178971767426,
          -0.043272510170936584,
          0.1727922558784485,
          0.06517110019922256,
          -0.09848520159721375,
          0.007695499807596207,
          0.5048333406448364,
          0.04929160699248314,
          0.22746987640857697,
          0.08166086673736572,
          -0.0509839802980423,
          0.07476802170276642,
          0.0809582844376564,
          0.0759747326374054,
          0.019094504415988922,
          -0.2201898992061615,
          0.04985690489411354,
          0.009885655716061592,
          0.7835272550582886,
          0.07269853353500366,
          0.014080632477998734,
          0.018399640917778015,
          -0.020975101739168167,
          0.02165399119257927,
          -0.07806246727705002,
          -0.04336267709732056,
          -0.04084421321749687,
          0.04005138576030731,
          0.1802336871623993,
          0.047236256301403046,
          0.06360030919313431,
          -0.04676942899823189,
          0.003349528182297945,
          0.046200815588235855,
          -0.03276975825428963,
          -0.022592032328248024,
          -0.029371140524744987,
          0.0013245437294244766,
          0.04044551029801369,
          0.046893808990716934,
          -0.00022238175733946264,
          0.005082297138869762,
          -0.039404358714818954
        ],
        [
          -0.28579917550086975,
          0.09374579787254333,
          0.030028244480490685,
          0.060263220220804214,
          -0.06582454591989517,
          0.0056231021881103516,
          0.10234951972961426,
          0.06186491623520851,
          0.020365674048662186,
          0.05473928898572922,
          -0.028709903359413147,
          -0.0750788077712059,
          0.36648327112197876,
          0.04670467972755432,
          -0.18323956429958344,
          0.13230201601982117,
          -0.00629041250795126,
          0.14543089270591736,
          0.052385371178388596,
          0.059786323457956314,
          0.15257291495800018,
          -1.1301978826522827,
          0.05037853494286537,
          0.5535830855369568,
          -0.08208441734313965,
          -0.18622441589832306,
          0.028910180553793907,
          0.2902974486351013,
          0.021369313821196556,
          -0.031010126695036888,
          0.003902749391272664,
          0.02249855175614357,
          -0.18108686804771423,
          0.7009819746017456,
          0.08543910086154938,
          -0.20402422547340393,
          0.39532899856567383,
          0.16163869202136993,
          0.033267345279455185,
          0.0027943276800215244,
          -0.04946822673082352,
          0.05412078648805618,
          0.04737529158592224,
          0.12754499912261963,
          0.033821236342191696,
          0.13522768020629883,
          -0.010910209268331528,
          0.13121303915977478,
          0.003132368205115199,
          0.018620220944285393,
          0.30189475417137146,
          0.2677094638347626,
          0.474103718996048,
          -0.11845530569553375,
          -0.8812635540962219,
          0.14436887204647064,
          -0.010347933508455753,
          0.14501707255840302,
          -0.0013727083569392562,
          -0.3200654685497284,
          -0.2946707606315613,
          -0.09152346104383469,
          0.30658867955207825,
          -0.19828590750694275
        ],
        [
          0.1119934543967247,
          -0.009300981648266315,
          0.018721656873822212,
          -0.10982288420200348,
          -0.11098869889974594,
          0.3752008378505707,
          -0.4430544078350067,
          -0.19590413570404053,
          -0.14124496281147003,
          -0.12610532343387604,
          -0.0020738772582262754,
          0.383221834897995,
          0.2732895612716675,
          0.05008422210812569,
          -0.002701657358556986,
          -0.20717282593250275,
          -0.29289230704307556,
          -0.1407163292169571,
          0.08450328558683395,
          0.43325766921043396,
          -0.4724874198436737,
          0.07486364245414734,
          -0.017842089757323265,
          0.5652304887771606,
          -0.08796429634094238,
          -0.11793922632932663,
          -0.08680535852909088,
          -0.2899778485298157,
          -0.09427326917648315,
          0.24474065005779266,
          -0.0473736934363842,
          -0.02423200011253357,
          0.050031181424856186,
          0.3756929039955139,
          -0.07448997348546982,
          0.12857495248317719,
          -0.23524782061576843,
          -0.06629215180873871,
          0.02414519339799881,
          -0.18616752326488495,
          -0.1366296261548996,
          -0.21643060445785522,
          0.06492400914430618,
          -0.35323187708854675,
          -0.07363530993461609,
          -0.03447294980287552,
          0.1309647560119629,
          -0.489398330450058,
          -0.026742737740278244,
          0.05390637740492821,
          0.319634348154068,
          0.5451524257659912,
          0.33686965703964233,
          -0.013023358769714832,
          0.17700210213661194,
          -0.06167297065258026,
          0.014617955312132835,
          0.07156476378440857,
          0.043242353945970535,
          -0.4062936305999756,
          0.09981781989336014,
          0.2598782777786255,
          -0.07942264527082443,
          -0.1991916447877884
        ],
        [
          -0.08007929474115372,
          -0.0542818158864975,
          0.1367788463830948,
          0.06569642573595047,
          -0.07592679560184479,
          -0.0470418781042099,
          0.18932069838047028,
          0.05192727595567703,
          0.18771015107631683,
          -0.047668348997831345,
          0.12048306316137314,
          0.00163809594232589,
          0.03199831768870354,
          0.01817191205918789,
          0.3189665377140045,
          0.10302654653787613,
          -0.03174721822142601,
          -0.07138224691152573,
          0.11333861947059631,
          0.10740712285041809,
          0.05197463929653168,
          0.5024471282958984,
          0.07262051105499268,
          -0.03877517208456993,
          0.07226432114839554,
          -0.0005790130235254765,
          0.12778151035308838,
          0.12131138890981674,
          -0.01720963604748249,
          -0.09586743265390396,
          -0.04435184970498085,
          -0.12264775484800339,
          -0.012670466676354408,
          -0.16770842671394348,
          -0.09020103514194489,
          0.02406178042292595,
          0.3525247871875763,
          0.0413680300116539,
          -0.004180268384516239,
          1.0021960735321045,
          -0.03729460388422012,
          0.05670398473739624,
          0.09073405712842941,
          -0.03382950276136398,
          -0.018406715244054794,
          0.01592274382710457,
          -0.4181154668331146,
          -0.09270164370536804,
          -0.024880144745111465,
          0.02862992323935032,
          -0.08781052380800247,
          -0.15228961408138275,
          -0.0047321985475718975,
          -0.06191157549619675,
          -0.1434565931558609,
          -0.010858115740120411,
          -0.0353221595287323,
          0.06005365401506424,
          0.005921993870288134,
          0.03192579373717308,
          -0.045633215457201004,
          -0.01727341301739216,
          -0.06103911250829697,
          -0.0903889536857605
        ],
        [
          0.18987099826335907,
          0.05868269130587578,
          0.20639578998088837,
          0.16352298855781555,
          0.08836455643177032,
          0.17183828353881836,
          -0.018320681527256966,
          0.1653439849615097,
          0.009202218614518642,
          0.1378875970840454,
          0.1534855216741562,
          0.21363525092601776,
          -0.07751084119081497,
          -0.03533324971795082,
          -0.47761261463165283,
          0.038334064185619354,
          0.1270437240600586,
          0.08421488851308823,
          0.035026755183935165,
          -0.2847750186920166,
          0.07568620890378952,
          -0.28590649366378784,
          0.05069766566157341,
          0.03707003965973854,
          -0.1495000123977661,
          -0.4014236032962799,
          0.17792324721813202,
          -0.5637677311897278,
          0.08728475123643875,
          0.157297745347023,
          0.10047346353530884,
          0.12696225941181183,
          -0.18806378543376923,
          0.11584707349538803,
          0.20582501590251923,
          0.18681149184703827,
          0.14609399437904358,
          -0.07553964108228683,
          0.25203803181648254,
          0.21136628091335297,
          0.03083191066980362,
          0.14246965944766998,
          0.14506956934928894,
          -0.019521191716194153,
          0.3280718922615051,
          0.2914395034313202,
          0.33869922161102295,
          -0.07986363023519516,
          -0.45738890767097473,
          0.27812591195106506,
          0.2141435295343399,
          0.09755343943834305,
          0.2840263545513153,
          -0.02687677927315235,
          -0.10116325318813324,
          0.061924103647470474,
          0.03438616544008255,
          0.08696310222148895,
          -0.09699682891368866,
          0.008799036964774132,
          -0.016644565388560295,
          -0.09831637889146805,
          -0.029552822932600975,
          0.05525900423526764
        ],
        [
          -0.27855992317199707,
          0.01503730658441782,
          0.11092351377010345,
          0.19762387871742249,
          -0.04976328834891319,
          0.21901413798332214,
          0.07060432434082031,
          -0.09273763000965118,
          -0.10009615868330002,
          0.19087396562099457,
          0.06583860516548157,
          0.1384185254573822,
          0.16082510352134705,
          -0.023691484704613686,
          0.17656965553760529,
          0.18092893064022064,
          -0.10206969827413559,
          0.4666700065135956,
          -0.16191373765468597,
          0.143037810921669,
          -0.09659028798341751,
          0.2049352079629898,
          -0.07023656368255615,
          -0.17866921424865723,
          0.5118650794029236,
          -0.24138101935386658,
          0.08140071481466293,
          0.14389082789421082,
          0.24200302362442017,
          0.028448959812521935,
          -0.005912147928029299,
          -0.19341038167476654,
          -0.08647666126489639,
          -0.6044980883598328,
          0.11688893288373947,
          -0.3487031161785126,
          -0.1836969405412674,
          0.14574523270130157,
          0.012515302747488022,
          -0.023360280320048332,
          0.12530073523521423,
          0.08736307173967361,
          -0.04452957212924957,
          0.020431658253073692,
          0.009655751287937164,
          -0.2539893686771393,
          0.03837314993143082,
          -1.0257755517959595,
          -0.01201881654560566,
          -0.0663524717092514,
          -0.11536841094493866,
          0.07059793919324875,
          0.3213067650794983,
          -0.09651912748813629,
          0.3705824613571167,
          -0.12077505886554718,
          0.30086836218833923,
          -0.06021880358457565,
          0.040898438543081284,
          0.04253077507019043,
          0.13800224661827087,
          -0.057124800980091095,
          -0.03230701759457588,
          0.2534883916378021
        ],
        [
          0.31365251541137695,
          -0.07393644005060196,
          0.18436624109745026,
          -0.03997395187616348,
          -0.008641582913696766,
          -0.2058669924736023,
          0.0013457456370815635,
          0.40498068928718567,
          0.0383286327123642,
          -0.2825736403465271,
          -0.11160974204540253,
          -0.03281620517373085,
          0.15859241783618927,
          -0.03925566002726555,
          0.07376521080732346,
          0.14955845475196838,
          0.17310741543769836,
          -0.004592173732817173,
          -0.23154011368751526,
          -0.05546284094452858,
          -0.11921922862529755,
          0.49668005108833313,
          0.3920409381389618,
          0.15617536008358002,
          -0.19290156662464142,
          -0.208423912525177,
          -0.13552433252334595,
          -0.46966806054115295,
          0.0837460607290268,
          0.004894887562841177,
          0.19737550616264343,
          -0.19814206659793854,
          0.4246562123298645,
          0.16260993480682373,
          -0.1752806305885315,
          -0.12406100332736969,
          0.19624151289463043,
          0.13635024428367615,
          0.14973792433738708,
          -0.1586894989013672,
          0.04283526539802551,
          0.13429701328277588,
          -0.14589326083660126,
          -0.25068965554237366,
          0.07170870900154114,
          -0.20499536395072937,
          -0.3837752938270569,
          0.10301072150468826,
          -0.03873223438858986,
          0.19901852309703827,
          -0.006000838242471218,
          -0.014622020535171032,
          -0.07886455208063126,
          0.061887551099061966,
          0.06470023095607758,
          -0.08671567589044571,
          0.06673970073461533,
          -0.16885897517204285,
          0.2708848714828491,
          -0.13994307816028595,
          0.2842552661895752,
          -0.051655810326337814,
          -0.07061510533094406,
          -0.08070454746484756
        ],
        [
          -0.015826186165213585,
          -0.05758518725633621,
          -0.02763485722243786,
          0.0029829605482518673,
          -0.05414843186736107,
          -0.044354092329740524,
          -0.06586126238107681,
          -0.09519658982753754,
          0.4949902594089508,
          -0.08965462446212769,
          -0.01662878505885601,
          -0.006494495552033186,
          -0.041125550866127014,
          -0.055762071162462234,
          -0.11604642868041992,
          -0.06582251936197281,
          0.025019967928528786,
          0.17000411450862885,
          0.11404374986886978,
          -0.01519750989973545,
          -0.07972534000873566,
          -0.09821292757987976,
          -0.17557594180107117,
          -0.05609216168522835,
          0.02126593142747879,
          -0.0424751378595829,
          0.09342589974403381,
          -0.17271091043949127,
          0.04647016152739525,
          -0.16690798103809357,
          0.25780507922172546,
          0.04325603321194649,
          -0.06749515980482101,
          0.08052657544612885,
          0.06544937938451767,
          0.04197297245264053,
          0.09579750150442123,
          0.3482493460178375,
          0.0743248388171196,
          -0.03285444527864456,
          0.14372603595256805,
          0.03613503649830818,
          0.0007502721273340285,
          -0.05904955789446831,
          -0.4765232503414154,
          0.04311139136552811,
          -0.02448422834277153,
          -0.057305362075567245,
          0.9153137803077698,
          0.07691186666488647,
          -0.021974150091409683,
          -0.03787681832909584,
          -0.003298545489087701,
          0.055468905717134476,
          -0.054127927869558334,
          0.04412558302283287,
          0.030379001051187515,
          -0.4107944369316101,
          -0.029859822243452072,
          0.0015282656531780958,
          -0.24934270977973938,
          -0.06474407762289047,
          0.05119825899600983,
          0.04460474103689194
        ],
        [
          -0.6217207312583923,
          0.05701307952404022,
          -0.0841507539153099,
          0.05545460060238838,
          -0.016713369637727737,
          0.0451202355325222,
          -0.051656268537044525,
          -0.0201992429792881,
          0.15077081322669983,
          -0.383260041475296,
          0.047492723912000656,
          0.37140125036239624,
          0.37693554162979126,
          0.02555260807275772,
          -0.048143837600946426,
          0.16926714777946472,
          -0.08702091127634048,
          -0.42247360944747925,
          0.09363292157649994,
          -0.16296343505382538,
          -0.3465951979160309,
          -0.06232290342450142,
          -0.32141411304473877,
          0.13066229224205017,
          0.09600317478179932,
          -0.13351386785507202,
          -0.07911998778581619,
          -0.2764500677585602,
          -0.13275834918022156,
          0.04521605744957924,
          -0.062256477773189545,
          -0.06071607768535614,
          0.1403549164533615,
          -0.028929470106959343,
          -0.14449724555015564,
          0.11222276836633682,
          -0.28766554594039917,
          -0.028602685779333115,
          0.0781785100698471,
          0.06903503090143204,
          0.09212683886289597,
          0.5220420956611633,
          0.02891632355749607,
          0.13276469707489014,
          -0.06891141831874847,
          -0.5555447936058044,
          0.07075763493776321,
          0.36903584003448486,
          -0.07245978713035583,
          -0.0098071014508605,
          -0.4769909381866455,
          -0.04737881198525429,
          -0.3161841928958893,
          -0.01752532087266445,
          0.19049492478370667,
          -0.19236911833286285,
          -0.13911110162734985,
          -0.16684938967227936,
          0.012686828151345253,
          -0.13024210929870605,
          -0.27598920464515686,
          0.4439454674720764,
          -0.19842010736465454,
          -0.13733826577663422
        ],
        [
          0.09103222191333771,
          -0.012681280262768269,
          -0.112258680164814,
          0.02672738954424858,
          -0.06289511173963547,
          0.05551435798406601,
          0.05052914097905159,
          -0.17088092863559723,
          0.29436519742012024,
          0.020831691101193428,
          0.06103247404098511,
          -0.14642809331417084,
          0.035130009055137634,
          -0.5049018859863281,
          -0.009647917933762074,
          0.2829757332801819,
          0.1849353313446045,
          -0.00616553146392107,
          -0.33641132712364197,
          -0.10646431148052216,
          0.06710255146026611,
          -0.036795470863580704,
          0.07448609918355942,
          -0.0121367322281003,
          -0.09396950900554657,
          -0.09801938384771347,
          -0.038237109780311584,
          0.00039369179285131395,
          0.7992123961448669,
          -0.07423555105924606,
          -0.4579358696937561,
          -0.08955599367618561,
          0.04370317980647087,
          -0.030463868752121925,
          -0.02802255190908909,
          0.02186770550906658,
          -0.4507235288619995,
          -0.327881395816803,
          -0.05662267655134201,
          -0.004606283735483885,
          -0.06389719992876053,
          0.018359076231718063,
          -0.032252922654151917,
          -0.042653825134038925,
          -0.07973605394363403,
          -0.03670062497258186,
          0.07503512501716614,
          0.14270101487636566,
          -0.026719985529780388,
          0.13014757633209229,
          0.018861381337046623,
          0.024591609835624695,
          0.04229002818465233,
          -0.09404671937227249,
          0.05457048490643501,
          -0.04094430059194565,
          0.048744864761829376,
          0.41761013865470886,
          0.07867813110351562,
          0.1624661684036255,
          -0.07635700702667236,
          0.03736184909939766,
          0.11350289732217789,
          -0.037750061601400375
        ],
        [
          -0.02328040450811386,
          0.03245539963245392,
          0.04680845886468887,
          -0.08969391137361526,
          0.2447032928466797,
          -0.23717248439788818,
          -0.011660688556730747,
          -0.029453301802277565,
          0.10435820370912552,
          0.2102544754743576,
          -0.06417172402143478,
          -0.9535351991653442,
          1.5688936710357666,
          0.02262141741812229,
          -0.13046377897262573,
          -0.2262585610151291,
          0.12024449557065964,
          -0.05192723125219345,
          -0.19580642879009247,
          0.026201123371720314,
          -0.1022094264626503,
          0.30715030431747437,
          0.16623112559318542,
          0.9962477087974548,
          0.22484168410301208,
          0.06435806304216385,
          0.25498464703559875,
          -0.28966009616851807,
          0.13311739265918732,
          -0.1557474285364151,
          0.05857826769351959,
          0.21262897551059723,
          -0.37385767698287964,
          1.0151809453964233,
          0.022064052522182465,
          -0.3876289427280426,
          -0.011888408102095127,
          0.17474842071533203,
          -0.030507951974868774,
          0.026429908350110054,
          0.1955268532037735,
          -0.048394575715065,
          -0.09532575309276581,
          -0.32208743691444397,
          -0.01432772260159254,
          -0.14192986488342285,
          -0.10381855815649033,
          0.490631103515625,
          0.0714600682258606,
          0.02541177161037922,
          -1.0710796117782593,
          -0.0571926049888134,
          -0.09738459438085556,
          -0.24600376188755035,
          -2.0694475173950195,
          -0.06626836955547333,
          -0.7031488418579102,
          0.28421056270599365,
          0.05599091202020645,
          -1.0751720666885376,
          -0.4601767063140869,
          -0.0864902213215828,
          0.3430172801017761,
          0.1061510369181633
        ],
        [
          0.020325910300016403,
          0.0706368014216423,
          -0.08266087621450424,
          -0.06122049316763878,
          0.06527680158615112,
          -0.002248946577310562,
          -0.16984109580516815,
          0.19669419527053833,
          -0.07526658475399017,
          -0.034733131527900696,
          -0.16479040682315826,
          -0.04211074486374855,
          0.17100459337234497,
          -0.033097028732299805,
          0.006968715228140354,
          0.17598146200180054,
          0.0973258689045906,
          0.005469153635203838,
          -0.006019512191414833,
          -0.42645058035850525,
          -0.18432165682315826,
          1.1660290956497192,
          0.04161948710680008,
          0.055576808750629425,
          0.08060295134782791,
          -0.005623395089060068,
          0.5126062631607056,
          0.07257311791181564,
          0.02592935413122177,
          0.07738323509693146,
          -0.04465620592236519,
          0.2887429893016815,
          -0.1514207124710083,
          -0.3975503742694855,
          -0.024181880056858063,
          0.051646292209625244,
          -0.04141150414943695,
          0.002018314553424716,
          -0.07957158982753754,
          0.003197756828740239,
          0.11397640407085419,
          0.02211318537592888,
          0.007985435426235199,
          0.053028590977191925,
          -0.08235079795122147,
          -0.07859107106924057,
          -0.010968571528792381,
          0.4731505215167999,
          -0.013800153508782387,
          0.027358151972293854,
          -0.016946380957961082,
          0.22144955396652222,
          -0.030473291873931885,
          0.46856775879859924,
          0.2953070104122162,
          0.1073584109544754,
          0.1815464347600937,
          0.15531767904758453,
          -0.03192664682865143,
          -0.05510475113987923,
          -0.08610180765390396,
          -0.098944291472435,
          0.006441137753427029,
          -0.014335284940898418
        ],
        [
          0.29829809069633484,
          -0.057816486805677414,
          0.10773702710866928,
          0.41707897186279297,
          0.10141928493976593,
          -0.12106286734342575,
          -0.10645867884159088,
          -0.05978864058852196,
          -0.6756767630577087,
          0.04201439768075943,
          -0.08224108815193176,
          -0.13387036323547363,
          0.0065790992230176926,
          -0.042153000831604004,
          -0.0077156550250947475,
          -0.11477909982204437,
          -0.027518711984157562,
          0.05727745592594147,
          0.2645813822746277,
          0.4507594704627991,
          0.1150316521525383,
          0.030617963522672653,
          0.6374498009681702,
          0.0769558921456337,
          -0.05072497949004173,
          0.00046369648771360517,
          -0.03610432893037796,
          -0.1765635758638382,
          0.1038278341293335,
          0.1634746938943863,
          -0.10182350128889084,
          -0.0009646976250223815,
          0.0879015401005745,
          -0.018469205126166344,
          -0.2856427729129791,
          -0.044176749885082245,
          -0.09163681417703629,
          -0.4981953203678131,
          0.2722421884536743,
          0.011638218536973,
          -0.0379202663898468,
          0.08642078936100006,
          0.03030538745224476,
          0.05256272479891777,
          -0.15606015920639038,
          -0.17528808116912842,
          -0.11757175624370575,
          0.03063407726585865,
          -0.052489496767520905,
          -0.001158752478659153,
          0.021926874294877052,
          -0.10421275347471237,
          -0.147634819149971,
          -0.03419638052582741,
          0.28482183814048767,
          0.10844911634922028,
          0.010851088911294937,
          0.3228164315223694,
          0.16135767102241516,
          0.08856235444545746,
          0.05340101197361946,
          -0.004390110727399588,
          0.12298757582902908,
          0.031354986131191254
        ],
        [
          -0.040067676454782486,
          0.08849327266216278,
          0.016033342108130455,
          -0.026576312258839607,
          0.1381092220544815,
          0.08567847311496735,
          -0.06928406655788422,
          0.032421618700027466,
          -0.17697641253471375,
          -0.09031186252832413,
          -0.026165083050727844,
          -0.22923488914966583,
          -0.13076120615005493,
          0.015088522806763649,
          0.09783577173948288,
          0.06538031995296478,
          -0.002036535181105137,
          -0.07617530971765518,
          0.15587514638900757,
          1.349427342414856,
          -0.09358285367488861,
          -0.3810270130634308,
          0.11525842547416687,
          0.15298886597156525,
          -0.06679116189479828,
          -0.020481206476688385,
          0.017174869775772095,
          -0.13331358134746552,
          0.0628492459654808,
          -0.13441726565361023,
          -0.0276233721524477,
          0.08916221559047699,
          0.09569476544857025,
          -0.10229402035474777,
          -0.045342136174440384,
          -0.0048835077323019505,
          0.10207614302635193,
          -0.17173141241073608,
          0.05848168954253197,
          0.03543497622013092,
          0.026849891990423203,
          0.12208274006843567,
          -0.036089569330215454,
          -0.023748351261019707,
          0.8481249213218689,
          0.021093260496854782,
          -0.18624363839626312,
          -0.19456599652767181,
          0.5546380877494812,
          0.10382334142923355,
          -0.009827440604567528,
          -0.0933062806725502,
          -0.1284453123807907,
          -0.018050333485007286,
          -0.06741657108068466,
          -0.0008962205611169338,
          0.02564486302435398,
          0.08184178173542023,
          0.00691923638805747,
          -0.0016777554992586374,
          -0.20124095678329468,
          -0.015964778140187263,
          -0.026555873453617096,
          -0.05384499579668045
        ],
        [
          0.19726994633674622,
