{
  "model_type": "DeepONet",
  "meta": {
    "input_dim": 11,
    "output_shape": null,
    "param_bounds": [
      [
        0.3250718414783478,
        -1.049988031387329,
        0.0012560749892145395,
        0.0025034493301063776,
        0.002501625334843993,
        0.002504239324480295,
        0.002500210190191865,
        0.0025009955279529095,
        0.002501365030184388,
        0.002501034876331687,
        0.002518369583413005
      ],
      [
        4.1749653816223145,
        0.04996761307120323,
        0.5237434506416321,
        0.1674935519695282,
        0.1674988716840744,
        0.16749456524848938,
        0.16749998927116394,
        0.1674989014863968,
        0.16749992966651917,
        0.16749367117881775,
        0.16749702394008636
      ]
    ],
    "output_scaler": {
      "mean_": [
        0.2728603643470951
      ],
      "scale_": [
        0.1029844248809546
      ]
    }
  },
  "layers": [],
  "branch_layers": [
    {
      "W": [
        [
          -0.14066970348358154,
          0.35315510630607605,
          0.3540802299976349,
          0.3919225037097931,
          0.26557064056396484,
          -0.0737634003162384,
          -0.08657105267047882,
          0.021663891151547432,
          0.6080856919288635,
          -1.0540482997894287,
          -0.3117215037345886,
          -0.21631720662117004,
          -0.4987884759902954,
          -0.8005955815315247,
          -0.23918628692626953,
          -0.019311651587486267,
          0.04545355215668678,
          -0.06141825392842293,
          -0.0025689268950372934,
          -0.018070358783006668,
          0.09419404715299606,
          -0.23824213445186615,
          0.3899812400341034,
          -0.91059809923172,
          -0.4594876766204834,
          -0.36064445972442627,
          -0.3078729510307312,
          -0.07116852700710297,
          0.3605298101902008,
          0.26517540216445923,
          0.10952188074588776,
          0.38520485162734985,
          -0.16112999618053436,
          0.058969661593437195,
          -0.11969784647226334,
          0.2129933089017868,
          -0.3717696964740753,
          -0.32001742720603943,
          -0.2852797508239746,
          0.27457642555236816,
          0.012728036381304264,
          0.6447218656539917,
          0.2450304627418518,
          -0.9506416320800781,
          0.7797738313674927,
          0.4820307493209839,
          -0.16300247609615326,
          -0.06491382420063019,
          -0.41477933526039124,
          0.4721496105194092,
          -0.3544599115848541,
          0.6456246376037598,
          -0.012002137489616871,
          -0.23278148472309113,
          -0.5123536586761475,
          -0.2002318799495697,
          0.06887517124414444,
          0.06999471038579941,
          -0.3891381621360779,
          -0.056632962077856064,
          0.016483666375279427,
          0.4752402603626251,
          -0.24833475053310394,
          -0.060512617230415344
        ],
        [
          -0.04961676150560379,
          -0.21345271170139313,
          -0.13190779089927673,
          -0.3544132709503174,
          -0.12926596403121948,
          -0.3598999083042145,
          0.01692885160446167,
          -1.009350061416626,
          0.07960919290781021,
          -0.1450095772743225,
          -0.7266902923583984,
          0.8202387690544128,
          0.2316047102212906,
          -0.3749092221260071,
          0.02675926871597767,
          0.0053293174132704735,
          0.020295223221182823,
          -0.44177401065826416,
          -0.016418566927313805,
          0.02039746381342411,
          0.01635967195034027,
          0.12702810764312744,
          -0.07316282391548157,
          0.3541608452796936,
          -0.18945887684822083,
          0.05213576927781105,
          0.057682257145643234,
          -0.6052995920181274,
          0.3327341377735138,
          -0.15474070608615875,
          0.09102300554513931,
          -0.6959630250930786,
          0.01912636123597622,
          0.43143531680107117,
          0.014534350484609604,
          -0.8145091533660889,
          0.05591467395424843,
          0.01978277415037155,
          0.06721656024456024,
          -0.04277490824460983,
          -0.013682988472282887,
          0.008044160902500153,
          0.0209992453455925,
          -0.06042381376028061,
          -0.2996087968349457,
          -0.2340843677520752,
          0.022258087992668152,
          -0.17654141783714294,
          0.04390956461429596,
          0.1307770013809204,
          -0.32760101556777954,
          -0.08800732344388962,
          -0.010343842208385468,
          0.026751969009637833,
          0.07245916873216629,
          0.03804634138941765,
          -0.21134229004383087,
          0.18265698850154877,
          0.05126229673624039,
          0.018524089828133583,
          -0.06875409185886383,
          0.21861329674720764,
          0.01583936996757984,
          -0.3623773455619812
        ],
        [
          0.4519815444946289,
          -0.9403960704803467,
          0.0067138527520000935,
          -0.25242355465888977,
          -0.8480334877967834,
          -0.02594299055635929,
          0.06322059780359268,
          -0.024541832506656647,
          0.04935511574149132,
          -0.0787174254655838,
          0.3318459391593933,
          -0.2219076156616211,
          0.030794162303209305,
          -0.11775179207324982,
          0.023054879158735275,
          -0.015987146645784378,
          -0.0023828863631933928,
          -0.07395859807729721,
          0.05969887599349022,
          0.004135285969823599,
          0.11229550838470459,
          0.7757784128189087,
          0.07912138104438782,
          -0.11832752823829651,
          -0.24741405248641968,
          0.06537629663944244,
          -0.10640079528093338,
          0.01775931753218174,
          0.04030635580420494,
          -0.8997476100921631,
          -0.07061686366796494,
          -0.18160459399223328,
          -0.08346377313137054,
          0.07787030935287476,
          -0.9237679243087769,
          0.21660900115966797,
          -0.0006526876823045313,
          0.2423364371061325,
          0.0734962597489357,
          0.08486854285001755,
          0.05366025120019913,
          -0.029806630685925484,
          0.07640980184078217,
          0.4072328507900238,
          0.09552380442619324,
          -0.027876902371644974,
          0.050107065588235855,
          0.02309422194957733,
          -0.32992100715637207,
          -0.5872129201889038,
          -0.04026862233877182,
          -0.4169089198112488,
          -0.008813905529677868,
          -0.02045486681163311,
          -0.06144079566001892,
          -0.06630183011293411,
          0.042904082685709,
          -0.04536275193095207,
          -0.05825677514076233,
          -0.06159662827849388,
          -0.028903847560286522,
          0.22183069586753845,
          0.00815540086477995,
          -0.009521634317934513
        ],
        [
          0.044925983995199203,
          0.001501921215094626,
          -0.0014037321088835597,
          0.024993719533085823,
          -0.013633577153086662,
          0.13201378285884857,
          -0.03708477318286896,
          0.035255108028650284,
          -0.09145157039165497,
          0.08213382214307785,
          0.13476136326789856,
          0.2990274727344513,
          -0.6925199031829834,
          -0.0641789510846138,
          -0.20523814857006073,
          -0.004138116724789143,
          -0.06058984249830246,
          0.06913812458515167,
          -0.5878598093986511,
          -0.011941215954720974,
          -0.06100987270474434,
          0.0208034235984087,
          0.023678433150053024,
          0.028362147510051727,
          -0.04291720688343048,
          -0.04789842292666435,
          -0.010838082991540432,
          -0.6084825992584229,
          -0.20713618397712708,
          0.003470265306532383,
          0.14625610411167145,
          -0.03883719816803932,
          0.004251111298799515,
          -0.07952892780303955,
          -0.023139359429478645,
          -0.29781195521354675,
          -0.7461552023887634,
          -0.2962934076786041,
          -0.1564215123653412,
          0.006968710571527481,
          -1.0391424894332886,
          0.06276651471853256,
          0.006825629621744156,
          0.06478367000818253,
          -0.022175505757331848,
          0.6646139025688171,
          -0.09270454198122025,
          0.014927633106708527,
          -0.037602029740810394,
          0.14953675866127014,
          0.20041105151176453,
          -0.20919401943683624,
          0.02951779216527939,
          -0.012617326341569424,
          0.04693863168358803,
          -0.011493759229779243,
          -0.004467599559575319,
          0.30505362153053284,
          -0.040371302515268326,
          -0.0021488077472895384,
          -0.005067093297839165,
          0.03571876510977745,
          -0.02319336123764515,
          0.06509750336408615
        ],
        [
          0.019295694306492805,
          -0.0007398630259558558,
          0.008361943997442722,
          -0.009161482565104961,
          -0.010008630342781544,
          -0.011000189930200577,
          -0.15400256216526031,
          0.007258276455104351,
          -0.04800640046596527,
          0.047017112374305725,
          0.03628065064549446,
          0.008811846375465393,
          0.05044528469443321,
          -0.007960719056427479,
          -0.7240970730781555,
          -0.0017990336054936051,
          -0.027595706284046173,
          -0.570698082447052,
          -0.0031934373546391726,
          -0.03692299872636795,
          -0.7406941652297974,
          0.004981875419616699,
          0.03157215565443039,
          0.015317450277507305,
          -0.021148880943655968,
          -0.13592158257961273,
          -0.018950635567307472,
          -0.014772896654903889,
          -0.48814913630485535,
          0.0008154892129823565,
          0.053280703723430634,
          0.0011698553571477532,
          -0.00649177934974432,
          0.5549417734146118,
          0.003406497649848461,
          -0.00869427528232336,
          0.017385367304086685,
          0.001841629622504115,
          -0.4810582995414734,
          0.013900098390877247,
          -0.002910143695771694,
          0.07028816640377045,
          -0.2070690393447876,
          0.0206922460347414,
          -0.012636717408895493,
          -0.04878252372145653,
          -0.2735719084739685,
          -0.010624106973409653,
          -0.018160784617066383,
          0.0006849046330899,
          0.47444939613342285,
          -0.00439734710380435,
          0.02821667492389679,
          -0.029071040451526642,
          0.025698572397232056,
          -0.014452003873884678,
          0.07954985648393631,
          -0.037622787058353424,
          -0.09466337412595749,
          -0.004391677211970091,
          0.2002469003200531,
          0.017109595239162445,
          -0.07076944410800934,
          -0.6511126160621643
        ],
        [
          -0.00691831111907959,
          0.0017316885059699416,
          0.0271918885409832,
          0.0035305351484566927,
          -0.014150815084576607,
          -0.01608642376959324,
          -0.3581410050392151,
          0.007149409037083387,
          -0.019064735621213913,
          0.023694192990660667,
          0.012835911475121975,
          0.1614282727241516,
          0.03971188887953758,
          0.019999515265226364,
          -0.016046607866883278,
          -0.0027671658899635077,
          0.1549503058195114,
          -0.011338064447045326,
          0.0011528815375640988,
          0.20766910910606384,
          0.04789881408214569,
          0.012147501111030579,
          0.05074682459235191,
          -0.023353850468993187,
          0.034588150680065155,
          -0.29218214750289917,
          -0.02257663756608963,
          0.006946570239961147,
          -0.36180436611175537,
          0.000555620004888624,
          0.003449885407462716,
          0.014347870834171772,
          -0.006907602306455374,
          0.006980886682868004,
          0.024626728147268295,
          -0.16082826256752014,
          0.005220338236540556,
          0.003562894416972995,
          0.004885254893451929,
          0.022623959928750992,
          -0.004016116261482239,
          0.09165458381175995,
          0.007654121145606041,
          0.005070902407169342,
          0.021963831037282944,
          -0.038737788796424866,
          -0.5205347537994385,
          0.012771343812346458,
          0.009329469874501228,
          -0.006422459613531828,
          0.35278552770614624,
          0.0009165860828943551,
          -0.32258155941963196,
          -0.05682658776640892,
          0.022575780749320984,
          -0.02995378151535988,
          -0.4042864441871643,
          -0.002473692176863551,
          -0.15194450318813324,
          2.5355961042805575e-05,
          -0.037740375846624374,
          -0.0316433347761631,
          -0.13638314604759216,
          0.024918481707572937
        ],
        [
          -0.006043189205229282,
          0.005651338025927544,
          0.02198890782892704,
          0.0026770245749503374,
          -0.0020462172105908394,
          -0.009617988020181656,
          0.1877857744693756,
          0.019852614030241966,
          -0.012340015731751919,
          0.0065361312590539455,
          0.003852758789435029,
          0.1829168051481247,
          -0.002333838026970625,
          0.013627244159579277,
          0.0036606290377676487,
          -0.004230430815368891,
          0.10082478821277618,
          0.023987023159861565,
          -0.0033586358185857534,
          0.001378422137349844,
          -0.009182717651128769,
          0.0019944384694099426,
          0.07018116116523743,
          -0.017453717067837715,
          0.03367120027542114,
          -0.02968042716383934,
          -0.028321189805865288,
          0.006156447809189558,
          -0.07763942331075668,
          0.0026060310192406178,
          -0.21776039898395538,
          0.008368552662432194,
          -0.020890560001134872,
          -0.0227242112159729,
          0.010696271434426308,
          -0.1805405467748642,
          0.004315143451094627,
          0.001232194248586893,
          -5.194771074457094e-05,
          0.03420810028910637,
          -0.0008193725952878594,
          0.0038849737029522657,
          6.502443284261972e-05,
          0.0038874007295817137,
          0.019784701988101006,
          0.004487833473831415,
          -0.07176945358514786,
          0.058540672063827515,
          0.01263985875993967,
          -0.0059073264710605145,
          0.07848796993494034,
          0.0022411325480788946,
          0.000929214817006141,
          -0.23887214064598083,
          -0.0009907381609082222,
          -0.02627451717853546,
          0.016929082572460175,
          -0.010590518824756145,
          -0.16624511778354645,
          -0.014363358728587627,
          0.1758100986480713,
          -0.01079704612493515,
          -0.4330734312534332,
          0.00563213462010026
        ],
        [
          -0.003625794779509306,
          0.0038553716149181128,
          0.01252779271453619,
          -0.007875955663621426,
          0.0009585219086147845,
          -0.007418332155793905,
          0.008101566694676876,
          0.005857731681317091,
          0.0030422259587794542,
          0.005081118084490299,
          0.0133921904489398,
          0.15486621856689453,
          0.006706543266773224,
          0.0058904727920889854,
          0.0058257388882339,
          0.016524555161595345,
          0.07901310175657272,
          0.010808316990733147,
          -0.0016618692316114902,
          -0.12452156841754913,
          -0.008168734610080719,
          0.0018608078826218843,
          0.14840823411941528,
          -0.010289427824318409,
          0.015370065346360207,
          0.0009038620628416538,
          -0.02510576881468296,
          0.0010137062054127455,
          -0.037130206823349,
          0.00036903686122968793,
          0.016627147793769836,
          0.0004929922288283706,
          -0.0430302657186985,
          -0.01014640275388956,
          0.009773078374564648,
          -0.1535409688949585,
          0.0016000044997781515,
          0.0020599470008164644,
          0.003285867627710104,
          0.07251513749361038,
          0.00040903055923990905,
          -0.008291833102703094,
          0.0071074520237743855,
          -0.000680695113260299,
          0.016523705795407295,
          -0.004448840394616127,
          0.003243471961468458,
          0.20948974788188934,
          0.018712708726525307,
          -0.0004378358426038176,
          0.03431614860892296,
          0.0036329885479062796,
          -0.0072588627226650715,
          0.015743596479296684,
          -0.0006170246633701026,
          -0.016269974410533905,
          0.008731905370950699,
          -0.12506219744682312,
          -0.22239691019058228,
          -0.016050495207309723,
          0.002950877184048295,
          0.002691359492018819,
          0.019646815955638885,
          0.007959326729178429
        ],
        [
          -0.002764448057860136,
          0.0009297405485995114,
          0.02183370664715767,
          -0.008536177687346935,
          0.009092306718230247,
          -0.00658559100702405,
          0.0029517454095184803,
          0.004711111541837454,
          0.0002504950971342623,
          0.0012244215467944741,
          0.004102220293134451,
          0.10101448744535446,
          0.00037548813270404935,
          0.0028123522642999887,
          0.0007658791728317738,
          -0.005124356132000685,
          -0.06508348137140274,
          0.004348043352365494,
          -0.001690818346105516,
          0.013128712773323059,
          0.00034911028342321515,
          -0.004363690502941608,
          -0.01191783882677555,
          -0.024504603818058968,
          0.01964757591485977,
          0.0005015544593334198,
          -0.04995422437787056,
          0.00056168605806306,
          -0.012610387057065964,
          0.00010324221511837095,
          -0.0361785851418972,
          0.006035985425114632,
          0.003521761391311884,
          -0.0025143460370600224,
          -0.005105743184685707,
          -0.09855635464191437,
          0.0013446055818349123,
          0.0021106586791574955,
          -0.0004978064098395407,
          0.16494478285312653,
          -0.0030618831515312195,
          -0.002373164054006338,
          -0.0012235268950462341,
          -0.00043752675992436707,
          0.024549575522542,
          -0.0008985087624751031,
          0.0012563143391162157,
          0.10016016662120819,
          0.0006018245476298034,
          -0.000979808159172535,
          0.012536730617284775,
          -0.0030297907069325447,
          0.030037183314561844,
          0.006103179883211851,
          -0.006411893758922815,
          -0.08794858306646347,
          -0.001208033412694931,
          -0.07299011945724487,
          -0.020336221903562546,
          0.21452927589416504,
          0.00042317129555158317,
          0.0001971239980775863,
          -0.0006537596345879138,
          0.005387869197875261
        ],
        [
          -0.007705093827098608,
          0.003942844457924366,
          0.028326982632279396,
          -0.006245243363082409,
          0.012047515250742435,
          0.0006037875427864492,
          0.000995857990346849,
          -0.00026156732928939164,
          0.0002302074572071433,
          -0.0013912077993154526,
          0.002309427596628666,
          0.07444910705089569,
          0.011330199427902699,
          -0.0020933272317051888,
          0.0009087413200177252,
          0.0030975411646068096,
          -0.08555418998003006,
          0.00021558025036938488,
          -0.0023930768948048353,
          0.08788523077964783,
          -0.0047818454913794994,
          -0.009090131148695946,
          0.0037004805635660887,
          -0.017112545669078827,
          0.011410119011998177,
          0.001981658162549138,
          -0.033104393631219864,
          0.0064485939219594,
          -0.013749430887401104,
          0.001937776105478406,
          -0.01407218724489212,
          0.0033710149582475424,
          -0.18380066752433777,
          0.004413330927491188,
          -0.00664220005273819,
          -0.0744699090719223,
          0.002012101700529456,
          -0.0006220031646080315,
          -0.0008947187452577055,
          0.0812782347202301,
          -0.0032089261803776026,
          0.005992470774799585,
          0.0021288481075316668,
          0.004582515452057123,
          0.014822633005678654,
          -0.00850735418498516,
          -0.00037187853013165295,
          0.06592912971973419,
          0.0022846837528049946,
          -0.00040435799746774137,
          0.01457301340997219,
          -0.00037871336098760366,
          0.0554707907140255,
          -0.00064724066760391,
          -0.0028880371246486902,
          0.15293291211128235,
          -0.005833223927766085,
          -0.06902628391981125,
          0.0010132008465006948,
          0.01021372526884079,
          -0.015611251816153526,
          -0.0023801587522029877,
          3.963340714108199e-05,
          0.001956539461389184
        ],
        [
          -0.003922828007489443,
          0.0008586796466261148,
          0.009920337237417698,
          0.001247701235115528,
          0.007340330630540848,
          0.0007863783393986523,
          0.0013946389080956578,
          -0.0018373875645920634,
          0.0021888657938688993,
          -0.0009473803220316768,
          0.003768970025703311,
          0.02543569914996624,
          0.006671114359050989,
          0.001126461080275476,
          0.0014692415716126561,
          0.1282983422279358,
          -0.06428252905607224,
          0.0036730633582919836,
          -1.975590203073807e-05,
          0.004410531837493181,
          0.0035705757327377796,
          -0.0045338962227106094,
          0.0004446608363650739,
          -0.025523431599140167,
          0.010320790112018585,
          0.0004400144680403173,
          0.11628992855548859,
          0.002907202811911702,
          -0.008108414709568024,
          -0.000974287569988519,
          -0.02013903297483921,
          0.0015416990499943495,
          -0.03649073839187622,
          -0.003155132755637169,
          -0.0014525363221764565,
          -0.02566685527563095,
          -0.0033643655478954315,
          0.0002117999247275293,
          0.00180364353582263,
          0.03250953555107117,
          -0.0028898597229272127,
          0.0005948880570940673,
          -0.0004963239189237356,
          -0.0023798702750355005,
          0.020691685378551483,
          -0.0068893167190253735,
          -0.000662654812913388,
          0.018477506935596466,
          -0.013831117190420628,
          0.00410811509937048,
          0.009221833199262619,
          -0.002147555584087968,
          -0.0071434699930250645,
          -0.0017834119498729706,
          -0.004794086329638958,
          0.019289230927824974,
          -0.003293901914730668,
          -0.0036234594881534576,
          0.0020780370105057955,
          0.015364005230367184,
          0.0009145666845142841,
          0.004140366334468126,
          -0.0013925080420449376,
          -0.0039651342667639256
        ]
      ],
      "b": [
        0.23850402235984802,
        -0.43418189883232117,
        0.2157641053199768,
        0.1762930154800415,
        -0.043577030301094055,
        0.07504745572805405,
        -0.2334035187959671,
        -0.5994647145271301,
        0.21354879438877106,
        -0.6521536111831665,
        -0.4627557694911957,
        -0.12867605686187744,
        0.008172649890184402,
        -0.4568060338497162,
        -0.5092138648033142,
        0.12622082233428955,
        0.41067326068878174,
        -0.02429249882698059,
        -0.035505276173353195,
        0.3517187535762787,
        -0.5029318332672119,
        0.03798055648803711,
        -0.08162762969732285,
        -0.27863791584968567,
        0.02421935275197029,
        -0.0071617914363741875,
        -0.11970909684896469,
        -0.39040565490722656,
        0.06221137195825577,
        -0.6446066498756409,
        0.4457649886608124,
        -0.3332560062408447,
        -0.024867212399840355,
        0.026461027562618256,
        -0.6232200860977173,
        0.12730835378170013,
        -0.42542311549186707,
        0.42752790451049805,
        -0.08558530360460281,
        -0.05606028065085411,
        -0.5266741514205933,
        -0.3457386791706085,
        0.05282588303089142,
        -0.4296761155128479,
        0.23776090145111084,
        -0.007771181873977184,
        -0.4424312114715576,
        0.4578656852245331,
        -0.05719117447733879,
        -0.12535075843334198,
        -0.06121339648962021,
        -0.34550976753234863,
        0.36426448822021484,
        0.06081562489271164,
        0.13479480147361755,
        -0.0363263376057148,
        -0.2811862826347351,
        0.5097517371177673,
        -0.36423349380493164,
        0.19568222761154175,
        0.3760644197463989,
        -0.046079158782958984,
        -0.2649259567260742,
        -0.48923665285110474
      ],
      "act": null
    },
    {
      "W": null,
      "b": null,
      "act": "relu"
    },
    {
      "W": [
        [
          0.033183347433805466,
          0.02000030316412449,
          -0.09795580059289932,
          0.18287771940231323,
          0.2959231436252594,
          -0.12713195383548737,
          0.3010529577732086,
          0.04257364571094513,
          0.07175315171480179,
          0.43833062052726746,
          0.14618127048015594,
          0.07096073031425476,
          0.26965388655662537,
          -0.10353317856788635,
          0.1475931853055954,
          0.1868995577096939,
          -0.049240320920944214,
          -0.13700903952121735,
          0.15691439807415009,
          -0.21024782955646515,
          0.32463324069976807,
          0.15947513282299042,
          -0.23432253301143646,
          0.15927259624004364,
          -0.08316279202699661,
          0.258596271276474,
          0.2948532700538635,
          -0.00014202632883097976,
          -0.10750258713960648,
          0.24701236188411713,
          -0.6560620665550232,
          0.5916510820388794,
          0.17749561369419098,
          -0.045654021203517914,
          0.060168977826833725,
          0.06829112768173218,
          0.24525722861289978,
          0.2965790033340454,
          0.013106027618050575,
          0.18177853524684906,
          -0.07541866600513458,
          -0.122850701212883,
          0.0261727012693882,
          0.1497076153755188,
          0.4291078746318817,
          0.015932835638523102,
          -0.058527830988168716,
          0.2254924327135086,
          -0.07987120747566223,
          0.0051941042765975,
          0.40884655714035034,
          -0.09475970268249512,
          -0.19252078235149384,
          0.2820928692817688,
          -0.11493469774723053,
          0.03800607845187187,
          -0.08317814767360687,
          0.31797608733177185,
          0.11880248785018921,
          0.07417488843202591,
          0.43062859773635864,
          0.0927581936120987,
          -0.07326475530862808,
          0.019719332456588745
        ],
        [
          -0.3371666371822357,
          -0.056929897516965866,
          -0.044938355684280396,
          0.027522670105099678,
          0.21008622646331787,
          -0.011995332315564156,
          0.09370262920856476,
          -0.6465526223182678,
          0.24908210337162018,
          0.18663376569747925,
          0.5381504893302917,
          0.0676540657877922,
          -0.11461222171783447,
          -0.1466967761516571,
          0.102750763297081,
          0.2798878252506256,
          0.0204711202532053,
          0.17098161578178406,
          0.09602809697389603,
          -0.175938680768013,
          0.1392519772052765,
          -0.07759411633014679,
          -0.2607913315296173,
          0.06186928227543831,
          0.4660804271697998,
          0.24135790765285492,
          -0.11468661576509476,
          0.04605554789304733,
          -0.46050000190734863,
          0.17030884325504303,
          -0.10296298563480377,
          0.11136523634195328,
          0.01812579110264778,
          -0.3310416638851166,
          0.2548195421695709,
          -0.4699625074863434,
          0.16013652086257935,
          -0.1302367001771927,
          0.16347108781337738,
          -0.5446737408638,
          0.14524099230766296,
          0.3637460470199585,
          -0.349400132894516,
          -0.5223305821418762,
          0.41015884280204773,
          -0.015006855130195618,
          -0.09164446592330933,
          -0.14972425997257233,
          0.11211198568344116,
          0.20341697335243225,
          -0.11173266917467117,
          0.09363740682601929,
          -0.036648597568273544,
          0.04898728430271149,
          -0.20815026760101318,
          0.13035427033901215,
          0.02393174357712269,
          0.20384852588176727,
          -0.12789292633533478,
          -0.029391352087259293,
          0.19697044789791107,
          0.09156256169080734,
          -0.04477083310484886,
          -0.19035956263542175
        ],
        [
          -0.08557668328285217,
          -0.12774226069450378,
          0.01961551047861576,
          -0.06462591886520386,
          0.029276324436068535,
          0.19844669103622437,
          0.15059663355350494,
          0.1849869042634964,
          0.10371225327253342,
          -0.1605864316225052,
          -0.12936219573020935,
          -0.10650096088647842,
          0.0687565952539444,
          0.1942669004201889,
          -0.03633180633187294,
          -0.24888454377651215,
          -0.02910747192800045,
          0.09616493433713913,
          -0.18258929252624512,
          0.16960719227790833,
          -0.06090926006436348,
          0.13053849339485168,
          0.02420617826282978,
          0.013759979046881199,
          0.01466007623821497,
          -0.07819630950689316,
          0.28318703174591064,
          -0.08333294838666916,
          0.0519401915371418,
          0.357318252325058,
          0.19456113874912262,
          -0.1627984344959259,
          -0.001373876235447824,
          0.09528876841068268,
          0.07992599159479141,
          0.00915728323161602,
          0.06405117362737656,
          -0.06658810377120972,
          -0.3943556547164917,
          -0.17018449306488037,
          0.02206594869494438,
          0.23759624361991882,
          0.05983201786875725,
          0.06984372437000275,
          0.3258749544620514,
          -0.05210856348276138,
          0.015508106909692287,
          0.10777243226766586,
          -0.025939583778381348,
          0.07394097000360489,
          0.37842050194740295,
          0.07881595194339752,
          0.15341182053089142,
          -0.09509924054145813,
          -0.048314403742551804,
          0.14923188090324402,
          0.0330481231212616,
          0.5073679089546204,
          0.11098430305719376,
          0.010469183325767517,
          0.08609238266944885,
          -0.060930490493774414,
          0.20128391683101654,
          -0.09733999520540237
        ],
        [
          -0.04532862454652786,
          -0.011443414725363255,
          -0.012779630720615387,
          0.12595096230506897,
          -0.026723256334662437,
          0.04107871651649475,
          -0.047779157757759094,
          0.2390318512916565,
          0.19318878650665283,
          0.12021557241678238,
          0.02538379281759262,
          -0.06710663437843323,
          -0.11946386098861694,
          0.09650636464357376,
          0.055955007672309875,
          -0.025301286950707436,
          -0.10618778318166733,
          -0.37380340695381165,
          -0.180439755320549,
          0.13861818611621857,
          0.031920794397592545,
          -0.18134310841560364,
          0.19514042139053345,
          0.11188625544309616,
          0.018397292122244835,
          -0.0023403079248964787,
          -0.08488675206899643,
          0.006387781817466021,
          0.06602150201797485,
          -0.03448430448770523,
          0.21134372055530548,
          -0.040839117020368576,
          0.16850000619888306,
          0.018911782652139664,
          -0.13379357755184174,
          -0.19827024638652802,
          0.06988447904586792,
          0.09254008531570435,
          -1.7070244550704956,
          -0.42363423109054565,
          -0.0156395360827446,
          0.14819936454296112,
          0.18220630288124084,
          0.11393780261278152,
          -0.3245512545108795,
          -0.04735133424401283,
          -0.13976451754570007,
          0.05661751329898834,
          0.07456925511360168,
          -0.05352586507797241,
          -0.36833685636520386,
          -0.06591549515724182,
          0.4177790880203247,
          0.034231871366500854,
          0.14737962186336517,
          -0.041206054389476776,
          0.009209167212247849,
          0.014698709361255169,
          0.19692276418209076,
          -0.08789172768592834,
          -0.07864338904619217,
          0.08974678069353104,
          0.19516494870185852,
          0.08659875392913818
        ],
        [
          -0.026449423283338547,
          -0.05483589321374893,
          0.20156580209732056,
          -0.027817033231258392,
          0.21067728102207184,
          -0.18975768983364105,
          -0.09142442792654037,
          0.06451550871133804,
          0.07617439329624176,
          0.2927355468273163,
          0.5169858932495117,
          0.049738287925720215,
          0.1609327346086502,
          0.1472754180431366,
          0.05149339511990547,
          0.2067909836769104,
          0.11587302386760712,
          0.2636042535305023,
          -0.0037003944162279367,
          0.3774075508117676,
          0.1520160436630249,
          0.17461620271205902,
          -0.0892544761300087,
          0.059143856167793274,
          0.11437993496656418,
          0.11102718859910965,
          0.2035766988992691,
          -0.05382470414042473,
          -0.18902260065078735,
          0.20081907510757446,
          -0.2030501663684845,
          0.3357650339603424,
          -0.05294935405254364,
          -0.10728521645069122,
          0.31836676597595215,
          -0.5469328165054321,
          0.1024010181427002,
          -0.17274798452854156,
          -0.4788753092288971,
          -0.2200024574995041,
          0.02769070863723755,
          0.5405397415161133,
          -0.12619562447071075,
          -0.17499437928199768,
          0.2914581298828125,
          -0.3278634250164032,
          0.07049761712551117,
          -0.09156238287687302,
          0.22734525799751282,
          0.006196725182235241,
          -0.09038951992988586,
          0.22057700157165527,
          0.2629341185092926,
          0.10778386890888214,
          -0.15803028643131256,
          0.02774074859917164,
          -0.12936696410179138,
          0.2863450050354004,
          -0.05692768469452858,
          -0.11564935743808746,
          0.20089764893054962,
          0.04926890507340431,
          0.4129687249660492,
          -0.17786714434623718
        ],
        [
          0.21972668170928955,
          -0.10679247975349426,
          0.10853637009859085,
          -0.0985143706202507,
          0.059615518897771835,
          0.07586880773305893,
          -0.2596116065979004,
          0.22273702919483185,
          0.04583735391497612,
          0.03556647151708603,
          0.14873898029327393,
          -0.04244786873459816,
          0.02960372157394886,
          0.08301633596420288,
          0.10697051137685776,
          0.08257473260164261,
          0.09664086997509003,
          -0.2011486440896988,
          -0.14553698897361755,
          -0.364452987909317,
          -0.04266731068491936,
          -0.0679846778512001,
          -0.06344685703516006,
          -0.10775318741798401,
          0.2813640236854553,
          -0.005547366105020046,
          0.039235424250364304,
          0.05859703943133354,
          0.24137301743030548,
          0.05499255284667015,
          0.06344501674175262,
          0.06061972305178642,
          0.09457182884216309,
          0.05206461623311043,
          -0.04807670786976814,
          0.07346858829259872,
          0.029463423416018486,
          0.48092758655548096,
          -0.5023447871208191,
          -0.24163445830345154,
          -0.042122744023799896,
          -0.27865129709243774,
          0.2056574523448944,
          0.21881788969039917,
          0.008220319636166096,
          0.25365400314331055,
          0.015924565494060516,
          -0.08914850652217865,
          -0.03164789080619812,
          0.09324228763580322,
          0.3192243278026581,
          0.13499781489372253,
          -0.3085872232913971,
          -0.05416017770767212,
          0.14505206048488617,
          -0.12555833160877228,
          -0.06517747044563293,
          0.1508154720067978,
          0.04496069997549057,
          -0.04978739842772484,
          0.176234632730484,
          0.051680054515600204,
          0.544898509979248,
          0.07234105467796326
        ],
        [
          -0.03961900994181633,
          -0.00882605742663145,
          0.03462229296565056,
          0.06803558021783829,
          -0.01015033945441246,
          -0.09238996356725693,
          0.5432522892951965,
          -0.023046091198921204,
          -0.10694918036460876,
          -0.017269965261220932,
          0.01462708692997694,
          0.2016967236995697,
          -0.28282231092453003,
          -0.15525734424591064,
          0.04900653660297394,
          -0.050639934837818146,
          0.042835891246795654,
          -0.03150227665901184,
          -0.15057027339935303,
          0.011587405577301979,
          -0.3109334111213684,
          0.06774262338876724,
          -0.06595561653375626,
          -0.035023655742406845,
          0.019336998462677002,
          0.0385909229516983,
          -0.030979620292782784,
          -0.05760762467980385,
          -0.1410774290561676,
          0.05429495498538017,
          -0.015013443306088448,
          -0.03302108496427536,
          -0.3899335563182831,
          0.12259770184755325,
          0.37315988540649414,
          -0.07188107818365097,
          0.08469733595848083,
          0.006083605345338583,
          0.03588167205452919,
          0.046674054116010666,
          0.0037552742287516594,
          -0.021475419402122498,
          -0.14833420515060425,
          0.03096051514148712,
          -0.03064003773033619,
          0.15254302322864532,
          0.015879997983574867,
          0.28512904047966003,
          0.06565197557210922,
          0.397899329662323,
          -0.1800151765346527,
          0.07116001844406128,
          0.035351891070604324,
          0.3169604539871216,
          0.010863604955375195,
          -0.12328942865133286,
          -0.3464377820491791,
          -0.04349694401025772,
          0.42095983028411865,
          0.005953236948698759,
          0.004574652761220932,
          0.06649062037467957,
          -0.007310283370316029,
          -0.0727999284863472
        ],
        [
          -0.5859312415122986,
          0.013429991900920868,
          -0.09894498437643051,
          -0.10677987337112427,
          -0.09992564469575882,
          0.4056845009326935,
          0.06296351552009583,
          -0.2477484494447708,
          -0.2114776223897934,
          0.005469806492328644,
          0.17786653339862823,
          0.012340194545686245,
          0.16417613625526428,
          0.16142556071281433,
          -0.15370337665081024,
          0.12208279222249985,
          0.0530095249414444,
          0.4507497251033783,
          -0.05459297075867653,
          -0.2514308989048004,
          -0.05362271890044212,
          0.3304763734340668,
          0.02843194082379341,
          0.05030538886785507,
          0.5846309661865234,
          0.05261315405368805,
          0.5054205656051636,
          -0.25029852986335754,
          -0.02430724911391735,
          0.014240662567317486,
          -0.0901239886879921,
          0.008554035797715187,
          0.2732373774051666,
          -0.0908886045217514,
          -0.6517231464385986,
          0.30183398723602295,
          0.15245066583156586,
          0.7643215656280518,
          0.4543224275112152,
          -0.7975741028785706,
          0.12602785229682922,
          0.20244170725345612,
          1.0903148651123047,
          0.11122731119394302,
          0.045095257461071014,
          -0.8417656421661377,
          -0.14689552783966064,
          0.027573836967349052,
          -0.05491302162408829,
          -0.0030799603555351496,
          -0.35035598278045654,
          0.16762690246105194,
          -0.04700635373592377,
          0.0006890989607200027,
          0.011425257660448551,
          0.059176720678806305,
          0.06969428062438965,
          0.08649659901857376,
          -0.02056806907057762,
          0.020979251712560654,
          0.18576836585998535,
          -0.10492051392793655,
          0.629387617111206,
          -0.07404261082410812
        ],
        [
          -0.10454556345939636,
          0.034762121737003326,
          0.3207901418209076,
          -0.010904774069786072,
          -0.23219618201255798,
          -0.1467965841293335,
          -0.06637164950370789,
          -0.32290390133857727,
          -0.3126632571220398,
          0.035697974264621735,
          -0.35921013355255127,
          -0.15374745428562164,
          -0.46660348773002625,
          0.21804197132587433,
          0.06651046127080917,
          0.13753384351730347,
          -0.08214590698480606,
          0.4015921950340271,
          -0.11158274859189987,
          -0.05996739864349365,
          0.0013155003543943167,
          -0.11289946734905243,
          -0.3009457588195801,
          -0.01832527667284012,
          -0.26572850346565247,
          -0.02954060770571232,
          0.17447549104690552,
          0.02963271737098694,
          -0.06293859332799911,
          -0.04024893790483475,
          0.06110626086592674,
          -0.1092461422085762,
          -0.7335569858551025,
          0.04537311568856239,
          -0.06852592527866364,
          0.11935292184352875,
          -0.23369483649730682,
          0.44877344369888306,
          0.179196298122406,
          0.17677119374275208,
          -0.1819046586751938,
          0.03693641722202301,
          -0.5142869353294373,
          -0.22907611727714539,
          -0.11915212869644165,
          -0.03598232939839363,
          -0.058115240186452866,
          -0.028699185699224472,
          -0.023513078689575195,
          0.21097441017627716,
          -0.2571440637111664,
          0.05279773101210594,
          -0.13181373476982117,
          -0.11717650294303894,
          0.18141190707683563,
          -0.03152799233794212,
          0.043345604091882706,
          -0.06601770222187042,
          0.14788486063480377,
          -0.024039892479777336,
          0.002664302010089159,
          -0.06803913414478302,
          0.10431799292564392,
          -0.14999961853027344
        ],
        [
          -0.4483204782009125,
          -0.04926171153783798,
          0.12889572978019714,
          0.6691547632217407,
          -0.16333313286304474,
          -0.6800692081451416,
          0.8993135690689087,
          -0.6294309496879578,
          -1.281821846961975,
          -0.11055531352758408,
          -0.30728742480278015,
          0.17379634082317352,
          -0.14003193378448486,
          0.41748476028442383,
          -0.48441722989082336,
          0.006709905341267586,
          -0.04493064805865288,
          0.016531428322196007,
          0.36805811524391174,
          0.04479926452040672,
          -0.1796109825372696,
          -0.40844467282295227,
          0.12124473601579666,
          -0.16732557117938995,
          -0.09243819862604141,
          -0.043721508234739304,
          0.1329781711101532,
          0.056677334010601044,
          -0.48602741956710815,
          0.027178246527910233,
          0.2544895112514496,
          -0.17259153723716736,
          -0.8582566380500793,
          0.37784695625305176,
          0.09670528024435043,
          0.2805568277835846,
          -0.6144809126853943,
          -0.494853675365448,
          -0.10087108612060547,
          0.24164532124996185,
          -0.056688323616981506,
          -0.013580335304141045,
          -0.04138074442744255,
          -0.5218198299407959,
          -0.04843354970216751,
          -0.29286786913871765,
          0.0007388484664261341,
          -0.3904593586921692,
          0.019523220136761665,
          -0.10798066109418869,
          -0.46880900859832764,
          -0.028460534289479256,
          -0.09523236751556396,
          -0.18740475177764893,
          0.1481969803571701,
          0.12072659283876419,
          -5.222277468419634e-05,
          -0.06786253303289413,
          -0.41878795623779297,
          -0.06922640651464462,
          -0.3176250159740448,
          -0.06614135205745697,
          -0.23949870467185974,
          -0.043541070073843
        ],
        [
          0.22412577271461487,
          -0.10746080428361893,
          -0.011733686551451683,
          -0.21493960916996002,
          -0.007304275408387184,
          -0.02595687471330166,
          0.45246389508247375,
          0.025677131488919258,
          -0.6488585472106934,
          0.1052401065826416,
          -0.2545478940010071,
          -0.04066292941570282,
          0.0015973305562511086,
          -0.12528027594089508,
          0.017578300088644028,
          0.022932134568691254,
          0.029255378991365433,
          0.7140628695487976,
          0.034532371908426285,
          -0.0732937678694725,
          0.04575824365019798,
          0.007063533179461956,
          -0.18297205865383148,
          -0.09896347671747208,
          -0.4290790557861328,
          -0.03769560158252716,
          -0.09267926961183548,
          0.10187278687953949,
          -0.008828297257423401,
          -0.010488580912351608,
          -0.12540288269519806,
          0.1131136417388916,
          0.5161148905754089,
          -0.15895947813987732,
          0.25751250982284546,
          0.3200010061264038,
          0.19218192994594574,
          0.3960113525390625,
          0.1285608857870102,
          0.2759549617767334,
          0.007375604938715696,
          -0.5570741891860962,
          0.6579153537750244,
          0.20615899562835693,
          -0.07191058248281479,
          -0.04587739706039429,
          0.026992926374077797,
          -0.1633749157190323,
          -0.06237507238984108,
          0.01888553611934185,
          0.12846480309963226,
          0.0967877134680748,
          0.0018977464642375708,
          -0.07983975857496262,
          -0.0575961098074913,
          -0.0883912593126297,
          0.019260356202721596,
          -0.012020060792565346,
          -0.13476911187171936,
          -0.0564962700009346,
          0.02104930952191353,
          0.002016940386965871,
          -0.6117275357246399,
          0.01582927443087101
        ],
        [
          -0.07547350227832794,
          -0.08785896748304367,
          -0.07096277922391891,
          0.04230647534132004,
          -0.1285058706998825,
          -0.0879303440451622,
          -0.10804754495620728,
          -0.19752006232738495,
          -0.01163206622004509,
          0.2734602689743042,
          0.3393663167953491,
          0.0708179846405983,
          -0.08553963154554367,
          -0.14216454327106476,
          0.16101205348968506,
          0.27340665459632874,
          0.10914392024278641,
          -0.22256137430667877,
          -0.050597988069057465,
          0.13860468566417694,
          0.20259609818458557,
          -0.17080876231193542,
          -0.28643178939819336,
          0.177243173122406,
          0.37603458762168884,
          -0.16052685678005219,
          -0.1922883689403534,
          -0.13160741329193115,
          -0.2965884208679199,
          -0.3266282081604004,
          0.18169860541820526,
          0.3946113586425781,
          -0.3568018972873688,
          -0.035891093313694,
          0.0782475471496582,
          0.241850808262825,
          0.06933292001485825,
          0.11961377412080765,
          -0.06725842505693436,
          0.08951340615749359,
          -0.16080217063426971,
          0.11043784767389297,
          -1.0393239259719849,
          -0.41209661960601807,
          0.02100469544529915,
          0.11271216720342636,
          -0.060066793113946915,
          -0.13383182883262634,
          0.2527146637439728,
          0.14515939354896545,
          -0.31192973256111145,
          0.3203558921813965,
          -0.01786629483103752,
          -0.07142318040132523,
          0.7375643253326416,
          -0.08306939154863358,
          -0.07513269782066345,
          0.07837454229593277,
          0.026717938482761383,
          -0.09892016649246216,
          -0.0636746734380722,
          0.1090693473815918,
          0.011477104388177395,
          0.14762167632579803
        ],
        [
          -0.24931035935878754,
          0.062355559319257736,
          0.5506956577301025,
          0.24775856733322144,
          0.0961400493979454,
          -0.18810711801052094,
          -0.39700034260749817,
          -0.10565079003572464,
          0.024067189544439316,
          0.15518637001514435,
          0.21375836431980133,
          0.015104533173143864,
          -0.057587817311286926,
          -0.29006779193878174,
          0.2115892916917801,
          0.07755624502897263,
          -0.05207211524248123,
          0.4638412892818451,
          0.022716844454407692,
          -0.03735171630978584,
          0.09554480016231537,
          -0.05275793746113777,
          -0.1661895513534546,
          -0.07589247822761536,
          0.0898931547999382,
          0.14744031429290771,
          -0.0448482371866703,
          -0.013684560544788837,
          -0.10262814164161682,
          0.11764860898256302,
          -0.1234610378742218,
          0.19450747966766357,
          -0.10127617418766022,
          0.04671904817223549,
          0.01985352300107479,
          -0.06155160441994667,
          0.2512173056602478,
          0.09154290705919266,
          -0.05859833583235741,
          -0.2655440866947174,
          0.3749340772628784,
          0.1071467399597168,
          0.14651210606098175,
          -0.16603171825408936,
          -0.013840874657034874,
          0.040193621069192886,
          -0.1178322434425354,
          -0.1186986044049263,
          0.051639631390571594,
          -0.24783839285373688,
          0.021201493218541145,
          -0.10101950168609619,
          0.03777530789375305,
          0.020107224583625793,
          -0.012865252792835236,
          -0.05791543424129486,
          0.03187303990125656,
          0.045112136751413345,
          0.10973020642995834,
          0.030610743910074234,
          0.12611141800880432,
          0.23777852952480316,
          0.11561542004346848,
          0.032669149339199066
        ],
        [
          0.3488093316555023,
          0.06726911664009094,
          0.20746292173862457,
          0.46630531549453735,
          0.026684595271945,
          -0.10854671150445938,
          -0.10381948202848434,
          0.0009640147327445447,
          -0.35622385144233704,
          0.4204457998275757,
          0.14445795118808746,
          -0.03930504247546196,
          -0.4296652376651764,
          0.04696490243077278,
          0.4649597406387329,
          -0.03283704072237015,
          -0.10700467973947525,
          -0.1617906391620636,
          -0.07715931534767151,
          0.051256146281957626,
          0.22028848528862,
          -0.2818482220172882,
          -0.44164931774139404,
          -0.061124641448259354,
          -0.39410895109176636,
          0.10759372264146805,
          -0.28490790724754333,
          0.09223375469446182,
          -0.1327323466539383,
          -0.03173992782831192,
          1.4080334901809692,
          0.021804463118314743,
          -0.13576865196228027,
          -0.24960365891456604,
          0.08214748650789261,
          0.4877415597438812,
          -0.3447038531303406,
          0.0874575823545456,
          0.556199848651886,
          0.34682968258857727,
          0.005780310835689306,
          -0.12854698300361633,
          0.09331052005290985,
          0.06072299927473068,
          0.08615898340940475,
          -0.23868776857852936,
          -0.0271136537194252,
          0.10068223625421524,
          -0.025584176182746887,
          0.0757279172539711,
          -0.2470693588256836,
          0.04084146022796631,
          0.1446603685617447,
          0.2416592687368393,
          0.07652965188026428,
          -0.17136311531066895,
          0.23476070165634155,
          0.4855385422706604,
          0.4941636621952057,
          -0.06982661038637161,
          0.12446508556604385,
          0.043296679854393005,
          -0.27440494298934937,
          0.01306314766407013
        ],
        [
          -0.09438767284154892,
          0.04546285793185234,
          0.08300808072090149,
          -0.13861554861068726,
          0.058001793920993805,
          -0.023339563980698586,
          0.09255117923021317,
          -0.09834889322519302,
          -0.08232106268405914,
          0.27347689867019653,
          -0.03182961046695709,
          0.0034182127565145493,
          -0.21586337685585022,
          0.0798117071390152,
          0.07042266428470612,
          0.03399531543254852,
          0.08135099709033966,
          0.01581641659140587,
          0.7629058361053467,
          -0.025255506858229637,
          0.03145609050989151,
          -0.29964911937713623,
          0.11044110357761383,
          0.02697448991239071,
          0.07172519713640213,
          -0.024235982447862625,
          0.034027766436338425,
          -0.20641309022903442,
          0.02153654769062996,
          0.0330779142677784,
          -0.07767406851053238,
          0.05953165516257286,
          0.19390952587127686,
          -0.08129021525382996,
          -0.3068965971469879,
          -0.02950313687324524,
          0.25849583745002747,
          -0.09011568874120712,
          0.020577089861035347,
          0.06495114415884018,
          -0.06560575217008591,
          0.04461285471916199,
          -0.17462636530399323,
          -0.007450900040566921,
          0.15903528034687042,
          -0.05303801968693733,
          -0.057240258902311325,
          0.010256709530949593,
          0.020510856062173843,
          0.04850536584854126,
          0.09473579376935959,
          -0.05090036243200302,
          0.025709345936775208,
          -0.15223917365074158,
          0.04557418078184128,
          -0.09659922868013382,
          -0.08548962324857712,
          0.043504077941179276,
          0.1852327287197113,
          0.029983874410390854,
          -0.05847519636154175,
          -0.00855953898280859,
          -0.011167815886437893,
          0.13558773696422577
        ],
        [
          0.15727023780345917,
          -0.16030889749526978,
          0.11978639662265778,
          -0.005324557423591614,
          0.0369873121380806,
          0.06141882389783859,
          0.00040832770173437893,
          0.03307962417602539,
          0.1799776554107666,
          0.10305466502904892,
          -0.10644350200891495,
          0.09277936816215515,
          0.015361198224127293,
          -0.06975162029266357,
          0.028015434741973877,
          0.04363834857940674,
          -0.005606486927717924,
          -0.09508108347654343,
          0.11938680708408356,
          0.03909003734588623,
          0.022419847548007965,
          0.13484859466552734,
          -0.031021753326058388,
          0.19944295287132263,
          -0.032477278262376785,
          -0.04411008208990097,
          -0.030063502490520477,
          -0.11818446964025497,
          0.14981187880039215,
          -0.03494471684098244,
          0.03596484288573265,
          0.017539452761411667,
          -0.09806095063686371,
          0.18189288675785065,
          -0.1207582950592041,
          0.012661931104958057,
          -0.03201412782073021,
          -0.011715373955667019,
          -0.011821717955172062,
          0.09580861777067184,
          0.022682009264826775,
          -0.04491468518972397,
          -0.14034481346607208,
          -0.09895068407058716,
          -0.015235536731779575,
          0.12334108352661133,
          -0.015400370582938194,
          0.12324739247560501,
          0.13020965456962585,
          -0.007551517803221941,
          0.0037386983167380095,
          0.10096384584903717,
          -0.049157340079545975,
          0.11460588127374649,
          0.07659706473350525,
          0.16557349264621735,
          0.1896626502275467,
          0.058918632566928864,
          0.010173930786550045,
          0.045934874564409256,
          0.011502375826239586,
          1.0442802906036377,
          -0.08749252557754517,
          0.05665665492415428
        ],
        [
          0.10773172229528427,
          -0.03446490690112114,
          0.2999641001224518,
          -0.06405974924564362,
          -0.09230770170688629,
          0.17857857048511505,
          -0.058815848082304,
          0.06760840117931366,
          0.08523288369178772,
          0.1571005880832672,
          -0.20139089226722717,
          0.06238958612084389,
          -0.13388551771640778,
          -0.0018873453373089433,
          0.19542761147022247,
          -0.306763231754303,
          -0.017363986000418663,
          -0.0479922741651535,
          0.21441170573234558,
          0.2688356935977936,
          0.14721578359603882,
          0.05285654217004776,
          0.002363447565585375,
          0.2761891484260559,
          0.012110661715269089,
          -0.4336744248867035,
          0.05138180032372475,
          -0.0744345635175705,
          0.14786575734615326,
          0.12317598611116409,
          0.1801774650812149,
          -0.48504093289375305,
          -0.030114302411675453,
          0.23188655078411102,
          0.046327706426382065,
          -0.06339050084352493,
          0.1431771218776703,
          -0.11414404958486557,
          0.011229665949940681,
          0.08559607714414597,
          0.09110760688781738,
          0.07553394138813019,
          -0.37626850605010986,
          -0.20548361539840698,
          -0.11388847976922989,
          0.2972549796104431,
          -0.07259935885667801,
          0.2113947868347168,
          0.06899778544902802,
          0.2579517066478729,
          0.0712437704205513,
          -0.050435155630111694,
          0.12563441693782806,
          -0.024469973519444466,
          0.06705427914857864,
          -0.2980499863624573,
          0.013346809893846512,
          0.3813801109790802,
          -0.060217585414648056,
          -0.08396445959806442,
          -0.08426962792873383,
          -0.37456628680229187,
          -0.028778793290257454,
          0.138447105884552
        ],
        [
          -0.017849206924438477,
          0.010510816238820553,
          -0.1278957575559616,
          -0.01594695821404457,
          -0.03206701949238777,
          0.03492589667439461,
          0.06603223830461502,
          0.14409208297729492,
          0.01582309603691101,
          0.04012754559516907,
          0.009130277670919895,
          0.47292762994766235,
          0.22967775166034698,
          0.16367045044898987,
          0.09054989367723465,
          0.14253176748752594,
          -0.0450734943151474,
          -0.1383098065853119,
          0.39840441942214966,
          -0.1682461053133011,
          0.12297707051038742,
          -0.41442421078681946,
          0.2057410180568695,
          0.14209963381290436,
          -0.14536549150943756,
          0.0004982651444151998,
          0.07723031938076019,
          -0.5218462944030762,
          0.16477683186531067,
          -0.00621924689039588,
          -0.06844139844179153,
          0.1437169462442398,
          0.20301063358783722,
          0.048895467072725296,
          0.0900672897696495,
          0.04991035908460617,
          0.336047500371933,
          0.10691703855991364,
          -0.04516211152076721,
          -0.1411905735731125,
          -0.11116208136081696,
          -0.07272075116634369,
          0.2897151708602905,
          0.30572932958602905,
          0.09520766884088516,
          -0.0517185777425766,
          -0.06917120516300201,
          -0.15353985130786896,
          0.11763698607683182,
          -0.038483791053295135,
          0.2278854250907898,
          -0.016596663743257523,
          -0.037630852311849594,
          0.0732998326420784,
          -0.020998161286115646,
          -0.07831793278455734,
          -0.003143176669254899,
          0.056132905185222626,
          0.17402653396129608,
          -0.07953818887472153,
          -0.3466356098651886,
          0.1605558544397354,
          0.04504316672682762,
          0.2985156178474426
        ],
        [
          0.007665230892598629,
          0.09610853344202042,
          0.37989458441734314,
          0.00282828276976943,
          -0.029468223452568054,
          0.3795284032821655,
          0.25885796546936035,
          -0.06138896197080612,
          0.06801886856555939,
          -0.02384735830128193,
          0.16485100984573364,
          0.04880087822675705,
          0.11341258883476257,
          0.06557520478963852,
          -0.05192071199417114,
          0.06476062536239624,
          -0.05483858659863472,
          0.3919403851032257,
          0.09050354361534119,
          0.028699083253741264,
          0.017270028591156006,
          0.11433403193950653,
          -0.0005639524315483868,
          0.14531737565994263,
          -0.6033191084861755,
          -0.00103208317887038,
          -0.1819588840007782,
          0.3512154519557953,
          -0.01505972072482109,
          -0.030159275978803635,
          0.19302381575107574,
          0.009160456247627735,
          -0.1788964420557022,
          -0.14801211655139923,
          0.04662914574146271,
          -0.2698284685611725,
          0.03950420022010803,
          -0.013771534897387028,
          0.170212060213089,
          0.05606435611844063,
          0.10633736103773117,
          -0.039878807961940765,
          -0.48647835850715637,
          0.06720935553312302,
          0.04486982896924019,
          0.02667287178337574,
          0.06442982703447342,
          0.0699305385351181,
          -0.024127274751663208,
          -0.22233247756958008,
          -0.00270630675368011,
          -0.11569411307573318,
          -0.07914769649505615,
          -0.023409347981214523,
          0.11738339066505432,
          0.1650989055633545,
          -0.174477219581604,
          -0.05512212589383125,
          -0.05632748454809189,
          0.030749954283237457,
          0.10795850306749344,
          0.03241150826215744,
          -0.5044060349464417,
          -0.032885514199733734
        ],
        [
          0.07046577334403992,
          0.07131253927946091,
          0.07884818315505981,
          0.0299114678055048,
          0.2782948315143585,
          0.13889367878437042,
          -0.07934719324111938,
          0.02230599895119667,
          0.13892768323421478,
          0.28419286012649536,
          -0.11463986337184906,
          -0.031023159623146057,
          -0.24012960493564606,
          0.1582345813512802,
          0.6034415364265442,
          0.16539083421230316,
          0.06051304191350937,
          -0.1471351832151413,
          0.2738564908504486,
          0.12487608939409256,
          0.054981477558612823,
          -0.05991649627685547,
          -0.051716871559619904,
          -0.24412085115909576,
          0.05263072997331619,
          0.255249947309494,
          -0.006498662754893303,
          -0.018321771174669266,
          0.1676059514284134,
          -0.14798958599567413,
          0.11211486905813217,
          0.11328957974910736,
          -0.03408035263419151,
          0.21835815906524658,
          -0.010861938819289207,
          0.03370342031121254,
          0.15862426161766052,
          -0.04238596558570862,
          0.04642168805003166,
          0.1792691946029663,
          0.09696799516677856,
          -0.07468481361865997,
          -0.3619837462902069,
          -0.13162536919116974,
          -0.300300270318985,
          0.24689704179763794,
          0.01918884925544262,
          0.19942548871040344,
          0.007788852322846651,
          -0.06928408890962601,
          0.0574718676507473,
          0.187431201338768,
          0.0014072133926674724,
          -0.12473361939191818,
          0.03957461938261986,
          -0.017500756308436394,
          0.010904666967689991,
          -0.5029412508010864,
          0.12050692737102509,
          0.046576134860515594,
          -0.10658901929855347,
          -0.26893192529678345,
          -0.14949624240398407,
          -0.288400262594223
        ],
        [
          0.3298088014125824,
          -0.007712250109761953,
          -0.15129442512989044,
          0.10872658342123032,
          -0.03474334999918938,
          0.007678759749978781,
          0.3442855179309845,
          -0.034585434943437576,
          -0.0832136869430542,
          -0.044306397438049316,
          -0.13395878672599792,
          -0.030489271506667137,
          0.5665366649627686,
          -0.3653639853000641,
          0.00833681970834732,
          -0.09717902541160583,
          0.007977199740707874,
          -0.020138990134000778,
          0.7264894247055054,
          -0.010222937911748886,
          0.04408546909689903,
          -0.04669145494699478,
          -0.23678021132946014,
          0.10205888003110886,
          0.044428445398807526,
          -0.08440450578927994,
          -0.10147111862897873,
          -0.21905460953712463,
          -0.2085590958595276,
          -0.09270535409450531,
          0.16533184051513672,
          0.06804899871349335,
          -0.8090248107910156,
          -0.08794096857309341,
          0.7476144433021545,
          -0.09173145145177841,
          -0.1054188534617424,
          0.08796493709087372,
          0.08726552128791809,
          -0.03931676596403122,
          0.10450230538845062,
          -0.0722736194729805,
          -0.17973273992538452,
          0.0051376698538661,
          -0.08100429177284241,
          -0.03280004486441612,
          0.023315442726016045,
          0.0683656856417656,
          0.06933130323886871,
          0.12905718386173248,
          -0.44565457105636597,
          0.14405348896980286,
          0.1294517070055008,
          0.04704858362674713,
          -0.10820447653532028,
          0.39219796657562256,
          0.35305798053741455,
          -0.0704750195145607,
          -0.08272780478000641,
          0.00913869310170412,
          -1.0855655670166016,
          -0.0711960420012474,
          -0.001040479983203113,
          -0.4152197241783142
        ],
        [
          -0.2920320928096771,
          -0.007019323762506247,
          -0.20646440982818604,
          0.16728127002716064,
          -0.06951916217803955,
          0.057932402938604355,
          -0.2788600027561188,
          -0.18854068219661713,
          -0.4056287705898285,
          0.07620284706354141,
          -0.21607032418251038,
          0.0693865641951561,
          -0.19100366532802582,
          -0.1602691113948822,
          0.035643987357616425,
          -0.09908590465784073,
          -0.02608388103544712,
          -0.23842211067676544,
          0.08494178205728531,
          -0.6605374813079834,
          -0.03382084518671036,
          -0.1462971717119217,
          -0.1295754462480545,
          -0.019330741837620735,
          -0.1519065499305725,
          0.01383925974369049,
          -0.275738924741745,
          0.011931203305721283,
          -0.1664397269487381,
          -0.017427382990717888,
          0.11593672633171082,
          -0.28679484128952026,
          -0.05639418959617615,
          -0.0968269482254982,
          -0.09756968915462494,
          0.4662070572376251,
          -0.3041127622127533,
          0.09200315922498703,
          0.222760409116745,
          0.25969505310058594,
          0.014736169017851353,
          -0.3936363458633423,
          -0.3903385400772095,
          -0.4311504662036896,
          -0.08852528780698776,
          0.27190595865249634,
          0.05037299916148186,
          0.014858899638056755,
          -0.07281956821680069,
          0.044502224773168564,
          -0.05528552457690239,
          -0.25358521938323975,
          -0.45602187514305115,
          0.0650845617055893,
          0.05629073083400726,
          0.028573142364621162,
          0.12988261878490448,
          -0.16866439580917358,
          -0.1123930960893631,
          -0.14057208597660065,
          -0.06632991880178452,
          -0.02989407815039158,
          -0.8910511136054993,
          0.03647932410240173
        ],
        [
          0.1807558536529541,
          -0.05768194794654846,
          -0.05140213668346405,
          0.05884065106511116,
          -0.17141428589820862,
          -0.11483456939458847,
          0.022959601134061813,
          -0.04268515482544899,
          -0.1608758121728897,
          -0.07814447581768036,
          0.11175582557916641,
          -0.13549762964248657,
          -0.02158275805413723,
          0.11851555109024048,
          0.20651650428771973,
          0.008339119143784046,
          0.08183363080024719,
          -0.022614719346165657,
          0.004930346272885799,
          -0.006512245628982782,
          0.12783712148666382,
          0.012747268192470074,
          -0.009013080969452858,
          -0.6003298759460449,
          0.06065128743648529,
          0.6859308481216431,
          -0.04069234058260918,
          0.09179168939590454,
          -0.0035186479799449444,
          0.5412376523017883,
          -0.10720064491033554,
          -0.0722629725933075,
          -0.05592406913638115,
          -0.2590331733226776,
          0.08167099952697754,
          -0.007782348897308111,
          -0.022064723074436188,
          -0.1340784728527069,
          0.1674966812133789,
          0.16778892278671265,
          0.026944180950522423,
          -0.01898936554789543,
          0.062174905091524124,
          -0.00759023055434227,
          0.055127888917922974,
          0.007683722302317619,
          0.058659449219703674,
          0.04752587527036667,
          -0.3366507291793823,
          -0.11329859495162964,
          -0.008594433777034283,
          -0.1932923048734665,
          0.10109543055295944,
          0.08961444348096848,
          -0.08240803331136703,
          0.3509517312049866,
          0.04559087008237839,
          -0.06892679631710052,
          0.24284996092319489,
          -0.02125268615782261,
          0.059141259640455246,
          0.024938954040408134,
          0.010187399573624134,
          -0.2998780608177185
        ],
        [
          -0.0640377402305603,
          -0.04293307662010193,
          -0.22261042892932892,
          0.3933422863483429,
          0.005769363138824701,
          -0.643584132194519,
          -0.2877010107040405,
          -0.15372976660728455,
          -0.15241941809654236,
          -0.08109696954488754,
          0.009428156539797783,
          -0.0013373115798458457,
          -0.07604076713323593,
          -0.05447636917233467,
          -0.3119209110736847,
          -0.017819374799728394,
          -0.06381076574325562,
          0.10738353431224823,
          0.016368085518479347,
          -0.5832231044769287,
          0.07298053056001663,
          -0.24001242220401764,
          -0.04660639539361,
          -0.017226045951247215,
          0.1368594765663147,
          0.2412034422159195,
          0.3915856182575226,
          -0.10348249971866608,
          -0.011960303410887718,
          0.4332618713378906,
          -0.09714566916227341,
          0.15640534460544586,
          0.31116655468940735,
          -0.30966776609420776,
          -0.10229340940713882,
          0.4070153534412384,
          -0.1011853739619255,
          0.38836315274238586,
          -0.01017184928059578,
          -0.09799336642026901,
          -0.17130377888679504,
          0.02781866304576397,
          -0.717429518699646,
          -0.11271221190690994,
          0.12405785173177719,
          -0.45941361784935,
          0.1149764433503151,
          -0.2371598184108734,
          -0.14760860800743103,
          -0.1722366064786911,
          0.12199493497610092,
          -0.5199064612388611,
          -0.2607787549495697,
          -0.1424381583929062,
          0.184708371758461,
          0.16370674967765808,
          -0.07484126836061478,
          0.31275343894958496,
          0.021168140694499016,
          -0.09549907594919205,
          0.11494606733322144,
          -0.2735315263271332,
          -0.2991464138031006,
          -0.042086344212293625
        ],
        [
          -0.002443609992042184,
          -0.12008471041917801,
          -0.09323275089263916,
          0.3235442638397217,
          0.07627289742231369,
          -0.10314205288887024,
          -0.7319961190223694,
          0.18173745274543762,
          0.32284846901893616,
          0.10309632867574692,
          0.03159606456756592,
          0.22927270829677582,
          0.18764454126358032,
          -0.21929210424423218,
          0.26014944911003113,
          0.16491243243217468,
          0.07800449430942535,
          -0.0840969905257225,
          0.044814467430114746,
          -0.13908927142620087,
          0.18936583399772644,
          0.08850733935832977,
          0.08292176574468613,
          -0.044626977294683456,
          -0.3203408718109131,
          0.3781125247478485,
          -0.31931623816490173,
          0.06005675345659256,
          -0.02685345523059368,
          0.17170579731464386,
          -0.6610921025276184,
          0.2856333255767822,
          0.11270491033792496,
          -0.15352483093738556,
          0.11818943917751312,
          -0.04018967226147652,
          -0.031276486814022064,
          0.3893186151981354,
          0.010611508041620255,
          -0.11511103808879852,
          0.03236972540616989,
          0.05093395337462425,
          0.30152493715286255,
          0.12946367263793945,
          0.3916633129119873,
          -0.17867380380630493,
          0.06233265995979309,
          -0.05619732663035393,
          0.017864888533949852,
          -0.006519411690533161,
          0.07582280039787292,
          -0.03577493876218796,
          -0.13677556812763214,
          0.14031806588172913,
          -0.1095619797706604,
          0.03636214882135391,
          0.005986128002405167,
          0.00833119172602892,
          -0.06319619715213776,
          -0.11006663739681244,
          -0.01992017775774002,
          0.2829676568508148,
          0.07401318103075027,
          -0.026632754132151604
        ],
        [
          0.07600824534893036,
          -0.018104758113622665,
          0.10228169709444046,
          -0.13244915008544922,
          -0.19518712162971497,
          0.08976025134325027,
          0.18767882883548737,
          -0.030761001631617546,
          0.11451441794633865,
          -0.280032217502594,
          -0.12010706216096878,
          0.18392810225486755,
          0.2619500160217285,
          0.08921725302934647,
          -0.49135127663612366,
          0.08367657661437988,
          0.07049362361431122,
          0.08606121689081192,
          -0.057897474616765976,
          -0.012740034610033035,
          0.13685432076454163,
          -0.0006371925119310617,
          -0.06581282615661621,
          0.0594145841896534,
          -0.04293821379542351,
          0.020715102553367615,
          0.19280850887298584,
          -0.16786444187164307,
          -0.014475008472800255,
          -0.0036625335924327374,
          0.05417376011610031,
          0.0667886957526207,
          0.14878784120082855,
          0.16701605916023254,
          -0.08680719137191772,
          0.16823506355285645,
          0.19405019283294678,
          -0.01987873949110508,
          0.057034239172935486,
          -0.0783696323633194,
          -0.002197513822466135,
          0.0034924717620015144,
          0.06778763234615326,
          -0.10920599848031998,
          0.4692049026489258,
          0.038403887301683426,
          -0.12519770860671997,
          0.007050240878015757,
          0.30013540387153625,
          -0.014158117584884167,
          -0.024534126743674278,
          0.1685025542974472,
          -0.03987906873226166,
          0.25074830651283264,
          0.02613716758787632,
          0.10034499317407608,
          0.12967266142368317,
          0.10745912045240402,
          0.4249091148376465,
          0.012714373879134655,
          -0.003853880800306797,
          -0.07122175395488739,
          -0.07767270505428314,
          0.17329524457454681
        ],
        [
          -0.0885242447257042,
          -0.10165199637413025,
          -0.014121153391897678,
          0.055693645030260086,
          -0.17825087904930115,
          -0.005893607623875141,
          -0.73011714220047,
          -0.05785306170582771,
          -0.1965288519859314,
          0.024006223306059837,
          -0.012265908531844616,
          -0.08928835391998291,
          -0.033460162580013275,
          0.09329686313867569,
          -0.098323754966259,
          0.024667438119649887,
          0.05546360835433006,
          0.02722294256091118,
          0.09510139375925064,
          -0.06919189542531967,
          -0.05076979845762253,
          -0.1802891492843628,
          -0.03153578191995621,
          -0.0352931022644043,
          0.011751558631658554,
          -0.06762531399726868,
          0.12726768851280212,
          0.13267995417118073,
          -0.08431802690029144,
          -0.0474313348531723,
          0.031810928136110306,
          0.03813444823026657,
          0.007710694335401058,
          -0.1065681055188179,
          0.015066838823258877,
          0.07555035501718521,
          -0.05000319704413414,
          -0.042348459362983704,
          0.1134394183754921,
          0.1299961656332016,
          -0.00877368450164795,
          -0.04540153965353966,
          -0.0007136667845770717,
          0.02781631238758564,
          -0.023503851145505905,
          -0.06228315457701683,
          -0.04364582151174545,
          0.022477930411696434,
          -0.32085567712783813,
          -0.09704530984163284,
          0.011729350313544273,
          0.04046489670872688,
          0.02007364109158516,
          -0.05577531456947327,
          0.040575578808784485,
          -0.09255505353212357,
          -0.03859027475118637,
          0.004503644071519375,
          0.05479641258716583,
          0.026671573519706726,
          0.1298995018005371,
          1.1513183116912842,
          -0.06739065051078796,
          0.0032339300960302353
        ],
        [
          0.02459120750427246,
          -0.12638017535209656,
          -0.0591355562210083,
          0.09684138745069504,
          -0.03968376666307449,
          -0.09715209901332855,
          0.20211073756217957,
          0.16776013374328613,
          0.4690297544002533,
          0.03779733553528786,
          -0.23346897959709167,
          -0.010073242709040642,
          0.06592907756567001,
          -0.1544361561536789,
          0.0033910127822309732,
          -0.00021468620980158448,
          -0.08363320678472519,
          0.13798660039901733,
          0.07099185138940811,
          0.38064926862716675,
          0.0583312064409256,
          0.06320809572935104,
          -0.07387376576662064,
          -0.015141102485358715,
          0.3400370478630066,
          -0.019762517884373665,
          0.10364440083503723,
          0.14084452390670776,
          0.1644361913204193,
          0.030897827818989754,
          0.0391206219792366,
          0.03805626928806305,
          -0.17219868302345276,
          0.19125060737133026,
          0.12890909612178802,
          0.5461401343345642,
          -0.0559314526617527,
          -0.10159767419099808,
          1.2058002948760986,
          0.36234256625175476,
          0.12370730936527252,
          0.30583903193473816,
          0.45902019739151,
          -0.20109637081623077,
          -0.06040296331048012,
          -0.17255741357803345,
          -0.07760001718997955,
          0.38508665561676025,
          0.002206409815698862,
          -0.04922856390476227,
          -0.0008074356592260301,
          -0.21802553534507751,
          -0.0667632669210434,
          0.0491744801402092,
          0.02731875330209732,
          -0.0696946531534195,
          0.1934802383184433,
          0.01395362801849842,
          0.28974848985671997,
          -0.11570144444704056,
          -0.059249140322208405,
          -0.01653444394469261,
          -0.5775232911109924,
          -0.01878145895898342
        ],
        [
          -0.01530280988663435,
          -0.1019182801246643,
          0.2593356966972351,
          -0.17289488017559052,
          0.10751338303089142,
          -0.059400636702775955,
          -0.04147789627313614,
          -0.13441309332847595,
          0.0989384800195694,
          -0.07460995018482208,
          0.08199384063482285,
          0.07348404824733734,
          -0.011086448095738888,
          0.10551902651786804,
          -0.014580036513507366,
          -0.08297745138406754,
          0.07920730859041214,
          0.10613477975130081,
          0.31543174386024475,
          0.26467400789260864,
          0.047029998153448105,
          -0.10879973322153091,
          -0.27657824754714966,
          -0.05866410955786705,
          0.23226523399353027,
          0.07286478579044342,
          -0.008122362196445465,
          -0.2640810012817383,
          -0.1438654512166977,
          0.13946203887462616,
          0.13597773015499115,
          -0.09292329847812653,
          -0.19455765187740326,
          -0.08946168422698975,
          0.08751754462718964,
          0.06671073287725449,
          -0.08059637248516083,
          -0.20978914201259613,
          -0.15309152007102966,
          0.033725738525390625,
          0.16412213444709778,
          0.09596943855285645,
          -0.22432765364646912,
          -0.39959242939949036,
          0.23321041464805603,
          0.07057686150074005,
          0.07667465507984161,
          -0.32304948568344116,
          -0.11343397200107574,
          0.03387557342648506,
          -0.22923648357391357,
          -0.16899120807647705,
          0.06339774280786514,
          0.307697057723999,
          -0.016433879733085632,
          0.02006545290350914,
          0.20930498838424683,
          0.0008191485540010035,
          0.5215680003166199,
          -0.07615555077791214,
          -0.3111681342124939,
          -0.0498507060110569,
          0.058314282447099686,
          0.2028268724679947
        ],
        [
          -0.2228672057390213,
          0.10744120925664902,
          0.2704724669456482,
          0.22582373023033142,
          0.18871019780635834,
          -0.0026260698214173317,
          1.0184214115142822,
          -0.7073820233345032,
          0.25970157980918884,
          0.5500891804695129,
          0.4905860722064972,
          0.17508672177791595,
          0.06435342133045197,
          -0.17693667113780975,
          0.24746765196323395,
          0.3420262336730957,
          -0.01326513011008501,
          -0.2643139660358429,
          0.07106354832649231,
          0.13721728324890137,
          0.4665862023830414,
          -0.19003428518772125,
          -0.8423674702644348,
          0.09783029556274414,
          0.2805732190608978,
          0.5069001913070679,
          -0.35880225896835327,
          0.17633332312107086,
          -0.540058970451355,
          0.34536030888557434,
          -0.15213818848133087,
          0.5549027323722839,
          -0.04787936806678772,
          -0.4785299599170685,
          0.5451971292495728,
          -1.1254152059555054,
          -0.11046026647090912,
          -0.398646742105484,
          -0.3213239312171936,
          -0.0823458731174469,
          -0.2548954486846924,
          0.12747184932231903,
          -0.09471726417541504,
          -0.5708314776420593,
          0.5791013836860657,
          -0.2444697767496109,
          -0.1477600634098053,
          -0.022468142211437225,
          -0.1752438098192215,
          0.0637040063738823,
          -0.1362527757883072,
          0.15845493972301483,
          -0.10180643200874329,
          0.0866701677441597,
          0.5158827304840088,
          0.10637498646974564,
          0.01404446642845869,
          0.04303127899765968,
          -0.12688837945461273,
          0.034291822463274,
          0.36221829056739807,
          0.08046364039182663,
          -0.41718536615371704,
          0.1258678436279297
        ],
        [
          0.09888730943202972,
          -0.15284088253974915,
          0.11012206971645355,
          0.13549907505512238,
          0.3013137876987457,
          0.044647544622421265,
          0.05248270183801651,
          0.12610040605068207,
          0.34793761372566223,
          -0.020424991846084595,
          -0.005982040427625179,
          -0.3679637908935547,
          0.07771430909633636,
          0.2140057235956192,
          0.10523759573698044,
          0.09698562324047089,
          -0.12824438512325287,
          -0.49037641286849976,
          -0.09183561056852341,
          0.18169067800045013,
          -0.5572614669799805,
          0.07370226830244064,
          -0.036929745227098465,
          0.11216900497674942,
          0.21342293918132782,
          0.022987866774201393,
          -0.14754770696163177,
          0.11338868737220764,
          0.11373672634363174,
          0.2520606219768524,
          -0.01104457676410675,
          -0.014882153831422329,
          -0.1546960473060608,
          0.19473415613174438,
          0.09246043115854263,
          -0.006404596846550703,
          0.14058470726013184,
          -0.01171343494206667,
          -0.12816601991653442,
          0.12165725231170654,
          -0.05119049549102783,
          0.0916055366396904,
          -0.4325082004070282,
          -0.09482107311487198,
          0.05076504498720169,
          0.17780235409736633,
          0.03338443860411644,
          -0.010192224755883217,
          0.08107922226190567,
          0.3277004063129425,
          -0.05067184194922447,
          0.13743649423122406,
          0.00651670852676034,
          0.05509345978498459,
          0.10822099447250366,
          -0.009738297201693058,
          0.2852131426334381,
          0.044583745300769806,
          -0.12806832790374756,
          -0.09767863154411316,
          0.09053834527730942,
          0.11215846240520477,
          -0.03662468492984772,
          0.057203929871320724
        ],
        [
          -0.6145084500312805,
          -0.08620359003543854,
          -0.11831751465797424,
          0.05192183330655098,
          -0.10050377994775772,
          0.2514418363571167,
          -0.04139713943004608,
          0.08903100341558456,
          0.04006171226501465,
          -0.14031140506267548,
          0.4822777807712555,
          -0.003416121704503894,
          -0.16118714213371277,
          -0.012604708783328533,
          -0.012558654882013798,
          -0.11567696928977966,
          0.10412571579217911,
          -0.005431514699012041,
          -0.052693746984004974,
          0.22778376936912537,
          -0.025996021926403046,
          -0.07900247722864151,
          0.3694077432155609,
          -0.03514811769127846,
          0.20551908016204834,
          -0.13934744894504547,
          0.2588057518005371,
          0.10411421209573746,
          0.07344308495521545,
          -0.15817692875862122,
          0.11455307900905609,
          0.13335222005844116,
          -0.3871013820171356,
          0.14437313377857208,
          -0.5457749366760254,
          -0.4004327654838562,
          -0.12424033135175705,
          -1.360306978225708,
          -0.5065366625785828,
          -0.46137768030166626,
          -0.1896645575761795,
          0.19471651315689087,
          0.5801496505737305,
          -0.501275897026062,
          -0.28922897577285767,
          -0.2266327142715454,
          0.09229768067598343,
          -0.03401382267475128,
          0.0009014710667543113,
          -0.12697641551494598,
          -0.6837641596794128,
          -0.15108045935630798,
          0.03573735058307648,
          -0.05322263017296791,
          0.08406499773263931,
          -0.14737889170646667,
          0.06067696958780289,
          -0.02415657974779606,
          0.03714371472597122,
          0.020126180723309517,
          -0.03340689092874527,
          0.0038724252954125404,
          -0.013740862719714642,
          0.09663674235343933
        ],
        [
          -0.0917365625500679,
          -0.03153609111905098,
          0.0886831134557724,
          -0.08975471556186676,
          -0.28750771284103394,
          -0.07411683350801468,
          -0.136569082736969,
          0.02660347893834114,
          0.017618779093027115,
          0.009512554854154587,
          0.09749982506036758,
          0.03386574238538742,
          0.0009821637067943811,
          -0.12482762336730957,
          0.1900653839111328,
          -0.2204306572675705,
          -0.023205049335956573,
          -0.07700507342815399,
          0.02645271085202694,
          -0.04559348523616791,
          0.031466081738471985,
          -0.04718726500868797,
          -0.03581271693110466,
          -0.3022875487804413,
          -0.03094629757106304,
          -0.07177478820085526,
          0.17627206444740295,
          0.047388575971126556,
          -0.03793291375041008,
          0.2299044281244278,
          -0.0037753162905573845,
          0.0466594435274601,
          0.0051920004189014435,
          -0.03161400556564331,
          0.18878808617591858,
          -0.06124744936823845,
          0.018640022724866867,
          0.022133944556117058,
          0.05869825556874275,
          -0.016663292422890663,
          0.027589326724410057,
          -0.008714601397514343,
          -0.0910915732383728,
          0.02195262722671032,
          0.01949581317603588,
          0.03685823082923889,
          -0.11245567351579666,
          0.1999060958623886,
          -0.30081459879875183,
          0.3862971365451813,
          -0.021344410255551338,
          -0.13393385708332062,
          0.017389602959156036,
          0.09707821905612946,
          -0.03908625617623329,
          0.5221101641654968,
          0.0037463486660271883,
          0.29606643319129944,
          -0.05465778708457947,
          -0.024098962545394897,
          -0.011004817672073841,
          -0.04204339534044266,
          0.0006335573852993548,
          0.20006248354911804
        ],
        [
          -0.033245623111724854,
          0.017202241346240044,
          0.3210787773132324,
          0.4146517515182495,
          0.01279563456773758,
          -0.01099671795964241,
          -0.007409531157463789,
          -0.14739401638507843,
          -0.03808486461639404,
          -0.05499191954731941,
          0.01756063476204872,
          -0.10924829542636871,
          -0.25603562593460083,
          0.15143625438213348,
          -0.07604891806840897,
          -0.12752030789852142,
          0.06881643086671829,
          0.14108070731163025,
          -0.2479318231344223,
          0.22199313342571259,
          -0.12155253440141678,
          0.08926738798618317,
          -0.1506762057542801,
          -0.06124121695756912,
          0.18949641287326813,
          0.011366110295057297,
          -0.07757766544818878,
          0.6105109453201294,
          -0.18929074704647064,
          -0.019380658864974976,
          0.20033974945545197,
          -0.1281805783510208,
          -0.357817679643631,
          -0.10347697883844376,
          0.020017024129629135,
          0.027150960639119148,
          -0.292976051568985,
          -0.03791208192706108,
          -0.03307836130261421,
          0.19310522079467773,
          0.10775180160999298,
          0.07283195853233337,
          -0.4969278573989868,
          -0.36937999725341797,
          -0.07337163388729095,
          0.10654481500387192,
          -0.0054066055454313755,
          0.005127530079334974,
          -0.15891379117965698,
          0.01747516170144081,
          -0.1875361055135727,
          0.061214156448841095,
          0.03535490110516548,
          -0.028283709660172462,
          -0.004606255330145359,
          0.25104138255119324,
          0.09177891910076141,
          -0.08485247939825058,
          -0.17996640503406525,
          0.00625210115686059,
          0.37622949481010437,
          -0.13820074498653412,
          -0.04146216809749603,
          -0.01333700679242611
        ],
        [
          0.20633132755756378,
          0.005943538621068001,
          -0.020214634016156197,
          0.1771535873413086,
          0.26707854866981506,
          -0.5153874158859253,
          0.6400324106216431,
          -0.5056053996086121,
          -0.4830927848815918,
          0.2562794089317322,
          1.1962939500808716,
          -0.11962158977985382,
          -0.7082424759864807,
          0.07283420115709305,
          -0.09919393062591553,
          -0.5470535755157471,
          -0.03710922971367836,
          -0.10424557328224182,
          0.2364756315946579,
          -0.1963183432817459,
          0.033375661820173264,
          -0.1694926917552948,
          -0.32162588834762573,
          0.17318537831306458,
          0.04463085159659386,
          0.08945877850055695,
          0.2557321786880493,
          -0.11102817952632904,
          -0.1627955287694931,
          -0.19534020125865936,
          -0.34412217140197754,
          -0.09795120358467102,
          -0.3892063498497009,
          -0.23251084983348846,
          0.0605071522295475,
          0.08664359897375107,
          -0.22045235335826874,
          0.26633119583129883,
          0.5705006718635559,
          0.3260165750980377,
          0.18878456950187683,
          -0.4311571717262268,
          0.431674599647522,
          0.20590655505657196,
          0.1869661509990692,
          -0.5516547560691833,
          -0.07321559637784958,
          0.18781088292598724,
          -0.0333864763379097,
          -0.20475643873214722,
          -0.008154315873980522,
          -0.09859008342027664,
          -0.0869121327996254,
          0.2370690256357193,
          0.24512879550457,
          -0.08145089447498322,
          -0.11511003971099854,
          0.04396460950374603,
          -0.03312345966696739,
          0.05205489695072174,
          0.15366826951503754,
          -0.04947676509618759,
          0.32510989904403687,
          0.1335224211215973
        ],
        [
          0.0832984447479248,
          -0.1042686253786087,
          0.13391506671905518,
          -0.007251441013067961,
          0.14583326876163483,
          0.1448579728603363,
          0.11646495014429092,
          0.21903982758522034,
          -0.03874407336115837,
          -0.24143722653388977,
          -0.2650061845779419,
          -0.14928677678108215,
          0.10655318945646286,
          -0.024177944287657738,
          -0.14231707155704498,
          -0.27703937888145447,
          0.031072266399860382,
          0.24048644304275513,
          0.039609573781490326,
          -0.10173380374908447,
          -0.23170356452465057,
          0.2731633484363556,
          0.3016085624694824,
          -0.2279663234949112,
          -0.2702285647392273,
          0.17538323998451233,
          0.10424623638391495,
          0.07154857367277145,
          0.6146063208580017,
          0.32533371448516846,
          -0.13333562016487122,
          -0.4449279010295868,
          0.33012083172798157,
          0.011704942211508751,
          -0.03969961404800415,
          -0.19580338895320892,
          -0.05664332956075668,
          -0.09908746182918549,
          0.165473073720932,
          -0.060111671686172485,
          0.18919333815574646,
          -0.080050989985466,
          0.6104174256324768,
          0.5120738744735718,
          0.008221442811191082,
          -0.13634821772575378,
          -0.15310734510421753,
          0.17227695882320404,
          -0.22780591249465942,
          -0.12009131908416748,
          0.32302504777908325,
          -0.2602163553237915,
          0.10976269096136093,
          0.10008958727121353,
          -0.127496600151062,
          0.13743557035923004,
          0.2824195921421051,
          -0.07871638983488083,
          0.06894276291131973,
          0.02792554348707199,
          0.09928737580776215,
          -0.11036905646324158,
          0.03929593414068222,
          -0.17251557111740112
        ],
        [
          -0.3420450687408447,
          -0.0197813268750906,
          0.10540447384119034,
          0.2588665783405304,
          -0.0043319277465343475,
          -0.4077642560005188,
          0.04386918991804123,
          -0.07192843407392502,
          -0.10894163697957993,
          0.06035883352160454,
          -0.09566783905029297,
          0.03590576723217964,
          -0.0717441588640213,
          0.11513740569353104,
          0.21930383145809174,
          -0.06779482960700989,
          0.09508025646209717,
          0.5793218612670898,
          0.033880192786455154,
          -0.004284427966922522,
          0.023454999551177025,
          -0.10160459578037262,
          -0.07139929383993149,
          -0.09864944964647293,
          0.4002018868923187,
          -0.05045078694820404,
          0.03654065355658531,
          0.2133350372314453,
          -0.10918006300926208,
          -0.02536560781300068,
          -0.10427013784646988,
          0.06607885658740997,
          0.10794278979301453,
          0.16123086214065552,
          0.22523581981658936,
