{
  "model_type": "DeepONet",
  "meta": {
    "input_dim": 11,
    "output_shape": null,
    "param_bounds": [
      [
        0.4650926887989044,
        -0.9584936499595642,
        0.02027447149157524,
        0.008507765829563141,
        0.008508655242621899,
        0.008510539308190346,
        0.008505848236382008,
        0.008501111529767513,
        0.00850139744579792,
        0.008503283374011517,
        0.008501113392412663
      ],
      [
        4.034786701202393,
        -0.09153630584478378,
        0.5047448873519897,
        0.1614929884672165,
        0.16149766743183136,
        0.1614946722984314,
        0.16149979829788208,
        0.16149799525737762,
        0.16148938238620758,
        0.16149502992630005,
        0.1614900678396225
      ]
    ],
    "output_scaler": {
      "mean_": [
        0.26434518884961505
      ],
      "scale_": [
        0.09425788934827248
      ]
    },
    "strikes": [
      0.5,
      0.6000000238418579,
      0.699999988079071,
      0.800000011920929,
      0.8999999761581421,
      1.0,
      1.100000023841858,
      1.2000000476837158,
      1.2999999523162842,
      1.399999976158142,
      1.5
    ],
    "maturities": [
      0.10000000149011612,
      0.30000001192092896,
      0.5,
      0.699999988079071,
      0.8999999761581421,
      1.100000023841858,
      1.2999999523162842,
      1.5,
      1.7000000476837158,
      1.899999976158142,
      2.0999999046325684
    ]
  },
  "layers": [],
  "branch_layers": [
    {
      "W": [
        [
          -0.6023097038269043,
          0.24903780221939087,
          0.0344952791929245,
          0.30253052711486816,
          0.1708773374557495,
          0.24238748848438263,
          -0.032859623432159424,
          -0.3586174249649048,
          0.05319642648100853,
          -0.1707761287689209,
          -0.006355741526931524,
          -0.20279212296009064,
          0.19879281520843506,
          -0.09700049459934235,
          -0.022652199491858482,
          -0.4710674583911896,
          -0.18636099994182587,
          0.33743059635162354,
          0.213965505361557,
          0.1746971160173416,
          -0.32741671800613403,
          -0.1562732309103012,
          0.2988889217376709,
          0.30075526237487793,
          -0.3166394531726837,
          0.1222110316157341,
          -0.20066522061824799,
          -0.12287551164627075,
          -0.11572056263685226,
          -0.026909062638878822,
          -0.01840289495885372,
          -0.14983654022216797,
          0.10884330421686172,
          -0.031173259019851685,
          0.43659844994544983,
          0.24201509356498718,
          -0.07576101273298264,
          -0.27468323707580566,
          0.01625841297209263,
          0.42403343319892883,
          0.20259925723075867,
          -0.2820993959903717,
          -0.449336975812912,
          -0.24284768104553223,
          -0.14779402315616608,
          -0.45813190937042236,
          -0.3806721270084381,
          0.0968322679400444,
          -0.057569604367017746,
          0.2902413606643677,
          0.45009806752204895,
          0.0018291492015123367,
          0.07699102908372879,
          0.42261841893196106,
          0.2061743140220642,
          0.07913380116224289,
          -0.28127607703208923,
          0.1782359480857849,
          -0.3799487352371216,
          -0.08169229328632355,
          -0.3938415050506592,
          -0.1075107753276825,
          -0.1310904175043106,
          0.3719799816608429
        ],
        [
          0.04300173372030258,
          -0.22055983543395996,
          -0.0633026659488678,
          -0.08846258372068405,
          -0.6686787605285645,
          -0.39813125133514404,
          0.016131004318594933,
          0.030674230307340622,
          -0.03627058491110802,
          0.02973225526511669,
          -0.05989565700292587,
          0.32976987957954407,
          -0.3198172450065613,
          -6.903718167450279e-05,
          -0.0199600700289011,
          0.1199340745806694,
          -0.46018075942993164,
          0.3031110465526581,
          -0.02981949783861637,
          -0.09610249847173691,
          -0.07938019931316376,
          0.06917320191860199,
          0.2989954948425293,
          0.36039265990257263,
          0.047846611589193344,
          0.1850677877664566,
          0.06581547111272812,
          -0.03740046173334122,
          0.18096330761909485,
          0.002112288260832429,
          -0.02472878433763981,
          -0.22670090198516846,
          -0.016793185845017433,
          -0.004417881369590759,
          -0.16160698235034943,
          0.49880528450012207,
          -0.41452690958976746,
          -0.2969893515110016,
          -0.03592338413000107,
          -0.17387883365154266,
          0.011885585263371468,
          0.033204447478055954,
          0.0654061883687973,
          -0.07249590754508972,
          0.05108419433236122,
          -0.19881977140903473,
          0.1339264214038849,
          -0.10200358182191849,
          0.003960892092436552,
          -0.05816873908042908,
          -0.11663465946912766,
          -0.08442258089780807,
          -0.06498092412948608,
          -0.08527569472789764,
          -0.07537902891635895,
          0.04242030903697014,
          0.1734488159418106,
          -0.1756380945444107,
          0.04490017145872116,
          -0.018029380589723587,
          0.15911252796649933,
          -0.14280608296394348,
          0.13824795186519623,
          -0.19839812815189362
        ],
        [
          -0.3161924481391907,
          -0.2342347800731659,
          0.03603279963135719,
          -0.8138826489448547,
          0.031055886298418045,
          0.1870846450328827,
          -0.001928392332047224,
          -0.1757638305425644,
          0.06779158115386963,
          -0.031349752098321915,
          -0.012488680891692638,
          -0.32863524556159973,
          0.31837692856788635,
          -0.6469584107398987,
          0.03628391772508621,
          -0.15615350008010864,
          -0.11543764173984528,
          -0.3896380662918091,
          -0.19445030391216278,
          -0.6580685377120972,
          0.18026956915855408,
          0.5592572093009949,
          -0.13526244461536407,
          -0.02282608300447464,
          -0.21430234611034393,
          0.4829149544239044,
          0.10441309958696365,
          -0.4484170377254486,
          0.19116397202014923,
          0.018183330073952675,
          0.0030555606354027987,
          0.03821706771850586,
          -0.008599204011261463,
          0.11574477702379227,
          -0.3235686421394348,
          0.12436912208795547,
          0.06841572374105453,
          0.12660080194473267,
          0.08326650410890579,
          0.0910206288099289,
          0.009762498550117016,
          0.21324345469474792,
          -0.23803077638149261,
          0.12492257356643677,
          -0.018893204629421234,
          0.16133739054203033,
          0.27859050035476685,
          -0.12430257350206375,
          0.09584761410951614,
          -0.01048128679394722,
          0.14959797263145447,
          -0.06482390314340591,
          0.029759550467133522,
          -0.03368208929896355,
          0.2514670193195343,
          -0.06206898018717766,
          0.11174950003623962,
          0.3061724603176117,
          -0.11475449800491333,
          -0.015682946890592575,
          -0.08703037351369858,
          0.1166173666715622,
          -0.2900826036930084,
          -0.29915231466293335
        ],
        [
          -0.014057145453989506,
          0.15007111430168152,
          -0.28545114398002625,
          0.002105393446981907,
          0.10715607553720474,
          -0.013156100176274776,
          0.061376288533210754,
          0.01045252662152052,
          -0.3022962510585785,
          0.016909614205360413,
          0.06291890889406204,
          0.41556134819984436,
          -0.39881712198257446,
          -0.01070425845682621,
          -0.030720580369234085,
          0.015129600651562214,
          0.016920965164899826,
          0.07282274961471558,
          -0.12575703859329224,
          0.017992399632930756,
          -0.4223836064338684,
          0.0222832839936018,
          -0.4033641517162323,
          0.03563043475151062,
          0.008479401469230652,
          0.03919721394777298,
          -0.04913637787103653,
          0.06217314302921295,
          -0.020726444199681282,
          -0.5779733657836914,
          0.02049223892390728,
          -0.0478806309401989,
          0.02755376324057579,
          -0.21649415791034698,
          -0.008263921365141869,
          0.005161425098776817,
          -0.00772767374292016,
          0.35165855288505554,
          -0.016136080026626587,
          0.5171689987182617,
          -0.18024128675460815,
          0.14653520286083221,
          0.010824469849467278,
          -0.354061484336853,
          -0.16567006707191467,
          -0.020005978643894196,
          0.004014915321022272,
          0.16094055771827698,
          0.01063512358814478,
          0.16660505533218384,
          0.0020187455229461193,
          -0.1849237084388733,
          -0.39694347977638245,
          0.013521682471036911,
          -0.5329385995864868,
          0.01613663136959076,
          0.055419836193323135,
          -0.012675123289227486,
          -0.009316325187683105,
          -0.6590479612350464,
          -0.5013965368270874,
          -0.04771696403622627,
          0.04142091050744057,
          0.08094973862171173
        ],
        [
          0.00982818752527237,
          0.05899679288268089,
          0.2639176547527313,
          -0.0011548238107934594,
          0.05697860196232796,
          0.10219024121761322,
          -0.3654414117336273,
          -0.02232895791530609,
          0.24018843472003937,
          0.0025373001117259264,
          0.03373078629374504,
          0.3042472302913666,
          -0.29762884974479675,
          0.008113292045891285,
          -0.1337820291519165,
          -0.0019762273877859116,
          0.010765569284558296,
          -0.041089486330747604,
          0.09317097067832947,
          0.007529041264206171,
          0.0019174430053681135,
          0.0007167701260186732,
          0.03622111305594444,
          -0.022565994411706924,
          -0.0680265873670578,
          0.08687841892242432,
          0.15742404758930206,
          -0.017552722245454788,
          0.2505725622177124,
          0.01998802088201046,
          -0.52093106508255,
          0.053802184760570526,
          -0.010875110514461994,
          -0.20429740846157074,
          0.2659430503845215,
          -0.002393601927906275,
          0.03177689015865326,
          -0.040660545229911804,
          -0.48125797510147095,
          0.2814325988292694,
          -0.03461673855781555,
          -0.09374215453863144,
          0.00549828028306365,
          -0.022120647132396698,
          0.08449329435825348,
          0.09791088104248047,
          -0.2345767319202423,
          -0.04943738877773285,
          -0.059328801929950714,
          -0.190387561917305,
          0.025100594386458397,
          -0.05743471533060074,
          -0.3225916624069214,
          -0.010174469090998173,
          0.03168485686182976,
          0.2075691819190979,
          -0.03168275207281113,
          -0.027433045208454132,
          -0.025110840797424316,
          0.05545125901699066,
          -0.270173579454422,
          0.14019893109798431,
          0.029927903786301613,
          -0.0007135304040275514
        ],
        [
          0.02163119427859783,
          0.037181779742240906,
          0.01584397442638874,
          -0.007309691049158573,
          0.004439214710146189,
          -0.027585841715335846,
          0.03465038165450096,
          0.011289045214653015,
          0.026722241193056107,
          -0.05829817056655884,
          -0.08474542200565338,
          0.41262179613113403,
          -0.40215352177619934,
          0.01520618237555027,
          -0.360799103975296,
          -0.05023350194096565,
          -0.10305073112249374,
          -0.01990595832467079,
          0.29881757497787476,
          -0.0018418584950268269,
          0.06368973106145859,
          -0.0029819803312420845,
          -0.015401865355670452,
          -0.0005382534582167864,
          0.05225971341133118,
          0.012374762445688248,
          0.028659094125032425,
          -0.030919326469302177,
          0.022410141304135323,
          0.00359246670268476,
          -0.10208115726709366,
          0.11116436123847961,
          0.09496737271547318,
          -0.025107787922024727,
          0.2548479437828064,
          0.10661190748214722,
          0.10290524363517761,
          0.011543652042746544,
          0.11459988355636597,
          -0.057838067412376404,
          0.006753161083906889,
          -0.35158872604370117,
          0.025626247748732567,
          0.08385688066482544,
          -0.12964335083961487,
          0.019463755190372467,
          -0.225420281291008,
          -0.054069388657808304,
          -0.3084455728530884,
          -0.006229209713637829,
          0.05161181092262268,
          -0.032731931656599045,
          -0.019037166610360146,
          -0.018281493335962296,
          0.03032134659588337,
          -0.09577175974845886,
          0.03383776172995567,
          0.3662600815296173,
          -0.0708455890417099,
          -0.018193159252405167,
          0.05291714891791344,
          0.16319267451763153,
          -0.28206926584243774,
          -0.05859041586518288
        ],
        [
          0.027416586875915527,
          0.05241018906235695,
          -0.0002760122297331691,
          0.0068661910481750965,
          -0.011436261236667633,
          -0.04546681419014931,
          -0.011963166296482086,
          -0.003326910547912121,
          0.014454311691224575,
          -0.12291605025529861,
          0.0003531789989210665,
          0.15206781029701233,
          -0.14843051135540009,
          0.01255074329674244,
          -0.10838911682367325,
          -0.022463716566562653,
          -0.019696371629834175,
          -0.010657766833901405,
          0.2810225188732147,
          0.0024301395751535892,
          -0.01715616136789322,
          -0.0051119071431458,
          0.07168050855398178,
          -0.014690004289150238,
          -0.006747147534042597,
          -0.09297128021717072,
          0.022086169570684433,
          -0.02577071264386177,
          -0.022094078361988068,
          0.011374397203326225,
          0.005515022668987513,
          0.14784128963947296,
          0.11714836955070496,
          0.0461035892367363,
          -0.1763104647397995,
          0.03619847074151039,
          0.06987279653549194,
          -0.06318936496973038,
          -0.02395791932940483,
          0.005723110865801573,
          -0.059324488043785095,
          -0.3341353237628937,
          0.012175359763205051,
          -0.007612698245793581,
          0.036679957062006,
          0.08446989953517914,
          0.16366451978683472,
          -0.00617169588804245,
          -0.01910669542849064,
          0.004741881042718887,
          0.07455220818519592,
          -0.09278257936239243,
          -0.012942182831466198,
          -0.009766972623765469,
          0.0298507958650589,
          0.014029058627784252,
          0.03633152320981026,
          -0.053701311349868774,
          -0.13666191697120667,
          -0.00013951753498986363,
          -0.008525117300450802,
          0.02859392762184143,
          0.12965397536754608,
          0.0033984920009970665
        ],
        [
          0.007214067969471216,
          0.032029446214437485,
          0.01409042440354824,
          -0.0033382463734596968,
          0.006923174951225519,
          0.036519765853881836,
          -0.008559069596230984,
          -0.08532398194074631,
          0.007485393900424242,
          0.10216286033391953,
          0.06229833886027336,
          0.1295652687549591,
          -0.12523849308490753,
          0.005040534771978855,
          0.033410876989364624,
          0.0671674981713295,
          0.008173177018761635,
          -0.030164293944835663,
          0.19589753448963165,
          0.01033563818782568,
          0.02179444581270218,
          -0.01084589958190918,
          -0.08826008439064026,
          -0.011409883387386799,
          -0.15463890135288239,
          -0.034517187625169754,
          0.005247721914201975,
          0.044019665569067,
          -0.007905579172074795,
          0.010579916648566723,
          0.002407749881967902,
          -0.004075068049132824,
          0.12141696363687515,
          0.0033518471755087376,
          -0.19702133536338806,
          0.003002492245286703,
          0.00015776418149471283,
          0.09069612622261047,
          -0.00044709796202369034,
          -0.014311759732663631,
          0.052512023597955704,
          -0.23140674829483032,
          0.05496343597769737,
          0.03017450124025345,
          0.034513767808675766,
          0.011918756179511547,
          0.16308794915676117,
          0.034072816371917725,
          -0.004760293290019035,
          -0.04573464393615723,
          0.07212422043085098,
          0.08895041048526764,
          0.022517239674925804,
          0.01328855101019144,
          -0.0032474775798618793,
          0.026262324303388596,
          0.006737506482750177,
          0.02792249619960785,
          -0.08832952380180359,
          -0.010705851018428802,
          0.003397929947823286,
          -0.004382945131510496,
          -0.024042369797825813,
          0.05410419777035713
        ],
        [
          -0.09434814751148224,
          0.02523091249167919,
          0.0049181366339325905,
          0.005890573840588331,
          0.0046209730207920074,
          0.022543547675013542,
          -0.00889504887163639,
          -0.22506459057331085,
          -0.0014014908811077476,
          0.01561251562088728,
          0.03518781065940857,
          0.0895867571234703,
          -0.08237992227077484,
          0.007121379487216473,
          0.008444520644843578,
          0.028245817869901657,
          0.002980712568387389,
          -0.013352926820516586,
          -0.02557234652340412,
          0.004439594689756632,
          -0.013886233791708946,
          4.012703720945865e-05,
          -0.021638741716742516,
          -0.014774121344089508,
          0.07005102932453156,
          -0.04201794043183327,
          0.011836184188723564,
          0.03510097786784172,
          -0.03182196244597435,
          0.005310648586601019,
          0.02089712955057621,
          0.057767175137996674,
          0.10447109490633011,
          -0.014153867959976196,
          -0.05981571972370148,
          -0.0008616663981229067,
          -0.01025344803929329,
          0.029522795230150223,
          -0.007999849505722523,
          0.001366491662338376,
          0.012143300846219063,
          0.0281677208840847,
          0.03003726527094841,
          -0.0034629430156201124,
          0.056369539350271225,
          0.06429781764745712,
          0.04985413700342178,
          -0.10075756162405014,
          -0.018596379086375237,
          0.0001231828355230391,
          0.05466003715991974,
          0.13467265665531158,
          -0.008190488442778587,
          0.005306466948240995,
          0.018818721175193787,
          0.012398368678987026,
          0.008075117133557796,
          -0.006753488909453154,
          -0.040800921618938446,
          -0.014970630407333374,
          0.0003391677455510944,
          -0.048107706010341644,
          0.0048020510002970695,
          0.030993467196822166
        ],
        [
          -0.19520622491836548,
          0.01284517627209425,
          0.01816009171307087,
          -0.0032634513918310404,
          0.018344929441809654,
          -0.015222381800413132,
          -0.0005110307247377932,
          -0.01990162581205368,
          0.001059178845025599,
          -0.023593943566083908,
          0.1270616203546524,
          0.0390949621796608,
          -0.038978125900030136,
          0.007205657195299864,
          -0.0008898562518879771,
          0.03592034429311752,
          -0.014986986294388771,
          -0.028974788263440132,
          -0.03312397003173828,
          0.020142389461398125,
          0.0039036008529365063,
          0.004396981094032526,
          -0.03590087592601776,
          0.003871720749884844,
          0.06355016678571701,
          -0.014903857372701168,
          1.5594239812344313e-05,
          0.036471664905548096,
          -0.018968651071190834,
          -0.00255599501542747,
          -0.005482397973537445,
          0.04607101529836655,
          0.0750134140253067,
          -0.0025221556425094604,
          -0.005107967648655176,
          0.00288642686791718,
          -0.0007013982394710183,
          0.036618344485759735,
          -0.0050408742390573025,
          -0.0459449328482151,
          0.03534538671374321,
          0.03740707412362099,
          0.030286284163594246,
          0.0022894591093063354,
          -0.010966645553708076,
          0.05134231597185135,
          0.004571431782096624,
          -0.01893123798072338,
          -0.020042896270751953,
          -0.0115383081138134,
          0.04310861602425575,
          0.015208455733954906,
          -0.00756000354886055,
          0.004571517929434776,
          0.015861988067626953,
          0.0060884966515004635,
          -0.00667435210198164,
          -0.025868164375424385,
          -0.03814217075705528,
          -0.010757524520158768,
          0.04113089665770531,
          -0.04223054647445679,
          0.023838257417082787,
          -0.011981494724750519
        ],
        [
          -0.12936420738697052,
          0.01685495302081108,
          -0.008128839544951916,
          -0.007448545657098293,
          0.0028293803334236145,
          0.003708329051733017,
          -0.007862322963774204,
          0.051509272307157516,
          0.0032294252887368202,
          -0.013131506741046906,
          0.10081494599580765,
          0.028685567900538445,
          -0.029236353933811188,
          0.0027137999422848225,
          -0.004683728329837322,
          0.03725866228342056,
          0.02118459716439247,
          -0.017231440171599388,
          -0.015018110163509846,
          0.018306097015738487,
          -0.02221275493502617,
          0.0023688117507845163,
          -0.0035267341881990433,
          -0.006623615976423025,
          0.009718939661979675,
          -0.001834011054597795,
          -0.005314182490110397,
          0.018441883847117424,
          0.00503873685374856,
          0.010829047299921513,
          0.011453199200332165,
          0.006693623028695583,
          0.03481505811214447,
          0.007845803163945675,
          -0.023335913196206093,
          -0.015064709819853306,
          -0.018587572500109673,
          0.0022784110624343157,
          -0.014578991569578648,
          -0.04186709597706795,
          0.06391274183988571,
          0.020622046664357185,
          0.03144948557019234,
          -0.010239703580737114,
          -0.044575341045856476,
          0.0033697481267154217,
          0.022765174508094788,
          0.030645862221717834,
          -0.02307942695915699,
          -0.0005451007164083421,
          0.029114248231053352,
          -0.03901999816298485,
          0.006144742947071791,
          0.009651094675064087,
          -0.006071321666240692,
          -0.008144937455654144,
          -0.02550339698791504,
          -0.0015020649880170822,
          -0.02340106852352619,
          -0.013688730075955391,
          0.03972557559609413,
          -0.008587961085140705,
          0.004497291520237923,
          -0.020397815853357315
        ]
      ],
      "b": [
        0.08097861707210541,
        -0.003530941205099225,
        -0.18741033971309662,
        -0.34769394993782043,
        -0.2611907124519348,
        -0.33960607647895813,
        0.046455349773168564,
        0.08541625738143921,
        0.15021154284477234,
        0.03529501333832741,
        0.2750166654586792,
        0.02010413259267807,
        -0.01877056062221527,
        -0.47333472967147827,
        -0.27666786313056946,
        0.034034863114356995,
        0.028451919555664062,
        0.20204254984855652,
        0.008175999857485294,
        -0.4169081151485443,
        -0.24488094449043274,
        0.06545516103506088,
        -0.18555894494056702,
        0.5077840685844421,
        0.17976036667823792,
        -0.20725437998771667,
        0.18775574862957,
        0.050554025918245316,
        0.4557720422744751,
        -0.4347381293773651,
        -0.29035601019859314,
        0.5146009922027588,
        0.10608833283185959,
        -0.09809430688619614,
        0.062348973006010056,
        -0.05222190544009209,
        -0.09374942630529404,
        0.18426179885864258,
        -0.2852843999862671,
        0.35016846656799316,
        0.41370463371276855,
        -0.01910770870745182,
        0.29155710339546204,
        0.1472078114748001,
        0.16333509981632233,
        -0.11740375310182571,
        -0.05693797394633293,
        0.3820039629936218,
        0.0399647057056427,
        0.513735830783844,
        0.13333573937416077,
        0.3941226005554199,
        -0.39143893122673035,
        0.44191065430641174,
        -0.33209091424942017,
        0.16525323688983917,
        0.0965828001499176,
        -0.40543049573898315,
        0.15224410593509674,
        -0.24417203664779663,
        -0.33324548602104187,
        0.4493104815483093,
        0.3319374620914459,
        0.3956415355205536
      ],
      "act": null
    },
    {
      "W": null,
      "b": null,
      "act": "relu"
    },
    {
      "W": [
        [
          -0.03255052864551544,
          -0.03838299214839935,
          -0.08970730751752853,
          0.040802791714668274,
          -0.015910305082798004,
          -0.09808828681707382,
          -0.23762115836143494,
          -0.08795241266489029,
          -0.16052190959453583,
          -0.08319239318370819,
          -0.004097016528248787,
          0.025374358519911766,
          -0.10894196480512619,
          -0.027724266052246094,
          -0.17320187389850616,
          0.01585431955754757,
          0.036939214915037155,
          -0.012323831208050251,
          0.08699705451726913,
          0.014403077773749828,
          0.16321103274822235,
          -0.1604549139738083,
          0.04076375439763069,
          -0.06806816905736923,
          -0.03209451213479042,
          0.10557445138692856,
          -0.0002549045893829316,
          0.010962008498609066,
          0.20092609524726868,
          -0.056574221700429916,
          0.2518833577632904,
          -0.03563022240996361,
          0.38646793365478516,
          -0.03325939550995827,
          0.06976491957902908,
          0.0016781942686066031,
          0.0355263389647007,
          -0.07328847795724869,
          0.09351536631584167,
          0.06995947659015656,
          0.20497390627861023,
          -0.008384406566619873,
          -0.027175333350896835,
          -0.01812075451016426,
          0.17294280230998993,
          0.019215043634176254,
          -0.05721672996878624,
          -0.060052674263715744,
          -0.01480940543115139,
          -0.10070349276065826,
          0.1653781533241272,
          0.04847438260912895,
          0.19768068194389343,
          0.09926192462444305,
          -0.10428394377231598,
          0.1698540598154068,
          0.06501251459121704,
          0.2985638380050659,
          -0.03214363381266594,
          0.04478711262345314,
          0.01853935420513153,
          0.13688218593597412,
          -0.12171965092420578,
          0.1794596165418625
        ],
        [
          0.1530853807926178,
          -0.19309768080711365,
          0.024735862389206886,
          0.04276110231876373,
          0.09578277170658112,
          0.10481630265712738,
          -0.0928686335682869,
          0.006232789717614651,
          0.00989621877670288,
          0.1076740249991417,
          0.05182119458913803,
          0.006178278475999832,
          0.09096407145261765,
          0.02429877035319805,
          -0.15687252581119537,
          0.007665356155484915,
          0.08805851638317108,
          -0.12163276225328445,
          -0.0821063369512558,
          -0.07704202085733414,
          0.033415574580430984,
          -0.08113354444503784,
          0.05013149231672287,
          0.13057854771614075,
          0.0401543453335762,
          0.010492829605937004,
          0.06852595508098602,
          0.026237932965159416,
          0.07035037875175476,
          0.13129723072052002,
          0.020812973380088806,
          0.07190464437007904,
          0.015792451798915863,
          -0.054341740906238556,
          -0.14321653544902802,
          -0.05764102190732956,
          -0.2178763449192047,
          0.08683163672685623,
          0.07186640799045563,
          0.010405737906694412,
          0.03656315430998802,
          0.043737079948186874,
          0.15614953637123108,
          -0.017735887318849564,
          0.07249651104211807,
          0.000851156422868371,
          0.10529119521379471,
          0.1316400021314621,
          0.12099271267652512,
          -0.00186545483302325,
          0.09794671088457108,
          0.08600908517837524,
          0.030030714347958565,
          0.12077745050191879,
          -0.031108854338526726,
          -0.09370438009500504,
          0.13338109850883484,
          -0.1151060163974762,
          -0.04412207752466202,
          0.06983213871717453,
          0.1433282345533371,
          -0.006131707224994898,
          0.03019038215279579,
          0.12411555647850037
        ],
        [
          0.07261662930250168,
          0.1607869565486908,
          -0.15074460208415985,
          0.02543257176876068,
          -0.07981691509485245,
          -0.026580536738038063,
          0.058217789977788925,
          0.005619522649794817,
          0.012379802763462067,
          0.012350548058748245,
          0.0535709522664547,
          0.0376521460711956,
          0.048571210354566574,
          0.034606534987688065,
          0.05998942255973816,
          0.13358768820762634,
          0.07604774832725525,
          -0.09059884399175644,
          0.030399072915315628,
          -0.1434878557920456,
          -0.04641760513186455,
          -0.04770369827747345,
          0.10401257872581482,
          -0.04983743280172348,
          0.08217353373765945,
          0.006546720862388611,
          -0.02258964441716671,
          0.2977530360221863,
          0.055313337594270706,
          0.025527985766530037,
          0.17727042734622955,
          -0.008629905991256237,
          -0.11686868220567703,
          -0.01082314271479845,
          -0.09447141736745834,
          -0.0012572589330375195,
          -0.19491688907146454,
          -0.2954666018486023,
          -0.017316022887825966,
          0.07945304363965988,
          -0.0003295899950899184,
          0.08223620802164078,
          0.01175754889845848,
          0.18194307386875153,
          0.03337661921977997,
          -0.2229115515947342,
          0.05644537881016731,
          -0.10947547107934952,
          -0.10870226472616196,
          0.06300298869609833,
          -0.07228826731443405,
          0.08489422500133514,
          -0.05146919935941696,
          -0.08091092854738235,
          -0.1715925931930542,
          0.0763481929898262,
          -0.003506734734401107,
          -0.009656745940446854,
          -0.1460885852575302,
          -0.031215639784932137,
          -0.1514226645231247,
          0.0120804812759161,
          0.0971113070845604,
          0.04466402158141136
        ],
        [
          0.5688222050666809,
          -0.6660280823707581,
          -0.2573038935661316,
          -0.09359820187091827,
          -0.8805333971977234,
          -0.3143985867500305,
          0.1956009417772293,
          -0.06716688722372055,
          -0.0007109440630301833,
          -0.08310666680335999,
          -0.11667007952928543,
          0.018714550882577896,
          -0.32250675559043884,
          0.1752827763557434,
          0.1411064714193344,
          -0.04856082424521446,
          -0.04136096313595772,
          0.07776574790477753,
          -0.05532973259687424,
          0.20096124708652496,
          0.5835942029953003,
          0.2636716067790985,
          -0.020132338628172874,
          -0.12874667346477509,
          0.15028908848762512,
          -0.05617491155862808,
          0.10501409322023392,
          -0.10641706734895706,
          0.1515302211046219,
          -0.11697228997945786,
          0.12807832658290863,
          0.1458515226840973,
          -0.13334788382053375,
          -0.2695765793323517,
          -0.2700780928134918,
          -0.6107619404792786,
          0.008251678198575974,
          0.24371181428432465,
          -0.10096678882837296,
          0.4408602714538574,
          -0.06995993852615356,
          -0.05927620455622673,
          -0.003033517859876156,
          0.03448637202382088,
          0.02667122147977352,
          -0.022935207933187485,
          0.36961790919303894,
          0.12377366423606873,
          0.03382983058691025,
          0.04439029097557068,
          -0.2588704824447632,
          -0.026744237169623375,
          0.23689384758472443,
          0.030830763280391693,
          -0.18225224316120148,
          -0.3068985342979431,
          -0.4306867718696594,
          0.3586879074573517,
          0.2940233647823334,
          0.0901566818356514,
          -0.7175474166870117,
          0.15898804366588593,
          0.1382887065410614,
          -0.06370651721954346
        ],
        [
          0.29902413487434387,
          0.17258229851722717,
          0.1273595094680786,
          0.07773328572511673,
          0.25461751222610474,
          -0.1335224211215973,
          -0.01826123706996441,
          0.07742972671985626,
          -0.17550969123840332,
          0.1298367977142334,
          -0.14651399850845337,
          -0.14080725610256195,
          -0.03225436061620712,
          -0.10341441631317139,
          0.1326717585325241,
          -0.08968423306941986,
          0.0413656160235405,
          -0.0033567361533641815,
          -0.08640594035387039,
          0.02671949192881584,
          0.0934353619813919,
          0.055071983486413956,
          -0.045698344707489014,
          -0.03953859582543373,
          -0.08351726084947586,
          0.048007477074861526,
          -0.08338021486997604,
          -0.0045117721892893314,
          -0.15569034218788147,
          0.1210792288184166,
          0.015203505754470825,
          0.015847550705075264,
          -0.18409886956214905,
          0.13437122106552124,
          -0.1106918677687645,
          -0.019569488242268562,
          -0.0661996454000473,
          0.054785359650850296,
          0.09731664508581161,
          -0.022117123007774353,
          -0.01441023126244545,
          0.06286825239658356,
          0.06284558773040771,
          -0.026726579293608665,
          -0.005269674584269524,
          -0.05441580340266228,
          0.028752844780683517,
          0.16965851187705994,
          0.10926302522420883,
          0.0024264883249998093,
          0.06941723823547363,
          0.010879777371883392,
          -0.08657520264387131,
          0.11163382977247238,
          -0.3396623730659485,
          -0.05032365396618843,
          0.03441310673952103,
          0.07319269329309464,
          -0.10456712543964386,
          -0.06671477109193802,
          0.43587565422058105,
          0.13327081501483917,
          0.1497252881526947,
          -0.13862362504005432
        ],
        [
          -0.1027875617146492,
          0.009851677343249321,
          -0.031720373779535294,
          0.0452636294066906,
          0.09220998734235764,
          -0.08991388976573944,
          -0.2727411091327667,
          0.01886349357664585,
          0.032297488301992416,
          -0.0627564936876297,
          0.00517699122428894,
          0.010064703412353992,
          -0.012457486242055893,
          0.04194415360689163,
          -0.15024782717227936,
          0.045833878219127655,
          -0.17418965697288513,
          -0.035617366433143616,
          0.004924701061099768,
          -0.050959862768650055,
          0.21244217455387115,
          -0.23727943003177643,
          -0.07200735807418823,
          0.06350324302911758,
          -0.03158339485526085,
          0.014195277355611324,
          -0.18512579798698425,
          0.0422632172703743,
          0.2021375447511673,
          -0.013059429824352264,
          -0.23137645423412323,
          0.2119050770998001,
          -0.12213362008333206,
          -0.028990095481276512,
          0.019567199051380157,
          0.044449448585510254,
          -0.12140512466430664,
          -0.49787524342536926,
          0.06911557167768478,
          0.03526771813631058,
          0.0034307511523365974,
          0.058289892971515656,
          -0.1323040872812271,
          -0.033589016646146774,
          0.02811267226934433,
          -0.144266739487648,
          0.061486270278692245,
          0.10415687412023544,
          0.07152941077947617,
          0.0014995158417150378,
          -0.01268536876887083,
          0.06941023468971252,
          0.02093948982656002,
          0.1867889016866684,
          -0.1792433261871338,
          -0.03770330920815468,
          0.08281858265399933,
          0.05921170860528946,
          -0.13655215501785278,
          -0.03246914967894554,
          0.22326061129570007,
          0.10806207358837128,
          0.24896931648254395,
          -0.02807537652552128
        ],
        [
          0.004440963268280029,
          0.07224690914154053,
          0.11757738143205643,
          -0.09396859258413315,
          -0.017446639016270638,
          0.1760655790567398,
          -0.028406627476215363,
          -0.0880093052983284,
          0.042964089661836624,
          0.0728033110499382,
          0.12034577876329422,
          0.09655304998159409,
          0.13786989450454712,
          -0.008984209038317204,
          -0.07567942142486572,
          -0.1011078730225563,
          0.0494869202375412,
          0.018457461148500443,
          0.16906137764453888,
          0.11268700659275055,
          -0.041856709867715836,
          0.13494090735912323,
          -0.05524711683392525,
          0.16898863017559052,
          0.026761237531900406,
          0.005064447410404682,
          -0.0455956757068634,
          0.014992141164839268,
          -0.02959570661187172,
          0.07151346653699875,
          0.1519065648317337,
          0.019213669002056122,
          0.01790178380906582,
          -0.004549621604382992,
          -0.05841062590479851,
          0.04119455814361572,
          0.28803008794784546,
          -0.14107435941696167,
          0.047987885773181915,
          0.02541392110288143,
          0.2112165093421936,
          0.028247389942407608,
          -0.03546780347824097,
          0.15283334255218506,
          0.1640116274356842,
          0.03516767919063568,
          -0.062288712710142136,
          0.1014852523803711,
          0.1575358510017395,
          -0.09626314789056778,
          -0.02135971561074257,
          0.07760588824748993,
          -0.0004984807455912232,
          0.013464007526636124,
          0.06105932593345642,
          0.10644020885229111,
          -0.10549961030483246,
          -0.046090953052043915,
          0.11216733604669571,
          0.13155752420425415,
          -0.12428122758865356,
          -0.11362134665250778,
          0.09687726199626923,
          -0.01631118543446064
        ],
        [
          0.04729370400309563,
          0.055958446115255356,
          0.027014127001166344,
          -0.00858741719275713,
          -0.020871290937066078,
          0.03809298947453499,
          -0.19723030924797058,
          -0.0169855747371912,
          0.03346264734864235,
          0.13809068500995636,
          0.030975013971328735,
          -0.011968862265348434,
          -0.02034119889140129,
          0.038878846913576126,
          0.21136927604675293,
          0.06087567284703255,
          0.15981368720531464,
          0.011079991236329079,
          0.1831636130809784,
          -0.0360659621655941,
          0.07125010341405869,
          0.002610675059258938,
          -0.06322429329156876,
          -0.17865969240665436,
          0.22764375805854797,
          0.062247347086668015,
          0.11504361033439636,
          0.04359693452715874,
          -0.24886946380138397,
          0.011090226471424103,
          -0.13526542484760284,
          0.20429782569408417,
          0.31539034843444824,
          -0.03915094956755638,
          0.053504038602113724,
          0.050999294966459274,
          0.039126478135585785,
          0.1344124972820282,
          0.2634231448173523,
          0.0471489317715168,
          -0.0032701126765459776,
          -0.05443742498755455,
          -0.08115601539611816,
          -0.019880400970578194,
          -0.29198917746543884,
          -0.10662708431482315,
          0.006280997768044472,
          -0.015122012235224247,
          0.10493452847003937,
          -0.03279980272054672,
          -0.14651544392108917,
          0.16384340822696686,
          -0.008727557957172394,
          0.025528796017169952,
          0.043355975300073624,
          0.07389406859874725,
          -0.03394034877419472,
          -0.23829102516174316,
          0.11299452185630798,
          0.11915495991706848,
          0.0008938558748923242,
          -0.14576439559459686,
          -0.05634815990924835,
          -0.09056272357702255
        ],
        [
          0.026137996464967728,
          0.008157323114573956,
          -0.06480071693658829,
          -0.04612218588590622,
          0.0716695636510849,
          -0.08331892639398575,
          0.03143579140305519,
          0.04322784021496773,
          -0.04740721359848976,
          0.032080285251140594,
          0.07951885461807251,
          -0.031823527067899704,
          -0.03359576314687729,
          -0.05932255834341049,
          0.039283234626054764,
          0.13092616200447083,
          0.05331289395689964,
          0.012643959373235703,
          0.01945347711443901,
          -0.05787467956542969,
          -0.08433997631072998,
          -0.07153131067752838,
          0.1492854654788971,
          -0.07743441313505173,
          0.0866694450378418,
          -0.12161258608102798,
          0.004792613442987204,
          0.21554096043109894,
          -1.3372926332522184e-05,
          -0.08766354620456696,
          -0.02007235959172249,
          -0.018334992229938507,
          0.020137809216976166,
          0.04853282496333122,
          -0.055508632212877274,
          -0.008178186602890491,
          -0.1867048442363739,
          -0.04788285493850708,
          -0.04534757882356644,
          0.07354942709207535,
          -0.11827603727579117,
          -0.03996048495173454,
          0.09606396406888962,
          -0.10769686847925186,
          -0.07168151438236237,
          -0.12560661137104034,
          -0.021724868565797806,
          -0.024838458746671677,
          -0.05622421205043793,
          -0.07603473216295242,
          -0.012763616628944874,
          0.00885173212736845,
          -0.013898905366659164,
          0.0917118489742279,
          -0.07621078193187714,
          0.07858452945947647,
          -0.00124548957683146,
          0.2015608251094818,
          -0.04297178238630295,
          -0.14029337465763092,
          0.07845146954059601,
          0.07979688048362732,
          0.11784622073173523,
          0.16558107733726501
        ],
        [
          -0.011357503943145275,
          0.08501585572957993,
          0.05887109786272049,
          -0.10777020454406738,
          0.08776725828647614,
          -0.060458216816186905,
          0.02362789772450924,
          -0.019698774442076683,
          0.1317838728427887,
          0.08273813873529434,
          0.13078993558883667,
          -0.09447333216667175,
          -0.008215051144361496,
          0.06317681819200516,
          -0.031519874930381775,
          -0.08601874113082886,
          0.011463919654488564,
          0.10103777050971985,
          -0.010285641998052597,
          0.040397144854068756,
          0.08588121086359024,
          0.13490061461925507,
          0.043840937316417694,
          0.25686848163604736,
          -0.09613100439310074,
          -0.1409684717655182,
          -0.12995821237564087,
          -0.06378757953643799,
          -0.07527416199445724,
          -0.22002029418945312,
          0.04743064567446709,
          -0.07663512974977493,
          0.24266979098320007,
          -0.02359415590763092,
          0.09750880300998688,
          0.005980987101793289,
          -0.07884589582681656,
          -0.024736445397138596,
          0.02420864626765251,
          -3.917177673429251e-05,
          0.0732656717300415,
          -0.011886890977621078,
          -0.05950130149722099,
          0.04072665795683861,
          0.32576116919517517,
          -0.01334531418979168,
          -0.044601064175367355,
          0.04278694838285446,
          -0.04627028480172157,
          -0.02812400460243225,
          0.3111136555671692,
          -0.12515121698379517,
          -0.04635291546583176,
          0.004129074513912201,
          -0.09342209994792938,
          -0.06885521113872528,
          -0.099443718791008,
          -0.09115161746740341,
          -0.003394587431102991,
          -0.02671399898827076,
          -0.199006125330925,
          -0.019138803705573082,
          0.03754756972193718,
          -0.10189467668533325
        ],
        [
          -0.07102248072624207,
          0.049738869071006775,
          -0.04500436410307884,
          -0.09083108603954315,
          0.054010748863220215,
          0.1972333937883377,
          0.046513669192790985,
          0.03365302458405495,
          0.11413896083831787,
          0.10731011629104614,
          0.08994398266077042,
          0.024544620886445045,
          -0.016929568722844124,
          0.03926567733287811,
          0.22326049208641052,
          -0.0785093680024147,
          0.03565601259469986,
          -0.025629229843616486,
          -0.09475212544202805,
          -0.0322478823363781,
          -0.008023531176149845,
          -0.0062399921007454395,
          0.098038449883461,
          0.04156070575118065,
          -0.06429864466190338,
          -0.02449779398739338,
          0.026126692071557045,
          0.16724035143852234,
          -0.27271348237991333,
          -0.12651996314525604,
          -0.176395446062088,
          -0.1357140988111496,
          -0.085532046854496,
          0.05832668021321297,
          -0.1244947537779808,
          0.1731056421995163,
          -0.0837726891040802,
          0.07946270704269409,
          0.042108818888664246,
          -0.019386742264032364,
          -0.0660494714975357,
          0.04577373340725899,
          0.1011916920542717,
          0.059216540306806564,
          0.08700661361217499,
          0.03527318686246872,
          -0.116239033639431,
          0.09714037925004959,
          0.07587867230176926,
          -0.07943527400493622,
          0.026680514216423035,
          0.134488046169281,
          -0.04313899204134941,
          0.1440041959285736,
          0.15065325796604156,
          0.0015545113710686564,
          0.11209072172641754,
          -0.131400465965271,
          -0.01828138902783394,
          0.09237225353717804,
          0.08212660253047943,
          0.027594435960054398,
          0.08435146510601044,
          -0.06994541734457016
        ],
        [
          0.008128713816404343,
          -0.09305541962385178,
          -0.04588405042886734,
          0.06423212587833405,
          -0.1446252316236496,
          0.09581290185451508,
          0.277463436126709,
          0.05343002825975418,
          0.33344292640686035,
          0.0044894153252244,
          -0.16848671436309814,
          -0.060877393931150436,
          0.023744523525238037,
          -0.055462878197431564,
          -0.14222966134548187,
          -0.11616765707731247,
          -0.03403273597359657,
          0.10912511497735977,
          -0.09143246710300446,
          0.210500568151474,
          0.09862727671861649,
          0.03942722827196121,
          -0.07743771374225616,
          0.1568366289138794,
          0.09544508159160614,
          -0.14918354153633118,
          -0.047108352184295654,
          0.09237644076347351,
          0.07468568533658981,
          0.07435726374387741,
          0.13864506781101227,
          0.02961328998208046,
          -0.0010693131480365992,
          -0.07850880920886993,
          -0.09819191694259644,
          0.04674398899078369,
          -0.17059902846813202,
          -0.1408454030752182,
          -0.10384228825569153,
          0.03535906597971916,
          -0.06233424320816994,
          -0.15720541775226593,
          -0.07708961516618729,
          -0.16024643182754517,
          0.33202695846557617,
          -0.12974172830581665,
          0.0983007550239563,
          -0.09170614182949066,
          0.13040970265865326,
          -0.03222279250621796,
          -0.10447431355714798,
          0.06304772198200226,
          0.25728490948677063,
          -0.10754851251840591,
          0.25758084654808044,
          -0.01157677173614502,
          -0.17371457815170288,
          0.13470427691936493,
          0.17777062952518463,
          -0.04908102750778198,
          -0.2344510406255722,
          -0.01527309324592352,
          0.15390554070472717,
          -0.21448884904384613
        ],
        [
          -0.014416351914405823,
          0.09433344006538391,
          0.1612606942653656,
          -0.08173181116580963,
          0.19299961626529694,
          0.054342012852430344,
          -0.21662230789661407,
          -0.09311719983816147,
          -0.1885952651500702,
          0.00336323375813663,
          0.4585708975791931,
          -0.12242542207241058,
          -0.03931664302945137,
          0.09818413853645325,
          -2.358386518608313e-05,
          -0.010964867658913136,
          0.09011385589838028,
          0.017329690977931023,
          0.06177820265293121,
          -0.15059970319271088,
          -0.13574615120887756,
          -0.0369417779147625,
          0.090041384100914,
          -0.13164256513118744,
          -0.09809933602809906,
          0.02849450707435608,
          0.04096207767724991,
          0.0639868825674057,
          -0.052341606467962265,
          -0.049185194075107574,
          -0.09889203310012817,
          -0.10158608853816986,
          -0.01692565344274044,
          0.01076034177094698,
          0.1746329963207245,
          -0.045652952045202255,
          0.24887917935848236,
          0.26107537746429443,
          0.24378347396850586,
          0.021261604502797127,
          -0.00443599047139287,
          0.20995265245437622,
          0.07272988557815552,
          0.10762112587690353,
          -0.18232277035713196,
          0.06685440242290497,
          -0.10507329553365707,
          0.07410265505313873,
          -0.06320202350616455,
          -0.12364866584539413,
          0.07864575833082199,
          -0.16798844933509827,
          -0.10496900975704193,
          0.2283669263124466,
          -0.2628529369831085,
          0.050873201340436935,
          0.2026134431362152,
          -0.13913393020629883,
          -0.19474636018276215,
          -0.08337486535310745,
          0.24926351010799408,
          -0.0012930131051689386,
          -0.19903405010700226,
          0.31798630952835083
        ],
        [
          0.40220552682876587,
          0.23205550014972687,
          0.3102397322654724,
          0.13801337778568268,
          0.121346116065979,
          -0.0757180005311966,
          0.2157895416021347,
          -0.13077861070632935,
          -0.08493947982788086,
          -0.07608412951231003,
          -0.07480517029762268,
          -0.0728660374879837,
          -0.12134578824043274,
          -0.2919533848762512,
          0.1494157612323761,
          -0.16568033397197723,
          0.03537853807210922,
          -0.21015994250774384,
          -0.17783930897712708,
          -0.12010689079761505,
          0.1710294634103775,
          -0.12176130712032318,
          -0.13080786168575287,
          0.044307902455329895,
          -0.3466755449771881,
          -0.08503881096839905,
          -0.016426753252744675,
          -0.022684715688228607,
          -0.2065153568983078,
          -0.15496012568473816,
          -0.047327157109975815,
          -0.22936412692070007,
          -0.33484312891960144,
          -0.10510654747486115,
          0.2922697961330414,
          -0.3658970594406128,
          -0.05177612975239754,
          -0.46481141448020935,
          -0.013493112288415432,
          -0.013495122082531452,
          -0.2908187508583069,
          -0.1933930367231369,
          -0.23556992411613464,
          -0.023735912516713142,
          0.07688771188259125,
          0.151889368891716,
          0.8751890659332275,
          -0.13645213842391968,
          0.08411317318677902,
          -0.08980207145214081,
          -0.20430169999599457,
          0.09637292474508286,
          -0.1022685095667839,
          -0.02781257964670658,
          -0.007809886708855629,
          0.3203895092010498,
          -0.4849351942539215,
          -0.448125958442688,
          -0.21229347586631775,
          -0.27159562706947327,
          -0.13055983185768127,
          0.20570237934589386,
          -0.15746842324733734,
          0.15901632606983185
        ],
        [
          0.038164276629686356,
          0.005190377589315176,
          -0.057415757328271866,
          -0.10308051109313965,
          -0.11684109270572662,
          0.06959323585033417,
          -0.017055045813322067,
          0.08419347554445267,
          -0.035650573670864105,
          0.20475663244724274,
          0.2097957730293274,
          -0.11203427612781525,
          -0.14201954007148743,
          0.28227493166923523,
          0.08583377301692963,
          -0.07666603475809097,
          0.2923174500465393,
          0.034768588840961456,
          -0.20774248242378235,
          0.0857311561703682,
          0.00884148757904768,
          -0.019941017031669617,
          -0.08553566783666611,
          0.008919524028897285,
          -0.022044267505407333,
          0.09990885853767395,
          -0.09053388237953186,
          0.0691184550523758,
          -0.15921030938625336,
          0.07283051311969757,
          0.0748644769191742,
          -0.07508601993322372,
          0.06918780505657196,
          -0.0008275647414848208,
          -0.051312994211912155,
          0.03822154179215431,
          -0.008487490937113762,
          0.019743941724300385,
          0.11801265925168991,
          -0.05754745379090309,
          -0.09422174096107483,
          0.08078816533088684,
          0.0009829944465309381,
          0.31509003043174744,
          0.03847484663128853,
          -0.014028114266693592,
          0.08045286685228348,
          0.09567440301179886,
          0.038162268698215485,
          0.07191238552331924,
          0.3061404526233673,
          0.045367684215307236,
          0.10618437081575394,
          -0.011365480720996857,
          0.11730916798114777,
          -0.0625627264380455,
          -0.08310580253601074,
          0.08922254294157028,
          0.10989148169755936,
          -0.042475633323192596,
          0.009879501536488533,
          -0.23934517800807953,
          0.06629514694213867,
          0.0643845722079277
        ],
        [
          -0.06835831701755524,
          0.09284129738807678,
          -0.17819209396839142,
          -0.05842854827642441,
          -0.1598600596189499,
          -0.07474026083946228,
          0.10794060677289963,
          -0.08422692120075226,
          -0.003675132989883423,
          -0.0489402674138546,
          0.04547441750764847,
          -0.019712159410119057,
          -0.004539027344435453,
          -0.083348847925663,
          0.014683399349451065,
          -0.15257275104522705,
          -0.21851882338523865,
          -0.04756193980574608,
          -0.09075278043746948,
          -0.12267466634511948,
          0.2025451362133026,
          -0.25334134697914124,
          -0.2881815731525421,
          0.14679193496704102,
          0.19545584917068481,
          -0.13087694346904755,
          0.12817217409610748,
          0.0468522384762764,
          -0.08640304207801819,
          -0.09043444693088531,
          -0.03999819606542587,
          -0.06870845705270767,
          -0.09609358012676239,
          0.05849574878811836,
          -0.10243777930736542,
          0.0208366047590971,
          0.049141474068164825,
          -0.06414885818958282,
          -0.06532222032546997,
          0.13753387331962585,
          -0.10082267224788666,
          0.11740922182798386,
          0.058313559740781784,
          0.13676710426807404,
          0.06423982232809067,
          -0.030462997034192085,
          -0.23328369855880737,
          0.005987592041492462,
          0.007909380830824375,
          0.09046673029661179,
          0.05407174676656723,
          0.04261164739727974,
          0.04295654222369194,
          0.02638118527829647,
          -0.06252149492502213,
          0.041854336857795715,
          0.02509418874979019,
          -0.21744892001152039,
          0.03969329968094826,
          0.04075723886489868,
          0.16780385375022888,
          -0.3593261241912842,
          0.0713491141796112,
          0.019236991181969643
        ],
        [
          0.1640583872795105,
          0.002207589102908969,
          -0.04212302342057228,
          0.0533299446105957,
          0.13168127834796906,
          -0.016868622973561287,
          0.12341611087322235,
          0.1617051661014557,
          -0.1092013418674469,
          0.10966472327709198,
          -0.02921062707901001,
          -0.08908379822969437,
          0.0403268039226532,
          0.003505463246256113,
          0.06357066333293915,
          0.016299152746796608,
          0.035933636128902435,
          0.05002889037132263,
          -0.10161283612251282,
          -0.0547403059899807,
          0.16801263391971588,
          -0.15286798775196075,
          0.03824136033654213,
          -0.02885461412370205,
          -0.10008914023637772,
          0.07309949398040771,
          0.043790146708488464,
          -0.024580074474215508,
          0.1369546800851822,
          0.1037745550274849,
          -0.058074504137039185,
          0.1119534820318222,
          0.11127112805843353,
          0.15065956115722656,
          0.023059995844960213,
          -0.03359556570649147,
          -0.013003647327423096,
          -0.008198150433599949,
          -0.04853061959147453,
          0.157390296459198,
          -0.10349297523498535,
          -0.047889962792396545,
          0.1673663854598999,
          0.03181730583310127,
          0.13532117009162903,
          -0.004649965558201075,
          0.08548229932785034,
          0.06465641409158707,
          -0.07737313956022263,
          -0.10087651759386063,
          0.12350724637508392,
          0.16293013095855713,
          -0.06071755662560463,
          -0.008349820971488953,
          -0.04625409469008446,
          -0.11388418078422546,
          0.12459353357553482,
          0.034109797328710556,
          0.04542085528373718,
          0.061367057263851166,
          0.28167012333869934,
          0.15462850034236908,
          -0.03317669406533241,
          0.09381897747516632
        ],
        [
          0.060400910675525665,
          0.09726991504430771,
          -0.01619914546608925,
          0.11122868955135345,
          -0.3598422408103943,
          -0.05895465984940529,
          0.13889607787132263,
          0.012582166120409966,
          0.12926322221755981,
          -0.01088195014744997,
          0.009934662841260433,
          -0.08779966831207275,
          -0.06250377744436264,
          0.028905605897307396,
          0.08603334426879883,
          0.016646791249513626,
          0.00604093074798584,
          0.09825592488050461,
          -0.06629855185747147,
          0.023316150531172752,
          0.17224183678627014,
          0.21326516568660736,
          -0.02431342750787735,
          0.03872710093855858,
          0.18335983157157898,
          0.1784134805202484,
          -0.044132184237241745,
          -0.0012220062781125307,
          0.042392343282699585,
          0.1289278268814087,
          0.1190880835056305,
          0.09918364137411118,
          0.06988441944122314,
          -0.1069994568824768,
          -0.1285800337791443,
          -0.06327679008245468,
          0.111646369099617,
          -0.03946508467197418,
          -0.017937032505869865,
          0.12512703239917755,
          -0.05509651079773903,
          0.12009339034557343,
          -0.0070283482782542706,
          0.035395219922065735,
          0.04125835746526718,
          0.01632157526910305,
          0.26766538619995117,
          0.06940622627735138,
          0.07035940885543823,
          -0.05851174518465996,
          -0.0017965103033930063,
          -0.031649574637413025,
          0.00900927186012268,
          -0.07097230851650238,
          -0.08207154273986816,
          -0.19317975640296936,
          -0.0012679919600486755,
          -0.010145939886569977,
          0.00030448666075244546,
          0.030887428671121597,
          -0.405876487493515,
          0.08084861934185028,
          0.10116231441497803,
          0.02486841380596161
        ],
        [
          0.08796872943639755,
          -0.12194879353046417,
          0.010861403308808804,
          -0.010315229184925556,
          -0.11674516648054123,
          -0.1595214456319809,
          -0.03166158124804497,
          0.023090610280632973,
          -0.03728371486067772,
          0.02434377186000347,
          -0.07099074870347977,
          -0.10765707492828369,
          0.06810996681451797,
          0.0968518927693367,
          -0.277561753988266,
          0.03801056742668152,
          0.0578450933098793,
          -0.1672489196062088,
          0.016763292253017426,
          0.002254459308460355,
          0.023566098883748055,
          0.06855016201734543,
          0.1794520616531372,
          -0.15239931643009186,
          0.02533910796046257,
          -0.11884355545043945,
          -0.04614860936999321,
          0.26427629590034485,
          -0.07717525213956833,
          0.02279486134648323,
          0.1200098916888237,
          -0.13367077708244324,
          0.24164390563964844,
          -0.020789319649338722,
          0.05140731483697891,
          -0.05698294937610626,
          0.0320926308631897,
          -0.04683461785316467,
          -0.07571165263652802,
          -0.09536067396402359,
          0.13986831903457642,
          0.07761336863040924,
          -0.0005114133236929774,
          0.0013317570555955172,
          -0.0834970474243164,
          0.2344972789287567,
          0.10467159748077393,
          0.14065751433372498,
          0.03797861188650131,
          0.05431387946009636,
          -0.055205319076776505,
          0.09689687937498093,
          0.052818261086940765,
          0.08882027864456177,
          0.07334250211715698,
          -0.09898911416530609,
          0.05570025369524956,
          -0.24973657727241516,
          0.11756736785173416,
          0.06366041302680969,
          -0.013204056769609451,
          0.09776957333087921,
          0.13830311596393585,
          0.04223187267780304
        ],
        [
          0.3478202819824219,
          -0.20100171864032745,
          -0.3523595929145813,
          -0.007105985190719366,
          -0.36474183201789856,
          0.029475487768650055,
          0.30991676449775696,
          -0.08801006525754929,
          0.005215377546846867,
          -0.3894146978855133,
          -0.014376463368535042,
          -0.13000483810901642,
          -0.2778418958187103,
          0.17816181480884552,
          0.43011006712913513,
          -0.267568439245224,
          -0.41939297318458557,
          0.054069094359874725,
          -0.06966247409582138,
          -0.19416676461696625,
          0.10947457700967789,
          0.17968688905239105,
          -0.06834231317043304,
          0.046640001237392426,
          0.14714351296424866,
          -0.15460753440856934,
          -0.2786681056022644,
          0.05939769372344017,
          0.16967037320137024,
          0.11913761496543884,
          0.054494958370923996,
          0.17093484103679657,
          -0.17000620067119598,
          -0.371005117893219,
          0.022452186793088913,
          -0.44919732213020325,
          0.15231700241565704,
          0.17624597251415253,
          -0.062225401401519775,
          0.011491007171571255,
          0.03906645625829697,
          -0.16045606136322021,
          -0.0705929696559906,
          -0.08021318912506104,
          -0.0011049194727092981,
          -0.23560075461864471,
          0.30615875124931335,
          0.020739734172821045,
          0.24140764772891998,
          -0.016425365582108498,
          -0.23285000026226044,
          -0.06444744020700455,
          0.11354383826255798,
          -0.07755494862794876,
          -0.13567332923412323,
          0.21676261723041534,
          -0.5336211323738098,
          0.2563123404979706,
          0.12716607749462128,
          0.05651640146970749,
          -0.18765020370483398,
          0.3253650963306427,
          0.21642827987670898,
          -0.12437041103839874
        ],
        [
          -0.07191409915685654,
          -0.01481596939265728,
          0.03930620104074478,
          -0.07887336611747742,
          -0.3804713189601898,
          0.12456247955560684,
          -0.04297945275902748,
          0.0820508748292923,
          0.041669998317956924,
          0.16557948291301727,
          0.02236749604344368,
          -0.0046887886710464954,
          -0.05901111662387848,
          0.09241944551467896,
          0.06555745005607605,
          0.08236591517925262,
          0.02309269644320011,
          -0.017391711473464966,
          -0.022313162684440613,
          0.15298987925052643,
          0.06880709528923035,
          -0.1163577139377594,
          -0.0051139965653419495,
          0.19693058729171753,
          -0.15547069907188416,
          0.0828065276145935,
          0.10708144307136536,
          0.03705107793211937,
          -0.050958052277565,
          0.09819827228784561,
          0.14599965512752533,
          -0.0054483297280967236,
          -0.035985179245471954,
          -0.18301455676555634,
          0.13302123546600342,
          0.0012319261441007257,
          -0.047929029911756516,
          -0.1917547732591629,
          -0.10299929231405258,
          -0.0880822017788887,
          0.016841163858771324,
          -0.0391230434179306,
          -0.12975746393203735,
          -0.10424050688743591,
          -0.09778273105621338,
          -0.06835227459669113,
          -0.1325366199016571,
          -0.09237838536500931,
          0.048907406628131866,
          -0.0027690234128385782,
          -0.1078934445977211,
          -0.0335845947265625,
          -0.057102881371974945,
          0.04052082449197769,
          -0.0543983094394207,
          0.08045706152915955,
          0.03505925089120865,
          -0.26605215668678284,
          0.0786285325884819,
          -0.05929598957300186,
          -0.12647950649261475,
          0.13515761494636536,
          -0.1151663139462471,
          0.3214437961578369
        ],
        [
          -0.05278286337852478,
          0.31301724910736084,
          -0.06581979244947433,
          0.13837599754333496,
          -0.2985377311706543,
          0.08232106268405914,
          -0.047823693603277206,
          -0.09262681752443314,
          -0.12740933895111084,
          0.040252842009067535,
          -0.03600421920418739,
          -0.13341692090034485,
          -0.19728314876556396,
          -0.01044844277203083,
          0.08224544674158096,
          -0.12985272705554962,
          -0.1614900827407837,
          -0.011701499111950397,
          0.022161515429615974,
          0.09809133410453796,
          0.08994212001562119,
          0.11006859689950943,
          -0.02179146744310856,
          0.1319454461336136,
          0.013941202312707901,
          0.02669246308505535,
          0.002900350373238325,
          0.004135316703468561,
          0.054700516164302826,
          -0.10718391090631485,
          -0.013852005824446678,
          0.06994456797838211,
          0.0248875692486763,
          -0.10326342284679413,
          0.1067994087934494,
          0.05634143948554993,
          0.08804171532392502,
          0.04633956030011177,
          0.013595414347946644,
          0.04471519961953163,
          -0.06594037264585495,
          -0.18908916413784027,
          -0.23214809596538544,
          0.061269450932741165,
          0.049354687333106995,
          -0.06968691945075989,
          0.15328355133533478,
          -0.04315086081624031,
          0.16415196657180786,
          0.051557350903749466,
          -0.014203003607690334,
          -0.03216598555445671,
          0.019900046288967133,
          -0.08639906346797943,
          0.08366825431585312,
          0.12524306774139404,
          -0.17045147716999054,
          -0.03381645679473877,
          0.1760196089744568,
          -0.03945332393050194,
          -0.4229736328125,
          -0.1050754263997078,
          0.052494630217552185,
          0.0751345083117485
        ],
        [
          -0.03475051745772362,
          -0.11615847051143646,
          -0.0798148438334465,
          -0.0035563011188060045,
          -0.018360525369644165,
          0.03412444517016411,
          -0.07786034792661667,
          0.0341590978205204,
          -0.14178520441055298,
          0.08785176277160645,
          0.07902577519416809,
          0.0843815878033638,
          -0.021871473640203476,
          -0.04894332215189934,
          -0.08912552893161774,
          0.132658451795578,
          -0.051611244678497314,
          -0.23855701088905334,
          0.11359714716672897,
          -0.11575507372617722,
          0.0007159460219554603,
          0.05442032590508461,
          -0.18458540737628937,
          -0.29614341259002686,
          0.24459989368915558,
          -0.07790907472372055,
          -0.12267525494098663,
          0.18895013630390167,
          0.17786648869514465,
          0.008129079826176167,
          -0.16749611496925354,
          0.030246354639530182,
          0.11502199620008469,
          -0.052677515894174576,
          0.061173588037490845,
          -0.06919501721858978,
          0.07939363270998001,
          0.13270580768585205,
          0.023029809817671776,
          -0.025670045986771584,
          0.15791048109531403,
          0.13016603887081146,
          -0.010043821297585964,
          -0.12780384719371796,
          -0.06522400677204132,
          0.06903791427612305,
          0.10342594236135483,
          0.0005198774742893875,
          -0.11346182227134705,
          -0.06113754212856293,
          0.09446880966424942,
          -0.011254237964749336,
          0.007123007904738188,
          0.036656152456998825,
          0.012049440294504166,
          -0.049506913870573044,
          -0.07763484120368958,
          0.13089624047279358,
          0.0516715943813324,
          -0.16051407158374786,
          -0.3657621741294861,
          0.05023055151104927,
          0.2482837587594986,
          0.04758945107460022
        ],
        [
          -0.20349866151809692,
          -0.04453841596841812,
          -0.09515868872404099,
          0.0141197694465518,
          -0.31552383303642273,
          -0.09188702702522278,
          -0.03488103672862053,
          -0.1431177854537964,
          0.2099021077156067,
          0.12339917570352554,
          0.0062100873328745365,
          -0.02436009608209133,
          -0.005498255603015423,
          0.004822016693651676,
          0.08312053978443146,
          0.017525658011436462,
          0.11940626800060272,
          0.0016841143369674683,
          0.00564767699688673,
          0.1078907772898674,
          -0.03290540352463722,
          0.2566782236099243,
          0.0432564876973629,
          0.1181526631116867,
          0.2735263705253601,
          0.13771450519561768,
          -0.01504334807395935,
          -0.047497209161520004,
          0.014781082049012184,
          -0.11628212034702301,
          0.16215941309928894,
          0.023138001561164856,
          -0.06265487521886826,
          -0.24445797502994537,
          0.04143049940466881,
          0.2955068051815033,
          -0.008237806148827076,
          0.03822149336338043,
          0.0024144521448761225,
          -0.09839250892400742,
          0.06562698632478714,
          0.15588153898715973,
          0.08162008970975876,
          -0.052984751760959625,
          0.052172355353832245,
          0.1089855507016182,
          -0.1815139204263687,
          0.05065742880105972,
          -0.021781424060463905,
          -0.04370729997754097,
          -0.004136477131396532,
          -0.13126389682292938,
          -0.008972492069005966,
          0.04691878706216812,
          0.13212120532989502,
          0.19873185455799103,
          -0.18427912890911102,
          0.18838277459144592,
          -0.020663175731897354,
          -0.08043897897005081,
          -0.558805525302887,
          0.034093573689460754,
          0.1976027637720108,
          0.06150083988904953
        ],
        [
          0.010360851883888245,
          -0.09030384570360184,
          -0.08124144375324249,
          0.08849477022886276,
          0.06104712560772896,
          0.33545950055122375,
          0.040010299533605576,
          0.0004449359839782119,
          -0.06342879682779312,
          -0.027617428451776505,
          -0.06268998980522156,
          -0.09119630604982376,
          0.05845692381262779,
          0.03286149725317955,
          0.061587411910295486,
          0.15075065195560455,
          -0.0003025776823051274,
          0.12957780063152313,
          0.09967067837715149,
          -0.06809257715940475,
          0.11017405986785889,
          -0.02699108049273491,
          0.04958079010248184,
          0.11083221435546875,
          0.0558302104473114,
          0.12504397332668304,
          0.18705055117607117,
          0.05107143521308899,
          0.42050376534461975,
          0.09056026488542557,
          -0.14538392424583435,
          0.11687067151069641,
          -0.331655353307724,
          0.017635425552725792,
          0.026128316298127174,
          0.060917455703020096,
          0.24576416611671448,
          0.09560775011777878,
          -0.21051092445850372,
          0.108861543238163,
          0.03159429132938385,
          -0.08816622942686081,
          0.023003768175840378,
          0.02792125754058361,
          -0.16747933626174927,
          0.0010718799894675612,
          -0.05885157734155655,
          -0.1579597294330597,
          0.09702075272798538,
          -0.11996918171644211,
          -0.004296464845538139,
          -0.12961584329605103,
          -0.015750208869576454,
          -0.07224583625793457,
          0.23256130516529083,
          0.10027634352445602,
          0.10605315864086151,
          0.1436188519001007,
          0.03682596981525421,
          -0.061122313141822815,
          -0.04377440735697746,
          -0.03091183491051197,
          0.0018594157882034779,
          0.05345684662461281
        ],
        [
          -0.17766866087913513,
          0.004351234529167414,
          -0.008047526702284813,
          -0.01977425068616867,
          -0.303668349981308,
          -0.01848054677248001,
          0.0728699266910553,
          0.003909541293978691,
          -0.10684670507907867,
          -0.22773310542106628,
          0.06268880516290665,
          0.012070360593497753,
          0.05972829833626747,
          -0.06569983065128326,
          -0.13305287063121796,
          -0.1296474039554596,
          0.08429890125989914,
          0.01977274939417839,
          0.14606334269046783,
          0.018677690997719765,
          -0.016024406999349594,
          0.010238882154226303,
          -0.16271795332431793,
          0.032580796629190445,
          -0.13069677352905273,
          0.12427620589733124,
          -0.09241221100091934,
          0.11560865491628647,
          0.08448383957147598,
          -0.1628025472164154,
          -0.007364172488451004,
          0.1532410830259323,
          0.15126724541187286,
          -0.052337102591991425,
          0.060783106833696365,
          0.1647336333990097,
          0.02687416970729828,
          0.008075933903455734,
          -0.12017595767974854,
          0.03160994127392769,
          0.006739665288478136,
          -0.1506083607673645,
          -0.10592915862798691,
          0.046397045254707336,
          -0.09663022309541702,
          -0.06408146768808365,
          1.0306395292282104,
          -0.06173693388700485,
          -0.05025162547826767,
          -0.09262844920158386,
          0.07191727310419083,
          -0.07516172528266907,
          -0.030912380665540695,
          0.0854734405875206,
          0.18528026342391968,
          0.13964203000068665,
          0.022135915234684944,
          -0.03391672670841217,
          0.2531956434249878,
          0.14450858533382416,
          -0.017773527652025223,
          0.024330411106348038,
          -0.1515800803899765,
          0.08015640079975128
        ],
        [
          -0.04552595317363739,
          0.2311169058084488,
          -0.021924329921603203,
          0.07602698355913162,
          0.05598616972565651,
          0.15424111485481262,
          0.08516502380371094,
          -0.0025419266894459724,
          0.07682760059833527,
          -0.040593646466732025,
          -0.030211104080080986,
          -0.05089550465345383,
          -0.026074402034282684,
          -0.1475091427564621,
          -0.09586486965417862,
          0.022498788312077522,
          -0.051610175520181656,
          0.04128799960017204,
          -0.014674958772957325,
          -0.022697173058986664,
          0.013159387744963169,
          -0.004632198717445135,
          -0.03984967619180679,
          -0.08274746686220169,
          0.0997428297996521,
          -0.00983805488795042,
          0.09496720135211945,
          0.16889417171478271,
          0.14279805123806,
          -0.18747808039188385,
          -0.15889281034469604,
          0.0067290193401277065,
          -0.014813071116805077,
          0.06030485779047012,
          -0.008906766772270203,
          0.08209039270877838,
          -0.1861502081155777,
          -0.09751852601766586,
          -0.06323251873254776,
          0.04193643480539322,
          0.023396218195557594,
          -0.030761275440454483,
          -0.04041922464966774,
          0.11346606910228729,
          0.008538614958524704,
          -0.011223236098885536,
          -0.21229717135429382,
          -0.09155837446451187,
          0.11043339967727661,
          0.004821226932108402,
          -0.015104173682630062,
          0.0858340859413147,
          -0.0073675294406712055,
          -0.057538583874702454,
          0.03768445551395416,
          0.0919957086443901,
          0.1469239592552185,
          0.04217115044593811,
          0.06357230991125107,
          -0.13105380535125732,
          0.14417310059070587,
          0.03460384160280228,
          0.17820404469966888,
          0.07590878754854202
        ],
        [
          0.3087981343269348,
          -0.14845530688762665,
          -0.02954813651740551,
          -0.044234856963157654,
          0.03796796128153801,
          0.050544220954179764,
          0.16037318110466003,
          0.04086238890886307,
          0.14101222157478333,
          -0.032862354069948196,
          -0.04604577273130417,
          0.08040134608745575,
          -0.06352845579385757,
          0.04828483611345291,
          0.15731321275234222,
          -0.10300207883119583,
          -0.07626194506883621,
          0.05156158655881882,
          -0.03056323155760765,
          -0.06464529782533646,
          0.22211213409900665,
          -0.10396906733512878,
          0.08241891860961914,
          -0.11549028754234314,
          -0.05210964381694794,
          -0.06232127919793129,
          -0.0039769005961716175,
          -0.035748135298490524,
          0.04437556117773056,
          0.2295367419719696,
          0.13698753714561462,
          0.07828546315431595,
          -0.07222716510295868,
          0.04047011956572533,
          0.12435067445039749,
          -0.09979730099439621,
          0.020414113998413086,
          0.07198023051023483,
          -0.07759873569011688,
          0.1692367047071457,
          0.14137496054172516,
          -0.06995692849159241,
          -0.0812067911028862,
          0.0436156690120697,
          0.04204564169049263,
          -0.0569547563791275,
          0.2433292269706726,
          0.06426970660686493,
          0.10553492605686188,
          -0.022462833672761917,
          -0.020491641014814377,
          -0.04161739721894264,
          -0.08697488903999329,
          -0.11252140998840332,
          -0.10975324362516403,
          0.052850376814603806,
          -0.15468581020832062,
          0.06258761137723923,
          0.23752734065055847,
          0.0889880359172821,
          -0.2968171238899231,
          0.18255235254764557,
          0.1306515783071518,
          0.006081967614591122
        ],
        [
          -0.11683067679405212,
          0.05419270321726799,
          -0.08279211819171906,
          -0.02752404659986496,
          -0.1267656832933426,
          -0.016925184056162834,
          -0.10010714828968048,
          0.14014889299869537,
          0.13746267557144165,
          0.08182937651872635,
          0.07722214609384537,
          -0.019332533702254295,
          -0.10638326406478882,
          -0.08363877981901169,
          0.13065959513187408,
          0.10510167479515076,
          -0.21039143204689026,
          0.17812447249889374,
          0.08741151541471481,
          0.06899984925985336,
          0.03655974939465523,
          -0.035371534526348114,
          0.10111894458532333,
          -0.09001822024583817,
          0.03413866087794304,
          0.0759979709982872,
          0.0962083637714386,
          0.03590257093310356,
          -0.181884765625,
          -0.16119012236595154,
          0.13993535935878754,
          -0.032346609979867935,
          0.16168804466724396,
          -0.08673058450222015,
          -0.02883356437087059,
          0.13465014100074768,
          -0.0916154533624649,
          -0.02807679958641529,
          0.1768062859773636,
          0.09241758286952972,
          -0.025617441162467003,
          -0.07261762768030167,
          -0.1275167465209961,
          -0.03323950618505478,
          0.01446952112019062,
          0.08513722568750381,
          -0.0772826299071312,
          0.005452895071357489,
          -0.040664058178663254,
          0.07675252109766006,
          0.09049209952354431,
          0.08349139243364334,
          -0.0038882968947291374,
          -0.10395346581935883,
          0.08962801098823547,
          0.18323566019535065,
          -0.1257103681564331,
          0.09478992968797684,
          -0.006664523389190435,
          -0.14679934084415436,
          -0.27826884388923645,
          -0.08238328993320465,
          0.1984182596206665,
          0.21821148693561554
        ],
        [
          0.008835908025503159,
          0.12067166715860367,
          0.24550162255764008,
          -0.25650089979171753,
          -0.4332990348339081,
          -0.09649375081062317,
          0.019606033340096474,
          -0.13911567628383636,
          -0.22318799793720245,
          0.5161772966384888,
          0.07504577934741974,
          -0.005983178503811359,
          -0.34462714195251465,
          -0.06811650097370148,
          0.09018721431493759,
          0.2929893434047699,
          -0.08834560215473175,
          -0.1142294704914093,
          -0.12189652025699615,
          -0.139486625790596,
          0.06875813007354736,
          -0.4355708062648773,
          0.3454035222530365,
          0.20211821794509888,
          0.07706966996192932,
          -0.09137701988220215,
          0.14798839390277863,
          0.48148420453071594,
          -0.09621960669755936,
          -0.1629868894815445,
          -0.08603131026029587,
          -0.03756321221590042,
          -0.20870307087898254,
          0.0001364673807984218,
          0.3200085163116455,
          0.08927648514509201,
          -0.4596172273159027,
          0.10008087009191513,
          -0.05704984441399574,
          0.02551153674721718,
          -0.06358467787504196,
          -0.18862970173358917,
          -0.2788107693195343,
          -0.12962840497493744,
          -0.11266260594129562,
          0.01783941313624382,
          -0.044072892516851425,
          0.38583865761756897,
          -0.0678057074546814,
          -0.040317632257938385,
          -0.18008780479431152,
          -0.005866528023034334,
          -0.03587919846177101,
          -0.07991001754999161,
          -0.20303167402744293,
          0.07062932103872299,
          -0.11588045209646225,
          0.1651519387960434,
          0.1346290558576584,
          -0.1796095222234726,
          -0.476610392332077,
          -0.00593145564198494,
          0.21032240986824036,
          0.5856636762619019
        ],
        [
          0.08892254531383514,
          0.11303409934043884,
          0.13192515075206757,
          0.03712134435772896,
          -0.08915004879236221,
          0.2630362808704376,
          0.13522839546203613,
          -0.08995665609836578,
          -0.02516893483698368,
          0.054087914526462555,
          0.0078434431925416,
          -0.06575406342744827,
          -0.01940237730741501,
          0.05846835672855377,
          0.13751602172851562,
          0.06163490191102028,
          -0.24970392882823944,
          -0.008158303797245026,
          0.01716909371316433,
          0.004070798400789499,
          -0.002261202083900571,
          0.07038746029138565,
          0.004117958247661591,
          0.1759599894285202,
          0.07011483609676361,
          -0.035455070436000824,
          0.03174971416592598,
          0.18169352412223816,
          0.00949890911579132,
          -0.053094521164894104,
          0.1829511821269989,
          -0.19876419007778168,
          0.15331284701824188,
          -0.004583265632390976,
          -0.07735022157430649,
          0.0120660699903965,
          0.3969529867172241,
          -0.23188866674900055,
          -0.01508334744721651,
          0.03151874244213104,
          0.10831195116043091,
          -0.021435996517539024,
          0.06332677602767944,
          0.24648207426071167,
          -0.011366037651896477,
          0.0072420197539031506,
          0.033511433750391006,
          0.046551525592803955,
          -0.07172419130802155,
          0.04168622940778732,
          0.03848497197031975,
          0.2316567599773407,
          0.02393556386232376,
          0.06939340382814407,
          0.1458723247051239,
          0.011076067574322224,
          -0.01870659738779068,
          0.021295322105288506,
          -0.04714418947696686,
          -0.0910373255610466,
          -0.06860045343637466,
          -0.09290479123592377,
          0.05616205558180809,
          -0.09511779993772507
        ],
        [
          -0.15636101365089417,
          0.09146099537611008,
          0.19445186853408813,
          0.2492825984954834,
          0.13260363042354584,
          0.0009206819231621921,
          0.26534488797187805,
          0.27865731716156006,
          -0.07119002938270569,
          0.18596911430358887,
          -0.09711332619190216,
          0.10141722857952118,
          0.13165369629859924,
          -0.006140218116343021,
          -0.06149868294596672,
          -0.014026259072124958,
          -0.06215991452336311,
          0.04631989821791649,
          0.005960535258054733,
          0.16969889402389526,
          -0.053655028343200684,
          -0.16228719055652618,
          0.18106184899806976,
          -0.10204576700925827,
          -0.08237706124782562,
          0.04441016539931297,
          0.137454554438591,
          0.22720639407634735,
          0.06831271201372147,
          -0.060487885028123856,
          0.09583976864814758,
          -0.025040600448846817,
          0.0003362842253409326,
          0.21348300576210022,
          0.06437774002552032,
          -0.03698645904660225,
          0.08869700133800507,
          -0.018276851624250412,
          -0.08916740119457245,
          0.08503436297178268,
          -0.01959473267197609,
          0.0034015821292996407,
          -0.10147397220134735,
          -0.004777946509420872,
          -0.10349838435649872,
          0.07313694804906845,
          -0.2128036469221115,
          0.0798533484339714,
          0.10788490623235703,
          0.10912848263978958,
          -0.16962580382823944,
          0.11869309097528458,
          0.09928974509239197,
          -0.028360087424516678,
          0.09030626714229584,
          -0.1419137418270111,
          -0.0009680002694949508,
          -0.025531940162181854,
          0.12082015722990036,
          0.15769749879837036,
          0.10926597565412521,
          -0.08258964866399765,
          0.007960700429975986,
          0.0711909830570221
        ],
        [
          0.05750548094511032,
          0.09467346221208572,
          -0.10802499949932098,
          -0.1647913008928299,
          0.05177672207355499,
          0.15547266602516174,
          -0.0683237835764885,
          0.12398223578929901,
          -0.11588430404663086,
          -0.11277753859758377,
          0.005858567077666521,
          -0.030984051525592804,
          0.042182937264442444,
          -0.026747791096568108,
          0.03889315947890282,
          -0.022725945338606834,
          0.14520107209682465,
          0.04276657849550247,
          -0.006844313349574804,
          -0.03604629635810852,
          0.05412334203720093,
          0.08182592689990997,
          0.05468899756669998,
          -0.05754368007183075,
          0.10136579722166061,
          0.03901109844446182,
          0.0037578530609607697,
          0.1748257428407669,
          -0.1449110060930252,
          0.007604917511343956,
          0.09519326686859131,
          0.031003454700112343,
          -0.09629829227924347,
          -0.14627407491207123,
          -0.012217549607157707,
          -0.01761825568974018,
          0.06602466851472855,
          0.22227220237255096,
          0.07532543689012527,
          0.01256532222032547,
          0.24250036478042603,
          0.16732434928417206,
          0.07475007325410843,
          0.0010277258697897196,
          0.027159258723258972,
          -0.15062522888183594,
          -0.07492034882307053,
          -0.01523264404386282,
          0.07120222598314285,
          0.06456694006919861,
          0.052019450813531876,
          -0.08672740310430527,
          0.03733522817492485,
          0.03769145905971527,
          -0.01816449873149395,
          0.15239498019218445,
          -0.014709671027958393,
          -0.02331792376935482,
          -0.07248212397098541,
          -0.004362831823527813,
          0.020860709249973297,
          -0.03811990097165108,
          -0.16863958537578583,
          0.05833854898810387
        ],
        [
          0.04852919280529022,
          -0.13472837209701538,
          0.08048240095376968,
          0.22340747714042664,
          0.2239169031381607,
          0.04117916151881218,
          0.07022044062614441,
          -0.09749279171228409,
          -0.11455678939819336,
          -0.01759604550898075,
          0.03317204490303993,
          -0.05288343504071236,
          -0.007949648424983025,
          0.07482869923114777,
          0.07150818407535553,
          -0.05328460782766342,
          -0.1767517626285553,
          -0.009144599549472332,
          0.08369576185941696,
          -0.006832146551460028,
          0.06878937035799026,
          -0.053292129188776016,
          -0.12444082647562027,
          -0.012759586796164513,
          0.06773166358470917,
          -0.042791321873664856,
          -0.04353663697838783,
          0.11201523244380951,
          0.0827467143535614,
          -0.16214381158351898,
          -0.09423749148845673,
          -0.17527872323989868,
          0.051969483494758606,
          0.024858849123120308,
          0.15211975574493408,
          -0.0592956468462944,
          0.10697037726640701,
          -0.047730520367622375,
          -0.033252183347940445,
          0.04403936117887497,
          0.024731237441301346,
          -0.031949933618307114,
          0.026364406570792198,
          0.07683774083852768,
          0.01645396463572979,
          0.13193684816360474,
          0.060718733817338943,
          0.13851815462112427,
          0.07890570163726807,
          0.05471199005842209,
          -0.08999937772750854,
          0.0326244980096817,
          0.08706356585025787,
          0.0644858181476593,
          0.07888317108154297,
          -0.13963793218135834,
          -0.0478283129632473,
          0.06707758456468582,
          0.05089756101369858,
          -0.017606908455491066,
          -0.16465389728546143,
          0.0014270669780671597,
          -0.0791139230132103,
          0.07631387561559677
        ],
        [
          0.14090558886528015,
          -0.17120923101902008,
          0.025234322994947433,
          -0.03423038497567177,
          0.07820704579353333,
          0.20651771128177643,
          -0.09964736551046371,
          0.11769399791955948,
          -0.11380109190940857,
          0.027914196252822876,
          0.03969540446996689,
          -0.10838683694601059,
          0.060347046703100204,
          0.027821168303489685,
          -0.010816316120326519,
          0.13118615746498108,
          0.11262383311986923,
          0.18539102375507355,
          0.31229543685913086,
          -0.00041963194962590933,
          -0.00025649345479905605,
          0.07451797276735306,
          0.013930466957390308,
          0.19115427136421204,
          0.16738495230674744,
          -0.10727919638156891,
          -0.047061484307050705,
          0.06667745858430862,
          -0.055681683123111725,
          0.1078091487288475,
          -0.17103926837444305,
          0.050660036504268646,
          -0.039291806519031525,
          -0.00011872811592184007,
          -0.04451876878738403,
          -0.14799410104751587,
          -0.19339920580387115,
          0.12695838510990143,
          0.19282317161560059,
          0.08457016944885254,
          0.15278993546962738,
          0.18203403055667877,
          0.12130266427993774,
          -0.16207768023014069,
          0.0499311126768589,
          0.003724785288795829,
          0.16923487186431885,
          0.039007943123579025,
          0.08690806478261948,
          -0.11286460608243942,
          -0.013871447183191776,
          0.004772117827087641,
          -0.04658709093928337,
          -0.05577471852302551,
          0.03946997597813606,
          -0.1462051272392273,
          0.06848891824483871,
          0.12098361551761627,
          -0.03955775871872902,
          -0.0007563411490991712,
          0.029093673452734947,
          0.06353326886892319,
          0.07500048726797104,
          -0.009176783263683319
        ],
        [
          -0.21459217369556427,
          0.19511134922504425,
          0.11485684663057327,
          0.105648472905159,
          -0.38052812218666077,
          -0.11294606328010559,
          -0.2550838589668274,
          -0.08748212456703186,
          0.03688866272568703,
          0.01689797267317772,
          0.09312044084072113,
          0.09145776927471161,
          -0.050383638590574265,
          -0.08874982595443726,
          -0.04164573550224304,
          -0.09875715523958206,
          -0.11411240696907043,
          -0.1275421679019928,
          0.012774667702615261,
          0.027821490541100502,
          -0.16943535208702087,
          -0.004446525126695633,
          -0.25997981429100037,
          0.060846488922834396,
          0.09244045615196228,
          -0.13712087273597717,
          0.031925249844789505,
          0.11667338013648987,
          -0.10335743427276611,
          0.0467219240963459,
          0.07383151352405548,
          0.04599633812904358,
          -0.09946174919605255,
          -0.011619413271546364,
          0.046931859105825424,
          0.33998239040374756,
          0.015389004722237587,
          -0.137444406747818,
          0.12182895094156265,
          -0.001809229957871139,
          0.1293494701385498,
          0.12019594758749008,
          -0.013537744991481304,
          0.040857914835214615,
          0.026586785912513733,
          0.14441204071044922,
          -0.01769404485821724,
          -0.038493432104587555,
          -0.03971199318766594,
          0.1148088350892067,
          0.01828218623995781,
          0.0014026492135599256,
          -0.010150198824703693,
          0.0576198548078537,
          0.22867286205291748,
          -0.11907118558883667,
          0.07266747951507568,
          0.07907330989837646,
          -0.03237517923116684,
          -0.08856881409883499,
          -0.05651792138814926,
          -0.028706423938274384,
          0.07392501831054688,
          -0.03262282907962799
        ],
        [
          0.0863799899816513,
          0.08234712481498718,
          0.0580160990357399,
          0.09442315995693207,
          0.315289705991745,
          -0.14258702099323273,
          -0.05814862623810768,
          0.09371809661388397,
          -0.09981688857078552,
          0.020174620673060417,
          0.041018806397914886,
          0.004158470779657364,
