{
  "model_type": "DeepONet",
  "meta": {
    "input_dim": 11,
    "output_shape": null,
    "param_bounds": [
      [
        0.4650968313217163,
        -0.9583699703216553,
        0.02028452605009079,
        0.00851683784276247,
        0.008559676818549633,
        0.008510912768542767,
        0.00851512048393488,
        0.008511403575539589,
        0.008519493974745274,
        0.008507623337209225,
        0.008501186035573483
      ],
      [
        4.034369468688965,
        -0.09161078929901123,
        0.5047447681427002,
        0.16149289906024933,
        0.16147683560848236,
        0.16145695745944977,
        0.1614702194929123,
        0.16149789094924927,
        0.16147616505622864,
        0.1614888608455658,
        0.16148270666599274
      ]
    ],
    "output_scaler": {
      "mean_": [
        0.26439437947491273
      ],
      "scale_": [
        0.09437813021924848
      ]
    },
    "strikes": [
      0.5,
      0.6000000238418579,
      0.699999988079071,
      0.800000011920929,
      0.8999999761581421,
      1.0,
      1.100000023841858,
      1.2000000476837158,
      1.2999999523162842,
      1.399999976158142,
      1.5
    ],
    "maturities": [
      0.10000000149011612,
      0.30000001192092896,
      0.5,
      0.699999988079071,
      0.8999999761581421,
      1.100000023841858,
      1.2999999523162842,
      1.5,
      1.7000000476837158,
      1.899999976158142,
      2.0999999046325684
    ]
  },
  "layers": [],
  "branch_layers": [
    {
      "W": [
        [
          -0.7743834257125854,
          -0.4355599880218506,
          0.0057532754726707935,
          0.3986808657646179,
          0.27002444863319397,
          0.06517957150936127,
          0.31240391731262207,
          0.0015620386693626642,
          0.4194815754890442,
          -0.32204508781433105,
          0.3488331735134125,
          -0.013106700964272022,
          -0.04800327494740486,
          -0.021595949307084084,
          -0.004213873762637377,
          -0.3595181107521057,
          -0.13003288209438324,
          0.20338143408298492,
          0.014147005043923855,
          -0.3255879282951355,
          -0.23769794404506683,
          0.0623721107840538,
          0.46183669567108154,
          -0.030601700767874718,
          0.14840038120746613,
          0.23385514318943024,
          -0.03125855699181557,
          -0.23929904401302338,
          0.22795379161834717,
          -0.32290926575660706,
          -0.3858007490634918,
          -0.42572149634361267,
          -0.5195736885070801,
          0.502105712890625,
          -0.023637546226382256,
          0.5365855693817139,
          0.5306688547134399,
          0.45982009172439575,
          -0.29065224528312683,
          0.03317215293645859,
          0.3641374707221985,
          -0.37235262989997864,
          0.5896463990211487,
          0.009869899600744247,
          -0.22745636105537415,
          -0.03715350478887558,
          -0.15317866206169128,
          0.4562153220176697,
          -0.016400964930653572,
          -0.32284095883369446,
          0.07798580825328827,
          0.06071983650326729,
          0.1273820698261261,
          -0.3895490765571594,
          0.049570731818675995,
          0.018207969143986702,
          0.16365045309066772,
          0.24434223771095276,
          -0.4899212718009949,
          -0.23496878147125244,
          -0.6561739444732666,
          0.06862669438123703,
          -0.3492109775543213,
          -0.03551154211163521
        ],
        [
          0.18367920815944672,
          -0.3209221363067627,
          -0.08203468471765518,
          0.4090103805065155,
          -0.113210029900074,
          -0.051485657691955566,
          0.2140340358018875,
          0.18203891813755035,
          -0.0012969064991921186,
          -0.2669203579425812,
          0.2861640453338623,
          -0.024197716265916824,
          0.014972448348999023,
          0.004683228209614754,
          -0.21354196965694427,
          -0.4074498414993286,
          0.03133348003029823,
          -0.16839203238487244,
          -0.13280056416988373,
          -0.021159427240490913,
          0.17212647199630737,
          -0.016524994745850563,
          0.3475772738456726,
          0.024410920217633247,
          -0.02627565711736679,
          -0.3454223573207855,
          0.0187887791544199,
          0.16375471651554108,
          -0.1617804318666458,
          0.008746640756726265,
          0.021344847977161407,
          0.0267441738396883,
          0.101336769759655,
          -0.09508393704891205,
          -0.3305439352989197,
          0.04754249379038811,
          -0.1494777947664261,
          -0.1826896220445633,
          -0.2103014886379242,
          -0.011333572678267956,
          0.19584344327449799,
          0.3752371072769165,
          -0.23054265975952148,
          -0.04208822920918465,
          0.03585853800177574,
          -0.020992858335375786,
          0.13427484035491943,
          -0.45947566628456116,
          -0.15110109746456146,
          0.041919559240341187,
          -0.16929380595684052,
          0.03104643151164055,
          -0.003961376380175352,
          -0.4027974009513855,
          -0.13318032026290894,
          -0.07482079416513443,
          -0.2607646584510803,
          -0.693686842918396,
          0.1271074414253235,
          0.3419360816478729,
          -0.07426457852125168,
          0.06871573626995087,
          0.030913662165403366,
          0.11333351582288742
        ],
        [
          0.10505862534046173,
          0.216279998421669,
          0.08026576042175293,
          -0.3900880813598633,
          -0.09098386764526367,
          0.3553667962551117,
          0.3993551433086395,
          -0.2610551118850708,
          0.06528043746948242,
          0.17228515446186066,
          -0.18930603563785553,
          -0.0022526418324559927,
          0.03369181230664253,
          0.03191399946808815,
          0.013652998022735119,
          0.01065097562968731,
          -0.2930707335472107,
          -0.006982828490436077,
          0.08353393524885178,
          -0.5164926648139954,
          0.5087377429008484,
          -0.7961374521255493,
          -0.2282181978225708,
          -0.0137418732047081,
          0.32876235246658325,
          0.1948125958442688,
          0.04718674719333649,
          0.1621084064245224,
          -0.15408632159233093,
          0.2874996066093445,
          -0.14932012557983398,
          -0.26594170928001404,
          -0.10176067054271698,
          0.3493647277355194,
          0.1657980978488922,
          0.042678553611040115,
          -0.419168084859848,
          0.06527676433324814,
          -0.39450621604919434,
          0.11390292644500732,
          0.04583750665187836,
          0.2765202820301056,
          -0.43417292833328247,
          0.00922210793942213,
          -0.061815809458494186,
          0.021655261516571045,
          0.06401652842760086,
          -0.3449709117412567,
          0.04380263015627861,
          -0.2345847636461258,
          -0.004558608401566744,
          -0.12135402113199234,
          -0.853674590587616,
          0.3853920102119446,
          -0.030923230573534966,
          -0.3915994465351105,
          -0.04800532013177872,
          -0.02678336575627327,
          0.34600141644477844,
          -0.19693982601165771,
          -0.035996466875076294,
          -0.02510444074869156,
          -0.12742893397808075,
          -0.007515116594731808
        ],
        [
          0.01355169527232647,
          0.09430772066116333,
          -0.3628771901130676,
          -0.007280529942363501,
          0.022518055513501167,
          -0.38324278593063354,
          0.33167997002601624,
          0.06696107238531113,
          0.08187944442033768,
          -0.10365434736013412,
          0.11202218383550644,
          -0.02409834787249565,
          -0.6090792417526245,
          -0.08421313017606735,
          -0.18172220885753632,
          -0.15934087336063385,
          0.500338077545166,
          0.0953594371676445,
          -0.5609351992607117,
          -0.041099123656749725,
          0.01114211417734623,
          0.01471809484064579,
          -0.1068471223115921,
          -0.05149406939744949,
          -0.5790523886680603,
          -0.2752360999584198,
          -0.7804555296897888,
          0.06440231204032898,
          -0.06458684802055359,
          0.075335294008255,
          -0.016147278249263763,
          0.03769535943865776,
          -0.1316685527563095,
          0.015673937276005745,
          -0.3023623526096344,
          -0.042825788259506226,
          0.3860119581222534,
          0.15012332797050476,
          -0.3395175635814667,
          -0.00022007011284586042,
          0.006694130599498749,
          -0.10104536265134811,
          -0.021798614412546158,
          -0.03495193272829056,
          -0.0005407101707533002,
          0.003950168844312429,
          0.2397904396057129,
          0.1281842291355133,
          0.21972690522670746,
          -0.03409342095255852,
          0.3147001266479492,
          0.1753704696893692,
          -0.0050370702520012856,
          0.008886796422302723,
          0.07213761657476425,
          0.1827845722436905,
          0.02147827111184597,
          0.03621149808168411,
          -0.3626123070716858,
          0.274238646030426,
          0.054543353617191315,
          -0.17252933979034424,
          0.006181235425174236,
          -0.5004521608352661
        ],
        [
          0.03964197263121605,
          0.14593900740146637,
          -0.0063958540558815,
          -0.15435682237148285,
          0.03953507915139198,
          0.24217118322849274,
          0.22362273931503296,
          -0.006989478599280119,
          -0.050701212137937546,
          -0.36163783073425293,
          0.37839511036872864,
          -0.08872738480567932,
          -0.22800561785697937,
          -0.10144581645727158,
          0.03071506880223751,
          -0.05824222043156624,
          0.33914831280708313,
          0.02090366557240486,
          0.03729293495416641,
          -0.02734374813735485,
          0.024652186781167984,
          0.017115525901317596,
          -0.16042518615722656,
          0.000853364821523428,
          -0.39519596099853516,
          0.03565593436360359,
          0.11798214912414551,
          0.4123079478740692,
          -0.4104387164115906,
          0.1218947172164917,
          -0.021992124617099762,
          0.010385353118181229,
          0.022271445021033287,
          0.025320647284388542,
          -0.14364901185035706,
          -0.011359118856489658,
          0.029656916856765747,
          0.029825225472450256,
          -0.23439958691596985,
          -0.6859574913978577,
          -0.062822125852108,
          -0.33671292662620544,
          -0.060135617852211,
          -0.05419363081455231,
          0.020807528868317604,
          -0.14684759080410004,
          0.04058228060603142,
          0.39543262124061584,
          -0.23237337172031403,
          -0.01972958818078041,
          -0.13005055487155914,
          0.12179119139909744,
          0.012589829973876476,
          0.16226796805858612,
          -0.056654222309589386,
          -0.2711080312728882,
          -0.09565302729606628,
          -0.0017188148340210319,
          -0.026809286326169968,
          -0.03510873392224312,
          0.004372247029095888,
          0.251640647649765,
          0.00846254825592041,
          0.19047856330871582
        ],
        [
          0.023404747247695923,
          0.20387031137943268,
          -0.009745622053742409,
          0.27196842432022095,
          0.047580987215042114,
          0.051566239446401596,
          0.0468643382191658,
          -0.07989444583654404,
          -0.11227359622716904,
          -0.2430560141801834,
          0.24619747698307037,
          -0.13172733783721924,
          -0.024117659777402878,
          -0.4645772874355316,
          0.007238570600748062,
          0.023698464035987854,
          0.027538089081645012,
          0.010951530188322067,
          -0.07587901502847672,
          0.03137369826436043,
          -0.005377377849072218,
          -0.006925678346306086,
          -0.22221413254737854,
          -0.023113109171390533,
          -0.03694743663072586,
          -0.025974560528993607,
          0.015419070608913898,
          0.4943174719810486,
          -0.4922318756580353,
          0.0010847049998119473,
          -0.026137663051486015,
          -0.03158457577228546,
          0.04884349927306175,
          -0.01740550436079502,
          0.0666804164648056,
          -0.04178788885474205,
          -0.09046468138694763,
          -0.029010582715272903,
          -0.05374637246131897,
          0.07689885050058365,
          -0.03505107760429382,
          -0.11677619814872742,
          0.016131801530718803,
          0.2664099633693695,
          -0.029866885393857956,
          -0.5474726557731628,
          0.05071637034416199,
          0.15472526848316193,
          0.04001225158572197,
          -0.028732923790812492,
          -0.0035513644106686115,
          0.0859759971499443,
          0.0044273133389651775,
          -0.26898983120918274,
          -0.026761867105960846,
          0.038087598979473114,
          0.09218679368495941,
          -0.038576021790504456,
          0.10106368362903595,
          0.02566971257328987,
          0.06349827349185944,
          -0.10407210886478424,
          -0.00697671202942729,
          -0.025616992264986038
        ],
        [
          -0.008850786834955215,
          0.09368089586496353,
          0.008424395695328712,
          0.09669487178325653,
          0.0288031455129385,
          -0.07386341691017151,
          -0.028310976922512054,
          0.13913777470588684,
          0.07729598134756088,
          0.16644325852394104,
          -0.1744336634874344,
          -0.08034767210483551,
          -0.014584946446120739,
          -0.16009216010570526,
          0.005025127436965704,
          0.06159716472029686,
          -0.051973436027765274,
          0.05567936599254608,
          0.06543444842100143,
          0.03972320631146431,
          -0.0033077748958021402,
          0.008061218075454235,
          -0.10232099890708923,
          0.007000977639108896,
          0.06923150271177292,
          -0.23562516272068024,
          -0.027910461649298668,
          0.35267120599746704,
          -0.3452492356300354,
          0.10664019733667374,
          -0.0499262809753418,
          -0.08604543656110764,
          0.05835360288619995,
          -0.01330561377108097,
          0.03341243043541908,
          -0.0371815524995327,
          -0.015493708662688732,
          0.024403829127550125,
          0.02809153124690056,
          0.006846392061561346,
          0.059334561228752136,
          -0.03012886643409729,
          0.041899845004081726,
          -0.010593868792057037,
          -0.09604167193174362,
          0.19143985211849213,
          -0.07179843634366989,
          0.036025520414114,
          -0.041609931737184525,
          -0.011968427337706089,
          0.0049839201383292675,
          -0.01570110023021698,
          0.014293933287262917,
          -0.09722030907869339,
          -0.10832813382148743,
          0.02104317583143711,
          0.04667223244905472,
          0.015742184594273567,
          0.01101111900061369,
          0.22449970245361328,
          0.04101518169045448,
          0.01073136180639267,
          -0.023173712193965912,
          0.02021719142794609
        ],
        [
          0.010956364683806896,
          -0.23989985883235931,
          0.04055808484554291,
          0.012498238123953342,
          0.0028290010523051023,
          -0.05000719800591469,
          0.06697012484073639,
          -0.005772274918854237,
          -0.015059098601341248,
          0.08983593434095383,
          -0.09114169329404831,
          -0.03361979499459267,
          -0.0026467496063560247,
          0.09119699895381927,
          0.03663870692253113,
          0.12830348312854767,
          0.020745545625686646,
          0.06737170368432999,
          -0.0017571840435266495,
          0.06565681844949722,
          0.005439187865704298,
          0.003334152279421687,
          0.2628021538257599,
          0.022106913849711418,
          -0.020157068967819214,
          0.04600975662469864,
          0.012348568066954613,
          0.2282322496175766,
          -0.22382324934005737,
          0.017296232283115387,
          -0.04889417067170143,
          -0.06572537124156952,
          -0.004359348677098751,
          -0.02272808738052845,
          0.04818933084607124,
          -0.11280955374240875,
          0.013606604188680649,
          0.007918893359601498,
          -0.06468722224235535,
          -0.00694387499243021,
          -0.02897709608078003,
          0.0580185167491436,
          0.02259107492864132,
          -0.032883379608392715,
          -0.16986392438411713,
          0.002311105141416192,
          0.0008269192185252905,
          -0.07046542316675186,
          -0.012645996175706387,
          0.048495177179574966,
          0.024008020758628845,
          0.03774339705705643,
          0.01565525121986866,
          -0.011969764716923237,
          -0.1030421257019043,
          -0.013735620304942131,
          0.07782575488090515,
          0.0026785917580127716,
          -0.01921715773642063,
          -0.04480781406164169,
          0.12548010051250458,
          -0.050340864807367325,
          -0.015275956131517887,
          -0.04836593568325043
        ],
        [
          -0.03149477019906044,
          -0.07875684648752213,
          0.0398569256067276,
          -0.08119544386863708,
          0.11134073883295059,
          -0.03518407791852951,
          0.13382120430469513,
          0.029733313247561455,
          -0.06369105726480484,
          -0.008061490021646023,
          0.015409309417009354,
          -0.014692871831357479,
          0.015403560362756252,
          -0.059664249420166016,
          0.1420368105173111,
          0.027814101427793503,
          0.03970346972346306,
          0.08521804958581924,
          0.041649553924798965,
          0.052161216735839844,
          0.014620239846408367,
          0.020638709887862206,
          0.0960966944694519,
          0.06941135972738266,
          -0.05069969967007637,
          -0.17405810952186584,
          0.012482859194278717,
          -0.002212186809629202,
          0.0011930520413443446,
          0.018871987238526344,
          -0.18227271735668182,
          -0.09992828220129013,
          0.049702927470207214,
          0.03530482202768326,
          0.08039937168359756,
          -0.05854915827512741,
          -0.012321913614869118,
          0.01729230023920536,
          -0.12889057397842407,
          0.01513404119759798,
          -0.02681015431880951,
          0.01792636699974537,
          0.042350661009550095,
          0.0071419826708734035,
          0.046956222504377365,
          -0.0012040616711601615,
          0.021873263642191887,
          -0.026095842942595482,
          0.022371472790837288,
          0.04783106595277786,
          -0.03713763505220413,
          -0.054170552641153336,
          0.0008720923215150833,
          0.08576177805662155,
          -0.18241557478904724,
          0.029891563579440117,
          0.0863686203956604,
          -0.011791727505624294,
          0.018169643357396126,
          0.17535361647605896,
          0.06993897259235382,
          -0.038364239037036896,
          -0.04589447006583214,
          -0.061443645507097244
        ],
        [
          -0.009308399632573128,
          -0.07221448421478271,
          0.011486913077533245,
          0.015864575281739235,
          0.012669493444263935,
          -0.06702856719493866,
          0.12510864436626434,
          0.025028206408023834,
          -0.0660078376531601,
          0.1185467541217804,
          -0.1196262314915657,
          -0.010530156083405018,
          0.022650515660643578,
          0.012370857410132885,
          0.0036277819890528917,
          0.08313795179128647,
          0.05186673626303673,
          0.027742566540837288,
          0.06556984782218933,
          0.0015875141834840178,
          0.005902059841901064,
          0.01831926219165325,
          0.07563426345586777,
          0.03348379209637642,
          -0.06403438001871109,
          -0.005589841399341822,
          -0.03777878358960152,
          -0.023645512759685516,
          0.022019945085048676,
          0.045296698808670044,
          0.04393796995282173,
          -0.16572363674640656,
          0.05229971185326576,
          -0.033606089651584625,
          -0.027966659516096115,
          -0.026892120018601418,
          0.023142045363783836,
          0.01593230478465557,
          -0.12334461510181427,
          0.017501316964626312,
          -0.06313164532184601,
          -0.01734388992190361,
          -0.006025165785104036,
          0.11650198698043823,
          0.02049698494374752,
          -0.018050668761134148,
          -0.0164243895560503,
          0.013281570747494698,
          -0.016829583793878555,
          0.08586885035037994,
          -0.051953066140413284,
          0.004657119046896696,
          0.003916287794709206,
          -0.011625179089605808,
          -0.14175675809383392,
          0.008957459591329098,
          -0.02556251734495163,
          -0.0020572335924953222,
          -0.03178347647190094,
          0.009148496203124523,
          0.04100317507982254,
          -0.00028366342303343117,
          -0.025026170536875725,
          0.019520137459039688
        ],
        [
          -0.008907155133783817,
          0.007147231139242649,
          0.019843094050884247,
          0.09433288872241974,
          0.028044648468494415,
          -0.02851923182606697,
          0.03522006794810295,
          -0.03394293412566185,
          0.027573203667998314,
          0.056829918175935745,
          -0.06189075857400894,
          0.017745591700077057,
          -0.016383038833737373,
          0.022609781473875046,
          0.06566249579191208,
          0.027717139571905136,
          0.004545077681541443,
          -0.00844698678702116,
          0.005600862670689821,
          -0.0044823382049798965,
          0.012687107548117638,
          0.010554670356214046,
          -0.0064062196761369705,
          -0.17841438949108124,
          -0.003004624741151929,
          -0.03405146300792694,
          0.01957440935075283,
          0.02434268593788147,
          -0.02304469235241413,
          -0.09059426188468933,
          0.05434634909033775,
          -0.020534873008728027,
          0.007714979816228151,
          0.017584756016731262,
          -0.05801085755228996,
          -0.0210470762103796,
          -0.0284876711666584,
          0.010692281648516655,
          -0.0413520522415638,
          0.012141251005232334,
          0.017182698473334312,
          -0.03786807134747505,
          -0.048842232674360275,
          -0.0026602032594382763,
          0.009959022514522076,
          4.52577842224855e-05,
          0.04109102487564087,
          0.041961733251810074,
          0.03699365258216858,
          0.03764377906918526,
          -0.08196191489696503,
          0.0481141097843647,
          0.0015737550565972924,
          -0.0904487669467926,
          -0.08266302198171616,
          0.06313478201627731,
          -0.0028087953105568886,
          0.027824047952890396,
          0.01650336943566799,
          0.031870096921920776,
          0.02243233099579811,
          -0.007340606767684221,
          -0.15279598534107208,
          -0.047611020505428314
        ]
      ],
      "b": [
        -0.2710113823413849,
        0.15764711797237396,
        0.08808554708957672,
        0.064170703291893,
        0.27356967329978943,
        -0.3815757930278778,
        0.24932004511356354,
        0.41199180483818054,
        0.5896557569503784,
        0.0025027706287801266,
        -0.00036996835842728615,
        0.06737782061100006,
        -0.30868643522262573,
        -0.25399839878082275,
        0.47107797861099243,
        -0.16073162853717804,
        0.32892364263534546,
        0.035378001630306244,
        -0.28113803267478943,
        0.040950287133455276,
        0.18967758119106293,
        -0.0985228568315506,
        -0.17052911221981049,
        0.22721712291240692,
        -0.37672632932662964,
        0.07597292214632034,
        -0.43082287907600403,
        0.1767759919166565,
        -0.176516592502594,
        -0.013292177580296993,
        -0.11948355287313461,
        0.027834201231598854,
        0.034282661974430084,
        -0.058744728565216064,
        -0.20859338343143463,
        0.06591260433197021,
        0.027922652661800385,
        0.2987910807132721,
        -0.23803408443927765,
        -0.38724321126937866,
        0.06881848722696304,
        -0.013699322938919067,
        -0.2804809510707855,
        0.38683390617370605,
        0.03262047842144966,
        -0.3721073269844055,
        0.32444941997528076,
        0.018065014854073524,
        0.08596228063106537,
        0.10862714797258377,
        0.44049423933029175,
        0.1573207527399063,
        -0.42426639795303345,
        -0.059536829590797424,
        -0.019507376477122307,
        -0.09382101893424988,
        0.5185372233390808,
        -0.36252015829086304,
        -0.023380815982818604,
        -0.07411924004554749,
        -0.06402722001075745,
        0.4972262382507324,
        -0.12305393815040588,
        -0.13999217748641968
      ],
      "act": null
    },
    {
      "W": null,
      "b": null,
      "act": "relu"
    },
    {
      "W": [
        [
          -0.018755292519927025,
          -2.473072052001953,
          0.26132476329803467,
          0.16950447857379913,
          -0.20906634628772736,
          0.1019827350974083,
          0.03769724816083908,
          -0.47014984488487244,
          -0.1395762413740158,
          0.32083380222320557,
          -0.15012450516223907,
          -0.06730497628450394,
          0.05579181760549545,
          0.13649897277355194,
          -0.1164235770702362,
          0.01415229495614767,
          -0.2834005355834961,
          -0.1292967051267624,
          -0.02974235638976097,
          0.05641884356737137,
          0.114293172955513,
          -0.3915959894657135,
          -0.25109410285949707,
          0.22923755645751953,
          0.18596233427524567,
          0.4652317762374878,
          0.016947291791439056,
          0.2587472200393677,
          0.10071218013763428,
          0.02551478147506714,
          -0.1369636207818985,
          -0.05358746647834778,
          -0.1785885989665985,
          0.05254299193620682,
          -0.0236399807035923,
          0.0835813507437706,
          0.10199710726737976,
          -0.07456206530332565,
          -0.22425627708435059,
          -0.16953569650650024,
          0.14428283274173737,
          -0.3829159140586853,
          -0.1402878761291504,
          -0.023774752393364906,
          -0.15916022658348083,
          -0.03631686046719551,
          0.14183703064918518,
          0.023076988756656647,
          0.060398269444704056,
          -1.256221890449524,
          0.038419704884290695,
          -0.18832549452781677,
          0.19071778655052185,
          -1.9716646671295166,
          -0.05278073251247406,
          -1.0765358209609985,
          -0.052235767245292664,
          -0.2127865105867386,
          0.04564866051077843,
          -0.9711097478866577,
          -0.387666791677475,
          0.31080079078674316,
          -0.22884176671504974,
          -0.03741413727402687
        ],
        [
          0.01667550764977932,
          -0.04441676661372185,
          -0.02910623885691166,
          -0.013853034004569054,
          -0.199692964553833,
          0.10085667669773102,
          0.0754743218421936,
          0.3152025640010834,
          -0.06002854183316231,
          0.3602200150489807,
          0.10567828267812729,
          0.2073361873626709,
          0.1299743801355362,
          -0.018529541790485382,
          -0.057559967041015625,
          0.007696497719734907,
          0.13290251791477203,
          0.0745711550116539,
          0.1724255383014679,
          -0.08819195628166199,
          -0.08046422153711319,
          -0.19466446340084076,
          0.24946092069149017,
          0.08167431503534317,
          -0.043963730335235596,
          0.22076541185379028,
          0.23209784924983978,
          -0.1309734731912613,
          -0.09294509142637253,
          -0.27101534605026245,
          0.04614325985312462,
          -0.050999078899621964,
          -0.3006128966808319,
          0.08347655087709427,
          0.004776022396981716,
          -0.05295255035161972,
          -0.13114601373672485,
          -0.008174239657819271,
          0.13520172238349915,
          -0.002073245821520686,
          0.05378337576985359,
          0.20696450769901276,
          0.2002931386232376,
          -0.4171581566333771,
          -0.011997271329164505,
          -0.2605258524417877,
          -0.011963780038058758,
          0.08713608980178833,
          -0.08344260603189468,
          -0.19461590051651,
          -0.005788637325167656,
          -0.2211514413356781,
          -0.0539950355887413,
          0.09526058286428452,
          -0.09434380382299423,
          0.2666357159614563,
          -0.07751528918743134,
          0.01000896468758583,
          0.03542190045118332,
          -0.2266911119222641,
          -0.13443851470947266,
          -0.18759751319885254,
          0.005814806558191776,
          -0.24255092442035675
        ],
        [
          -0.15342001616954803,
          0.025305945426225662,
          -0.05689632520079613,
          0.03324952349066734,
          0.06287351250648499,
          0.005324269644916058,
          0.19578084349632263,
          -0.13478584587574005,
          -0.01809527538716793,
          0.11948999762535095,
          -0.051631394773721695,
          -0.06944973766803741,
          -0.09316262602806091,
          0.16254302859306335,
          0.07790035754442215,
          0.0172240249812603,
          0.0670371726155281,
          0.03950332850217819,
          -0.0024276175536215305,
          -0.08363082259893417,
          -0.10568717122077942,
          -0.0014109221519902349,
          -0.11175227165222168,
          -0.038120754063129425,
          -0.07593324035406113,
          -0.16865181922912598,
          -0.005505288951098919,
          0.09437883645296097,
          0.09415694326162338,
          0.0873604491353035,
          0.038990430533885956,
          0.1013658195734024,
          0.07818938046693802,
          0.062053143978118896,
          0.04048524796962738,
          -0.05736926570534706,
          0.2835725247859955,
          0.10755103081464767,
          0.04332689940929413,
          -0.11021104454994202,
          0.17082202434539795,
          -0.09432217478752136,
          0.12432336062192917,
          -0.11030389368534088,
          0.15625260770320892,
          -0.09422982484102249,
          -0.04203430935740471,
          0.2669558525085449,
          0.05644451826810837,
          0.0705784484744072,
          0.08998268097639084,
          0.0287255197763443,
          0.0995628833770752,
          -0.06869657337665558,
          -0.10961350798606873,
          -0.053715892136096954,
          -0.10708057880401611,
          -0.017562076449394226,
          0.0018947506323456764,
          0.12598299980163574,
          0.044569071382284164,
          0.1268644481897354,
          -0.05535419285297394,
          0.06342118978500366
        ],
        [
          -0.18320174515247345,
          -0.10133928060531616,
          0.18159344792366028,
          0.07371953129768372,
          0.2186429798603058,
          -0.09437444061040878,
          0.09096686542034149,
          0.31716063618659973,
          -0.02988923341035843,
          0.015124941244721413,
          -0.16975826025009155,
          0.23147717118263245,
          0.0048231808468699455,
          0.016306066885590553,
          -0.07292761653661728,
          0.026501480489969254,
          -0.1454838067293167,
          0.11221298575401306,
          -0.1302589774131775,
          -0.05944568291306496,
          0.10687588155269623,
          0.1381637156009674,
          -0.12568044662475586,
          0.15620413422584534,
          0.2909627854824066,
          -0.7033793330192566,
          -0.0266935545951128,
          0.10966140776872635,
          -0.08075308799743652,
          -0.008741016499698162,
          0.0921771451830864,
          -0.034110426902770996,
          0.22686752676963806,
          -0.013309027999639511,
          0.3924122750759125,
          0.11681902408599854,
          -0.02827073447406292,
          0.16935774683952332,
          -0.03330502286553383,
          0.0019523323280736804,
          -0.10285638272762299,
          -0.16032452881336212,
          -0.13378766179084778,
          0.0389820896089077,
          0.1236531063914299,
          -0.242001011967659,
          0.11816155910491943,
          -0.050687920302152634,
          -0.11856342107057571,
          0.19296146929264069,
          -0.0007304294849745929,
          -0.02832677587866783,
          0.0420498363673687,
          0.11748933047056198,
          0.009602680802345276,
          -0.46997085213661194,
          -0.08289302885532379,
          0.3520381450653076,
          -0.035329997539520264,
          0.08310063928365707,
          0.34254947304725647,
          -0.04767846688628197,
          0.3070101737976074,
          0.29712074995040894
        ],
        [
          -0.12116917967796326,
          -0.045997265726327896,
          -0.0007100958609953523,
          0.13701051473617554,
          0.10688173770904541,
          -0.012731309980154037,
          0.03475932404398918,
          -0.05691918358206749,
          -0.12939494848251343,
          0.07340781390666962,
          0.010029852390289307,
          -0.010228965431451797,
          -0.07300785183906555,
          -0.06905590742826462,
          0.14601746201515198,
          0.04955605790019035,
          -0.03092285245656967,
          0.04596594348549843,
          0.20785680413246155,
          0.13656404614448547,
          0.09537922590970993,
          -0.0430520623922348,
          -0.011994818225502968,
          0.19545845687389374,
          0.1007155030965805,
          0.04034561291337013,
          0.05770473554730415,
          0.20464883744716644,
          0.12252607196569443,
          -0.07536112517118454,
          0.036688610911369324,
          0.16832420229911804,
          -0.007003643549978733,
          -0.021214032545685768,
          0.22166688740253448,
          -0.00062827009242028,
          0.06933392584323883,
          -0.028160657733678818,
          0.11727867275476456,
          -0.021657660603523254,
          -0.0035912690218538046,
          0.17594966292381287,
          0.04133474454283714,
          -0.09932810068130493,
          0.05271786451339722,
          -0.1371980756521225,
          0.07629750669002533,
          -0.06505074352025986,
          0.02852095291018486,
          -0.006478233728557825,
          0.01761936955153942,
          0.05350852757692337,
          0.07311338186264038,
          0.07173022627830505,
          -0.03306802734732628,
          0.05904557555913925,
          0.15699633955955505,
          -0.20427532494068146,
          0.1239265650510788,
          0.02225479669868946,
          0.10235527902841568,
          -0.08663908392190933,
          0.05007198825478554,
          0.13281576335430145
        ],
        [
          0.02718115970492363,
          0.03828948363661766,
          -0.12510597705841064,
          0.3220517933368683,
          -0.26829221844673157,
          0.0379955880343914,
          0.02847398817539215,
          -0.07159306854009628,
          -0.04921846464276314,
          0.20929519832134247,
          -0.27538830041885376,
          -0.1111292913556099,
          0.08592246472835541,
          0.07987140864133835,
          -0.04501543194055557,
          0.13230371475219727,
          -0.021292533725500107,
          -0.04503155127167702,
          0.0006899252766743302,
          0.01699526607990265,
          0.1492094248533249,
          0.07728297263383865,
          -0.17745280265808105,
          -0.14313223958015442,
          0.1684769243001938,
          0.02547248639166355,
          -0.024610107764601707,
          -0.13037775456905365,
          0.05706347897648811,
          -0.7864830493927002,
          -0.13083384931087494,
          -0.06418637186288834,
          0.09130151569843292,
          -0.0315745510160923,
          -0.3954235315322876,
          -0.1811591535806656,
          0.15821008384227753,
          -0.08491558581590652,
          -0.09111165255308151,
          -0.026433907449245453,
          0.004262707196176052,
          -0.0938924178481102,
          -0.04769493639469147,
          -0.14495663344860077,
          -0.05560344457626343,
          -0.21845252811908722,
          -0.12122344970703125,
          0.14898528158664703,
          -0.09765004366636276,
          -0.05786620080471039,
          0.03375672176480293,
          -0.21887622773647308,
          -0.34964895248413086,
          -0.4818677604198456,
          -0.09243562817573547,
          -0.31151533126831055,
          0.3409925699234009,
          -0.04153911769390106,
          0.1548968106508255,
          0.036989957094192505,
          -0.11166110634803772,
          0.3396856188774109,
          -0.12643136084079742,
          0.21924182772636414
        ],
        [
          -0.2887876033782959,
          0.35300299525260925,
          -0.26782333850860596,
          0.03334283083677292,
          -0.10659489780664444,
          -0.05706360191106796,
          -0.07070959359407425,
          0.13452227413654327,
          0.01125591155141592,
          -0.4575445353984833,
          -0.09542641043663025,
          -0.08597306907176971,
          0.27656492590904236,
          0.26034489274024963,
          0.0319208987057209,
          -0.07843775302171707,
          -0.139586940407753,
          0.20693939924240112,
          -0.2551797032356262,
          0.11546213179826736,
          -0.1439393013715744,
          -0.32612353563308716,
          -0.021974869072437286,
          -0.0983317643404007,
          -0.11890587955713272,
          -0.12320148944854736,
          0.006399370729923248,
          0.052030958235263824,
          0.08670175820589066,
          -0.3108757436275482,
          -0.02057790197432041,
          -0.02497716434299946,
          0.02104380540549755,
          -0.014480163343250751,
          -0.17550449073314667,
          -0.18078479170799255,
          -0.01911071501672268,
          -0.03544998914003372,
          0.23131798207759857,
          0.020353008061647415,
          0.0452195443212986,
          -0.007725261617451906,
          0.12990978360176086,
          -0.06461507827043533,
          -0.038276463747024536,
          -0.04585987702012062,
          -0.30042576789855957,
          0.019617276266217232,
          0.056076258420944214,
          0.04763294383883476,
          -0.04913932457566261,
          -0.05153767392039299,
          -0.044851645827293396,
          0.004142330028116703,
          -0.10323083400726318,
          0.02114187180995941,
          0.11008164286613464,
          0.1278112232685089,
          -0.05970951169729233,
          0.22488915920257568,
          0.17318812012672424,
          -0.08415789157152176,
          0.06252455711364746,
          -0.05640977993607521
        ],
        [
          0.057903680950403214,
          -0.45310601592063904,
          -0.04606328904628754,
          -0.030171457678079605,
          0.3013480007648468,
          -0.02503611147403717,
          -0.011171638034284115,
          -0.17853142321109772,
          -0.05423763394355774,
          -0.04372143745422363,
          0.084927499294281,
          0.1476956456899643,
          0.03536217659711838,
          -0.034736424684524536,
          0.02299964241683483,
          0.061490748077631,
          -0.07161703705787659,
          -0.012770792469382286,
          -0.04452018812298775,
          -0.12683849036693573,
          -0.05194832757115364,
          0.1235446184873581,
          0.15927840769290924,
          0.09031993895769119,
          0.030835630372166634,
          -0.16803164780139923,
          -0.06466389447450638,
          0.010835633613169193,
          -0.003598557785153389,
          -0.009900694712996483,
          0.05677691102027893,
          0.05503655970096588,
          0.20518741011619568,
          0.11105839908123016,
          0.10508356988430023,
          0.19060900807380676,
          0.014948481693863869,
          -0.04053507745265961,
          0.05566311255097389,
          0.3635164797306061,
          0.11822821199893951,
          0.004739734344184399,
          0.14509838819503784,
          0.08474177867174149,
          -0.02865329384803772,
          0.1119370386004448,
          0.09439720213413239,
          0.08942653238773346,
          -0.031092045828700066,
          -0.2813650667667389,
          0.14659106731414795,
          0.07765479385852814,
          0.03672264516353607,
          -0.16076713800430298,
          0.09702210873365402,
          -0.24203403294086456,
          0.08347608149051666,
          -0.10103164613246918,
          0.021232658997178078,
          -0.10637323558330536,
          0.07810600101947784,
          -0.12105201184749603,
          0.16396760940551758,
          0.1981016844511032
        ],
        [
          -0.030839283019304276,
          0.11587326228618622,
          0.0674094632267952,
          0.1737661510705948,
          0.17313413321971893,
          -0.08971554040908813,
          0.08519861102104187,
          0.009257433004677296,
          -0.08506017923355103,
          0.1868450939655304,
          0.00883585587143898,
          -0.13747398555278778,
          0.14241757988929749,
          0.07132330536842346,
          0.05319200083613396,
          -0.05972243845462799,
          0.06951700150966644,
          -0.0929393321275711,
          -0.07123978435993195,
          0.1765667200088501,
          0.17361149191856384,
          -0.3392181396484375,
          0.2781940996646881,
          0.04983359947800636,
          0.047157030552625656,
          -0.5687656402587891,
          0.03754777833819389,
          0.10949503630399704,
          0.29411572217941284,
          -0.19816622138023376,
          0.13693319261074066,
          -0.03369291499257088,
          0.03985375910997391,
          -0.02413182705640793,
          0.10652212053537369,
          0.19418029487133026,
          0.05448392033576965,
          -0.03921310976147652,
          0.2823393940925598,
          0.07813937216997147,
          -0.07136144489049911,
          0.08257204294204712,
          0.24953505396842957,
          0.05474989116191864,
          0.07004199177026749,
          0.20967726409435272,
          -0.3124960958957672,
          -0.11748528480529785,
          0.0586821548640728,
          0.0264043677598238,
          -0.015515358187258244,
          0.07010740041732788,
          0.038060512393713,
          0.10356296598911285,
          0.06908994168043137,
          -0.07419915497303009,
          0.024478737264871597,
          0.23258373141288757,
          0.0031633658800274134,
          0.15204358100891113,
          0.17850615084171295,
          -0.14948758482933044,
          0.18936306238174438,
          0.17088191211223602
        ],
        [
          -0.15521810948848724,
          -0.16428987681865692,
          -0.08379722386598587,
          -0.17553257942199707,
          -0.07884188741445541,
          0.008365930989384651,
          0.12373816967010498,
          -0.39113953709602356,
          -0.11421215534210205,
          -0.06623393297195435,
          -0.016848457977175713,
          0.3071441352367401,
          0.17604391276836395,
          0.032361455261707306,
          -0.12298856675624847,
          0.33553487062454224,
          0.2403508424758911,
          -0.07694346457719803,
          0.0989077016711235,
          -0.19515834748744965,
          -0.006695831660181284,
          -0.03147288039326668,
          0.1417248547077179,
          -0.12193156778812408,
          0.23461702466011047,
          0.30456480383872986,
          -0.04679005965590477,
          0.08654104918241501,
          -0.07558799535036087,
          -0.09372220188379288,
          0.022534482181072235,
          0.05246682092547417,
          -0.1314895749092102,
          -0.0753871276974678,
          -0.36340487003326416,
          0.05192087963223457,
          -0.10014836490154266,
          0.152800053358078,
          0.09242269396781921,
          0.3014524579048157,
          -0.046854350715875626,
          -0.003078135894611478,
          0.16246387362480164,
          -0.049647051841020584,
          0.18512555956840515,
          -0.12467774748802185,
          -0.03169519081711769,
          0.05546753108501434,
          -0.2656617760658264,
          0.03485347703099251,
          0.2727625072002411,
          -0.2789899408817291,
          0.1364840716123581,
          -0.11337030678987503,
          -0.031829819083213806,
          0.23254112899303436,
          0.1083153709769249,
          -0.03171291574835777,
          -0.07429610937833786,
          0.1372324675321579,
          -0.16004259884357452,
          0.03319530189037323,
          -0.20408958196640015,
          -0.1034790500998497
        ],
        [
          0.21461035311222076,
          0.10367695987224579,
          0.2341538965702057,
          0.35114505887031555,
          -0.05209805443882942,
          -0.08261699229478836,
          0.0836113840341568,
          0.328824907541275,
          0.2802058458328247,
          0.16409039497375488,
          0.15689705312252045,
          -0.27589184045791626,
          0.13328766822814941,
          -0.043969254940748215,
          0.11817837506532669,
          -0.020218688994646072,
          -0.164415180683136,
          0.36224105954170227,
          -0.008449831046164036,
          0.08381159603595734,
          -0.006347919814288616,
          0.04563945531845093,
          -0.059773802757263184,
          0.1946284919977188,
          -0.06287484616041183,
          -0.328139990568161,
          -0.17155224084854126,
          -0.027841290459036827,
          0.07558523863554001,
          0.10931548476219177,
          0.0269303135573864,
          0.009852968156337738,
          0.10926799476146698,
          0.04665772616863251,
          -0.2492068111896515,
          -0.031053943559527397,
          -0.000362683116691187,
          -0.12396232038736343,
          0.07687129080295563,
          -0.4501214027404785,
          0.010454355739057064,
          -0.12101542204618454,
          -0.14881013333797455,
          -0.06059980019927025,
          -0.02981116808950901,
          0.09261991083621979,
          -0.025135884061455727,
          -0.04772946983575821,
          0.03966199979186058,
          0.19053196907043457,
          0.004887493327260017,
          0.1249314546585083,
          -0.23425839841365814,
          -0.13560058176517487,
          -0.06314695626497269,
          -0.11285177618265152,
          0.0368487648665905,
          -0.11875956505537033,
          -0.12264618277549744,
          -0.12275698781013489,
          0.17619754374027252,
          -0.014168812893331051,
          0.01800115779042244,
          0.18970803916454315
        ],
        [
          -0.042187683284282684,
          0.008421249687671661,
          -0.035272594541311264,
          -0.2515048384666443,
          0.052663855254650116,
          -0.009184684604406357,
          0.008115171454846859,
          -0.043178971856832504,
          -0.04563741013407707,
          0.034310635179281235,
          0.11803159862756729,
          0.0549277700483799,
          -0.03586775064468384,
          0.014864359050989151,
          0.052100490778684616,
          0.08827333152294159,
          -0.007840132340788841,
          -0.032288212329149246,
          0.06500067561864853,
          0.11398258060216904,
          0.0691203698515892,
          0.07144030928611755,
          0.08552303910255432,
          -0.09866121411323547,
          -0.07971006631851196,
          0.040976401418447495,
          -0.009128304198384285,
          0.005792592186480761,
          0.20911134779453278,
          -0.15687380731105804,
          0.00353830773383379,
          0.2233160138130188,
          0.12728899717330933,
          -0.06290246546268463,
          -0.17850995063781738,
          0.12645192444324493,
          -0.007699307054281235,
          -0.030706321820616722,
          0.19584694504737854,
          0.052627455443143845,
          0.12072136253118515,
          -0.026348916813731194,
          -0.04403771087527275,
          0.22553850710391998,
          0.058586832135915756,
          0.03764399141073227,
          0.07431277632713318,
          0.06373012065887451,
          0.118832066655159,
          -0.03954803943634033,
          0.08712854236364365,
          0.13531360030174255,
          -0.06229310482740402,
          -0.37959086894989014,
          -0.038553617894649506,
          -0.0052445875480771065,
          0.05947088450193405,
          -0.000997339142486453,
          0.10985720157623291,
          -0.05088866502046585,
          0.13404372334480286,
          -0.01048980187624693,
          0.08953019231557846,
          0.0296962670981884
        ],
        [
          -0.011971306055784225,
          -0.07725781947374344,
          0.05964997038245201,
          0.027527904137969017,
          -0.23834151029586792,
          0.0861893892288208,
          0.0720394179224968,
          0.13462531566619873,
          -0.0057237218134105206,
          0.02637816220521927,
          -0.08087384700775146,
          -0.07098603248596191,
          0.015344569459557533,
          0.07793799787759781,
          0.01172241847962141,
          0.11209423094987869,
          -0.13656415045261383,
          -0.08672743290662766,
          0.010151488706469536,
          -0.045473020523786545,
          0.019349776208400726,
          -0.09347467124462128,
          -0.04018402844667435,
          -0.032692160457372665,
          0.02472555637359619,
          0.044542696326971054,
          0.14920061826705933,
          -0.0974845215678215,
          0.082636259496212,
          0.06081940606236458,
          -0.033268995583057404,
          -0.2528708577156067,
          0.1719895899295807,
          -0.013724349439144135,
          0.11611615121364594,
          -0.052758075296878815,
          0.15697601437568665,
          0.041617877781391144,
          0.09777070581912994,
          -0.11870302259922028,
          -0.054044708609580994,
          -0.04988762363791466,
          0.043412476778030396,
          0.14529098570346832,
          0.23743747174739838,
          -0.0927228331565857,
          0.16395165026187897,
          0.08630246669054031,
          -0.09203449636697769,
          0.2234102487564087,
          0.04733709618449211,
          0.2916603684425354,
          0.1843038946390152,
          0.2478792369365692,
          0.012546979822218418,
          -0.06932534277439117,
          -0.019658571109175682,
          -0.349360853433609,
          0.13032948970794678,
          -0.09529642760753632,
          -0.06254465132951736,
          0.2643492519855499,
          -0.07726813852787018,
          0.051217302680015564
        ],
        [
          0.022494303062558174,
          -0.17597892880439758,
          -0.06321974098682404,
          0.10066244751214981,
          -0.22501279413700104,
          0.1806076318025589,
          0.04373261705040932,
          0.06234505772590637,
          0.05892447754740715,
          0.04780969023704529,
          -0.31231406331062317,
          -0.013947069644927979,
          -0.2842523157596588,
          -0.07258106023073196,
          -0.019122235476970673,
          0.27084293961524963,
          -0.08870607614517212,
          0.10017578303813934,
          -0.036832407116889954,
          -0.06507552415132523,
          0.4324128031730652,
          -0.01852087862789631,
          -0.23146161437034607,
          0.12210039794445038,
          0.09208640456199646,
          -0.236039936542511,
          -0.04051656275987625,
          0.27415746450424194,
          0.1462024599313736,
          0.08341402560472488,
          -0.13215015828609467,
          -0.08102206140756607,
          -0.0923631489276886,
          0.08067085593938828,
          0.18024222552776337,
          -0.10002632439136505,
          0.05928727984428406,
          -0.11584040522575378,
          -0.03372691944241524,
          0.2532700002193451,
          0.26976147294044495,
          -0.040561649948358536,
          0.24880312383174896,
          0.055736735463142395,
          -0.05211429297924042,
          -0.00039781478699296713,
          -0.09832217544317245,
          -0.0005804244428873062,
          0.2816765606403351,
          0.6030197143554688,
          -0.0073567102663218975,
          -0.17943643033504486,
          -0.06043119728565216,
          -0.28222936391830444,
          -0.05842067301273346,
          -0.29005369544029236,
          0.02929549850523472,
          0.4431050717830658,
          -0.1814153790473938,
          -0.05136599391698837,
          -0.12348014116287231,
          -0.04762227088212967,
          0.1739639788866043,
          -0.05930880829691887
        ],
        [
          -0.13338887691497803,
          -0.3189393877983093,
          -0.08464851975440979,
          -6.282809772528708e-05,
          0.1077701598405838,
          0.03230860084295273,
          -0.017792917788028717,
          -0.04179966822266579,
          -0.10754391551017761,
          -0.03876428306102753,
          0.35742810368537903,
          0.012082676403224468,
          -0.12175324559211731,
          0.018397120758891106,
          0.07130374014377594,
          0.005188380368053913,
          0.23162420094013214,
          0.14894025027751923,
          0.17964158952236176,
          0.0303167924284935,
          0.01675785891711712,
          -0.23296603560447693,
          -0.19496144354343414,
          0.11256441473960876,
          0.17389464378356934,
          0.014535890892148018,
          0.05276869609951973,
          0.057389356195926666,
          0.021603567525744438,
          -0.06597691029310226,
          0.1389424353837967,
          0.025930950418114662,
          -0.0003354029031470418,
          -0.042248181998729706,
          -0.0021206967066973448,
          0.10042528808116913,
          0.11779692769050598,
          0.061813656240701675,
          0.006905287504196167,
          0.13713808357715607,
          0.08340753614902496,
          0.13741926848888397,
          0.05353193357586861,
          0.37033385038375854,
          0.312930166721344,
          0.3273153007030487,
          0.05908793583512306,
          0.1694881170988083,
          0.15879063308238983,
          -0.07799980789422989,
          0.11071182042360306,
          0.15842187404632568,
          0.09723792225122452,
          -0.12791578471660614,
          -0.09552919864654541,
          -0.005567606072872877,
          0.0430704727768898,
          -0.20390158891677856,
          0.20385749638080597,
          0.07101715356111526,
          -0.1138695701956749,
          -0.08249427378177643,
          -0.11657294631004333,
          0.022191230207681656
        ],
        [
          0.019005009904503822,
          -0.4671897292137146,
          0.04665073752403259,
          0.12279508262872696,
          -0.10289372503757477,
          0.02356874570250511,
          -0.13268941640853882,
          0.029530184343457222,
          -0.10902561247348785,
          -0.1590156853199005,
          -0.13284480571746826,
          0.08241163194179535,
          0.03359810262918472,
          0.12122812122106552,
          0.10832647234201431,
          0.06314049661159515,
          0.2646297216415405,
          0.03209439292550087,
          -0.04621212184429169,
          -0.06962797045707703,
          0.005345491226762533,
          -0.1509741246700287,
          0.2169095128774643,
          -0.16258814930915833,
          -0.18030089139938354,
          0.26252543926239014,
          0.03415944054722786,
          0.0672447681427002,
          -0.06062167510390282,
          -0.08284737914800644,
          -0.07846029102802277,
          0.09526954591274261,
          -0.012928670272231102,
          0.08579438924789429,
          -0.7103846669197083,
          -0.027547510340809822,
          -0.020245768129825592,
          -0.027017079293727875,
          0.13679184019565582,
          -0.08811347186565399,
          0.0988498330116272,
          0.3095700144767761,
          -0.2645149528980255,
          -0.05155927687883377,
          0.08986036479473114,
          0.06583098322153091,
          0.01887764222919941,
          0.07677305489778519,
          -0.03641339763998985,
          0.544421374797821,
          0.06025807559490204,
          -0.006815189030021429,
          0.015235799364745617,
          0.03276224806904793,
          -0.05996870994567871,
          0.24815702438354492,
          0.02142651006579399,
          -0.007550136186182499,
          0.10737847536802292,
          -0.13118012249469757,
          0.2829580008983612,
          0.17846530675888062,
          0.12017852813005447,
          0.0199262835085392
        ],
        [
          0.05990418419241905,
          -0.24784719944000244,
          0.137124702334404,
          -0.20647823810577393,
          0.09448743611574173,
          0.012142014689743519,
          -0.19142696261405945,
          -0.015887871384620667,
          0.08550364524126053,
          0.22064553201198578,
          -0.1425788551568985,
          0.2257043421268463,
          0.3756837248802185,
          0.09728104621171951,
          0.08233404904603958,
          0.04684722423553467,
          0.040262479335069656,
          0.27364233136177063,
          -0.04205048829317093,
          -0.1052544042468071,
          -0.10146288573741913,
          0.20452554523944855,
          0.09863767772912979,
          -0.16363725066184998,
          -0.1903315782546997,
          0.11973361670970917,
          0.14042940735816956,
          0.003781719831749797,
          -0.014465147629380226,
          0.05312511324882507,
          0.1037708967924118,
          -0.08781061321496964,
          0.08605270832777023,
          0.22856880724430084,
          -0.040902458131313324,
          0.1940201222896576,
          -0.17460337281227112,
          -0.208484947681427,
          -0.09689926356077194,
          0.015337081626057625,
          0.2603043019771576,
          0.10198666900396347,
          -0.0688583180308342,
          0.1287316530942917,
          -0.15464970469474792,
          0.11781491339206696,
          0.0058601731434464455,
          -0.03790321573615074,
          -0.05285002291202545,
          -0.26104822754859924,
          -0.09533528983592987,
          -0.056943878531455994,
          -0.22928380966186523,
          -0.06619491428136826,
          -0.08688967674970627,
          -0.15573911368846893,
          0.36784955859184265,
          0.11827852576971054,
          -0.08007383346557617,
          -0.2751119136810303,
          -0.025336919352412224,
          -0.10969278216362,
          -0.10327455401420593,
          -0.07886598259210587
        ],
        [
          0.06510338187217712,
          0.14850513637065887,
          -0.002017553895711899,
          0.12308039516210556,
          -0.1445726454257965,
          0.07113853842020035,
          -0.0630183145403862,
          -0.04914802685379982,
          0.10869333148002625,
          0.04413065314292908,
          0.04057783633470535,
          0.05032045766711235,
          0.014189903624355793,
          0.024014906957745552,
          0.0377010703086853,
          0.06631732732057571,
          0.0605742521584034,
          -0.09566117078065872,
          0.179374560713768,
          0.03821295499801636,
          0.03471769765019417,
          0.06530492752790451,
          -0.11406464129686356,
          0.09537423402070999,
          0.04376402497291565,
          -0.0017311846604570746,
          0.04259724169969559,
          0.09562677890062332,
          -0.016835886985063553,
          0.16772052645683289,
          -0.06726255267858505,
          -0.10571319609880447,
          0.09826739132404327,
          0.0024090944789350033,
          0.02781980112195015,
          0.008380115032196045,
          -0.09080574661493301,
          -0.03621837869286537,
          0.04301631450653076,
          -0.050074733793735504,
          -0.044065020978450775,
          0.10698840767145157,
          0.12421615421772003,
          0.03673308715224266,
          -0.03958772122859955,
          -0.07667198032140732,
          0.12663106620311737,
          -0.04577740281820297,
          -0.06921778619289398,
          -0.00048414873890578747,
          0.058921728283166885,
          0.00040766774327494204,
          0.16017033159732819,
          0.03463612124323845,
          0.05417440086603165,
          0.15216374397277832,
          0.09086994081735611,
          0.05772489309310913,
          0.10738836973905563,
          0.24167518317699432,
          0.12033143639564514,
          -0.12368956208229065,
          -0.0606541633605957,
          0.1449170559644699
        ],
        [
          -0.08588995039463043,
          0.017350731417536736,
          -0.11357436329126358,
          -0.08315230906009674,
          -0.24384333193302155,
          -0.13920891284942627,
          0.016957396641373634,
          0.08717574924230576,
          -0.16003355383872986,
          -0.171559140086174,
          -0.10256138443946838,
          -0.10584326833486557,
          -0.0649881362915039,
          0.08979004621505737,
          0.12191014736890793,
          -0.06208305060863495,
          -0.08707042038440704,
          -0.07379042357206345,
          -0.041430868208408356,
          -0.0800783559679985,
          0.18522460758686066,
          0.08907472342252731,
          0.03008175827562809,
          -0.15242339670658112,
          -0.25113150477409363,
          0.03006303682923317,
          -0.08387988805770874,
          0.1188817024230957,
          0.09692880511283875,
          0.09633960574865341,
          -0.1058053970336914,
          -0.016172945499420166,
          0.12118817865848541,
          -0.020540816709399223,
          -0.024463748559355736,
          -0.1601075828075409,
          0.3031453490257263,
          -0.16771797835826874,
          -0.19200828671455383,
          0.10259900242090225,
          -0.06119822710752487,
          -0.10531268268823624,
          -0.02143923006951809,
          -0.20287244021892548,
          0.04782075807452202,
          -0.015138708055019379,
          0.049855638295412064,
          0.07174940407276154,
          0.18265703320503235,
          0.0791664645075798,
          0.10881111770868301,
          -0.006738683208823204,
          0.07573641836643219,
          -0.282970130443573,
          -0.037712663412094116,
          -0.0008361380896531045,
          0.060466643422842026,
          -0.37550288438796997,
          0.13780075311660767,
          0.09353546798229218,
          -0.055676545947790146,
          0.11526382714509964,
          -0.1468801498413086,
          -0.03947336599230766
        ],
        [
          0.002406860701739788,
          0.37123358249664307,
          -0.0338624007999897,
          0.1426916867494583,
          -0.08100266009569168,
          -0.043872371315956116,
          -0.030852876603603363,
          0.10310293734073639,
          0.044779181480407715,
          -0.14139647781848907,
          -0.18551576137542725,
          0.03005901724100113,
          -0.15529178082942963,
          0.022820204496383667,
          0.1327058970928192,
          0.11817695945501328,
          0.06195025518536568,
          0.11499191075563431,
          0.04374923184514046,
          0.24063830077648163,
          0.25281500816345215,
          0.3052549958229065,
          0.40408000349998474,
          0.03370046988129616,
          0.0755649283528328,
          0.10501712560653687,
          -0.019844509661197662,
          -0.20421627163887024,
          -0.021283471956849098,
          0.050292305648326874,
          -0.16393239796161652,
          0.028857136145234108,
          -0.16280010342597961,
          -0.06748945266008377,
          -0.09227786958217621,
          -0.017633063718676567,
          0.035798221826553345,
          0.08357058465480804,
          -0.11416543275117874,
          0.12574602663516998,
          -0.01666381023824215,
          -0.006641400512307882,
          0.0665631890296936,
          0.26045554876327515,
          -0.03941283002495766,
          -0.11121067404747009,
          0.1987067610025406,
          0.1850588321685791,
          0.10103260725736618,
          0.04522651061415672,
          -0.1825537532567978,
          0.2782670259475708,
          -0.08648217469453812,
          -0.17034251987934113,
          0.058140210807323456,
          -0.07700992375612259,
          0.14346684515476227,
          -0.14711405336856842,
          -0.2048921287059784,
          -0.4428233504295349,
          -0.20619013905525208,
          0.21869058907032013,
          0.13175439834594727,
          -0.1818881630897522
        ],
        [
          0.06505165249109268,
          -0.027168672531843185,
          0.07456928491592407,
          0.0027608228847384453,
          -0.11201895028352737,
          -0.34629181027412415,
          -0.11514314264059067,
          0.05030101165175438,
          -0.028890691697597504,
          0.022333262488245964,
          0.03206457570195198,
          0.16080458462238312,
          -0.03986513614654541,
          0.2959303855895996,
          -0.16530077159404755,
          0.1027587503194809,
          -0.11696238815784454,
          0.11681242287158966,
          -0.056373097002506256,
          0.05748656764626503,
          0.03388631343841553,
          0.06378369778394699,
          0.0673469677567482,
          -0.10136529058218002,
          0.17149582505226135,
          -0.1456550508737564,
          0.018018394708633423,
          -0.15106801688671112,
          -0.04830148443579674,
          -0.04299629479646683,
          -0.08601237088441849,
          0.1871194988489151,
          0.1329255849123001,
          0.0803888812661171,
          -0.053284503519535065,
          -0.05709488317370415,
          -0.002691817469894886,
          0.0837044045329094,
          0.15469060838222504,
          0.07669636607170105,
          0.248162180185318,
          -0.09331811219453812,
          -0.11755445599555969,
          -0.1493622064590454,
          0.02113095484673977,
          0.1443393975496292,
          0.36922594904899597,
          0.09923598915338516,
          0.030429087579250336,
          -0.11098267138004303,
          -0.030059874057769775,
          0.17364345490932465,
          0.18918082118034363,
          -0.11512736231088638,
          -0.03337058424949646,
          -0.36515024304389954,
          0.03773374855518341,
          -0.10763674974441528,
          0.03152834624052048,
          -0.3313574492931366,
          0.10578378289937973,
          0.023179732263088226,
          0.20598073303699493,
          -0.06641648709774017
        ],
        [
          0.03239243105053902,
          -0.5504986643791199,
          0.09534016251564026,
          -0.01291322335600853,
          -0.09945712238550186,
          -0.10361021012067795,
          -0.08357595652341843,
          -0.05576884001493454,
          0.039761982858181,
          0.23135507106781006,
          -0.05244538187980652,
          0.09875927865505219,
          -0.08781944215297699,
          -0.2494255006313324,
          -0.15433341264724731,
          0.09677476435899734,
          -0.09937627613544464,
          0.17469137907028198,
          0.028526943176984787,
          -0.08686444908380508,
          0.007754337973892689,
          0.42441490292549133,
          0.11945171654224396,
          -0.06172644719481468,
          0.13258878886699677,
          -0.10529866814613342,
          -0.1595967710018158,
          -0.102435402572155,
          -0.15655986964702606,
          0.4446958899497986,
          -0.15416927635669708,
          0.007064767647534609,
          -0.11701785027980804,
          0.03703127056360245,
          0.07569128274917603,
          0.1456914246082306,
          0.03321145102381706,
          -0.03037126548588276,
          -0.10141956061124802,
          -0.020185772329568863,
          0.10285673290491104,
          -0.21695837378501892,
          -0.08626081049442291,
          -0.044428158551454544,
          0.01260523684322834,
          0.13839931786060333,
          0.3854677379131317,
          -0.016533266752958298,
          0.26485857367515564,
          -0.08870824426412582,
          0.03956519067287445,
          0.24129727482795715,
          0.04569617286324501,
          -0.15018624067306519,
          -0.0140153169631958,
          -0.43236520886421204,
          0.19351883232593536,
          -0.08085713535547256,
          0.031087813898921013,
          -0.016595035791397095,
          -0.07080014050006866,
          0.26842209696769714,
          0.018672632053494453,
          -0.24073448777198792
        ],
        [
          -0.061816129833459854,
          0.010276679880917072,
          0.06974977254867554,
          -0.09457400441169739,
          0.2874714434146881,
          0.013265653513371944,
          -0.054578881710767746,
          -0.26534080505371094,
          0.03374608978629112,
          -0.14228880405426025,
          -0.0256756991147995,
          -0.24564975500106812,
          0.1497413069009781,
          0.06573593616485596,
          -0.07155460119247437,
          0.19620932638645172,
          -0.1847093403339386,
          -0.011370837688446045,
          -0.11780406534671783,
          0.03833598271012306,
          0.02439773827791214,
          0.11956215649843216,
          -0.300473690032959,
          -0.062048155814409256,
          0.0683605894446373,
          -0.555122971534729,
          -0.04634688422083855,
          0.050675246864557266,
          0.1142602264881134,
          0.23429813981056213,
          -0.07667600363492966,
          0.14342278242111206,
          -0.1481555551290512,
          -0.13214273750782013,
          0.37090182304382324,
          -0.024718433618545532,
          0.06474675238132477,
          0.017439888790249825,
          0.0887291207909584,
          0.006961428094655275,
          -0.03127733990550041,
          -0.16046220064163208,
          -0.16903115808963776,
          0.3169497847557068,
          0.16504094004631042,
          0.3408643305301666,
          0.09984662383794785,
          0.055652085691690445,
          -0.08883562684059143,
          0.1261259913444519,
          0.02211219258606434,
          -0.0778377428650856,
          -0.003378921654075384,
          0.26120924949645996,
          0.044252797961235046,
          -0.3830646574497223,
          0.08977584540843964,
          -0.04581689462065697,
          -0.011145280674099922,
          0.09517675638198853,
          0.32888635993003845,
          0.038509711623191833,
          -0.001515804324299097,
          0.3166579008102417
        ],
        [
          0.5312753319740295,
          -0.24608714878559113,
          0.06064214929938316,
          0.05327940732240677,
          0.129723459482193,
          0.1276465356349945,
          0.08795333653688431,
          -0.007845040410757065,
          0.02346351183950901,
          -0.08043543249368668,
          -0.17911496758460999,
          -0.1797139048576355,
          0.12041977047920227,
          0.058360982686281204,
          0.10902753472328186,
          0.11845939606428146,
          0.09360037744045258,
          0.12080325931310654,
          -0.1634574681520462,
          0.023616349324584007,
          -0.29598793387413025,
          -0.05120720714330673,
          0.05015701800584793,
          0.1416148990392685,
          -0.026239806786179543,
          -0.08279190957546234,
          0.00641392357647419,
          0.0905442014336586,
          -0.04675464332103729,
          -0.08498633652925491,
          -0.005230535287410021,
          0.025037109851837158,
          0.07888301461935043,
          0.08023225516080856,
          -0.16457119584083557,
          0.03525055944919586,
          0.1774035394191742,
          0.1566542685031891,
          0.05425408110022545,
          0.11456871777772903,
          0.016498027369379997,
          -0.0064856866374611855,
          -0.014909113757312298,
          0.0065926918759942055,
          0.2426326721906662,
          0.056585539132356644,
          -0.018754342570900917,
          0.13915346562862396,
          0.0983865037560463,
          -0.13726946711540222,
          0.023099778220057487,
          0.06270082294940948,
          0.033559199422597885,
          -0.24340340495109558,
          -0.014974633231759071,
          -0.08942826837301254,
          -0.09175603091716766,
          0.02952379733324051,
          0.15798811614513397,
          0.11440975964069366,
          0.10836125165224075,
          0.014683285728096962,
          0.2482200562953949,
          0.11803051084280014
        ],
        [
          -0.02476518414914608,
          0.1685941070318222,
          -0.061829086393117905,
          0.29810699820518494,
          -0.1395416110754013,
          -0.051797494292259216,
          0.19063732028007507,
          -0.19030366837978363,
          -0.03134060651063919,
          -0.20635837316513062,
          0.1390322893857956,
          -0.171335369348526,
          -0.24703620374202728,
          -0.07300333678722382,
          -0.08128206431865692,
          -0.1345008909702301,
          -0.08227484673261642,
          -0.17818064987659454,
          0.11888747662305832,
          0.014747277833521366,
          0.1323593705892563,
          -0.08687300235033035,
          -0.042981285601854324,
          0.1273094266653061,
          0.35359707474708557,
          -0.09004322439432144,
          -0.11846302449703217,
          -0.019625289365649223,
          0.04799173027276993,
          -0.3292351961135864,
          -0.06643225252628326,
          -0.09729443490505219,
          -0.44473797082901,
          0.032703012228012085,
          -0.025260405614972115,
          -0.21394050121307373,
          0.0010754360118880868,
          0.2509162724018097,
          0.29837334156036377,
          -0.17598441243171692,
          -0.07179293036460876,
          -0.10948106646537781,
          -0.3220756947994232,
          -0.19195760786533356,
          0.32881709933280945,
          -0.07551544159650803,
          -0.06128697469830513,
          -0.02414362132549286,
          0.16379941999912262,
          0.3542182147502899,
          0.21953213214874268,
          -0.044055305421352386,
          -0.05659651756286621,
          0.2097724825143814,
          0.04868287965655327,
          0.24821697175502777,
          -0.1842181384563446,
          -0.09124600887298584,
          0.0887155830860138,
          0.2548656463623047,
          0.13775001466274261,
          0.38487622141838074,
          -0.1693754494190216,
          -0.05621589347720146
        ],
        [
          -0.10262914001941681,
          0.04913396015763283,
          -0.07869646698236465,
          -0.15869289636611938,
          0.1896088868379593,
          -0.0013505687238648534,
          0.02660389430820942,
          0.17081362009048462,
          0.2622828185558319,
          0.14594002068042755,
          -0.2641737759113312,
          0.24716879427433014,
          0.0038902678061276674,
          0.04813043028116226,
          -0.1313338577747345,
          -0.13412021100521088,
          0.14481636881828308,
          0.08815021067857742,
          0.16862845420837402,
          0.21891385316848755,
          0.15947967767715454,
          -0.07595132291316986,
          -0.14932267367839813,
          -0.07267200201749802,
          -0.09017314016819,
          -0.07021396607160568,
          -0.007337767165154219,
          0.0624675489962101,
          0.22728778421878815,
          -0.001683895825408399,
          0.13172438740730286,
          0.06303099542856216,
          -0.1345777064561844,
          -0.12219790369272232,
          0.10883701592683792,
          -0.17132842540740967,
          0.1831895262002945,
          -0.08378547430038452,
          0.15535998344421387,
          -0.2437663972377777,
          0.035916347056627274,
          0.10746579617261887,
          0.0032587586902081966,
          0.24359025061130524,
          0.18583732843399048,
          -0.0017839862266555429,
          -0.11043557524681091,
          0.0398283489048481,
          -0.01784086786210537,
          0.05837191268801689,
          0.04198598861694336,
          -0.053525425493717194,
          -0.0630527213215828,
          0.01451045460999012,
          0.09700579941272736,
          0.18488472700119019,
          -0.1783440113067627,
          0.07535789906978607,
          0.07975582778453827,
          -0.04136526957154274,
          -0.05659647285938263,
          0.08354496955871582,
          -0.2197083979845047,
          -0.00607351353392005
        ],
        [
          0.03421315178275108,
          0.02084718458354473,
          -0.10630613565444946,
          0.0004925574758090079,
          -0.0612369142472744,
          -0.10980796813964844,
          -0.3311026394367218,
          0.08117620646953583,
          -0.057138457894325256,
          -0.11968749761581421,
          0.1319980025291443,
          0.052651308476924896,
          0.05767392739653587,
          -0.04441312327980995,
          -0.10045979917049408,
          -0.08706770837306976,
          -0.06075892597436905,
          -0.003982866648584604,
          0.252628356218338,
          0.04077405110001564,
          0.18494926393032074,
          -0.07661479711532593,
          0.0015633712755516171,
          -0.06128419563174248,
          0.0116497240960598,
          0.2853144109249115,
          -0.06463736295700073,
          -0.10460174083709717,
          0.043332289904356,
          -0.08830612897872925,
          0.09712705761194229,
          -0.09589157998561859,
          0.07915584743022919,
          -0.00807993859052658,
          0.23945297300815582,
          0.012887152843177319,
          0.5767112374305725,
          -0.16070330142974854,
          0.026756783947348595,
          0.08106959611177444,
          -0.04760755971074104,
          -0.2806491255760193,
          -0.06420939415693283,
          0.09238900989294052,
          0.15420079231262207,
          -0.12047571688890457,
          -0.08023704588413239,
          0.2773844301700592,
          0.07304974645376205,
          0.6397778391838074,
          -0.007818037644028664,
          0.005152097437530756,
          0.16183654963970184,
          -0.04798384755849838,
          0.07354564964771271,
          -0.05896304175257683,
          -0.08134766668081284,
          0.10773157328367233,
          -0.07263388484716415,
          0.07992585748434067,
          -0.06555819511413574,
          0.5033972859382629,
          -0.37089645862579346,
          0.052706316113471985
        ],
        [
          -0.06329625844955444,
          0.05639035627245903,
          0.18716281652450562,
          -0.01677929423749447,
          -0.1857098639011383,
          -0.04629535228013992,
          -0.11168577522039413,
          -0.19573788344860077,
          -0.008737802505493164,
          0.07533255964517593,
          -0.12771014869213104,
          -0.18119969964027405,
          0.007501923479139805,
          0.20084236562252045,
          0.04091566801071167,
          0.03909555450081825,
          0.06233157590031624,
          0.24333712458610535,
          -0.1321839690208435,
          -0.1364518254995346,
          0.1481054127216339,
          -0.06836480647325516,
          -0.03394458442926407,
          -0.04132119193673134,
          -0.12021025270223618,
          -0.03105335496366024,
          -0.018130801618099213,
          -0.061861440539360046,
          -0.13012665510177612,
          -0.04582207277417183,
          -0.024356607347726822,
          0.19229544699192047,
          0.15843424201011658,
          0.5883696675300598,
          -0.04043083265423775,
          -0.12716075778007507,
          0.1168413907289505,
          0.015346321277320385,
          0.0825236514210701,
          0.15496161580085754,
          -0.3368730843067169,
          0.07905389368534088,
          0.11814498156309128,
          0.10284306854009628,
          0.07943391799926758,
          0.06020723283290863,
          -0.10198725759983063,
          0.12458179146051407,
          0.17280134558677673,
          0.12773701548576355,
          -0.02650129236280918,
          -0.16357801854610443,
          -0.13974395394325256,
          0.22191229462623596,
          -0.10418783128261566,
          0.02309163473546505,
          -0.024665921926498413,
          0.19869482517242432,
          0.045414458960294724,
          0.10627507418394089,
          -0.061291251331567764,
          0.1687438189983368,
          -0.1862194985151291,
          0.060098662972450256
        ],
        [
          0.022092312574386597,
          0.06159504875540733,
          -0.041908472776412964,
          -0.013609872199594975,
          -0.2006864845752716,
          -0.05229661613702774,
          0.27512574195861816,
          0.09374931454658508,
          -0.05348849669098854,
          -0.1349772959947586,
          0.10808268189430237,
          0.17238523066043854,
          -0.2602311968803406,
          -0.15578758716583252,
          -0.04483805224299431,
          0.16401858627796173,
          -0.07361391186714172,
          -0.10070933401584625,
          0.07896549999713898,
          0.5124986171722412,
          -0.13744592666625977,
          0.08488687127828598,
          0.08365491032600403,
          -0.047951590269804,
          -0.2293459177017212,
          -0.03946416825056076,
          -0.0492401048541069,
          0.34138891100883484,
          0.4388256072998047,
          0.0641869604587555,
          0.04165858402848244,
          -0.21449504792690277,
          0.0500350184738636,
          0.05623846873641014,
          0.08081576228141785,
          0.017272712662816048,
          -0.10738144814968109,
          0.07664941996335983,
          -0.0740908607840538,
          -0.12160363048315048,
          0.32358404994010925,
          0.009432116523385048,
          -0.28556641936302185,
          -0.10557849705219269,
          -0.003773004049435258,
          -0.19300051033496857,
          0.06301165372133255,
          -0.06970225274562836,
          -0.1829054206609726,
          -0.21916145086288452,
          0.48597535490989685,
          0.032329849898815155,
          0.041944634169340134,
          -0.11888178437948227,
          -0.03006438910961151,
          0.10401630401611328,
          0.06702569872140884,
          -0.2573882043361664,
          -0.2194373458623886,
          -0.09399827569723129,
          0.0873599648475647,
          0.1490715891122818,
          0.05584268271923065,
          0.09628641605377197
        ],
        [
          0.10261330753564835,
          -0.037928950041532516,
          -0.18640749156475067,
          0.13721098005771637,
          -0.16099952161312103,
          -0.044767703860998154,
          -0.059586454182863235,
          0.03291407972574234,
          -0.05924978107213974,
          0.13072462379932404,
          -0.08443117141723633,
          0.10390514880418777,
          -0.03083120658993721,
          0.054697390645742416,
          0.08595647662878036,
          0.06881722807884216,
          -0.015005077235400677,
          0.07176156342029572,
          -0.008859347552061081,
          0.008473154157400131,
          0.16805550456047058,
          -0.1856967657804489,
          -0.06648844480514526,
          -0.034375838935375214,
          0.12675927579402924,
          0.01315442007035017,
          0.06378178298473358,
          0.012292621657252312,
          -0.03387271612882614,
          -0.5472177863121033,
          -0.07822266221046448,
          -0.12499095499515533,
          -0.1371903121471405,
          0.036027878522872925,
          -0.6160445213317871,
          -0.11115527898073196,
          -0.08060687780380249,
          -0.12223220616579056,
          0.00047657694085501134,
          0.11114836484193802,
          0.018638193607330322,
          -0.1736564040184021,
          -0.002306816168129444,
          0.1496313512325287,
          0.011025555431842804,
          -0.22203375399112701,
          -0.008912879042327404,
          -0.09466627985239029,
          0.02905428409576416,
          0.39743688702583313,
          0.07669326663017273,
          0.279083251953125,
          -0.8152042031288147,
          0.27179038524627686,
          -0.014844223856925964,
          0.31424039602279663,
          0.11471491307020187,
          -0.12580335140228271,
          0.07800431549549103,
          -0.01005505584180355,
          -0.01589198037981987,
          0.2799914479255676,
          0.09856303036212921,
          -0.00793985091149807
        ],
        [
          -0.1279062032699585,
          1.0479241609573364,
          -0.16258054971694946,
          -0.00621293019503355,
          -0.17333386838436127,
          0.23421506583690643,
          0.11007094383239746,
          -0.028872469440102577,
          -0.008365487679839134,
          0.19134938716888428,
          -0.3294390141963959,
          0.5400565266609192,
          0.018695365637540817,
          0.054378826171159744,
          0.035216860473155975,
          0.03317169100046158,
          0.05759111046791077,
          0.014092006720602512,
          -0.11167959123849869,
          -0.24541865289211273,
          -0.08814621716737747,
          -0.10503002256155014,
          -0.06119019165635109,
          -0.028866315260529518,
          0.1150047704577446,
          -0.053429014980793,
          -0.14107602834701538,
          -0.005175380036234856,
          0.045157402753829956,
          0.05243232101202011,
          -0.03173546493053436,
          0.0011375437024980783,
          0.012419321574270725,
          -0.08494112640619278,
          -0.08538295328617096,
          -0.18277454376220703,
          -0.03678785637021065,
          0.03972652181982994,
          -0.12289869040250778,
          0.12344963103532791,
          0.08552328497171402,
          0.16697697341442108,
          0.06994662433862686,
          -0.02447681315243244,
          0.013230700045824051,
          -0.12304476648569107,
          0.0248913262039423,
          -0.10790655016899109,
          0.02400224469602108,
          0.17014281451702118,
          -0.04476196691393852,
          0.1858472377061844,
          -0.6365979909896851,
          0.7407090663909912,
          -0.05214459076523781,
          0.04363982006907463,
          0.024741118773818016,
          -0.0630553588271141,
          -0.0016184269916266203,
          0.16131681203842163,
          -0.016663718968629837,
          0.1652940958738327,
          0.1697516143321991,
          -0.08372879773378372
        ],
        [
          -0.2507060766220093,
          -0.6537015438079834,
          0.26125025749206543,
          0.401279091835022,
          -0.2765132784843445,
          -0.027300463989377022,
          -0.10465998947620392,
          0.033646900206804276,
          -0.04605097323656082,
          0.36498820781707764,
          0.2523549199104309,
          0.0660555437207222,
          -0.046315331012010574,
          0.0830465704202652,
          0.2695724368095398,
          0.030794324353337288,
          0.02194906212389469,
          -0.09104561060667038,
          0.02472427859902382,
          0.0738782212138176,
          0.2902591824531555,
          0.023935090750455856,
          0.17175325751304626,
          -0.12737318873405457,
          -0.06748710572719574,
          0.10016752779483795,
          0.1228211522102356,
          0.11803022027015686,
          0.04117371514439583,
          -0.11797454208135605,
          -0.09278739243745804,
          -0.10114981234073639,
          0.0597340352833271,
          -0.04205324500799179,
          0.060200732201337814,
          -0.1759074330329895,
          0.12128375470638275,
          0.025863131508231163,
          -0.1267833709716797,
          -0.19445353746414185,
          -0.08811948448419571,
          0.052881669253110886,
          -0.012844002805650234,
          -0.0651744082570076,
          -0.07347213476896286,
          0.44352826476097107,
          -0.023772049695253372,
          -0.03184255585074425,
          0.07298388332128525,
          0.10430523008108139,
          0.07318083941936493,
          0.17295706272125244,
          0.10760680586099625,
          -0.01784467324614525,
          0.040738970041275024,
          -0.08918731659650803,
          -0.25475287437438965,
          -0.0958019495010376,
          0.08365628123283386,
          -0.05866529792547226,
          0.06360206007957458,
          0.05272924154996872,
          -0.2127748429775238,
          0.02477014809846878
        ],
        [
          -0.05650746449828148,
          0.31544530391693115,
          -0.024999193847179413,
          -0.2828504145145416,
          -0.12514778971672058,
          0.38187333941459656,
          -0.007266065571457148,
          -0.006875901482999325,
          0.06132461875677109,
          -0.12843115627765656,
          0.1688206046819687,
          -0.1073390394449234,
          0.01604517176747322,
          0.02747385948896408,
          -0.1384413242340088,
          0.06520557403564453,
          -0.16748404502868652,
          0.06746580451726913,
          -0.004449494648724794,
          0.11033174395561218,
          0.13232643902301788,
          0.05602025240659714,
          0.22230558097362518,
          -0.06734676659107208,
          -0.12942132353782654,
          0.10044535249471664,
          -0.06957509368658066,
          0.1024288460612297,
          -0.04767099767923355,
          -0.01950632967054844,
          -0.08141031116247177,
          0.1431400179862976,
          -0.03480345755815506,
          -0.08296804130077362,
          -0.19336391985416412,
          -0.11865198612213135,
          0.07960160076618195,
          0.024486321955919266,
          -0.042473893612623215,
          0.0068864175118505955,
          -0.11646872758865356,
          0.19377779960632324,
          -0.22637128829956055,
          -0.07056531310081482,
          0.13086627423763275,
          -0.14790458977222443,
          0.2135840654373169,
          0.22404348850250244,
          -0.04258191958069801,
          -0.02392270229756832,
          -0.09286779910326004,
          -0.3779873251914978,
          -0.26827558875083923,
          -0.7999979853630066,
          -0.07485730201005936,
          -0.0338340625166893,
          0.030536865815520287,
          -0.028988603502511978,
          -0.06291291117668152,
          -0.11561156064271927,
          -0.06185213848948479,
          0.13854414224624634,
          0.14890336990356445,
          -0.0952184721827507
        ],
        [
          -0.30310383439064026,
          0.4284924268722534,
          -0.12792660295963287,
          0.03609734773635864,
          -0.04077410325407982,
          0.21755766868591309,
          0.13801588118076324,
          -0.04726104065775871,
          0.1053314283490181,
          -0.22104988992214203,
          -0.44596245884895325,
          -0.36491456627845764,
          -0.2240951508283615,
          0.0908220112323761,
          0.006412377115339041,
          0.061585232615470886,
          -0.1405014991760254,
          0.046880122274160385,
          -0.07147415727376938,
          0.16601411998271942,
          0.008486243896186352,
          0.5510722398757935,
          0.2589764893054962,
          0.09003037214279175,
          -0.18500256538391113,
          -1.5565656423568726,
          -0.05180807411670685,
          -0.03831784054636955,
          0.1560225635766983,
          -0.046890031546354294,
          -0.04119288548827171,
          -0.149267315864563,
          -0.2710025906562805,
          -0.014567043632268906,
          -0.06739503145217896,
          -0.21746565401554108,
          -0.067660853266716,
          -0.041946616023778915,
          0.06468062847852707,
          -0.07799775153398514,
          -0.28365954756736755,
          -0.0021022739820182323,
          -0.13229629397392273,
          -0.23440426588058472,
          -0.16744732856750488,
          -0.1537945717573166,
          -0.037334270775318146,
          0.0021211402490735054,
          -0.18823303282260895,
          -0.099386066198349,
          -0.047301825135946274,
          -0.026965761557221413,
          -0.22733846306800842,
          0.3909917175769806,
          -0.12489520013332367,
          0.048728737980127335,
          0.15223872661590576,
          0.12589173018932343,
          -0.02562226913869381,
          0.011353028006851673,
          -0.016839081421494484,
          -0.04892008751630783,
          -0.12953485548496246,
          -0.19195620715618134
        ],
        [
          -0.08527468144893646,
          0.03618021681904793,
          0.0947750136256218,
          -0.07935291528701782,
          -0.19170035421848297,
          -0.31040388345718384,
          0.17446158826351166,
          0.14033763110637665,
          0.05163273960351944,
          0.033845700323581696,
          -0.235674187541008,
          -0.09357887506484985,
          -0.005048399791121483,
          -0.028267748653888702,
          -0.083851158618927,
          -0.03583205118775368,
          -0.041722021996974945,
          -0.050613757222890854,
          0.014814983122050762,
          0.025793135166168213,
          0.18490205705165863,
          0.07314538210630417,
          0.08557955175638199,
          -0.12222248315811157,
          0.030779413878917694,
          -0.1838129162788391,
          0.1742909550666809,
          0.012876506894826889,
          -0.07845168560743332,
          0.07252591103315353,
          -0.03793717175722122,
          0.14448857307434082,
          0.1685299128293991,
          0.0502028614282608,
          -0.6482418775558472,
          -0.06034517288208008,
          0.03606408089399338,
          -0.22025443613529205,
          -0.11419051140546799,
          0.16409990191459656,
          0.05673900246620178,
          -0.13273172080516815,
          -0.07279866933822632,
          -0.11912970244884491,
          0.22449442744255066,
          0.004456510301679373,
          0.07900459319353104,
          0.024595186114311218,
          0.14955131709575653,
          -0.2482396960258484,
          -0.031714048236608505,
          0.06795666366815567,
          0.2461577206850052,
          -0.21444852650165558,
          0.04022763669490814,
          0.06294815987348557,
          0.15444166958332062,
          0.1162472739815712,
          0.07718732953071594,
          0.25506994128227234,
          0.14227135479450226,
          0.21294140815734863,
          -0.09708676487207413,
          -0.023117098957300186
        ],
        [
          -0.1311715543270111,
          0.2846466898918152,
          0.03931029513478279,
          0.06526952236890793,
          0.1202256828546524,
          0.35026174783706665,
          0.10116463899612427,
          -0.00770030589774251,
          0.06452219188213348,
          0.13777710497379303,
          0.0520540289580822,
          0.0036790440790355206,
          0.07648957520723343,
          -0.019801251590251923,
          -0.10535826534032822,
          0.06399267911911011,
          -0.03413650020956993,
          0.0062222592532634735,
          -0.16250775754451752,
          -0.07806806266307831,
          -0.012265787459909916,
          -0.07505222409963608,
          0.36523205041885376,
          0.12195788323879242,
          0.1413404792547226,
          -0.07325013726949692,
          -0.07640349119901657,
          0.13432994484901428,
          0.3956596851348877,
          -0.1485590785741806,
          -0.1924145668745041,
          -0.09013660997152328,
          0.0035399452317506075,
          -0.039240527898073196,
          0.13185730576515198,
          0.04040740802884102,
          0.053593412041664124,
          -0.0521092489361763,
          0.15652738511562347,
          0.12466854602098465,
          -0.07161349058151245,
          0.04673945531249046,
          -0.057953014969825745,
          -0.23075155913829803,
          0.026129314675927162,
          -0.06831468641757965,
          -0.11256367713212967,
          0.0857660248875618,
          -0.05362820625305176,
          0.12018703669309616,
          0.05804593861103058,
          -0.12868933379650116,
          -0.2118767648935318,
          -0.05389660596847534,
          -0.0063028521835803986,
          -0.16377556324005127,
          -0.1786947101354599,
          0.028221851214766502,
          0.013346451334655285,
          0.01581151783466339,
          0.331522136926651,
          0.08639005571603775,
          0.12206921726465225,
          0.06331346929073334
        ],
        [
          0.0520935095846653,
          0.05720462650060654,
          0.03741190955042839,
          -0.12449164688587189,
          -0.0935160219669342,
          -0.005820063408464193,
          0.005937033798545599,
          -0.09504241496324539,
          -0.016104139387607574,
          -0.11015971750020981,
          0.02976655773818493,
          0.12084802240133286,
          0.28665828704833984,
          -0.2014760673046112,
          0.17440515756607056,
          0.013706585392355919,
          -0.07138395309448242,
          -0.03791506960988045,
          0.10687688738107681,
          -0.02598792500793934,
          0.01685650274157524,
