{
  "model_type": "DeepONet",
  "meta": {
    "input_dim": 14,
    "output_shape": null,
    "param_bounds": [
      [
        0.4652281105518341,
        -0.9584252238273621,
        0.020294763147830963,
        0.008500431664288044,
        0.00850065890699625,
        0.008503000251948833,
        0.008501138538122177,
        0.008500218391418457,
        0.008501983247697353,
        0.00850468035787344,
        0.008504069410264492,
        0.008502279408276081,
        0.008500821888446808,
        0.008503429591655731
      ],
      [
        4.034492492675781,
        -0.0919187068939209,
        0.5046061277389526,
        0.1614972949028015,
        0.1614983230829239,
        0.16149872541427612,
        0.1614992767572403,
        0.16149911284446716,
        0.16149988770484924,
        0.16149939596652985,
        0.16149722039699554,
        0.16149982810020447,
        0.16149987280368805,
        0.16149172186851501
      ]
    ],
    "output_scaler": {
      "mean_": [
        0.26478177228261157
      ],
      "scale_": [
        0.09361691750041364
      ]
    },
    "strikes": [
      0.5,
      0.6000000238418579,
      0.699999988079071,
      0.800000011920929,
      0.8999999761581421,
      1.0,
      1.100000023841858,
      1.2000000476837158,
      1.2999999523162842,
      1.399999976158142,
      1.5
    ],
    "maturities": [
      0.10000000149011612,
      0.30000001192092896,
      0.5,
      0.699999988079071,
      0.8999999761581421,
      1.100000023841858,
      1.2999999523162842,
      1.5,
      1.7000000476837158,
      1.899999976158142,
      2.0999999046325684
    ]
  },
  "layers": [],
  "branch_layers": [
    {
      "W": [
        [
          -0.5145993828773499,
          -0.19916734099388123,
          -0.25694116950035095,
          0.7864513397216797,
          -0.628969132900238,
          -0.21307604014873505,
          -0.36934757232666016,
          0.12372509390115738,
          0.42845532298088074,
          -0.2519749104976654,
          -0.06104476377367973,
          0.43223071098327637,
          0.5422462224960327,
          -0.04819875955581665,
          -0.11611504852771759,
          -0.4529592990875244,
          -0.15885233879089355,
          0.614058256149292,
          0.3501027822494507,
          -0.011935445480048656,
          -0.6502937078475952,
          0.22950446605682373,
          0.04150865599513054,
          -0.02267359010875225,
          0.6531123518943787,
          -0.44356587529182434,
          0.1690944880247116,
          0.18379393219947815,
          0.34745004773139954,
          -0.37218889594078064,
          -0.06327912211418152,
          -0.7865405082702637,
          -0.4485705494880676,
          -0.3770473301410675,
          0.6017323136329651,
          0.4234575033187866,
          -0.04898690804839134,
          0.15243695676326752,
          -0.1267332285642624,
          0.3979373872280121,
          0.12971919775009155,
          -0.6349807381629944,
          0.5449181199073792,
          0.05112981051206589,
          0.24365690350532532,
          -0.4551980197429657,
          -0.009891766123473644,
          -0.04350217059254646,
          -0.33108481764793396,
          0.036777373403310776,
          -0.2733834683895111,
          -0.16577693819999695,
          -1.1108529567718506,
          0.06229514628648758,
          0.777014434337616,
          0.06331538408994675,
          -0.338652104139328,
          0.4239611029624939,
          0.16044223308563232,
          -0.20963339507579803,
          0.27356648445129395,
          0.15933889150619507,
          0.4700068533420563,
          -0.47274601459503174
        ],
        [
          -0.16907961666584015,
          0.03409704193472862,
          0.027824407443404198,
          -0.004269306547939777,
          0.05881315469741821,
          0.02792346477508545,
          0.04384850338101387,
          -0.2457476705312729,
          -0.061741456389427185,
          -2.0067436707904562e-05,
          0.014269771054387093,
          -0.07609120011329651,
          0.11720936745405197,
          -0.014989079907536507,
          0.030501527711749077,
          0.07707804441452026,
          0.0025900413747876883,
          0.1723899394273758,
          -0.016849249601364136,
          -0.010915552265942097,
          0.10825076699256897,
          0.3250903785228729,
          -0.07581786066293716,
          0.025159193202853203,
          -0.0705508142709732,
          0.03388836979866028,
          -0.040329162031412125,
          -0.07003525644540787,
          0.25386878848075867,
          -0.01088500116020441,
          0.17905718088150024,
          0.03432957082986832,
          0.047866251319646835,
          0.036103133112192154,
          0.1490422785282135,
          -0.3117872178554535,
          -0.5845466256141663,
          -0.5044277310371399,
          0.01478090975433588,
          -0.2615716755390167,
          -0.799110472202301,
          -0.6291043162345886,
          0.49288833141326904,
          -0.02431240864098072,
          -1.1147483587265015,
          0.3420409858226776,
          -0.029688291251659393,
          -0.2797554135322571,
          0.0354527123272419,
          0.0343756377696991,
          -0.034634001553058624,
          0.048208367079496384,
          0.015609953552484512,
          -0.03941706568002701,
          -0.18962034583091736,
          0.03359376639127731,
          0.2413485199213028,
          -0.10941179096698761,
          -0.32018810510635376,
          0.06629183888435364,
          -0.05233297869563103,
          -0.17199403047561646,
          -0.2774032950401306,
          0.27639633417129517
        ],
        [
          0.43383076786994934,
          -0.05996053293347359,
          -0.12867186963558197,
          -0.10596254467964172,
          -0.36407846212387085,
          -0.13624367117881775,
          -0.04994024708867073,
          -0.09419230371713638,
          0.09401644021272659,
          0.15728408098220825,
          -0.02633150853216648,
          0.4079877436161041,
          -0.45632603764533997,
          0.09908398985862732,
          -0.01616043783724308,
          -0.422812819480896,
          0.07594144344329834,
          -0.27482688426971436,
          -1.157050609588623,
          0.02309822104871273,
          0.28885263204574585,
          -0.3098616600036621,
          0.12268104404211044,
          0.06165173277258873,
          0.1949494183063507,
          -0.15310679376125336,
          -0.10348109900951385,
          0.02225678786635399,
          0.15026304125785828,
          0.08676765114068985,
          -0.07580181956291199,
          -0.4033656120300293,
          -0.015561387874186039,
          -0.10752663761377335,
          0.14153021574020386,
          -0.23025189340114594,
          0.4039143919944763,
          0.010295232757925987,
          -0.0364711694419384,
          -0.23346909880638123,
          -0.005058674607425928,
          0.07750674337148666,
          -0.06734656542539597,
          0.1940675973892212,
          -0.09987802058458328,
          0.24906288087368011,
          0.0543297603726387,
          0.4658202528953552,
          -0.028549853712320328,
          0.04885765537619591,
          -0.9090898036956787,
          -0.10233236849308014,
          0.14151400327682495,
          -0.04006360471248627,
          -0.3927845358848572,
          -0.11858929693698883,
          0.7204043865203857,
          -0.9471651911735535,
          0.006415901705622673,
          0.2111378163099289,
          0.07105190306901932,
          -0.3053024113178253,
          0.0795733854174614,
          -0.07786890119314194
        ],
        [
          0.03435149043798447,
          -0.00783681869506836,
          -0.012146429158747196,
          -0.14643128216266632,
          -0.02335677482187748,
          -0.004405041690915823,
          -0.029479479417204857,
          0.3200044333934784,
          0.014425937086343765,
          -0.3955448865890503,
          0.0028205527924001217,
          0.010478249751031399,
          -0.1483042985200882,
          -0.09464546293020248,
          -0.008472084999084473,
          -0.012646148912608624,
          -0.2743370234966278,
          0.1990346759557724,
          -0.019981535151600838,
          -1.0422797203063965,
          -0.933201789855957,
          0.29992762207984924,
          -0.12158604711294174,
          -0.06339600682258606,
          0.013880668208003044,
          -0.02835369110107422,
          0.24793599545955658,
          -0.051022112369537354,
          0.03544538840651512,
          -0.6852614283561707,
          -0.04059850797057152,
          -0.01624438725411892,
          -0.08537338674068451,
          -0.010941654443740845,
          0.009618335403501987,
          -0.4923368990421295,
          0.13061664998531342,
          -0.14343197643756866,
          -0.006585858762264252,
          0.1456141173839569,
          -0.2281092405319214,
          0.004351511597633362,
          -0.010865377262234688,
          -0.8599680662155151,
          0.16223368048667908,
          0.5341362953186035,
          -0.030644666403532028,
          0.02417781390249729,
          -0.08183231204748154,
          -0.6628924608230591,
          -0.07061698287725449,
          -0.004092301242053509,
          0.19028827548027039,
          0.25313180685043335,
          0.0735655277967453,
          0.3399978280067444,
          -0.0034766464959830046,
          0.009269424714148045,
          -0.049270737916231155,
          -0.22927764058113098,
          0.007546842098236084,
          0.15814858675003052,
          -0.13154928386211395,
          0.13091051578521729
        ],
        [
          -0.003919193055480719,
          -0.019676340743899345,
          -0.010434837080538273,
          -0.040692541748285294,
          -0.013309940695762634,
          -0.002822211943566799,
          -0.07653693109750748,
          -0.05702056363224983,
          0.02223183959722519,
          -0.08352680504322052,
          -0.02979659102857113,
          0.11074771732091904,
          -0.004565852228552103,
          -0.40366747975349426,
          -0.028575874865055084,
          -0.1151604875922203,
          -0.48409247398376465,
          -0.02257130853831768,
          -0.001129993237555027,
          -0.011989889666438103,
          -0.005355529487133026,
          -0.009139994159340858,
          -0.8846172094345093,
          -0.19540557265281677,
          -0.0038801038172096014,
          0.2273743450641632,
          -0.07752273231744766,
          -0.025953369215130806,
          0.04622384533286095,
          -0.043278779834508896,
          0.29132378101348877,
          -0.010616080835461617,
          -0.20151406526565552,
          -0.0001115132326958701,
          -0.0021206201054155827,
          -0.013487232849001884,
          0.0016877636080607772,
          0.02772151492536068,
          -0.022670786827802658,
          0.10629449784755707,
          0.01052104402333498,
          0.07045214623212814,
          -0.05735556781291962,
          -0.06904669851064682,
          0.03780020400881767,
          0.019720828160643578,
          -0.07952405512332916,
          0.008107056841254234,
          -0.15136048197746277,
          0.3341454863548279,
          -0.014161329716444016,
          -0.014659550040960312,
          0.05847978964447975,
          0.5319375395774841,
          0.17400628328323364,
          0.0017338149482384324,
          -0.0026035699993371964,
          0.006041714921593666,
          -0.2812618613243103,
          0.1567922830581665,
          0.03258821368217468,
          -0.1744808405637741,
          -0.34657007455825806,
          0.3430003523826599
        ],
        [
          -0.002294075209647417,
          -0.02374899946153164,
          -0.0033987865317612886,
          0.001449223724193871,
          0.02416619099676609,
          0.00040229674777947366,
          -0.09282723814249039,
          -0.004924322012811899,
          0.04374578967690468,
          -0.003944784868508577,
          -0.058136001229286194,
          0.1180533915758133,
          0.004766799975186586,
          -0.4090248942375183,
          -0.04922126978635788,
          -0.12028992921113968,
          -0.033079300075769424,
          -0.009160117246210575,
          -0.004333348944783211,
          -0.009220483712852001,
          0.011329079046845436,
          0.01062602549791336,
          0.06454600393772125,
          0.22724120318889618,
          0.040958695113658905,
          -0.021344827488064766,
          -0.08794347941875458,
          0.24252600967884064,
          0.03272847458720207,
          0.006996430456638336,
          -0.05102477967739105,
          0.024665825068950653,
          -0.20318475365638733,
          -0.004909033887088299,
          -0.02293376810848713,
          0.01274257805198431,
          -0.023904668167233467,
          0.008024265058338642,
          -0.001922809169627726,
          0.05184643715620041,
          -0.005824949126690626,
          0.04749834164977074,
          -0.028274109587073326,
          -0.01838632859289646,
          0.024310097098350525,
          -0.010808429680764675,
          -0.4073176681995392,
          0.024413106963038445,
          -0.31074485182762146,
          -0.0008111592032946646,
          0.024492178112268448,
          -0.02426811307668686,
          0.0052048140205442905,
          -0.002398878103122115,
          0.0337623655796051,
          0.11437710374593735,
          -0.00020340419723652303,
          -0.006567739881575108,
          -0.026435015723109245,
          0.0110407629981637,
          0.0322437547147274,
          -0.013702286407351494,
          -0.3818597197532654,
          0.37987422943115234
        ],
        [
          0.005255861207842827,
          -0.024688107892870903,
          0.0004912008298560977,
          0.007524564396589994,
          0.036508169025182724,
          0.0018517535645514727,
          -0.10339667648077011,
          0.07880427688360214,
          0.05495908111333847,
          -0.00608906801789999,
          0.060879189521074295,
          0.06371170282363892,
          -0.0006599940825253725,
          -0.12172692269086838,
          -0.11253940314054489,
          -0.06929398328065872,
          -0.0005222274921834469,
          -0.005150515586137772,
          0.0003568727697711438,
          -0.002276304643601179,
          -0.013960701413452625,
          0.008863897994160652,
          -0.013837390579283237,
          -0.010861102491617203,
          0.11688204109668732,
          -0.07770027965307236,
          0.08795811235904694,
          0.02117265947163105,
          0.012618210166692734,
          0.0030918275006115437,
          -0.016934344545006752,
          0.03739598020911217,
          -0.2358434647321701,
          -0.013140557333827019,
          -0.022489996626973152,
          0.018954060971736908,
          0.002712139394134283,
          -0.0006111927214078605,
          0.04951641708612442,
          0.03754346817731857,
          -0.009808013215661049,
          0.01769430562853813,
          -0.006759351119399071,
          -0.014055660925805569,
          0.015876373276114464,
          -0.018310924991965294,
          0.10920921713113785,
          0.018829181790351868,
          -0.00030543742468580604,
          0.004157086368650198,
          0.03136931359767914,
          0.055717553943395615,
          -0.002596074715256691,
          -0.05585206300020218,
          -0.002658259589225054,
          -0.06657435745000839,
          0.0030839061364531517,
          0.0003190824936609715,
          0.018672043457627296,
          0.007626758422702551,
          0.032815176993608475,
          0.02006395161151886,
          -0.33518075942993164,
          0.33768537640571594
        ],
        [
          0.013157195411622524,
          -0.025135016068816185,
          -0.009375637397170067,
          0.006301109679043293,
          0.03103473037481308,
          0.005336388014256954,
          -0.1312054842710495,
          0.0935918390750885,
          0.0907612219452858,
          -0.0014869202859699726,
          0.06236487627029419,
          -0.043612055480480194,
          -0.0020122346468269825,
          0.018226278945803642,
          0.15205860137939453,
          0.038614410907030106,
          0.0001525285333627835,
          0.0017602319130674005,
          0.004699561279267073,
          -0.0016925150994211435,
          0.025659501552581787,
          0.0038382576312869787,
          -0.009125019423663616,
          -0.008564220741391182,
          0.06991955637931824,
          -0.05509725585579872,
          -0.0028777853585779667,
          0.007175121456384659,
          -0.0020336867310106754,
          -0.003631320083513856,
          -0.0003520908358041197,
          0.03873250260949135,
          -0.11036182940006256,
          -0.03289661556482315,
          -0.014113286510109901,
          0.004797531757503748,
          0.000958092394284904,
          -0.0012812017230316997,
          -0.18534591794013977,
          0.03927557170391083,
          0.00012737610086333007,
          -0.001076477812603116,
          0.007482638116925955,
          -0.0014930182369425893,
          0.006300064269453287,
          -0.0029275903943926096,
          0.004173584282398224,
          0.009098452515900135,
          0.019875138998031616,
          0.004258780274540186,
          0.024601992219686508,
          -0.0007781091262586415,
          -0.006762512028217316,
          -0.014550450257956982,
          0.002308270428329706,
          -0.06992950290441513,
          0.0034474236890673637,
          0.005529324524104595,
          0.01571999117732048,
          -0.000931164191570133,
          0.034952498972415924,
          0.009363554418087006,
          -0.18716304004192352,
          0.1884046047925949
        ],
        [
          0.008463660255074501,
          -0.03513387590646744,
          -0.02892143465578556,
          0.010432993993163109,
          0.018773561343550682,
          0.017983296886086464,
          -0.1565585881471634,
          0.11284584552049637,
          0.13232044875621796,
          -0.003054825821891427,
          0.023239631205797195,
          -0.1269751638174057,
          0.0007026557577773929,
          0.017295921221375465,
          -0.007726588752120733,
          0.12982720136642456,
          -0.0030118823051452637,
          -0.006726433057337999,
          0.002540495479479432,
          -0.0033523899037390947,
          -0.01843729242682457,
          0.008634435944259167,
          0.001464216853491962,
          0.00046078552259132266,
          2.8678681701421738e-05,
          0.021024197340011597,
          -0.09144190698862076,
          0.0019370701629668474,
          -0.004380128346383572,
          0.0023044426925480366,
          0.014287829399108887,
          0.02377290278673172,
          0.004000192508101463,
          -0.0545085109770298,
          -0.007230678107589483,
          -0.005983661860227585,
          0.004539156332612038,
          -1.4237742107070517e-05,
          0.016417907550930977,
          0.027839625254273415,
          -0.008480232208967209,
          -0.011904241517186165,
          0.014348810538649559,
          -0.0026710603851825,
          0.00801708735525608,
          0.009480942040681839,
          0.0001976791536435485,
          0.005956606473773718,
          -0.007235671393573284,
          -0.0061661191284656525,
          0.018695436418056488,
          -0.06173624470829964,
          -0.010672041215002537,
          0.010535389184951782,
          -0.0006714905612170696,
          -0.06812436133623123,
          0.0002534440718591213,
          0.006176097318530083,
          0.01760888658463955,
          0.003407464362680912,
          0.04447732865810394,
          0.0051465993747115135,
          -0.09843357652425766,
          0.09683255851268768
        ],
        [
          0.007782257627695799,
          -0.10041188448667526,
          0.009458059445023537,
          0.01223642099648714,
          0.006323901936411858,
          0.0384676419198513,
          -0.07410033047199249,
          0.0013937568292021751,
          0.03571665659546852,
          -0.005134364124387503,
          0.04653320088982582,
          -0.1373082995414734,
          -0.008252883329987526,
          0.020542534068226814,
          -0.00959939043968916,
          0.14882437884807587,
          -0.004129520617425442,
          -0.006043504923582077,
          0.0033308034762740135,
          0.005173974670469761,
          0.01454876083880663,
          -0.007697013672441244,
          -0.004968093708157539,
          -0.001847463776357472,
          -0.003868640400469303,
          -0.007250528316944838,
          0.002263094298541546,
          0.007052881643176079,
          -0.002100879093632102,
          0.0018748618895187974,
          -0.00478443643078208,
          0.024154124781489372,
          -0.00034242996480315924,
          -0.13335339725017548,
          -2.9019320209044963e-05,
          0.01341284904628992,
          0.0029956642538309097,
          0.010244476608932018,
          0.015218710526823997,
          0.011320849880576134,
          0.00576977152377367,
          0.012487954460084438,
          -0.010784855112433434,
          -0.001775690820068121,
          -0.0024364646524190903,
          -0.012803987599909306,
          -0.008305726572871208,
          0.010629230178892612,
          -0.007764665875583887,
          -0.004325989633798599,
          0.02006324753165245,
          -0.008156539872288704,
          -0.011971652507781982,
          0.011320522986352444,
          0.0008574221283197403,
          -0.0005891174077987671,
          0.0006976319709792733,
          0.004077243153005838,
          0.010743667371571064,
          -0.005610798951238394,
          0.08169946819543839,
          0.00552075169980526,
          -0.07123921811580658,
          0.0701562762260437
        ],
        [
          0.004149771295487881,
          -0.013101824559271336,
          -0.010548189282417297,
          0.003317964728921652,
          0.017797250300645828,
          -0.0150379603728652,
          -0.02569384127855301,
          -0.017850449308753014,
          0.017450552433729172,
          0.003390471450984478,
          -0.07465164363384247,
          -0.12437968701124191,
          -0.006833380088210106,
          0.017588745802640915,
          0.001961536705493927,
          0.13043467700481415,
          -0.0025450089015066624,
          0.0015832391800358891,
          0.003994921687990427,
          0.0025684707798063755,
          0.026301763951778412,
          -0.016912758350372314,
          -0.0011374028399586678,
          0.0038148346357047558,
          -0.018612569198012352,
          -0.00017870856390800327,
          0.07835470139980316,
          0.019718289375305176,
          -0.004777194932103157,
          0.0018600794719532132,
          0.00856140535324812,
          0.010057652369141579,
          -0.009211493656039238,
          -0.07946129143238068,
          -0.0027257357724010944,
          0.019439807161688805,
          0.0007175157661549747,
          0.003751165932044387,
          -0.003383131232112646,
          0.002460705814883113,
          0.0005917692906223238,
          0.005552882328629494,
          -0.0029216597322374582,
          -0.00931406207382679,
          -0.005851792637258768,
          -0.018919797614216805,
          -0.0017525588627904654,
          0.004950974136590958,
          -0.006559422239661217,
          -0.003513730363920331,
          0.015318389050662518,
          -0.0536661371588707,
          -0.002372906543314457,
          0.00799314770847559,
          -0.0015058033168315887,
          -0.028923476114869118,
          0.0029926137067377567,
          0.007236888632178307,
          0.0063717979937791824,
          0.002768017817288637,
          0.09287149459123611,
          0.0024163001216948032,
          -0.07762832194566727,
          0.07774477452039719
        ],
        [
          0.0036065883468836546,
          0.07163210958242416,
          0.051008839160203934,
          5.3218682296574116e-05,
          0.008921326138079166,
          -0.09490568190813065,
          -0.014469241723418236,
          -0.006016623228788376,
          0.017174668610095978,
          0.0015017172554507852,
          -0.058555763214826584,
          -0.09097380936145782,
          -0.001001189579255879,
          0.017622917890548706,
          0.0006462619639933109,
          0.09662125259637833,
          -0.0024442020803689957,
          -0.005461015738546848,
          0.004716923460364342,
          0.00031707657035440207,
          -0.011134517379105091,
          -0.00475996732711792,
          -0.012470253743231297,
          -0.0018739737570285797,
          -0.02157839946448803,
          -0.0003917530120816082,
          0.03404857963323593,
          0.04444980248808861,
          -0.004354206845164299,
          0.00026192981749773026,
          -0.016233710572123528,
          0.008350451476871967,
          -0.010796193964779377,
          -0.04822507128119469,
          -0.005317854229360819,
          -0.008962520398199558,
          0.003956376574933529,
          -0.004169812425971031,
          0.001975463004782796,
          0.008509211242198944,
          0.0024477755650877953,
          -0.0020745524670928717,
          0.004294286482036114,
          0.0012966830981895328,
          -0.0006818457040935755,
          0.007284295279532671,
          -0.0033892253413796425,
          -0.0029569906182587147,
          -0.008648186922073364,
          0.0040055010467767715,
          0.015236631967127323,
          0.03599897772073746,
          0.0039390213787555695,
          0.0225070733577013,
          -0.001521463505923748,
          -0.04345857724547386,
          0.0033428091555833817,
          0.004435481037944555,
          0.006177735049277544,
          -0.0076701645739376545,
          0.06586627662181854,
          0.003657651599496603,
          -0.041231852024793625,
          0.04203541576862335
        ],
        [
          -0.000569517316762358,
          0.06590807437896729,
          -0.027141064405441284,
          0.0027444050647318363,
          0.0015818470856174827,
          -0.09704364091157913,
          -0.0011645217891782522,
          0.003425924340263009,
          0.006366442888975143,
          -0.0008823087555356324,
          -0.02348710596561432,
          -0.05237346142530441,
          -0.0013631441397592425,
          0.010921483859419823,
          -0.00180133618414402,
          0.05705556273460388,
          -0.0026218334678560495,
          0.0013600073289126158,
          0.004409236833453178,
          0.002723798854276538,
          0.01251835748553276,
          -0.0016186118591576815,
          -0.003020972479134798,
          0.000263604597421363,
          -0.011402356438338757,
          -0.014380920678377151,
          -0.004404842853546143,
          0.02320762351155281,
          0.002946898341178894,
          -0.0011157256085425615,
          0.004276064690202475,
          0.015783250331878662,
          -0.010979622602462769,
          -0.04415647312998772,
          0.0007967447163537145,
          -0.005778937134891748,
          0.004433204885572195,
          0.005853570532053709,
          -0.0009659974602982402,
          0.0044368598610162735,
          -0.004800715018063784,
          0.00829345267266035,
          -0.006272446364164352,
          0.0012298071524128318,
          -0.004809908103197813,
          0.00752875953912735,
          -0.007752411998808384,
          -0.0005923833814449608,
          -0.0005195423727855086,
          -0.0033614709973335266,
          0.011930779553949833,
          0.0798906683921814,
          0.0029869042336940765,
          0.01109387818723917,
          -0.0020441743545234203,
          -0.014210177585482597,
          0.0036334870383143425,
          0.004490360151976347,
          0.0035406560637056828,
          -0.005268413573503494,
          0.040755745023489,
          0.00023434772447217256,
          -0.010867089964449406,
          0.011596930213272572
        ],
        [
          0.0013907552929595113,
          0.02367318794131279,
          -0.12759341299533844,
          0.007156453561037779,
          0.005561999045312405,
          -0.0372561551630497,
          0.001922581810504198,
          0.00485058082267642,
          -0.0014905608259141445,
          0.0028118942864239216,
          -0.028683040291070938,
          -0.02274378389120102,
          -0.006059720180928707,
          0.0035908205900341272,
          0.0009053664980456233,
          0.026004521176218987,
          -0.0009407473844476044,
          0.0038311667740345,
          0.0006977450684644282,
          -0.0026127612218260765,
          -0.015901299193501472,
          -0.007060692645609379,
          -0.00010865036165341735,
          -0.0024176558945327997,
          -0.013350478373467922,
          -0.010388369672000408,
          -0.0015603777719661593,
          -0.014278322458267212,
          0.003751723561435938,
          0.0014772298745810986,
          0.01036242488771677,
          0.01408352516591549,
          -0.008932833559811115,
          -0.025172356516122818,
          0.002053654519841075,
          0.0114275012165308,
          -0.002675095107406378,
          0.0013185200514271855,
          -0.003678112057968974,
          -0.0030020156409591436,
          0.005098284222185612,
          0.0028377636335790157,
          -0.003373566782101989,
          -0.0034563951194286346,
          0.0012946692295372486,
          -0.012753944844007492,
          -0.002668985864147544,
          0.0029908556025475264,
          0.0012101239990442991,
          -0.0020813154987990856,
          0.009052624925971031,
          0.039644885808229446,
          -0.0031448667868971825,
          -0.0038678026758134365,
          -0.002478208625689149,
          0.008145876228809357,
          0.0043883672915399075,
          0.003260345198214054,
          0.006403293926268816,
          -0.001455417717806995,
          0.022300897166132927,
          0.0012437747791409492,
          -0.00799560733139515,
          0.007967395707964897
        ]
      ],
      "b": [
        -0.10228747874498367,
        -0.027667470276355743,
        0.0016579548828303814,
        0.22050783038139343,
        0.24232038855552673,
        0.010709594935178757,
        -0.2944052219390869,
        0.773456871509552,
        -0.00044770832755602896,
        0.28609851002693176,
        0.2383507341146469,
        -0.11750159412622452,
        0.30712947249412537,
        -0.41472792625427246,
        0.015241963788866997,
        0.12277089804410934,
        -0.13383105397224426,
        0.25968560576438904,
        -0.7026094794273376,
        -0.8272157311439514,
        -0.6430636048316956,
        0.4028182029724121,
        -0.6876909136772156,
        -0.035394489765167236,
        -0.33901551365852356,
        -0.12781935930252075,
        0.6336193680763245,
        0.47108688950538635,
        0.03255825489759445,
        -0.09431874752044678,
        0.3207140564918518,
        -0.07255939394235611,
        -0.3438670337200165,
        0.13140873610973358,
        0.3431549370288849,
        -0.1476028561592102,
        -0.30192023515701294,
        0.013292336836457253,
        0.07399532943964005,
        0.15200687944889069,
        -0.521880567073822,
        -0.4225441813468933,
        0.33916500210762024,
        -0.2882809340953827,
        -0.8971424698829651,
        0.16306501626968384,
        -0.2794778645038605,
        0.5021684765815735,
        -0.2266879677772522,
        -0.22527025640010834,
        -0.36065736413002014,
        0.19542691111564636,
        -0.3075782358646393,
        0.8354536294937134,
        -0.6198180913925171,
        0.5912492275238037,
        0.4393833875656128,
        -0.21381965279579163,
        -0.09427300840616226,
        0.26289406418800354,
        0.19378414750099182,
        -0.032171472907066345,
        -0.010105355642735958,
        0.010835717432200909
      ],
      "act": null
    },
    {
      "W": null,
      "b": null,
      "act": "relu"
    },
    {
      "W": [
        [
          0.12393449246883392,
          0.05695248395204544,
          0.0006845961324870586,
          0.14181719720363617,
          -0.022554542869329453,
          0.06370716542005539,
          0.09665170311927795,
          0.018961500376462936,
          0.09814751148223877,
          -0.05461060628294945,
          0.1741950511932373,
          -0.15405996143817902,
          0.14141663908958435,
          0.04278777539730072,
          0.29266512393951416,
          0.07835747301578522,
          -0.08900962769985199,
          0.03685289993882179,
          -0.13221898674964905,
          0.003647943725809455,
          0.2103407382965088,
          0.011661948636174202,
          0.2325316220521927,
          -0.04590378701686859,
          -0.22250814735889435,
          -0.0769612193107605,
          -0.019626108929514885,
          -0.020383017137646675,
          -0.0693625956773758,
          -0.06894750893115997,
          0.3485090732574463,
          -0.10811668634414673,
          0.08385244011878967,
          1.1595101356506348,
          -0.04723525419831276,
          -0.05266251042485237,
          -0.4361806809902191,
          0.042582716792821884,
          -0.04646121710538864,
          -0.09142641723155975,
          -0.3632112443447113,
          -0.750312089920044,
          0.16343072056770325,
          0.2560780942440033,
          -0.08112265169620514,
          -0.02970064803957939,
          -0.1363004595041275,
          -0.16561971604824066,
          0.4598585367202759,
          0.06858508288860321,
          -0.017688624560832977,
          -0.7004905939102173,
          0.15458442270755768,
          -0.1665743589401245,
          0.2720436453819275,
          -0.36064907908439636,
          -0.1348785161972046,
          0.3753708600997925,
          0.25981414318084717,
          -0.4914310872554779,
          0.1034097820520401,
          -0.22069555521011353,
          0.05457913503050804,
          0.043608199805021286
        ],
        [
          0.04486486688256264,
          -0.07977873831987381,
          0.19824515283107758,
          0.0328652448952198,
          0.009025455452501774,
          0.009956666268408298,
          0.06272568553686142,
          0.014299359172582626,
          -0.01862678863108158,
          -0.05419214442372322,
          -0.36558398604393005,
          -0.040743496268987656,
          0.04995652288198471,
          0.1122443750500679,
          0.28291940689086914,
          -0.01954556815326214,
          0.009583145380020142,
          -0.07882259041070938,
          0.0028184487018734217,
          0.051668696105480194,
          0.1184677854180336,
          0.33855050802230835,
          -0.03725676238536835,
          0.14763221144676208,
          -0.028074661269783974,
          0.06326403468847275,
          -0.025112276896834373,
          0.028774444013834,
          0.09125550091266632,
          0.502642035484314,
          -0.001183934509754181,
          0.35654619336128235,
          -0.13131219148635864,
          -0.12373626232147217,
          -0.034317634999752045,
          0.04890653118491173,
          -0.013268721289932728,
          0.3998691737651825,
          -0.0915091261267662,
          -0.0575442761182785,
          0.0036365860141813755,
          0.018437370657920837,
          0.1469612866640091,
          0.11770326644182205,
          0.03210228309035301,
          0.029810773208737373,
          -0.0020542542915791273,
          -0.05373533442616463,
          -0.07853290438652039,
          -0.11673030257225037,
          0.04094512388110161,
          -0.030665194615721703,
          0.02478635311126709,
          -0.1045830026268959,
          0.07689358294010162,
          0.02214771881699562,
          -0.006989478133618832,
          0.0514773391187191,
          -0.003039369359612465,
          -0.034672562032938004,
          0.03537354618310928,
          0.012956530787050724,
          -0.3155832886695862,
          0.046493805944919586
        ],
        [
          -0.08145873248577118,
          -0.027185717597603798,
          1.7281241525779478e-05,
          0.0704391747713089,
          -0.06829960644245148,
          0.09808945655822754,
          0.0625738576054573,
          -0.00035530852619558573,
          -0.06143615394830704,
          -0.040204402059316635,
          0.7855242490768433,
          -0.12510071694850922,
          -0.016268432140350342,
          0.1684013307094574,
          0.01440173014998436,
          -0.0043663508258759975,
          -0.050080109387636185,
          0.00042194771231152117,
          -0.015984440222382545,
          0.00860306341201067,
          -0.11459410190582275,
          -0.09789405763149261,
          -0.039204616099596024,
          0.0011898716911673546,
          -0.0464475192129612,
          -0.208317369222641,
          0.01903143711388111,
          0.1331728845834732,
          -0.08790989965200424,
          0.4523167610168457,
          0.039244864135980606,
          -0.20975829660892487,
          -0.6101613640785217,
          0.013804437592625618,
          0.00486362399533391,
          -0.09664289653301239,
          0.03712708503007889,
          0.5265909433364868,
          0.22887513041496277,
          -0.12694184482097626,
          0.017983268946409225,
          -0.07428126782178879,
          0.2479538917541504,
          0.0038910447619855404,
          -0.10070393234491348,
          -0.18070974946022034,
          -0.1584819108247757,
          -0.015603706240653992,
          0.06643947958946228,
          -0.1246136724948883,
          -0.017825696617364883,
          -0.018111849203705788,
          -0.015283497050404549,
          -0.04223136976361275,
          -0.05129830166697502,
          -0.07783733308315277,
          0.3032708168029785,
          0.04136365279555321,
          0.044027525931596756,
          -0.07285169512033463,
          0.0918489545583725,
          -0.0691840723156929,
          -0.09312162548303604,
          0.043509792536497116
        ],
        [
          -0.23491866886615753,
          -0.3005816340446472,
          -0.030541054904460907,
          0.02186957560479641,
          0.14053155481815338,
          0.12868525087833405,
          -0.21355323493480682,
          0.10605654865503311,
          -0.07854706794023514,
          -0.09743177890777588,
          0.1778036206960678,
          0.18953830003738403,
          -0.027361487969756126,
          -0.1678743064403534,
          -0.1295042335987091,
          -0.17868353426456451,
          0.18935567140579224,
          0.010016396641731262,
          0.1777733862400055,
          -0.07729005068540573,
          0.060673970729112625,
          0.10256219655275345,
          -0.3477277457714081,
          -0.14439642429351807,
          -0.01769629679620266,
          0.12053810805082321,
          -0.10021626204252243,
          -0.5024765729904175,
          -0.11382471024990082,
          -0.14225167036056519,
          -0.09715082496404648,
          0.07943785190582275,
          -0.42325419187545776,
          -0.07700693607330322,
          -0.0605618990957737,
          -0.02667790837585926,
          0.10255789756774902,
          -0.1814781129360199,
          -0.08471551537513733,
          0.07128328084945679,
          0.10983496159315109,
          0.15101398527622223,
          0.019391687586903572,
          -0.022237833589315414,
          -0.04980964586138725,
          0.08680865913629532,
          -0.00859462097287178,
          0.032497383654117584,
          -0.17030960321426392,
          0.25532403588294983,
          -0.6986050009727478,
          -0.3876720368862152,
          0.17603300511837006,
          0.1256435513496399,
          0.22427961230278015,
          -0.14904914796352386,
          0.28019315004348755,
          -0.1890067458152771,
          -0.9579899311065674,
          0.3865046799182892,
          -0.5321599245071411,
          -0.08263178169727325,
          -0.12060017138719559,
          -0.11466757953166962
        ],
        [
          0.29758691787719727,
          0.1136694997549057,
          0.1676255166530609,
          0.1685405969619751,
          -0.37033921480178833,
          -0.05771009996533394,
          0.0028857083525508642,
          -0.216666117310524,
          0.06802070140838623,
          0.004995822440832853,
          -0.17818664014339447,
          -0.17408958077430725,
          -0.327092707157135,
          0.14725622534751892,
          -0.17356963455677032,
          0.38954418897628784,
          -0.160400852560997,
          -0.12407458573579788,
          -0.07199832797050476,
          0.06058488041162491,
          -0.0907345786690712,
          -0.08022371679544449,
          0.05696859955787659,
          -0.12049773335456848,
          0.3541196286678314,
          -0.16565825045108795,
          0.17102624475955963,
          0.13880771398544312,
          0.013734373264014721,
          -0.2436324805021286,
          -0.28887104988098145,
          0.16213950514793396,
          0.30300381779670715,
          0.2637181878089905,
          -0.04886186495423317,
          -0.10435066372156143,
          0.001839016331359744,
          0.33015763759613037,
          0.06951310485601425,
          -0.11214587837457657,
          0.08028321713209152,
          -0.2647949755191803,
          -0.1342066526412964,
          -0.47408685088157654,
          -0.27653777599334717,
          0.01838340424001217,
          0.11653929203748703,
          0.006806354038417339,
          0.37403854727745056,
          -0.13693469762802124,
          0.0681932121515274,
          0.20353396236896515,
          -0.24287472665309906,
          0.12040837854146957,
          0.12393353879451752,
          -0.2911292612552643,
          -0.13663116097450256,
          -0.020962640643119812,
          0.3342341184616089,
          0.07070106267929077,
          0.00010417515295557678,
          0.0142081119120121,
          0.007004084996879101,
          -0.06500892341136932
        ],
        [
          -0.014168829657137394,
          0.09878499805927277,
          0.12398617714643478,
          0.04301225766539574,
          -0.0106474244967103,
          0.18575873970985413,
          -0.03634446859359741,
          0.00983857549726963,
          0.02947143279016018,
          0.290153443813324,
          0.1403292715549469,
          -0.1094454973936081,
          -0.011325379833579063,
          -0.252202570438385,
          -0.26300546526908875,
          0.012258663773536682,
          -0.0033688193652778864,
          -0.07924966514110565,
          0.03534197062253952,
          0.004522304050624371,
          0.04366140812635422,
          -0.20685023069381714,
          0.014609554782509804,
          -0.03494511917233467,
          -0.043221794068813324,
          0.0984840989112854,
          -0.04190737381577492,
          -0.031074270606040955,
          0.0687284842133522,
          -0.4490571916103363,
          -0.09960194677114487,
          -0.4238269031047821,
          -0.0050293332897126675,
          -0.100705586373806,
          0.26074323058128357,
          -0.09729012846946716,
          -0.027667470276355743,
          -0.03790862485766411,
          0.016372600570321083,
          -0.03089676797389984,
          0.07508387416601181,
          -0.034563928842544556,
          0.05991970747709274,
          0.031118417158722878,
          -0.031781215220689774,
          0.04656744748353958,
          0.07261471450328827,
          -0.09867724776268005,
          0.029429780319333076,
          0.14873556792736053,
          -0.04184344410896301,
          0.00017193176608998328,
          -0.08174046874046326,
          0.022021200507879257,
          0.11831121891736984,
          -0.004136865958571434,
          0.23678994178771973,
          -0.05023699253797531,
          0.16981959342956543,
          0.2834772765636444,
          0.07581349462270737,
          -0.1150047555565834,
          0.3097699284553528,
          0.005436436273157597
        ],
        [
          -0.20083487033843994,
          -0.042325861752033234,
          0.0224117711186409,
          0.09071143716573715,
          -0.05539051815867424,
          0.18771587312221527,
          -0.1128937229514122,
          -0.018410343676805496,
          0.09912361949682236,
          -0.06182205677032471,
          -0.09495516866445541,
          0.11393846571445465,
          0.14110112190246582,
          -0.01666751503944397,
          0.18912763893604279,
          0.15048208832740784,
          0.03679173067212105,
          -0.03000793233513832,
          -0.14388969540596008,
          -0.11169122904539108,
          0.024241959676146507,
          0.06925725191831589,
          0.03996596857905388,
          0.23891036212444305,
          -0.10944543033838272,
          0.10282456129789352,
          -0.06354165077209473,
          -0.024517709389328957,
          -0.0998634397983551,
          0.2610001862049103,
          0.25290346145629883,
          0.14358195662498474,
          0.37457481026649475,
          -0.05039478838443756,
          0.06047447770833969,
          -0.018589887768030167,
          0.03743074834346771,
          0.2464166283607483,
          0.2214573323726654,
          -0.09962549060583115,
          -0.03113601543009281,
          0.11048451066017151,
          -0.05590362101793289,
          0.5656353235244751,
          0.028538500890135765,
          -0.029734114184975624,
          0.045225124806165695,
          -0.015482524409890175,
          0.04044667258858681,
          0.00834598857909441,
          -0.06291776895523071,
          -0.1420527845621109,
          0.052405547350645065,
          -0.0838644802570343,
          0.12450610846281052,
          -0.09975890070199966,
          0.22179357707500458,
          0.048632290214300156,
          -0.015884950757026672,
          0.16128532588481903,
          0.0936533585190773,
          -0.040079884231090546,
          0.15362124145030975,
          0.025651797652244568
        ],
        [
          0.2520948052406311,
          0.0544259212911129,
          -0.37773025035858154,
          -0.18536897003650665,
          0.18260322511196136,
          -0.06724797934293747,
          -0.07962939143180847,
          -0.05618508532643318,
          0.15189887583255768,
          -0.011120576411485672,
          -0.36883261799812317,
          0.12252575159072876,
          0.1286293864250183,
          0.18239142000675201,
          0.3110942840576172,
          -0.17322857677936554,
          -0.0721047893166542,
          0.03123060055077076,
          0.058301761746406555,
          0.16874812543392181,
          0.052381787449121475,
          0.07407578825950623,
          -0.45726755261421204,
          0.27478110790252686,
          0.0022616491187363863,
          -0.024239661172032356,
          0.2225036472082138,
          0.07545563578605652,
          -0.06809322535991669,
          0.015347590669989586,
          0.014695899561047554,
          -0.05974739044904709,
          -0.40362298488616943,
          -0.09669514000415802,
          0.35794076323509216,
          0.0548873096704483,
          0.2775903046131134,
          -0.050936415791511536,
          -0.49289223551750183,
          -0.0035407948307693005,
          0.15751788020133972,
          -0.14843197166919708,
          -0.0548752024769783,
          -0.04144089296460152,
          0.14681711792945862,
          0.12042880803346634,
          0.26346832513809204,
          0.2927965223789215,
          -0.19779285788536072,
          0.36793267726898193,
          -0.15019120275974274,
          0.07100223749876022,
          0.22209201753139496,
          0.2832130789756775,
          -0.0699409693479538,
          0.20589259266853333,
          0.043302785605192184,
          0.09096527099609375,
          -0.3434804677963257,
          -0.36539486050605774,
          0.10359371453523636,
          0.39820238947868347,
          -0.023716075345873833,
          0.178670734167099
        ],
        [
          -0.2689378261566162,
          -0.2116127610206604,
          0.4135327935218811,
          -0.07506352663040161,
          -0.002571223070845008,
          -0.11374057084321976,
          0.11619478464126587,
          0.042470533400774,
          -0.0627536028623581,
          -0.08441251516342163,
          0.3025074005126953,
          -0.03596826270222664,
          0.0012688207207247615,
          -0.05544615909457207,
          0.026724178344011307,
          -0.031183047220110893,
          -0.06040528416633606,
          -0.02903508022427559,
          -0.07893554866313934,
          0.0041701714508235455,
          -0.10958431661128998,
          -0.16634292900562286,
          0.20681707561016083,
          -0.06351891160011292,
          -0.15892653167247772,
          -0.09919285029172897,
          -0.01360979676246643,
          -0.0914166197180748,
          0.08747938275337219,
          -0.01838476024568081,
          -0.14039510488510132,
          0.05739402025938034,
          0.5296967625617981,
          -0.05680893361568451,
          0.11019392311573029,
          -0.08323068171739578,
          -0.14445088803768158,
          -0.06710372120141983,
          0.2379389852285385,
          -0.02749919705092907,
          0.015042382292449474,
          -0.05517857149243355,
          0.07502605020999908,
          0.29519960284233093,
          -0.12825675308704376,
          -0.07550229877233505,
          -0.12847483158111572,
          -0.1765088140964508,
          -0.0583568699657917,
          0.003285527927801013,
          -0.1369228959083557,
          0.2520638406276703,
          -0.03907402232289314,
          -0.04260126128792763,
          -0.32509833574295044,
          0.06672848761081696,
          -0.090516097843647,
          -0.3297075629234314,
          0.3580910563468933,
          0.21301421523094177,
          0.21929188072681427,
          -0.13820023834705353,
          -0.22527532279491425,
          0.03428395465016365
        ],
        [
          0.11152036488056183,
          0.16275031864643097,
          0.25190719962120056,
          0.137569397687912,
          0.040559373795986176,
          0.0055910153314471245,
          0.34074291586875916,
          -0.00390624045394361,
          0.021915405988693237,
          0.3284369707107544,
          -0.07351574301719666,
          0.06777949631214142,
          0.0884857177734375,
          0.1114264503121376,
          -0.05749749019742012,
          0.07798688858747482,
          0.11298103630542755,
          -0.03725263476371765,
          0.16621187329292297,
          0.06821434944868088,
          0.02788308635354042,
          -0.03565702214837074,
          -0.038528308272361755,
          0.06468594819307327,
          0.05524195358157158,
          -0.053054675459861755,
          0.02088247239589691,
          0.25287652015686035,
          0.054228197783231735,
          0.06239954009652138,
          -0.23212502896785736,
          0.26611533761024475,
          0.08782985806465149,
          0.030469205230474472,
          -0.3097579777240753,
          -0.0256121177226305,
          0.05989370122551918,
          0.04741862788796425,
          -0.06408336758613586,
          -0.13910025358200073,
          0.12143497169017792,
          -0.049195557832717896,
          0.16872595250606537,
          -0.029513224959373474,
          0.17378617823123932,
          0.07743125408887863,
          -0.010746421292424202,
          0.006330813281238079,
          0.05339605361223221,
          0.05580903962254524,
          0.1747528314590454,
          0.030170314013957977,
          0.11184313148260117,
          0.1473616361618042,
          -0.10200580209493637,
          -0.1411360204219818,
          0.1094699278473854,
          -0.13384684920310974,
          0.028219645842909813,
          0.18662859499454498,
          0.004827145487070084,
          -0.014135487377643585,
          0.21392613649368286,
          0.01089116558432579
        ],
        [
          0.181376650929451,
          0.08554216474294662,
          -0.06506158411502838,
          0.011336161755025387,
          0.10063605010509491,
          0.07034958899021149,
          0.04784573242068291,
          -0.027148528024554253,
          0.03443168103694916,
          0.2032521814107895,
          0.3787998855113983,
          0.21930383145809174,
          -0.01991579867899418,
          0.6422140002250671,
          0.14972946047782898,
          -0.0499396026134491,
          -0.03368101641535759,
          -0.13493040204048157,
          0.010213689878582954,
          0.2529120147228241,
          -0.1963476538658142,
          -0.1479591578245163,
          -0.31176427006721497,
          -0.04517381638288498,
          0.09440618008375168,
          -0.05241915583610535,
          0.009322432801127434,
          0.034265145659446716,
          -0.03360068053007126,
          -0.1909872442483902,
          -0.11054591089487076,
          0.054824378341436386,
          -0.13849085569381714,
          -0.11804141104221344,
          0.18599462509155273,
          -0.002855031518265605,
          0.012617811560630798,
          -0.26493507623672485,
          0.34877151250839233,
          0.012585937976837158,
          0.02681647799909115,
          -0.05418393388390541,
          -0.03247976675629616,
          -0.0859520211815834,
          0.08682773262262344,
          -0.2259034514427185,
          -0.04159291088581085,
          -0.01624143496155739,
          -0.17583265900611877,
          0.15636521577835083,
          0.03032289445400238,
          0.0243265051394701,
          0.13240472972393036,
          0.05659050866961479,
          -0.03714444115757942,
          -0.01222953014075756,
          0.05064596235752106,
          -0.1534363031387329,
          -0.010378160513937473,
          -0.07799684256315231,
          0.09189647436141968,
          0.06275292485952377,
          0.27004796266555786,
          -0.039237890392541885
        ],
        [
          -0.34317073225975037,
          0.03732713311910629,
          0.06442029774188995,
          -0.11569158732891083,
          -0.002683037891983986,
          -0.1867956817150116,
          -0.26748913526535034,
          -0.03142509609460831,
          -0.1787480264902115,
          0.02574756368994713,
          -0.17621290683746338,
          -0.2710517942905426,
          0.015463094227015972,
          0.2533709406852722,
          0.25554534792900085,
          -0.2745587229728699,
          -0.047221023589372635,
          0.015177343972027302,
          0.07323208451271057,
          -0.14691317081451416,
          -0.19938404858112335,
          -0.1287430375814438,
          -0.43994560837745667,
          0.13873891532421112,
          -0.11683037877082825,
          -0.040720731019973755,
          0.014654154889285564,
          -0.20998699963092804,
          -0.07773485779762268,
          -0.3582276701927185,
          0.021241873502731323,
          0.06346668303012848,
          0.05940849334001541,
          -0.191822350025177,
          0.2544628977775574,
          -0.07738272845745087,
          -0.047318048775196075,
          0.3125458359718323,
          -0.05150989815592766,
          -0.11905933916568756,
          0.07819361984729767,
          -0.005402600392699242,
          0.10997191071510315,
          0.2643670439720154,
          -0.25427284836769104,
          0.0823642686009407,
          0.053475271910429,
          0.13279958069324493,
          0.019284753128886223,
          -0.1553477942943573,
          -0.16956552863121033,
          0.15696199238300323,
          -0.01976778917014599,
          -0.136453315615654,
          -0.0025533291045576334,
          0.12683334946632385,
          0.3955563008785248,
          0.030689138919115067,
          0.5099580883979797,
          0.020645879209041595,
          -0.13707199692726135,
          -0.17483742535114288,
          -0.08428611606359482,
          0.22810105979442596
        ],
        [
          0.3241076171398163,
          0.1631152331829071,
          -0.5082095861434937,
          0.19633103907108307,
          -0.07451430708169937,
          0.12178143113851547,
          -0.023489145562052727,
          0.1813076138496399,
          -0.23542287945747375,
          0.013665217906236649,
          0.1622064858675003,
          0.059820935130119324,
          0.14932210743427277,
          0.02401917055249214,
          0.22988875210285187,
          -0.04653196036815643,
          -0.14771749079227448,
          0.04059423506259918,
          -0.10517050325870514,
          -0.09161543101072311,
          0.2019704282283783,
          0.1725674867630005,
          0.12675277888774872,
          -0.21343490481376648,
          0.02894018217921257,
          0.05989936366677284,
          -0.09197617322206497,
          -0.10209266096353531,
          -0.0803421288728714,
          -0.03767289221286774,
          0.1612369269132614,
          -0.007725154981017113,
          0.06419920921325684,
          0.11681287735700607,
          -0.03408127650618553,
          -0.1075434535741806,
          -0.03764374181628227,
          0.04802309349179268,
          -0.16276772320270538,
          -0.14539359509944916,
          0.01665703020989895,
          0.09220391511917114,
          0.07488071918487549,
          0.23267105221748352,
          0.20801042020320892,
          -0.05460440739989281,
          -0.008636709302663803,
          -0.2262258231639862,
          0.2037907838821411,
          0.3114200830459595,
          -0.11309216171503067,
          -0.8067209124565125,
          0.28726866841316223,
          0.3000548779964447,
          0.08740448951721191,
          -0.4940723180770874,
          0.11116134375333786,
          -0.09435125440359116,
          -0.052714407444000244,
          0.37021276354789734,
          -0.00326254079118371,
          0.01526117417961359,
          -0.030192583799362183,
          0.003586412640288472
        ],
        [
          -0.02548411302268505,
          -0.245750293135643,
          -0.010683221742510796,
          -0.00024417979875579476,
          0.06594374030828476,
          0.29700958728790283,
          0.016328919678926468,
          0.10020287334918976,
          0.49909549951553345,
          0.5331782102584839,
          0.006577171850949526,
          0.20892204344272614,
          0.022466372698545456,
          -0.006264019291847944,
          0.1647205501794815,
          0.09621959179639816,
          0.16948431730270386,
          -0.04367968440055847,
          -0.0599006824195385,
          0.23389628529548645,
          0.32112035155296326,
          0.20031635463237762,
          -0.046739060431718826,
          -0.131771981716156,
          0.12602393329143524,
          0.19204039871692657,
          -0.05436159297823906,
          0.13812009990215302,
          0.011430894955992699,
          0.4709923565387726,
          -0.03561372309923172,
          -0.059210099279880524,
          0.022872615605592728,
          -0.01869952864944935,
          0.36810022592544556,
          -0.0539085753262043,
          -0.020064594224095345,
          -0.04198656603693962,
          -0.010142581537365913,
          -0.11333608627319336,
          0.17188771069049835,
          0.06850502640008926,
          0.22037145495414734,
          0.32312628626823425,
          0.033251140266656876,
          -0.4811248779296875,
          0.40127214789390564,
          -0.18475843966007233,
          0.10676170140504837,
          -0.07081373780965805,
          0.10818710178136826,
          0.03323497250676155,
          -0.053840912878513336,
          0.08885253965854645,
          -0.11351204663515091,
          0.022663211449980736,
          0.07473337650299072,
          0.1681237518787384,
          -0.31920596957206726,
          0.09215570241212845,
          -0.021652543917298317,
          0.10348935425281525,
          0.3082369565963745,
          0.03044448047876358
        ],
        [
          -0.07797758281230927,
          -0.039558328688144684,
          -0.051960673183202744,
          -0.009266773238778114,
          -0.009250175207853317,
          0.0667601078748703,
          0.04004272446036339,
          0.044817015528678894,
          -0.015423174016177654,
          0.08014701306819916,
          -0.06144541874527931,
          -0.05720718950033188,
          -0.06597655266523361,
          -0.005296133924275637,
          -0.24865730106830597,
          -0.09727794677019119,
          -0.11982627958059311,
          0.06841513514518738,
          0.04516754671931267,
          -0.057764697819948196,
          0.10761653631925583,
          0.5331076979637146,
          0.0936155915260315,
          -0.31219884753227234,
          -0.00452951667830348,
          -0.5180960893630981,
          -0.05882802978157997,
          0.04971575736999512,
          -0.008301587775349617,
          -0.10025369375944138,
          0.008813956752419472,
          0.14964108169078827,
          0.04923795163631439,
          -0.054556556046009064,
          0.24721653759479523,
          -0.013184786774218082,
          -0.014903799630701542,
          -0.16936911642551422,
          0.1143786609172821,
          -0.06862438470125198,
          -0.10953398048877716,
          -0.0626773089170456,
          -0.013472107239067554,
          -0.025278199464082718,
          -0.1844726800918579,
          -0.10141570121049881,
          -0.07744736224412918,
          -0.12304691225290298,
          -0.0021028488408774137,
          -0.021033992990851402,
          -0.06436609476804733,
          -0.13291367888450623,
          -0.06497756391763687,
          -0.04815014824271202,
          0.042251091450452805,
          0.07459516078233719,
          -0.059119485318660736,
          0.0032922381069511175,
          -0.03107507899403572,
          0.02462288737297058,
          0.00641260389238596,
          0.02981516532599926,
          0.14493437111377716,
          0.004204373806715012
        ],
        [
          0.43090835213661194,
          0.13112647831439972,
          0.08824490010738373,
          0.0866154134273529,
          -0.050346728414297104,
          0.18151305615901947,
          0.2569834589958191,
          0.06279177218675613,
          0.14539889991283417,
          -0.024502050131559372,
          0.23426787555217743,
          0.1372196525335312,
          -0.028078939765691757,
          -0.15928597748279572,
          -0.3071209788322449,
          0.20624901354312897,
          -0.06223251670598984,
          -0.10334023088216782,
          -0.009796797297894955,
          0.10341721028089523,
          0.28078484535217285,
          0.11534231901168823,
          0.4202066659927368,
          -0.0423751026391983,
          0.12991443276405334,
          -0.020604202523827553,
          -0.0020580010022968054,
          0.11168728768825531,
          0.032109204679727554,
          0.4227091670036316,
          -0.0458679124712944,
          0.024277515709400177,
          -0.07436999678611755,
          0.10061311721801758,
          -0.24533140659332275,
          0.033623259514570236,
          0.056760434061288834,
          -0.38175758719444275,
          0.05876738578081131,
          -0.12261731177568436,
          -0.06298321485519409,
          -0.04501783847808838,
          -0.20653872191905975,
          -0.12597569823265076,
          0.24912099540233612,
          0.026996908709406853,
          0.15601012110710144,
          -0.09349790215492249,
          0.06651722639799118,
          0.21080733835697174,
          0.16721892356872559,
          -0.030055249109864235,
          0.05687018111348152,
          0.09387771040201187,
          0.15504801273345947,
          -0.20558443665504456,
          -0.231094092130661,
          0.06405195593833923,
          -0.1516987383365631,
          0.021651148796081543,
          0.20262302458286285,
          0.08619174361228943,
          -0.01944906823337078,
          -0.24206046760082245
        ],
        [
          0.04067818447947502,
          -0.0728125125169754,
          0.07363222539424896,
          0.08699377626180649,
          -0.027915144339203835,
          0.13816243410110474,
          0.6244657635688782,
          0.09688138961791992,
          -0.11193925887346268,
          0.3457574248313904,
          0.10914283245801926,
          -0.05159483477473259,
          -0.036365535110235214,
          0.021929416805505753,
          0.25596582889556885,
          -0.07683282345533371,
          0.039281994104385376,
          -0.03329332172870636,
          0.059535156935453415,
          0.09317836910486221,
          0.07251320779323578,
          -0.111318439245224,
          -0.009880430996418,
          0.09255161136388779,
          0.00571406027302146,
          -0.13829843699932098,
          -0.0033053401857614517,
          -0.14500880241394043,
          -0.1077897846698761,
          0.06108597666025162,
          0.03510606288909912,
          0.03440925478935242,
          0.04902997985482216,
          -0.00702657550573349,
          0.09627605974674225,
          -0.003657036926597357,
          -0.09261942654848099,
          0.025264644995331764,
          -0.23392857611179352,
          -0.15379810333251953,
          -0.030735326930880547,
          -0.1325448453426361,
          -0.07533891499042511,
          0.08888181298971176,
          0.03707979619503021,
          0.3553907573223114,
          0.05201765149831772,
          -0.0609615221619606,
          0.0009713504696264863,
          -0.10627401620149612,
          -0.0633159652352333,
          -0.10683857649564743,
          0.008557498455047607,
          0.09910986572504044,
          0.040134038776159286,
          -0.014746787957847118,
          0.014360133558511734,
          0.44430065155029297,
          0.02471029758453369,
          -0.36702409386634827,
          0.19704267382621765,
          0.050854675471782684,
          -0.1320863664150238,
          -0.3443039357662201
        ],
        [
          0.02486513741314411,
          -0.04821622744202614,
          -0.6454481482505798,
          -0.012071535922586918,
          0.063576340675354,
          0.205265074968338,
          0.07275179773569107,
          0.07233260571956635,
          0.09554271399974823,
          0.007967089302837849,
          -0.0909137949347496,
          0.01002521626651287,
          -0.03538365289568901,
          0.08045528829097748,
          -0.03508325666189194,
          -0.10507412999868393,
          -0.05625810846686363,
          -0.06261296570301056,
          -0.3076207935810089,
          -0.07186309248209,
          0.17974086105823517,
          -0.15747837722301483,
          0.04549837484955788,
          0.16145479679107666,
          -0.19831198453903198,
          -0.022443948313593864,
          -0.11452961713075638,
          -0.18444344401359558,
          -0.14324283599853516,
          0.019532451406121254,
          0.22373199462890625,
          0.013273119926452637,
          -0.033790770918130875,
          -0.06211079657077789,
          -0.02759954147040844,
          -0.04475797340273857,
          0.14237183332443237,
          0.07264421135187149,
          -0.009386499412357807,
          -0.008716778829693794,
          -0.8729913234710693,
          0.26246729493141174,
          -0.08048947155475616,
          0.10065126419067383,
          -0.026881199330091476,
          -0.058222584426403046,
          0.01071107853204012,
          -0.26355889439582825,
          0.4285474717617035,
          0.002318630227819085,
          0.23383784294128418,
          -0.9850068688392639,
          0.30405035614967346,
          -0.25590649247169495,
          0.28345856070518494,
          0.18781155347824097,
          -0.05394700542092323,
          0.17021296918392181,
          0.03868097439408302,
          -0.41844284534454346,
          0.04273385554552078,
          0.039940137416124344,
          0.12033475190401077,
          -0.07624410837888718
        ],
        [
          0.17132386565208435,
          0.23497435450553894,
          0.8046150207519531,
          1.032733678817749,
          -0.050497692078351974,
          0.24494218826293945,
          -0.05959649011492729,
          -0.0578908808529377,
          0.23923105001449585,
          -0.18803423643112183,
          -0.03101707622408867,
          -0.5794282555580139,
          0.35300007462501526,
          0.24686752259731293,
          -0.0017367613036185503,
          0.12008055299520493,
          -0.17641927301883698,
          0.12062127888202667,
          0.06036478281021118,
          0.09354517608880997,
          0.05804796516895294,
          -0.034570563584566116,
          0.6401727795600891,
          -0.2418258637189865,
          0.36741703748703003,
          -0.12820768356323242,
          -0.19682730734348297,
          -0.03616436570882797,
          -0.09032730013132095,
          -0.03584687039256096,
          -0.13272599875926971,
          0.0873013287782669,
          -0.0019052647985517979,
          0.8732917904853821,
          -0.20997482538223267,
          0.017691126093268394,
          -0.2335999608039856,
          0.14643962681293488,
          -0.26240232586860657,
          -0.08034942299127579,
          -1.9786700010299683,
          0.06470655649900436,
          0.11275985836982727,
          -0.30493855476379395,
          0.01183291058987379,
          0.11919105798006058,
          -0.17507167160511017,
          -0.3162699043750763,
          1.3182458877563477,
          0.008008093573153019,
          0.13576248288154602,
          -1.4117341041564941,
          -0.17682424187660217,
          -0.026923667639493942,
          1.249542236328125,
          -0.49169957637786865,
          -0.03995693475008011,
          0.08894306421279907,
          1.4630910158157349,
          -0.02974194847047329,
          1.3195455074310303,
          -0.24845583736896515,
          0.07754117250442505,
          0.19258981943130493
        ],
        [
          0.032584190368652344,
          -0.3131156861782074,
          1.3001799583435059,
          0.7245434522628784,
          0.005783591419458389,
          -0.41903769969940186,
          0.6384796500205994,
          0.2955724596977234,
          -0.2487393170595169,
          0.35801422595977783,
          0.20315948128700256,
          -0.07016251236200333,
          -0.25790175795555115,
          0.01253811176866293,
          -0.18749824166297913,
          -0.003720675827935338,
          -0.5002658367156982,
          0.04983168840408325,
          0.19661852717399597,
          -0.05769426375627518,
          -0.013838855549693108,
          0.2740844488143921,
          -0.02919412963092327,
          0.05072248727083206,
          -0.1708834320306778,
          0.2640641927719116,
          -0.21474891901016235,
          -0.03610881045460701,
          -0.0698261559009552,
          0.07732309401035309,
          0.06760318577289581,
          0.4443685710430145,
          -0.05216421186923981,
          -0.3547244369983673,
          -0.13713999092578888,
          0.016313422471284866,
          -0.4876655042171478,
          0.05151258409023285,
          0.38248738646507263,
          -0.02538994885981083,
          0.3656471073627472,
          0.2762158513069153,
          -0.2386970967054367,
          -0.08361782133579254,
          0.1453639417886734,
          0.13298410177230835,
          0.07086118310689926,
          -0.07619712501764297,
          -0.024527138099074364,
          -0.08591458201408386,
          -0.12693223357200623,
          1.1619406938552856,
          -0.13494668900966644,
          -1.1560980081558228,
          1.2703144550323486,
          -0.6578856706619263,
          0.30058857798576355,
          -0.025461003184318542,
          0.07206417620182037,
          0.6666284799575806,
          -0.06514482200145721,
          -0.6837723255157471,
          0.3124576508998871,
          0.48481640219688416
        ],
        [
          -0.19752968847751617,
          -0.20567134022712708,
          0.1347600668668747,
          -0.33271026611328125,
          -0.07850475609302521,
          -0.16113848984241486,
          0.29832494258880615,
          -0.1540394127368927,
          -0.15833593904972076,
          0.22744284570217133,
          0.07776884734630585,
          -0.05266165733337402,
          0.22446957230567932,
          -0.11472248286008835,
          -0.07829883694648743,
          0.028638022020459175,
          -0.10644345730543137,
          -0.11319717019796371,
          -0.007672406733036041,
          -0.015923529863357544,
          -0.05813054367899895,
          -0.13206768035888672,
          -0.09433160722255707,
          -0.1807384341955185,
          -0.07451020181179047,
          0.06304796040058136,
          -0.0829186886548996,
          0.24784085154533386,
          -0.08132664859294891,
          0.052028365433216095,
          -0.7937717437744141,
          0.29086750745773315,
          0.06805164366960526,
          -0.07717796415090561,
          0.2510503828525543,
          0.009510842151939869,
          -0.2002340704202652,
          0.23495490849018097,
          0.2594398856163025,
          0.0011490997858345509,
          -0.6115580201148987,
          -0.38705164194107056,
          0.043466269969940186,
          -0.09923510253429413,
          -0.011530045419931412,
          -0.14596208930015564,
          0.011077884584665298,
          -0.10180655121803284,
          -0.0860913023352623,
          0.10533948987722397,
          0.04118354618549347,
          0.062711201608181,
          -0.07465234398841858,
          -2.0573890209198,
          0.7369844317436218,
          -0.06136056408286095,
          -0.2831141948699951,
          0.1320440173149109,
          -0.097323939204216,
          0.1727316826581955,
          -0.14115330576896667,
          -0.06220655143260956,
          0.25202539563179016,
          -0.044613927602767944
        ],
        [
          -0.06641564518213272,
          -0.12154483050107956,
          0.013109850697219372,
          -0.12222590297460556,
          0.13433925807476044,
          0.32604625821113586,
          -0.0607244111597538,
          0.02833613194525242,
          0.10832913219928741,
          -0.03394673392176628,
          -0.0888388529419899,
          -0.0883074700832367,
          0.04751690849661827,
          -0.032806627452373505,
          0.03082980588078499,
          0.042716510593891144,
          -0.03474562615156174,
          -0.062232837080955505,
          0.03882302716374397,
          0.05002475529909134,
          0.029109640046954155,
          -0.07408705353736877,
          0.1229473426938057,
          -0.02008099853992462,
          0.2769763767719269,
          0.06990084052085876,
          0.059961602091789246,
          0.05934824422001839,
          -0.12127657979726791,
          -0.036094751209020615,
          0.4769585132598877,
          0.06488139182329178,
          0.013497279956936836,
          0.0957401692867279,
          0.03731057047843933,
          0.05638785660266876,
          -0.10180218517780304,
          0.05887819826602936,
          0.018585652112960815,
          -0.021019399166107178,
          -0.8450973033905029,
          0.5346677899360657,
          0.17127825319766998,
          0.0005233542178757489,
          0.2596977949142456,
          -0.021849049255251884,
          0.0077329156920313835,
          -0.1190052404999733,
          0.09313405305147171,
          0.056447189301252365,
          0.15449842810630798,
          -1.0878419876098633,
          0.17291226983070374,
          -0.10326297581195831,
          -0.16186515986919403,
          0.20146989822387695,
          -0.06409787386655807,
          0.21324101090431213,
          0.0940820500254631,
          -0.808990478515625,
          0.1986708641052246,
          0.13003280758857727,
          0.08274278044700623,
          0.010382631793618202
        ],
        [
          -0.06966178864240646,
          -0.028845977038145065,
          0.0543387196958065,
          -0.13776731491088867,
          -0.11710914969444275,
          0.29513707756996155,
          0.07563404738903046,
          0.3080400824546814,
          0.7796758413314819,
          0.3631136119365692,
          -0.026099320501089096,
          0.01547129824757576,
          -0.0872589498758316,
          0.014878463931381702,
          -0.09244303405284882,
          -0.0424223355948925,
          0.2772347927093506,
          0.11736389249563217,
          0.3397216200828552,
          0.12625905871391296,
          0.3151072561740875,
          0.032422106713056564,
          -0.0725460946559906,
          -0.4987821578979492,
          -0.2591327130794525,
          -0.033836446702480316,
          -0.24616308510303497,
          0.15285781025886536,
          -0.014995815232396126,
          -0.05027484893798828,
          -0.12839798629283905,
          -0.020777219906449318,
          -0.015767903998494148,
          -0.16499605774879456,
          0.16576993465423584,
          -0.044903337955474854,
          0.04926268756389618,
          0.3975306749343872,
          0.4379505515098572,
          -0.1098259910941124,
          0.10850345343351364,
          0.13632550835609436,
          0.30583006143569946,
          -0.024588236585259438,
          0.15779487788677216,
          0.1540559083223343,
          0.11720483750104904,
          -0.3578290641307831,
          0.026600290089845657,
          0.15607625246047974,
          -0.0006431391229853034,
          0.0905616357922554,
          -0.004682990722358227,
          -0.08311503380537033,
          -0.1011039987206459,
          -0.12994344532489777,
          -0.13446250557899475,
          0.41620463132858276,
          -0.05551909655332565,
          -0.9171546697616577,
          -0.06546557694673538,
          0.01715672016143799,
          -0.13039103150367737,
          -0.022576961666345596
        ],
        [
          -0.08791956305503845,
          0.09866949915885925,
          -0.0013976843329146504,
          -0.047857124358415604,
          -0.006359958555549383,
          0.10958737134933472,
          0.15746116638183594,
          -0.009327495470643044,
          -0.2634958326816559,
          0.012245658785104752,
          0.014231194742023945,
          -0.028549594804644585,
          -0.06953229010105133,
          0.02370430715382099,
          -0.1659833937883377,
          0.061717208474874496,
          0.22343537211418152,
          -0.03437894955277443,
          0.10368828475475311,
          -0.1727643609046936,
          0.07921715825796127,
          0.08055407553911209,
          0.025604596361517906,
          -0.38358303904533386,
          -0.09900470823049545,
          -0.10110105574131012,
          -0.1157403215765953,
          -0.06830651313066483,
          -0.03562767058610916,
          -0.1278885304927826,
          0.0691927969455719,
          0.019122743979096413,
          -0.021997354924678802,
          -0.16522008180618286,
          -0.016957033425569534,
          -0.1295844465494156,
          -0.016419237479567528,
          0.1632402390241623,
          0.02854829840362072,
          -0.05606904625892639,
          0.026754779741168022,
          -0.06096651032567024,
          0.007444415707141161,
          0.14334098994731903,
          0.05008617416024208,
          0.4245823323726654,
          0.05719274654984474,
          -0.22387045621871948,
          0.02974899299442768,
          -0.07242291420698166,
          -0.018879564478993416,
          -0.1500328928232193,
          0.09194787591695786,
          -0.03192795813083649,
          0.02889745496213436,
          0.06421221792697906,
          -0.05956455320119858,
          -0.007548576686531305,
          0.0004301894223317504,
          0.06551334261894226,
          0.11505050957202911,
          0.05083427578210831,
          0.003330969251692295,
          -0.11633465439081192
        ],
        [
          -0.21622464060783386,
          -0.009470576420426369,
          0.6284960508346558,
          -0.13810104131698608,
          -0.01857661083340645,
          -0.20460273325443268,
          0.04603993147611618,
          0.04706282168626785,
          0.0506659634411335,
          -0.15188583731651306,
          0.00764847407117486,
          -0.28156062960624695,
          -0.07302099466323853,
          0.07059339433908463,
          -0.3189146816730499,
          0.10726647824048996,
          -0.061202384531497955,
          -0.07109908014535904,
          -0.05797268822789192,
          -0.02068670280277729,
          0.15702658891677856,
          -0.04776955768465996,
          -0.026791155338287354,
          -0.34860852360725403,
          0.23376813530921936,
          0.05163335055112839,
          0.12012297660112381,
          0.20534755289554596,
          0.06194954365491867,
          0.2164267748594284,
          -0.20014622807502747,
          0.020391834899783134,
          -0.005215049255639315,
          -0.08451949805021286,
          -0.06299527734518051,
          -0.0030600531026721,
          -0.04297372326254845,
          -0.03996104747056961,
          0.08442453294992447,
          -0.05841444805264473,
          0.28119054436683655,
          -0.12183168530464172,
          0.1091214269399643,
          0.12569035589694977,
          0.15642571449279785,
          -0.029631298035383224,
          0.02067801170051098,
          -0.25536540150642395,
          0.33316272497177124,
          -0.11261923611164093,
          0.16470946371555328,
          0.34097111225128174,
          -0.06745059788227081,
          0.07351124286651611,
          -0.3236786127090454,
          -0.03602193668484688,
          -0.10969728231430054,
          -0.20238125324249268,
          0.17659646272659302,
          0.08322444558143616,
          -0.29651105403900146,
          -0.07806593924760818,
          -0.1736668050289154,
          -0.06608043611049652
        ],
        [
          -0.4464758336544037,
          0.5338230133056641,
          0.13020265102386475,
          -0.008995769545435905,
          0.02271193079650402,
          -0.07565795630216599,
          0.22246475517749786,
          -0.009296572767198086,
          0.41123226284980774,
          0.2543855309486389,
          -0.059909235686063766,
          -0.024510402232408524,
          -0.04938525706529617,
          -0.030345577746629715,
          0.016928179189562798,
          -0.21187664568424225,
          -0.15669357776641846,
          -0.11753763258457184,
          -0.20322495698928833,
          0.07780154049396515,
          0.2565280795097351,
          -0.13478988409042358,
          -0.008345632813870907,
          -0.2757154405117035,
          -0.18310023844242096,
          -0.08423443883657455,
          -0.22215917706489563,
          -0.14096814393997192,
          0.08148317039012909,
          0.12326376885175705,
          -0.014748702757060528,
          0.14418429136276245,
          -0.062284454703330994,
          -0.06164710968732834,
          0.017138056457042694,
          0.010690120048820972,
          0.1815192848443985,
          -0.31503352522850037,
          0.3414246141910553,
          0.05300535261631012,
          -0.014931752346456051,
          -0.038938865065574646,
          0.15311123430728912,
          0.17863771319389343,
          -0.13132256269454956,
          0.3615531623363495,
          0.21627791225910187,
          -0.22227004170417786,
          -0.013538130559027195,
          -0.025762101635336876,
          0.044233351945877075,
          0.2127877175807953,
          -0.03335865959525108,
          0.009026870131492615,
          0.09204136580228806,
          0.058315444737672806,
          0.14516152441501617,
          0.2724449932575226,
          -0.02704724110662937,
          -0.0403829850256443,
          0.0517699271440506,
          -0.10589855164289474,
          -0.20120716094970703,
          0.3087853789329529
        ],
        [
          0.05604872107505798,
          -0.09204735606908798,
          -0.244188591837883,
          -0.1771853268146515,
          0.12742158770561218,
          0.20003312826156616,
          0.014602521434426308,
          0.036325130611658096,
          0.10553618520498276,
          -0.046828195452690125,
          0.14223000407218933,
          -0.0046537830494344234,
          0.03029216267168522,
          -0.7665294408798218,
          0.2119438797235489,
          -0.1642807275056839,
          0.02073648013174534,
          -0.06574221700429916,
          0.1585761308670044,
          0.45094624161720276,
          -0.14881159365177155,
          -0.055869974195957184,
          0.06237677484750748,
          0.0024978078436106443,
          0.0899214968085289,
          -0.080464668571949,
          0.05988394841551781,
          -0.020564833655953407,
          -0.028367795050144196,
          0.26581698656082153,
          -0.027190987020730972,
          -0.08213439583778381,
          0.4232472777366638,
          -0.16575953364372253,
          0.2880909740924835,
          0.008939865045249462,
          0.12406492233276367,
          0.1403208076953888,
          -0.015646306797862053,
          -0.0157502219080925,
          0.1146165132522583,
          -0.030194448307156563,
          -0.3331272602081299,
          0.03391736000776291,
          0.04205737262964249,
          -0.3010910451412201,
          -0.10095135122537613,
          0.04348740354180336,
          -0.23354415595531464,
          0.16768066585063934,
          -0.10282731801271439,
          0.04610590264201164,
          0.14390483498573303,
          0.2082607001066208,
          -0.21358531713485718,
          0.10724586993455887,
          0.23669028282165527,
          -0.07320404052734375,
          -0.22851866483688354,
          -0.2068866342306137,
          -0.09052848070859909,
          0.27345842123031616,
          -0.038715001195669174,
          0.10359807312488556
        ],
        [
          0.12269434332847595,
          -0.03691072389483452,
          1.8365428331890143e-05,
          -0.13062350451946259,
          0.24291005730628967,
          -0.035828232765197754,
          0.12839050590991974,
          0.06591212749481201,
          0.20482203364372253,
          0.19261345267295837,
          0.11579947173595428,
          0.18498817086219788,
          -0.0743895173072815,
          -0.30134159326553345,
          0.05439518764615059,
          -0.0717657133936882,
          0.21940134465694427,
          -0.028879929333925247,
          0.23325510323047638,
          -0.3130137622356415,
          -0.03125433996319771,
          0.11368992179632187,
          0.04194258153438568,
          -0.03961803764104843,
          0.13821052014827728,
          -0.09746265411376953,
          0.17118415236473083,
          0.10922855883836746,
          -0.015789881348609924,
          0.1010793149471283,
          -0.16195011138916016,
          0.002570976037532091,
          -0.07866192609071732,
          -0.24961718916893005,
          -0.06962116807699203,
          -0.0950968787074089,
          0.08244524896144867,
          0.20644956827163696,
          0.2350546419620514,
          0.04439045861363411,
          0.1094328761100769,
          -0.011558527126908302,
          0.21407853066921234,
          -0.02194642834365368,
          0.07671300321817398,
          0.5882948040962219,
          0.10283181816339493,
          0.08342206478118896,
          -0.33146730065345764,
          0.060599394142627716,
          -0.09190799295902252,
          0.10900425910949707,
          0.190416157245636,
          0.18638890981674194,
          -0.20037591457366943,
          0.032223038375377655,
          0.09214962273836136,
          -0.2517445981502533,
          -0.2707493305206299,
          0.14052361249923706,
          -0.14061124622821808,
          0.2356179803609848,
          0.015465711243450642,
          0.015855539590120316
        ],
        [
          0.06360888481140137,
          0.030213572084903717,
          0.18704651296138763,
          0.28670841455459595,
          -0.1323198825120926,
          -0.03911672905087471,
          0.13292793929576874,
          -0.02033901959657669,
          -0.12521344423294067,
          0.05518437176942825,
          -0.09472862631082535,
          -0.1531490683555603,
          -0.24639694392681122,
          0.0398220419883728,
          -0.1423155963420868,
          0.04058720916509628,
          -0.05348601192235947,
          -0.07507012784481049,
          -0.30988839268684387,
          -0.0869658887386322,
          -0.15161438286304474,
          -0.13568000495433807,
          0.26641616225242615,
          0.26216617226600647,
          -0.03200535476207733,
          0.02628038078546524,
          -0.2112075537443161,
          0.14544010162353516,
          0.06155715882778168,
          0.054362550377845764,
          0.469067245721817,
          0.016671137884259224,
          -0.06460681557655334,
          -0.3756132125854492,
          0.1545785814523697,
          0.03709269315004349,
          0.2111339271068573,
          0.1030522808432579,
          0.08830951154232025,
          -0.01880202442407608,
          -0.1572771519422531,
          -0.0938628539443016,
          -0.21854090690612793,
          0.08780143409967422,
          0.6794537305831909,
          0.03215983882546425,
          -0.04115699231624603,
          0.41840454936027527,
          -0.9381840825080872,
          -0.1263488531112671,
          0.40749406814575195,
          -0.29852452874183655,
          0.24465656280517578,
          -0.08862241357564926,
          -0.21322812139987946,
          -0.06673301756381989,
          -0.007043877150863409,
          -0.11146162450313568,
          -0.2079559564590454,
          -0.2313407063484192,
          0.32375872135162354,
          -0.16912835836410522,
          -0.020490920171141624,
          0.022982440888881683
        ],
        [
          0.031631432473659515,
          0.08803872019052505,
          0.2688741087913513,
          0.09450934082269669,
          -0.06591125577688217,
          -0.026221543550491333,
          0.06006684899330139,
          -0.28112879395484924,
          -0.2663646638393402,
          0.2827910780906677,
          0.02410213276743889,
          -0.047853320837020874,
          -0.03696231171488762,
          0.05297673121094704,
          0.040295764803886414,
          0.011722310446202755,
          -0.07029716670513153,
          0.0030723437666893005,
          -0.16307209432125092,
          -0.0072631798684597015,
          -0.06713563948869705,
          0.036889296025037766,
          0.11145501583814621,
          -0.04425925016403198,
          -0.06303003430366516,
          0.0631115585565567,
          0.0422479622066021,
          0.22960226237773895,
          -0.030246399343013763,
          0.03724357858300209,
          0.5047444105148315,
          0.10617998987436295,
          0.02038530446588993,
          0.016353463754057884,
          -0.15331876277923584,
          0.0011650314554572105,
          0.03600288927555084,
          0.08698706328868866,
          0.030602900311350822,
          -0.0982288345694542,
          0.42584607005119324,
          0.1258312314748764,
          0.19961221516132355,
          -0.035939015448093414,
          -0.13636872172355652,
          0.0810491293668747,
          -0.16502802073955536,
          0.0816475972533226,
          -0.03179322928190231,
          0.10268080234527588,
          0.1777312457561493,
          0.32275038957595825,
          -0.020298244431614876,
          -0.3189491629600525,
          -0.1273314654827118,
          0.051551658660173416,
          0.013871981762349606,
          -0.06742887943983078,
          0.05471320450305939,
          0.26094508171081543,
          0.12676817178726196,
          -0.1568257361650467,
          0.21469973027706146,
          0.21983011066913605
        ],
        [
          0.0793120339512825,
          -0.134440079331398,
          0.060599640011787415,
          0.09772763401269913,
          -0.1652483344078064,
          0.1788233071565628,
          -0.45577168464660645,
          0.07507587969303131,
          -0.2288801223039627,
          0.26655325293540955,
          -0.4354029595851898,
          0.051024582237005234,
          -0.22790992259979248,
          0.026983216404914856,
          -0.10888157784938812,
          0.0972251370549202,
          0.056119706481695175,
          -0.12292146682739258,
          0.3617806136608124,
          0.327308714389801,
          0.009285008534789085,
          -0.0421924851834774,
          -0.19202671945095062,
          -0.5406069755554199,
          -0.14489901065826416,
          0.028768353164196014,
          -0.08122535049915314,
          -0.07665245234966278,
          -0.07467745989561081,
          -0.1760193109512329,
          0.056432172656059265,
          -0.08834736049175262,
          0.17058536410331726,
          0.038927555084228516,
          -0.158610537648201,
          -0.10416965931653976,
          -0.043989185243844986,
          0.1430966854095459,
          0.29824456572532654,
          -0.05754280462861061,
          0.08170559257268906,
          0.02201421745121479,
          -0.07440344244241714,
          0.10160354524850845,
          0.061460334807634354,
          -0.002389177680015564,
          -0.033263225108385086,
          -0.170549213886261,
          -0.20521649718284607,
          -0.038590796291828156,
          0.048828575760126114,
          -0.25752365589141846,
          0.10886099934577942,
          0.14973999559879303,
          -0.05487373471260071,
          -0.12736020982265472,
          -0.04269644245505333,
          -0.2819425165653229,
          0.08556386083364487,
          0.10929806530475616,
          0.05255061760544777,
          0.13160566985607147,
          -0.13496266305446625,
          0.31359410285949707
        ],
        [
          0.36612749099731445,
          -0.29841870069503784,
          0.4493538737297058,
          -0.06850702315568924,
          0.08869697898626328,
          -0.0720594972372055,
          -0.00287560373544693,
          0.09297330677509308,
          -0.08241107314825058,
          -0.04852944239974022,
          -0.022853827103972435,
          -0.29306602478027344,
          -0.023786768317222595,
          -0.1445082575082779,
          -0.024343619123101234,
          -0.04960007220506668,
          -0.10795250535011292,
          -0.09348104894161224,
          -0.2197185903787613,
          -0.0701543465256691,
          0.054347746074199677,
          0.036751676350831985,
          0.045353300869464874,
          -0.12797166407108307,
          -0.5312290787696838,
          0.28324905037879944,
          -0.23781968653202057,
          -0.18817740678787231,
          -0.06398970633745193,
          -0.08896707743406296,
          -0.15320120751857758,
          0.012680409476161003,
          0.045520082116127014,
          -0.685516357421875,
          0.2699803411960602,
          -0.07300218939781189,
          -0.19680462777614594,
          0.11291760206222534,
          0.06222744658589363,
          -0.10475091636180878,
          -0.1818990558385849,
          0.16054275631904602,
          0.18070439994335175,
          0.022791516035795212,
          -0.4580070376396179,
          -0.12499108910560608,
          -0.08556757867336273,
          -0.29631057381629944,
          0.10894305258989334,
          -0.24054446816444397,
          0.1482749581336975,
          0.10087435692548752,
          -0.13521631062030792,
          -0.4397346079349518,
          -0.3840755224227905,
          -0.0582091398537159,
          0.11182861030101776,
          -0.19615760445594788,
          0.35821443796157837,
          0.05078502371907234,
          0.17659544944763184,
          -0.33095937967300415,
          0.08479174971580505,
          -0.2630005180835724
        ],
        [
          -0.05407392978668213,
          0.10935324430465698,
          -0.022267213091254234,
          0.1105344370007515,
          0.010577138513326645,
          0.10724647343158722,
          -0.1677243411540985,
          -0.009011211805045605,
          -0.10498180240392685,
          0.25763511657714844,
          0.10275989025831223,
          -0.0004436170565895736,
          -0.3143918514251709,
          -0.015209020115435123,
          -0.03943156078457832,
          0.6515122056007385,
          0.08419806510210037,
          0.0860663577914238,
          0.09561692178249359,
          -0.10847601294517517,
          0.16924482583999634,
          0.03341405838727951,
          0.2033771127462387,
          0.16465115547180176,
          -0.1266804337501526,
          0.02104438841342926,
          0.0037089060060679913,
          -0.18390049040317535,
          -0.030040768906474113,
          -0.0342707484960556,
          0.14649726450443268,
          -0.04557822272181511,
          -0.16736766695976257,
          -0.039739396423101425,
          0.023163657635450363,
          -0.0047140284441411495,
          0.036849282681941986,
          -0.05811333656311035,
          -0.16021618247032166,
          -0.04389932006597519,
          -0.2283421903848648,
          0.011862417683005333,
          -0.2538762092590332,
          1.4805883169174194,
          -0.02925926074385643,
          0.03635970130562782,
          0.10840266942977905,
          0.015668543055653572,
          0.0583183653652668,
          -0.1237967386841774,
          -0.18190963566303253,
          -0.23677098751068115,
          0.006091558374464512,
          0.0058723557740449905,
          -0.04028531536459923,
          -0.3451808989048004,
          -0.0032374379225075245,
          -0.015091236680746078,
          -0.09076263010501862,
          -0.10174825042486191,
          -0.051755815744400024,
          0.014149815775454044,
          -0.0461287796497345,
          0.013060312718153
        ],
        [
          -0.15544047951698303,
          0.09219960123300552,
          0.24808020889759064,
