{
  "model_type": "DeepONet",
  "meta": {
    "input_dim": 11,
    "output_shape": null,
    "param_bounds": [
      [
        0.465067982673645,
        -1.009989619255066,
        0.020255614072084427,
        0.008503089658915997,
        0.008501525036990643,
        0.008502271957695484,
        0.008500201627612114,
        0.008500919677317142,
        0.00850131269544363,
        0.00850070733577013,
        0.008517594076693058
      ],
      [
        4.034968852996826,
        0.009969227947294712,
        0.5047438740730286,
        0.1614939123392105,
        0.16149897873401642,
        0.1614949256181717,
        0.1614999920129776,
        0.16149897873401642,
        0.1614999771118164,
        0.1614999920129776,
        0.1614978015422821
      ]
    ],
    "output_scaler": {
      "mean_": [
        0.2728594934465012
      ],
      "scale_": [
        0.10299108538980137
      ]
    },
    "strikes": [
      0.5,
      0.6000000238418579,
      0.699999988079071,
      0.800000011920929,
      0.8999999761581421,
      1.0,
      1.100000023841858,
      1.2000000476837158,
      1.2999999523162842,
      1.399999976158142,
      1.5
    ],
    "maturities": [
      0.10000000149011612,
      0.30000001192092896,
      0.5,
      0.699999988079071,
      0.8999999761581421,
      1.100000023841858,
      1.2999999523162842,
      1.5,
      1.7000000476837158,
      1.899999976158142,
      2.0999999046325684
    ]
  },
  "layers": [],
  "branch_layers": [
    {
      "W": [
        [
          -0.19374343752861023,
          0.0336136557161808,
          0.2630876302719116,
          -0.08567328751087189,
          0.2546667456626892,
          0.4387601613998413,
          -0.09458328038454056,
          0.3775808811187744,
          0.018510228022933006,
          -0.35484579205513,
          -0.15127968788146973,
          -0.2680588960647583,
          -0.09658311307430267,
          -0.3608260154724121,
          0.31303951144218445,
          -0.2964537739753723,
          -0.014986141584813595,
          -0.21412020921707153,
          0.5346901416778564,
          0.048342347145080566,
          -0.4503529667854309,
          0.2870759963989258,
          0.5336180329322815,
          0.6830723881721497,
          -0.13310493528842926,
          0.12296754121780396,
          -0.14126478135585785,
          -0.1818968802690506,
          -0.7375593781471252,
          -0.08299550414085388,
          0.04530817270278931,
          -0.13061341643333435,
          0.030606377869844437,
          -0.2675776779651642,
          0.18127678334712982,
          -0.14026983082294464,
          -0.05217323824763298,
          0.19317007064819336,
          0.0018591147381812334,
          -0.14759685099124908,
          -0.23250612616539001,
          -0.053345389664173126,
          0.38497406244277954,
          -0.38024580478668213,
          0.306641161441803,
          -0.21921570599079132,
          0.0217712614685297,
          0.26217156648635864,
          0.04877324774861336,
          0.1693219542503357,
          -0.33389830589294434,
          0.3577587306499481,
          0.39685219526290894,
          0.10102040320634842,
          0.16309568285942078,
          -0.27012255787849426,
          -0.42283764481544495,
          0.2168029546737671,
          -0.05285153165459633,
          -0.23010241985321045,
          0.24290873110294342,
          -0.22513821721076965,
          -0.09892356395721436,
          -0.01079393457621336
        ],
        [
          0.029241178184747696,
          -0.03583194687962532,
          0.008865437470376492,
          0.0067352778278291225,
          -0.10379791259765625,
          -0.22153010964393616,
          -0.26347821950912476,
          -0.06199808046221733,
          -0.29848477244377136,
          0.057185154408216476,
          0.03759029507637024,
          -0.007779876701533794,
          -0.005702512338757515,
          0.012907627038657665,
          0.08084680140018463,
          -0.07747004181146622,
          -0.02982187084853649,
          0.1806732714176178,
          0.02134742960333824,
          0.4349304437637329,
          0.2257549911737442,
          0.328125923871994,
          -0.03719177469611168,
          -0.0009364833240397274,
          0.03817101940512657,
          -0.9291017651557922,
          -0.12970316410064697,
          0.044407688081264496,
          -0.0029186131432652473,
          0.009257498197257519,
          0.4571629464626312,
          -0.01335910614579916,
          -0.03444482386112213,
          -0.30463075637817383,
          0.4798448383808136,
          -0.7024603486061096,
          -0.5053272247314453,
          -0.05243087187409401,
          -0.01581364870071411,
          0.026057204231619835,
          0.040396977216005325,
          0.0015810540644451976,
          -0.3046891391277313,
          0.05194079503417015,
          -0.20796500146389008,
          0.022026963531970978,
          -0.05058861896395683,
          -0.0304858461022377,
          -0.20570947229862213,
          0.012604639865458012,
          -0.0442156158387661,
          -0.010004187934100628,
          -0.18503287434577942,
          0.00096870370907709,
          -0.08753897994756699,
          0.024437259882688522,
          0.026794232428073883,
          0.03036784566938877,
          -0.0031272037886083126,
          0.030668657273054123,
          -0.034153904765844345,
          0.02260863408446312,
          0.27456384897232056,
          -0.14908002316951752
        ],
        [
          0.0678732842206955,
          0.005370709113776684,
          -0.5764300227165222,
          0.04169042408466339,
          0.12363936752080917,
          -0.08082309365272522,
          0.11008583009243011,
          0.14340046048164368,
          0.003183047752827406,
          -0.13471905887126923,
          0.08481933176517487,
          0.6017951965332031,
          0.02799982950091362,
          -0.1673533022403717,
          0.007644944824278355,
          -0.00579456239938736,
          0.027221819385886192,
          0.3642258048057556,
          -0.23689265549182892,
          -0.03288096562027931,
          0.07889417558908463,
          -0.25505825877189636,
          0.2754424214363098,
          -0.24776579439640045,
          -0.06002810224890709,
          -0.044495414942502975,
          0.23245084285736084,
          0.17008455097675323,
          0.26832112669944763,
          0.08219898492097855,
          0.0398634672164917,
          0.07047089189291,
          -0.006283252965658903,
          0.2365846186876297,
          -0.007617566268891096,
          0.11539142578840256,
          -0.044030748307704926,
          -0.5975589156150818,
          0.0004854323051404208,
          -0.07048511505126953,
          -0.15754564106464386,
          0.05434572696685791,
          -0.0751229077577591,
          -0.09595995396375656,
          -0.7616320848464966,
          -0.027188491076231003,
          0.03294980153441429,
          0.09871188551187515,
          -0.028488807380199432,
          -0.7846912145614624,
          -0.34791985154151917,
          0.30104860663414,
          -0.19817189872264862,
          -0.7697125673294067,
          0.09590283781290054,
          -0.1458645612001419,
          -0.22531142830848694,
          -0.12565401196479797,
          0.0442996583878994,
          -0.09843948483467102,
          0.05923391878604889,
          -0.1486995667219162,
          0.23730817437171936,
          0.006248575635254383
        ],
        [
          -0.02407001331448555,
          0.027320120483636856,
          0.006128414999693632,
          -0.05870368331670761,
          -0.013010695576667786,
          -0.049338020384311676,
          -0.42126911878585815,
          -0.1784827560186386,
          0.04625551030039787,
          0.1655452400445938,
          -0.034631483256816864,
          -0.002659987425431609,
          -0.06514845043420792,
          -0.014160530641674995,
          -0.06960111856460571,
          0.06443329155445099,
          -0.12355157732963562,
          0.03259945660829544,
          0.04609760642051697,
          0.0030517212580889463,
          0.05087851732969284,
          -0.024241631850600243,
          0.019269714131951332,
          0.03129823878407478,
          -0.003973919432610273,
          0.04439181089401245,
          0.09531868994235992,
          -0.3246862590312958,
          -0.03671223297715187,
          -0.5599140524864197,
          0.6590031385421753,
          -0.11275694519281387,
          -0.2839871942996979,
          0.023068895563483238,
          0.014461702667176723,
          0.030428115278482437,
          -0.7315950393676758,
          0.00857185572385788,
          -0.747487485408783,
          -0.001001852797344327,
          -0.01029646210372448,
          -0.689893901348114,
          0.02849767543375492,
          -0.013862723484635353,
          0.030075177550315857,
          -0.025666797533631325,
          -0.174459770321846,
          0.005732438527047634,
          0.20834225416183472,
          0.0011327271349728107,
          -0.024662069976329803,
          0.001166801550425589,
          0.0061257146298885345,
          -0.0009307522559538484,
          -0.019894152879714966,
          -0.0016794647090137005,
          -0.021794462576508522,
          0.28169071674346924,
          -0.09165221452713013,
          -0.00423125596717,
          0.00801762007176876,
          0.0037927802186459303,
          -0.039849355816841125,
          0.12686944007873535
        ],
        [
          -0.0783824697136879,
          0.07325470447540283,
          -0.021303275600075722,
          -0.16420812904834747,
          -0.006420911755412817,
          -0.030384419485926628,
          0.0046092793345451355,
          -0.39415666460990906,
          0.028932029381394386,
          0.3689623177051544,
          -0.18756943941116333,
          0.023134376853704453,
          -0.3035018742084503,
          -0.032855287194252014,
          -0.23655588924884796,
          0.22371292114257812,
          -0.712353527545929,
          -0.0008096726960502565,
          -0.013697193935513496,
          -0.06496533006429672,
          0.030333826318383217,
          0.39299625158309937,
          0.01337380614131689,
          0.014636607840657234,
          -0.0037188087590038776,
          0.020550144836306572,
          0.03743412718176842,
          0.006488631945103407,
          -0.014263448305428028,
          -0.009684153832495213,
          0.2328334003686905,
          -0.5718259215354919,
          0.14873623847961426,
          -0.36751291155815125,
          0.00753337936475873,
          0.0349205881357193,
          -0.25798478722572327,
          -0.011525830253958702,
          0.0010377186117693782,
          -0.008318429812788963,
          -0.007986875250935555,
          -0.01154271699488163,
          0.0210784450173378,
          -0.00036339490907266736,
          -0.007168803364038467,
          -0.0529337152838707,
          0.24444076418876648,
          0.001164490939117968,
          0.03771328926086426,
          -0.0028772905934602022,
          -0.041515741497278214,
          0.001367242424748838,
          -0.0032807178795337677,
          -0.003124456387013197,
          0.10615518689155579,
          -0.005001388490200043,
          0.0015543251065537333,
          -0.09304575622081757,
          -0.26514559984207153,
          -0.00038400807534344494,
          -0.001413047080859542,
          0.0057372343726456165,
          -0.003467944683507085,
          -0.06858711689710617
        ],
        [
          -0.18332771956920624,
          -0.05148256942629814,
          -0.03727461397647858,
          -0.30303657054901123,
          -0.009949694387614727,
          0.3573583960533142,
          0.01601460576057434,
          -0.12624627351760864,
          -0.03534804657101631,
          0.11977168917655945,
          -0.0058639091439545155,
          0.0426630973815918,
          0.022058486938476562,
          0.029906652867794037,
          -0.4556672275066376,
          0.43265101313591003,
          0.009783511981368065,
          0.002109044697135687,
          -0.0023285180795937777,
          0.019713640213012695,
          -0.36886805295944214,
          0.11398148536682129,
          0.0034105731174349785,
          -0.0004754904948640615,
          -0.009186078794300556,
          0.006850109435617924,
          0.009814885444939137,
          0.007478534244000912,
          0.002254222519695759,
          0.002633686177432537,
          0.11405913531780243,
          0.027238992974162102,
          -0.0069022029638290405,
          -0.10515440255403519,
          0.013201100751757622,
          0.0018620535265654325,
          -0.12655098736286163,
          -0.006499574985355139,
          0.0010724083986133337,
          -0.010177847929298878,
          -0.01406861748546362,
          0.0020725177600979805,
          0.007494054734706879,
          -0.06770963221788406,
          -0.005827444139868021,
          -0.0862782895565033,
          0.06779368966817856,
          -0.003024306381121278,
          -0.03203815594315529,
          0.0016272894572466612,
          -0.003398408880457282,
          0.00027508765924721956,
          0.0003118377353530377,
          -0.0004424359940458089,
          -0.04665312543511391,
          -0.0038216421380639076,
          0.03396562859416008,
          -0.010560201480984688,
          -0.5183227062225342,
          0.0011886878637596965,
          0.04466322436928749,
          0.013970762491226196,
          0.009979711845517159,
          0.034504909068346024
        ],
        [
          0.02515113167464733,
          0.09228596836328506,
          -0.002668313914909959,
          0.021576201543211937,
          -0.004311000928282738,
          -0.026469318196177483,
          0.003104426432400942,
          0.07105235010385513,
          -0.006156144663691521,
          -0.0655641108751297,
          -0.001961983274668455,
          0.00047915795585140586,
          0.005190200638025999,
          0.03361152485013008,
          -0.44873926043510437,
          0.42217501997947693,
          0.0025835661217570305,
          -0.0005007623694837093,
          -0.0114976791664958,
          0.007537808269262314,
          0.030119458213448524,
          0.05066666752099991,
          -0.0023592098150402308,
          0.005211654584854841,
          -0.05367409065365791,
          0.002257211599498987,
          0.005722119938582182,
          -0.0012854859232902527,
          -0.0034210269805043936,
          -3.900364026776515e-05,
          0.023565495386719704,
          0.005080578848719597,
          -0.005050400272011757,
          -0.04590309411287308,
          0.0007892913417890668,
          -0.0006178207113407552,
          -0.025725040584802628,
          -0.001424852991476655,
          0.00030527121271006763,
          -0.0003689205914270133,
          -0.037191297858953476,
          0.002239706926047802,
          0.0024995633866637945,
          -0.09480106830596924,
          -0.0031053326092660427,
          -0.0997496172785759,
          -0.036703821271657944,
          -0.0025294229853898287,
          0.013095813803374767,
          -0.000995407928712666,
          0.006622386630624533,
          0.0024642033968120813,
          0.0025809365324676037,
          0.0005007486324757338,
          -0.02325286529958248,
          -0.008802658878266811,
          0.02402041293680668,
          0.019381122663617134,
          0.023078834637999535,
          0.007133644074201584,
          0.062100742012262344,
          0.01272771880030632,
          -0.00028056843439117074,
          -0.10345090925693512
        ],
        [
          0.005471681710332632,
          -0.16439937055110931,
          0.013737200759351254,
          0.0029690121300518513,
          -0.0012498290743678808,
          -0.1291836053133011,
          -0.00045442295959219337,
          -0.022356094792485237,
          0.00996287539601326,
          0.02202370949089527,
          0.0013847945956513286,
          -0.015158280730247498,
          0.0013345706975087523,
          0.01744028367102146,
          -0.25227850675582886,
          0.24087762832641602,
          -0.0014378402847796679,
          -0.0008523896685801446,
          0.0014949183678254485,
          0.0037893138360232115,
          0.13185234367847443,
          0.020162122324109077,
          0.003973609767854214,
          0.006834241561591625,
          0.10207942873239517,
          -0.0053367107175290585,
          -0.0019600505474954844,
          -0.00040200742660090327,
          -0.005502898711711168,
          -0.00036054555675946176,
          -0.006693646311759949,
          -0.00022597557108383626,
          0.005373137071728706,
          -0.017582323402166367,
          -0.00020818891061935574,
          0.0046920874156057835,
          0.007911300286650658,
          4.643869397114031e-05,
          6.480709998868406e-05,
          -5.9083242376800627e-05,
          -0.02838614024221897,
          -0.0010547509882599115,
          0.0028919330798089504,
          -0.06774505227804184,
          0.00013805327762383968,
          -0.10859348624944687,
          0.011190451681613922,
          0.2390187680721283,
          -0.0033213570713996887,
          -0.00051646598149091,
          0.025419648736715317,
          0.0007370126550085843,
          0.0037361877039074898,
          0.0021678779739886522,
          -0.0051147486083209515,
          -0.025911476463079453,
          0.0099882697686553,
          0.019032740965485573,
          0.0042132418602705,
          -0.21347565948963165,
          0.04341365769505501,
          -0.01801861822605133,
          -0.0003927563375327736,
          0.017994804307818413
        ],
        [
          0.0004141325771342963,
          -0.080767422914505,
          0.012989004142582417,
          0.002841532463207841,
          0.0031484977807849646,
          -0.047963496297597885,
          -0.005240796133875847,
          -0.08396445214748383,
          0.03542977198958397,
          0.07935060560703278,
          0.0033576758578419685,
          -0.013967173174023628,
          0.000366437277989462,
          0.00493646739050746,
          -0.05386462062597275,
          0.05197116732597351,
          0.00017086902516894042,
          0.00032416434260085225,
          0.002550328616052866,
          6.942750769667327e-05,
          0.04814581573009491,
          -0.0757925733923912,
          -0.00035302076139487326,
          0.011782582849264145,
          -0.01588149182498455,
          -0.0007890709675848484,
          -0.006107286550104618,
          0.0003528028028085828,
          -0.010316725820302963,
          0.0002064444706775248,
          -2.8522363209049217e-05,
          -0.0005223624175414443,
          -0.002776280278339982,
          0.06895795464515686,
          0.0014291194966062903,
          -0.005251823924481869,
          0.0003841375291813165,
          -0.0007298638229258358,
          0.0005946779274381697,
          -0.006375486962497234,
          -0.018039807677268982,
          0.0014097782550379634,
          0.003393413731828332,
          -0.06979768723249435,
          0.00014186318730935454,
          -0.11562637239694595,
          0.04280732944607735,
          -0.018273286521434784,
          -0.024632180109620094,
          0.0013589243171736598,
          0.027348486706614494,
          0.002439368749037385,
          0.0034729952458292246,
          0.0006571169942617416,
          -0.029443878680467606,
          -0.11772014200687408,
          0.00821420457214117,
          0.043205179274082184,
          0.003136970102787018,
          0.01878258027136326,
          0.04516132175922394,
          -0.10425975918769836,
          -0.001192181371152401,
          -0.08374791592359543
        ],
        [
          0.0044737933203577995,
          -0.039753712713718414,
          0.00605379045009613,
          0.002113819820806384,
          0.0031197164207696915,
          0.0040776669047772884,
          0.0008573215454816818,
          -0.07717624306678772,
          -0.006364175584167242,
          0.07351752370595932,
          0.00014879096124786884,
          -0.004223174881190062,
          0.001966412179172039,
          0.007933001965284348,
          -0.04367002472281456,
          0.04209768399596214,
          0.0006356358644552529,
          0.0006589381955564022,
          0.004871876910328865,
          0.006936296354979277,
          -0.004888269118964672,
          -0.021532602608203888,
          0.005395410116761923,
          -0.000687369960360229,
          0.003847316838800907,
          -0.0005212696269154549,
          -0.004141686018556356,
          0.0034076496958732605,
          0.0017762534553185105,
          -1.0828061931533739e-05,
          -0.028294293209910393,
          0.0012305501149967313,
          0.001125443377532065,
          0.019219180569052696,
          -0.001410854747518897,
          0.0038293900433927774,
          0.03167487680912018,
          0.002242491813376546,
          -0.0004357759316917509,
          -0.16241365671157837,
          0.10884568840265274,
          -1.320937826676527e-05,
          -0.003526046173647046,
          -0.09747808426618576,
          0.003592846216633916,
          0.07604242116212845,
          -0.03736710175871849,
          -0.003557011019438505,
          0.022968584671616554,
          9.734216291690245e-05,
          0.02080456167459488,
          -0.002590540098026395,
          0.0014498825185000896,
          0.0008899950771592557,
          0.018445506691932678,
          -0.015304210595786572,
          -0.0010019306791946292,
          0.02768145501613617,
          0.0013140511000528932,
          0.0014507101150229573,
          0.0582067035138607,
          -0.022269513458013535,
          0.004756269510835409,
          -0.06953367590904236
        ],
        [
          0.0013249164912849665,
          -0.009120662696659565,
          -0.0017102299025282264,
          0.0007930131396278739,
          0.003685415955260396,
          -0.011434770189225674,
          0.0008465200080536306,
          -0.026902152225375175,
          -0.017237085849046707,
          0.024716762825846672,
          0.0016723837470635772,
          0.0018213156145066023,
          0.0010847157100215554,
          0.003660699352622032,
          0.005790612660348415,
          -0.00581570016220212,
          -0.0014291683910414577,
          -0.0005678794113919139,
          0.00765877403318882,
          0.00027168093947693706,
          0.011680535040795803,
          -0.004785728640854359,
          -0.00694397184997797,
          -0.0021388656459748745,
          0.0033331874292343855,
          -0.004872494842857122,
          0.0011093957582488656,
          0.0006282655522227287,
          0.0031055917497724295,
          -6.929999653948471e-05,
          -0.007467234041541815,
          -0.0009771698387339711,
          0.0007878938340581954,
          0.004180983640253544,
          -0.0004144234408158809,
          0.006297308951616287,
          0.00799125712364912,
          0.0033350596204400063,
          -0.0003991608100477606,
          0.01592337340116501,
          0.005640399642288685,
          5.8486253692535684e-05,
          0.002583232009783387,
          -0.21775177121162415,
          -0.004539201967418194,
          0.00945071130990982,
          0.004495607689023018,
          0.00020105575094930828,
          0.018986115232110023,
          -0.0006888261414133012,
          0.005704482551664114,
          -0.0023528856690973043,
          -0.0023299474269151688,
          -0.00022603457910008729,
          -0.02061266452074051,
          0.0060850102454423904,
          0.00815659761428833,
          -0.013131561689078808,
          0.0004907927941530943,
          -0.00033088430063799024,
          0.13675422966480255,
          0.00584650132805109,
          -0.0007914857706055045,
          0.0035110018216073513
        ]
      ],
      "b": [
        0.1898091435432434,
        0.3903217017650604,
        0.09389031678438187,
        -0.17139865458011627,
        0.3015788495540619,
        -0.05404563248157501,
        -0.21525418758392334,
        -0.1553509533405304,
        0.3768676817417145,
        0.14708402752876282,
        0.05535000562667847,
        -0.0960228219628334,
        0.017631568014621735,
        0.34188520908355713,
        -0.08604083210229874,
        0.08209595829248428,
        -0.6310558319091797,
        0.2448374629020691,
        -0.06098318099975586,
        0.48179030418395996,
        0.05361688882112503,
        -0.04600522667169571,
        -0.06645366549491882,
        0.2398386150598526,
        0.07263029366731644,
        -0.5254658460617065,
        0.3138701915740967,
        0.3672523498535156,
        -0.25843876600265503,
        -0.026190487667918205,
        -0.07109347730875015,
        -0.21967895328998566,
        -0.0797976702451706,
        0.043923139572143555,
        -0.18431538343429565,
        -0.3468126058578491,
        0.07897946983575821,
        -0.16228996217250824,
        -0.6355875134468079,
        -0.010449249297380447,
        0.1646566092967987,
        -0.2757725417613983,
        0.0547604039311409,
        -0.15287888050079346,
        -0.47120609879493713,
        -0.22727559506893158,
        0.5157644748687744,
        -0.08063452690839767,
        0.4364522695541382,
        -0.46924376487731934,
        0.08579420298337936,
        0.2896605432033539,
        0.34262797236442566,
        -0.6329701542854309,
        0.410557359457016,
        0.18916215002536774,
        0.2337988317012787,
        0.5618289113044739,
        -0.5544055104255676,
        0.06991886347532272,
        0.09566927701234818,
        0.027404220774769783,
        0.2938719391822815,
        0.45246803760528564
      ],
      "act": null
    },
    {
      "W": null,
      "b": null,
      "act": "relu"
    },
    {
      "W": [
        [
          0.25600698590278625,
          0.09584259241819382,
          0.053245652467012405,
          0.17827948927879333,
          -0.006312754470854998,
          -0.30112895369529724,
          -0.02234880067408085,
          3.7029385566711426e-05,
          -0.04217149689793587,
          0.043986592441797256,
          0.1530279815196991,
          -0.11792386323213577,
          0.06178853660821915,
          0.0007837084122002125,
          0.01025658380240202,
          0.07975220680236816,
          -0.010948412120342255,
          -0.015651296824216843,
          -0.06457821279764175,
          -0.019096367061138153,
          -0.07399123907089233,
          -0.04301631823182106,
          0.029788704589009285,
          0.031034981831908226,
          0.11918597668409348,
          0.042124006897211075,
          0.09225070476531982,
          0.04942690208554268,
          0.025011563673615456,
          -0.08543189615011215,
          0.19522710144519806,
          -0.04589073732495308,
          -0.21120353043079376,
          -0.03933444246649742,
          0.1306009739637375,
          0.015748944133520126,
          -0.025726452469825745,
          -0.0507681630551815,
          0.035769134759902954,
          0.10247772932052612,
          0.2730328440666199,
          -0.011280057020485401,
          0.048900265246629715,
          0.03909618780016899,
          0.057214368134737015,
          -0.01302784588187933,
          0.14352580904960632,
          0.051320355385541916,
          -0.0713689848780632,
          -0.03408386558294296,
          0.042521826922893524,
          0.013367868959903717,
          0.3629346787929535,
          -0.038727350533008575,
          0.0359133817255497,
          -0.11698217689990997,
          -0.06309989094734192,
          -0.03486628830432892,
          0.02000265195965767,
          -0.059144288301467896,
          -0.06554900854825974,
          0.03767124190926552,
          0.0825795978307724,
          0.04366818070411682
        ],
        [
          -0.04838407412171364,
          -0.06894753873348236,
          -0.024087216705083847,
          -0.07467799633741379,
          0.03949494659900665,
          -0.7100126147270203,
          0.024206962436437607,
          0.02606309950351715,
          -0.0026078736409544945,
          0.10061656683683395,
          0.09733472764492035,
          0.00028831444797106087,
          -0.10839027166366577,
          0.05838480591773987,
          0.022691335529088974,
          -0.024813484400510788,
          0.09782175719738007,
          -0.13007035851478577,
          -0.027860494330525398,
          0.042628973722457886,
          0.10454615950584412,
          -0.04606353119015694,
          -0.11658312380313873,
          0.03364008665084839,
          0.3587227761745453,
          0.05325479805469513,
          -0.08132272958755493,
          -0.047353580594062805,
          0.14011847972869873,
          -0.03560135141015053,
          0.1980135291814804,
          0.3218645751476288,
          0.008338802494108677,
          -0.013370867818593979,
          -0.008799315430223942,
          -0.03628874942660332,
          -0.09061866253614426,
          0.1585351675748825,
          0.007141719106584787,
          0.0634135976433754,
          0.24463465809822083,
          -0.004226631484925747,
          0.18020199239253998,
          0.22242535650730133,
          -0.011812547221779823,
          0.10990888625383377,
          0.3161848783493042,
          0.05276009812951088,
          0.15957239270210266,
          0.032034240663051605,
          0.1577444225549698,
          -0.17106236517429352,
          -0.05721757560968399,
          0.021755341440439224,
          0.014927776530385017,
          -0.3233945071697235,
          -0.13082344830036163,
          -0.18204380571842194,
          -0.1287204474210739,
          0.020963089540600777,
          0.08247877657413483,
          -0.1390206664800644,
          0.12561438977718353,
          0.04031260311603546
        ],
        [
          0.06514636427164078,
          0.06612348556518555,
          -0.0492391474545002,
          0.13914009928703308,
          -0.035408731549978256,
          -0.2791968286037445,
          -0.024763984605669975,
          -0.046877771615982056,
          0.23768174648284912,
          0.04279538244009018,
          0.11511525511741638,
          -0.05394013598561287,
          0.28488701581954956,
          0.0023963034618645906,
          -0.021655213087797165,
          0.127719447016716,
          0.13364103436470032,
          0.06364788860082626,
          -0.18386468291282654,
          -0.07352709770202637,
          -0.07830803841352463,
          -0.04465239495038986,
          0.08046185970306396,
          -0.3227789103984833,
          -0.22967413067817688,
          0.10514841973781586,
          0.10634244978427887,
          -0.05224144086241722,
          -0.1426202803850174,
          -0.35655078291893005,
          0.17195549607276917,
          -0.059219375252723694,
          -0.001495378790423274,
          -0.10548831522464752,
          0.12100162357091904,
          -0.06740094721317291,
          0.06505029648542404,
          -0.0348736047744751,
          0.09082739800214767,
          0.21748389303684235,
          -0.10799697041511536,
          0.15632477402687073,
          0.20093785226345062,
          0.021298851817846298,
          -0.09416414797306061,
          0.04417141526937485,
          0.10741452127695084,
          0.09983941912651062,
          0.09313137084245682,
          0.22786442935466766,
          0.042310312390327454,
          0.015860944986343384,
          0.19875599443912506,
          -0.12040073424577713,
          0.1097341775894165,
          -0.07921366393566132,
          0.16298729181289673,
          0.11920303851366043,
          0.006546723190695047,
          0.08046306669712067,
          0.0024563323240727186,
          0.11189596354961395,
          -0.10720040649175644,
          -0.15707534551620483
        ],
        [
          -0.058426082134246826,
          0.047579310834407806,
          -0.027338610962033272,
          -0.05659578740596771,
          0.003955373074859381,
          0.5086808800697327,
          0.008180398494005203,
          -0.12278680503368378,
          -0.01620597578585148,
          -0.0007989318110048771,
          0.27093997597694397,
          -0.013065991923213005,
          0.07281971722841263,
          0.015343191102147102,
          0.023297125473618507,
          0.037041522562503815,
          -0.005147097632288933,
          0.03159131482243538,
          0.08856700360774994,
          -0.03910144045948982,
          0.017998799681663513,
          0.017002737149596214,
          0.03887375071644783,
          0.0581313818693161,
          -0.02577921748161316,
          0.04324556142091751,
          -0.05201923847198486,
          -0.011749054305255413,
          -0.04332953318953514,
          -0.025480831041932106,
          0.10520820319652557,
          0.3100951611995697,
          -0.10368476063013077,
          -0.14096449315547943,
          0.11959649622440338,
          0.059376198798418045,
          -0.05803631246089935,
          -0.2414604127407074,
          -0.00021535770792979747,
          -0.0037158832419663668,
          0.10127485543489456,
          0.0024252641014754772,
          0.012842745520174503,
          -0.14484836161136627,
          -0.023815114051103592,
          0.07911249995231628,
          0.061127252876758575,
          -0.006387258879840374,
          0.0074003105983138084,
          0.006505191791802645,
          0.06356510519981384,
          0.035276252776384354,
          0.29854056239128113,
          -0.144978865981102,
          -0.050115734338760376,
          -0.1820208728313446,
          -0.1435236632823944,
          -0.0645504966378212,
          0.17216375470161438,
          0.23835335671901703,
          0.00705765513703227,
          -0.16083325445652008,
          0.263007789850235,
          0.1158897653222084
        ],
        [
          0.07000655680894852,
          -0.020149925723671913,
          -0.07863731682300568,
          -0.016154345124959946,
          0.011885229498147964,
          0.1297374814748764,
          0.03457995131611824,
          -0.04428929090499878,
          -0.06448041647672653,
          -0.027392731979489326,
          -0.06417512148618698,
          0.05635828152298927,
          0.0033264905214309692,
          0.1461457759141922,
          -0.01706606335937977,
          0.023811234161257744,
          -0.1849193125963211,
          0.01730003021657467,
          0.07403141260147095,
          0.07290180772542953,
          -0.0188069436699152,
          0.03863109275698662,
          0.11118439584970474,
          0.009622065350413322,
          -0.10365688055753708,
          0.10314737260341644,
          -0.11647714674472809,
          0.21155858039855957,
          0.1095675528049469,
          0.1484634280204773,
          0.08198852837085724,
          0.11893022060394287,
          0.113786481320858,
          -0.05136715620756149,
          0.004726334009319544,
          0.07625136524438858,
          0.04304765164852142,
          0.00056102080270648,
          0.12371905893087387,
          -0.09323719888925552,
          0.31302589178085327,
          -0.09990619868040085,
          -0.10099989920854568,
          0.20762506127357483,
          0.07002383470535278,
          -0.02872193232178688,
          -0.0657874047756195,
          0.14794087409973145,
          0.0732855275273323,
          0.005416924133896828,
          -0.0310305655002594,
          0.017165591940283775,
          0.025891106575727463,
          0.010294538922607899,
          0.038153212517499924,
          0.18510928750038147,
          -0.0278688445687294,
          -0.0084100142121315,
          -0.0644405409693718,
          -0.0736195296049118,
          -0.16931462287902832,
          -0.05811040848493576,
          0.17367081344127655,
          0.13182078301906586
        ],
        [
          0.1586797684431076,
          -0.07016292959451675,
          0.16787680983543396,
          0.06029295548796654,
          0.03505511209368706,
          0.2000933736562729,
          -0.05329308286309242,
          -0.010250553488731384,
          0.0852881371974945,
          -0.08995315432548523,
          -0.3370342254638672,
          0.06370274722576141,
          0.049774523824453354,
          0.11898686736822128,
          0.11670436710119247,
          -0.20690558850765228,
          -0.06799948960542679,
          0.09810052067041397,
          -0.1245596781373024,
          0.0008283985662274063,
          0.018329093232750893,
          -0.008531894534826279,
          -0.22606909275054932,
          -0.05909067392349243,
          0.18111827969551086,
          0.0010249748593196273,
          0.048121239989995956,
          0.030820632353425026,
          0.04764128476381302,
          0.0942854955792427,
          -0.02114761434495449,
          -0.11099035292863846,
          0.1658913791179657,
          0.016324156895279884,
          -0.08869361877441406,
          -0.05837990716099739,
          0.005978886969387531,
          0.10657546669244766,
          -0.0378752276301384,
          0.05206124857068062,
          -0.20593905448913574,
          -0.13850457966327667,
          0.024032343178987503,
          0.1163463369011879,
          -0.0576632060110569,
          -0.030868636444211006,
          -0.057990141212940216,
          0.10949794203042984,
          -0.07612574845552444,
          0.1801469326019287,
          0.05764083191752434,
          0.09988420456647873,
          -0.287470281124115,
          0.0731276422739029,
          -0.057787857949733734,
          0.4405856430530548,
          0.2183200716972351,
          -0.11620177328586578,
          -0.07876366376876831,
          0.06599235534667969,
          -0.026573296636343002,
          -0.05859808996319771,
          -0.06722337007522583,
          0.3808425962924957
        ],
        [
          0.04428933188319206,
          0.0541057325899601,
          -0.01868688315153122,
          -0.07676959037780762,
          0.24902328848838806,
          -0.03066018968820572,
          0.10970591008663177,
          0.06559766829013824,
          -0.01043179165571928,
          -0.08829677850008011,
          -0.028175299987196922,
          -0.14071208238601685,
          0.1430390179157257,
          -0.08158744871616364,
          0.008765717037022114,
          -0.2145261913537979,
          -0.09440527856349945,
          0.03069436363875866,
          0.16424323618412018,
          0.11751710623502731,
          0.09185615181922913,
          0.25580161809921265,
          -0.1966567188501358,
          0.23092862963676453,
          0.05198277160525322,
          -0.06506533175706863,
          -0.19011080265045166,
          0.030210323631763458,
          -0.1414305865764618,
          0.10147055983543396,
          0.14045599102973938,
          -0.09994520246982574,
          -0.003220974002033472,
          -0.14255107939243317,
          0.2588820159435272,
          -0.0555209256708622,
          -0.09766043722629547,
          -0.045332301408052444,
          -0.004857366904616356,
          0.07920502126216888,
          0.20613133907318115,
          -0.0954722911119461,
          -0.03922995552420616,
          -0.07608453929424286,
          -0.062164418399333954,
          -0.01831575110554695,
          0.14608336985111237,
          -0.2045196294784546,
          -0.06401681154966354,
          -0.010472587309777737,
          -0.13979485630989075,
          0.025117013603448868,
          0.06027419865131378,
          -0.011216226033866405,
          0.08204961568117142,
          0.233427494764328,
          -0.18546262383460999,
          -0.13559938967227936,
          0.18159416317939758,
          -0.264596164226532,
          0.2617519795894623,
          0.009911822155117989,
          0.11619003862142563,
          0.19606353342533112
        ],
        [
          0.24334530532360077,
          -0.18515437841415405,
          -0.2315513789653778,
          0.07842942327260971,
          -0.06455652415752411,
          -0.5299444794654846,
          0.02056867443025112,
          0.05341272056102753,
          -0.04588032141327858,
          -0.1849786639213562,
          0.1255100518465042,
          -0.018685191869735718,
          0.009285671636462212,
          0.09682434052228928,
          -0.0002425142447464168,
          0.14855808019638062,
          -0.1385490447282791,
          0.18855099380016327,
          -0.08681614696979523,
          -0.0621829479932785,
          -0.03798798844218254,
          0.07956790179014206,
          -0.04141205921769142,
          -0.024660736322402954,
          -0.06565859913825989,
          0.1046140193939209,
          -0.2479565441608429,
          0.024648867547512054,
          -0.013671516440808773,
          0.02955002337694168,
          0.05456792190670967,
          0.21391882002353668,
          -0.242579385638237,
          -0.05096055939793587,
          -0.08035982400178909,
          -0.1273706555366516,
          0.09610389918088913,
          0.016094252467155457,
          0.0032885258551687002,
          0.016663353890180588,
          -0.12287391722202301,
          -0.17828525602817535,
          0.035058390349149704,
          0.09285003691911697,
          -0.12549352645874023,
          -0.08478536456823349,
          0.41800904273986816,
          0.09875111281871796,
          -0.07344355434179306,
          -0.02809564210474491,
          0.20353925228118896,
          0.2310938686132431,
          0.15164262056350708,
          -0.0020515865180641413,
          0.07585690915584564,
          0.08106687664985657,
          0.09851375222206116,
          -0.150905042886734,
          -0.06602755188941956,
          -0.009885380044579506,
          0.08439400792121887,
          -0.11254273355007172,
          0.03045179694890976,
          -0.070206418633461
        ],
        [
          0.11568811535835266,
          0.08439029008150101,
          -0.023635298013687134,
          -0.06782273203134537,
          0.09849715232849121,
          0.004695095121860504,
          -0.06337673962116241,
          -0.027384832501411438,
          0.01516732294112444,
          -0.02971186302602291,
          0.12671738862991333,
          0.18211545050144196,
          -0.10007809102535248,
          0.2458198219537735,
          -0.0035517867654561996,
          0.07266865670681,
          -0.03528505191206932,
          -0.2020428329706192,
          0.015258538536727428,
          0.1405717134475708,
          0.24930383265018463,
          -0.1385028213262558,
          0.16775363683700562,
          0.06831669807434082,
          -0.08743998408317566,
          0.06814360618591309,
          -0.03248833119869232,
          0.15793371200561523,
          0.07057376205921173,
          0.19521911442279816,
          -0.10129892081022263,
          -0.08064693212509155,
          0.00813831202685833,
          0.09014183282852173,
          -0.011764870025217533,
          0.047537099570035934,
          0.017741721123456955,
          0.0653659775853157,
          -0.08026047796010971,
          0.1066293939948082,
          0.36403965950012207,
          -0.044374968856573105,
          0.021793607622385025,
          0.028401413932442665,
          0.14214147627353668,
          0.056467100977897644,
          0.10851705074310303,
          0.07169210910797119,
          -0.06469876319169998,
          0.18486998975276947,
          -0.08348508179187775,
          -0.11466335505247116,
          0.04575095325708389,
          -0.014986036345362663,
          -0.056071698665618896,
          -0.09130237251520157,
          -0.06083362549543381,
          0.0898180827498436,
          0.16213221848011017,
          0.02755982242524624,
          -0.011208523996174335,
          -0.06496954709291458,
          0.01635846681892872,
          -0.06204357370734215
        ],
        [
          -0.18785405158996582,
          0.0708155706524849,
          0.27137115597724915,
          0.010903002694249153,
          0.03901713341474533,
          0.4244649410247803,
          -0.012104555033147335,
          0.08351050317287445,
          -0.010509923100471497,
          0.1824459284543991,
          -0.22283779084682465,
          -0.06723541021347046,
          0.04109112173318863,
          0.0014383465750142932,
          0.03254377469420433,
          -0.15821844339370728,
          0.12523655593395233,
          -0.1782900094985962,
          -0.0412004217505455,
          0.0043932655826210976,
          -0.04148923233151436,
          -0.061919812113046646,
          0.18014508485794067,
          0.02375730127096176,
          -0.07321331650018692,
          -0.1259874850511551,
          0.3145076334476471,
          0.05492805317044258,
          -0.009326848201453686,
          -0.10286583006381989,
          0.04695631191134453,
          -0.06262056529521942,
          0.2219889909029007,
          -0.08831574767827988,
          0.13014580309391022,
          0.2484123706817627,
          -0.12560686469078064,
          -0.11200356483459473,
          0.004769699182361364,
          -0.03353949636220932,
          0.2682702839374542,
          0.2131689488887787,
          -0.04766299948096275,
          -0.15874093770980835,
          0.13937164843082428,
          0.12157200276851654,
          -0.2138088345527649,
          -0.010318097658455372,
          0.27354001998901367,
          -0.08736461400985718,
          0.17858465015888214,
          -0.16933490335941315,
          -0.08445791900157928,
          0.008665136992931366,
          0.0012793869245797396,
          0.01781993918120861,
          -0.05684446915984154,
          0.0596296451985836,
          0.2591467499732971,
          0.028430821374058723,
          -0.04705752059817314,
          0.08270037919282913,
          0.022068293765187263,
          -0.07095455378293991
        ],
        [
          0.3087831437587738,
          0.09146182984113693,
          0.016496974974870682,
          -0.12109202146530151,
          -0.08495216816663742,
          -0.17042455077171326,
          0.0005951530183665454,
          -0.061057597398757935,
          0.017478685826063156,
          0.1245512142777443,
          -0.028278842568397522,
          -0.045100219547748566,
          -0.016453146934509277,
          0.14402194321155548,
          0.05755405128002167,
          -0.0902407318353653,
          0.05158144608139992,
          -0.019342361018061638,
          -0.04684111848473549,
          -0.29820603132247925,
          0.018088508397340775,
          -0.013676841743290424,
          0.008822689764201641,
          -0.002140400465577841,
          -0.019576996564865112,
          0.06482913345098495,
          -0.0033104191534221172,
          -0.0419277623295784,
          0.13691160082817078,
          -0.10327769070863724,
          0.09107603877782822,
          -0.15028372406959534,
          0.03506998345255852,
          0.08525694906711578,
          0.11902224272489548,
          -0.05372940003871918,
          0.035268932580947876,
          0.129435732960701,
          0.006244245450943708,
          0.0340750515460968,
          0.05451039969921112,
          0.11956150829792023,
          0.2220696359872818,
          0.050459008663892746,
          0.04401189833879471,
          -0.01277895923703909,
          0.04515570029616356,
          0.03174266964197159,
          -0.019633730873465538,
          0.11293485760688782,
          -0.0016414935234934092,
          0.25093379616737366,
          0.2067565619945526,
          0.07549691945314407,
          -0.0849076509475708,
          0.21849177777767181,
          0.026859473437070847,
          -0.2757900655269623,
          0.04963790997862816,
          -0.040274254977703094,
          0.03133589029312134,
          -0.04120981693267822,
          0.008357973769307137,
          -0.01064358837902546
        ],
        [
          -0.05071544274687767,
          -0.1654800921678543,
          0.12196119874715805,
          -0.008570371195673943,
          0.019953887909650803,
          0.2643950283527374,
          -0.1375570446252823,
          -0.10276535153388977,
          0.019560132175683975,
          -0.05426648259162903,
          -0.09299882501363754,
          -0.08939538896083832,
          0.11215084791183472,
          -0.044493407011032104,
          -0.011536636389791965,
          0.04816637188196182,
          0.09687823057174683,
          -0.11844351887702942,
          -0.010826967656612396,
          -0.02026243321597576,
          -0.11700858920812607,
          -0.015716537833213806,
          -0.056361738592386246,
          -0.0751175507903099,
          0.18301677703857422,
          0.0208723247051239,
          0.1893513947725296,
          -0.0772826299071312,
          0.1505172997713089,
          0.35977903008461,
          -0.03520413488149643,
          0.15371643006801605,
          -0.007833226583898067,
          -0.1362050324678421,
          0.022308018058538437,
          0.0018455839017406106,
          -0.018146835267543793,
          -0.022744206711649895,
          -0.19389507174491882,
          -0.038183048367500305,
          0.33831384778022766,
          -0.008387289009988308,
          0.02953459322452545,
          -0.037129126489162445,
          0.34076496958732605,
          0.055264733731746674,
          0.005778807681053877,
          -0.16215722262859344,
          0.0544281080365181,
          -0.2713125944137573,
          -0.059101685881614685,
          0.0018079871078953147,
          -0.17075558006763458,
          -0.078055240213871,
          0.14709991216659546,
          0.4135383069515228,
          -0.04034457355737686,
          0.07908479869365692,
          -0.02064325101673603,
          -0.014426752924919128,
          -0.14452223479747772,
          0.07224192470312119,
          0.06422801315784454,
          0.09118357300758362
        ],
        [
          -0.15401829779148102,
          0.002320384606719017,
          0.00713125616312027,
          -0.008500734344124794,
          -0.12822091579437256,
          0.24555830657482147,
          -0.024581177160143852,
          -0.07535997033119202,
          0.04056829214096069,
          0.44553956389427185,
          0.009034966118633747,
          -0.009202873334288597,
          0.09895672649145126,
          0.20328795909881592,
          -0.05946234613656998,
          -0.0673685073852539,
          0.044366948306560516,
          0.03556038811802864,
          -0.004479505587369204,
          0.10143940150737762,
          0.061009183526039124,
          0.002974361414089799,
          -0.18778344988822937,
          0.09422595053911209,
          0.019959107041358948,
          -0.018788550049066544,
          0.019432703033089638,
          -0.050105154514312744,
          -0.08289889246225357,
          -0.04392508044838905,
          -0.026562104001641273,
          0.25747066736221313,
          0.04113657772541046,
          -0.04033546522259712,
          0.09520501643419266,
          -0.015246656723320484,
          0.01322902925312519,
          -0.22503715753555298,
          0.03417881205677986,
          0.018382364884018898,
          -0.09102321416139603,
          -0.08705674856901169,
          -0.04024646431207657,
          -0.05185595154762268,
          -0.04486123099923134,
          0.06817129254341125,
          0.051420435309410095,
          0.058004822582006454,
          -0.0372912734746933,
          -0.0005126369651407003,
          0.031014595180749893,
          0.09988248348236084,
          -0.025374045595526695,
          -0.14981085062026978,
          0.17630958557128906,
          0.2380792498588562,
          0.19055157899856567,
          0.18590420484542847,
          0.056821178644895554,
          0.19831572473049164,
          -0.12671224772930145,
          -0.06317760795354843,
          0.06875832378864288,
          -0.032909978181123734
        ],
        [
          -0.26985183358192444,
          0.037801314145326614,
          -0.16472569108009338,
          -0.04274880141019821,
          0.027295280247926712,
          -0.015743020921945572,
          0.17634442448616028,
          -0.06698890030384064,
          0.00048170192167162895,
          -0.1712195724248886,
          0.00362237892113626,
          -0.0014381763758137822,
          -0.07384604960680008,
          0.32352715730667114,
          -0.31830182671546936,
          -0.14360925555229187,
          0.12200923264026642,
          -0.00824294425547123,
          0.12450625747442245,
          0.14760249853134155,
          -0.13655035197734833,
          0.07200712710618973,
          0.23523126542568207,
          0.039827972650527954,
          0.02061077393591404,
          0.0969117134809494,
          -0.06779947876930237,
          -0.07905306667089462,
          -0.037067316472530365,
          0.006167475134134293,
          -0.008948059752583504,
          0.04416874796152115,
          0.021457910537719727,
          -0.01039371732622385,
          0.286344051361084,
          0.047241535037755966,
          0.03564242646098137,
          -0.1661423146724701,
          0.04249187186360359,
          0.004989394918084145,
          -0.01435939036309719,
          0.20692890882492065,
          0.06467962265014648,
          0.05567961558699608,
          0.08009114861488342,
          0.009401679039001465,
          -0.06750569492578506,
          -0.15746307373046875,
          0.13590869307518005,
          -0.1527831256389618,
          -0.012055314145982265,
          0.07406247407197952,
          -0.12264367938041687,
          0.07212664186954498,
          0.059620779007673264,
          -0.017837082967162132,
          -0.04786856099963188,
          0.052675582468509674,
          0.05029415339231491,
          -0.12076584994792938,
          -0.06391845643520355,
          -0.12477132678031921,
          0.053563036024570465,
          0.007565058767795563
        ],
        [
          -0.10444505512714386,
          -0.14787526428699493,
          0.011700636707246304,
          0.0859604999423027,
          -0.05632805824279785,
          0.5622003674507141,
          0.024288713932037354,
          0.018385648727416992,
          -0.18662029504776,
          0.054015446454286575,
          0.02564958482980728,
          0.05689111724495888,
          0.2772311568260193,
          -0.0733276978135109,
          -0.029340550303459167,
          -0.026502830907702446,
          -0.060166776180267334,
          0.01935126818716526,
          0.04614679142832756,
          0.032551150768995285,
          -0.04858299717307091,
          -0.021404879167675972,
          -0.1960441917181015,
          -0.015517924912273884,
          0.22606684267520905,
          -0.11025436967611313,
          0.04509550333023071,
          0.24198018014431,
          -0.05942251905798912,
          -0.055311888456344604,
          0.3403662443161011,
          0.04749762639403343,
          -0.09471821784973145,
          -0.120760977268219,
          -0.016976693645119667,
          -0.01401312556117773,
          0.07544928044080734,
          -0.04274461790919304,
          -0.0099240867421031,
          0.02765839919447899,
          0.2835012376308441,
          -0.07270587980747223,
          -0.1289997696876526,
          -0.1322629153728485,
          0.013053955510258675,
          -0.020100362598896027,
          -0.2771642804145813,
          0.11736451834440231,
          -0.1616535484790802,
          0.025516634806990623,
          0.3756169378757477,
          -0.026181025430560112,
          0.18273282051086426,
          0.0923522412776947,
          -0.02328098751604557,
          0.05514095351099968,
          -0.1142885684967041,
          0.08629053086042404,
          -0.09936295449733734,
          0.026193693280220032,
          -0.009911661967635155,
          0.21327531337738037,
          -0.015533529222011566,
          -0.017677269876003265
        ],
        [
          0.17505276203155518,
          0.045427355915308,
          -0.020014198496937752,
          -0.08626143634319305,
          0.06816311180591583,
          -0.47735053300857544,
          -0.038086529821157455,
          0.08008842170238495,
          0.2505435347557068,
          -0.06221349909901619,
          -0.08053621649742126,
          -0.05785318836569786,
          -0.13113142549991608,
          0.191301167011261,
          0.0047793141566216946,
          0.04639439657330513,
          0.055013567209243774,
          -0.021073991432785988,
          0.011465488001704216,
          -0.04936032369732857,
          0.040704239159822464,
          0.02608315832912922,
          0.3495549261569977,
          0.0056776017881929874,
          -0.1698157787322998,
          0.10336325317621231,
          -0.12176462262868881,
          -0.18002572655677795,
          0.06961258500814438,
          0.06624312698841095,
          -0.11600097268819809,
          -0.020270857959985733,
          0.18128623068332672,
          -0.02042265050113201,
          0.2900884747505188,
          0.11410053074359894,
          -0.08777519315481186,
          -0.09433632344007492,
          0.003513869596645236,
          -0.04211122915148735,
          -0.19922299683094025,
          0.060200292617082596,
          -0.001800296362489462,
          -0.004835243336856365,
          0.01801774464547634,
          0.1120336726307869,
          0.3974471688270569,
          0.0060424720868468285,
          0.3551160395145416,
          -0.01542513258755207,
          -0.14769798517227173,
          0.0033311021979898214,
          0.05419030040502548,
          -0.10130519419908524,
          0.14121851325035095,
          0.14506885409355164,
          0.0829186663031578,
          -0.016862621530890465,
          -0.005165433045476675,
          -0.0542132742702961,
          -0.0045328205451369286,
          -0.12517192959785461,
          0.02070666290819645,
          0.14393684267997742
        ],
        [
          0.05186121538281441,
          -0.18750500679016113,
          -0.009737030602991581,
          -0.001368261524476111,
          -0.09461895376443863,
          0.030764268711209297,
          -0.03371521458029747,
          -0.10461141169071198,
          -0.047407884150743484,
          0.8104003667831421,
          -0.14353521168231964,
          0.09297209233045578,
          -0.3494642674922943,
          0.27261537313461304,
          -0.02695932611823082,
          0.03127013519406319,
          0.007452148012816906,
          -0.021664028987288475,
          -0.023607587441802025,
          -0.5981784462928772,
          -0.07278350740671158,
          -0.19154806435108185,
          0.023695096373558044,
          -0.013593540526926517,
          0.0485462062060833,
          0.02123126946389675,
          0.009392112493515015,
          0.07415670901536942,
          -0.18103405833244324,
          -0.19338063895702362,
          0.040513720363378525,
          0.3903748691082001,
          -0.054196279495954514,
          0.012873434461653233,
          0.1260560154914856,
          0.04576878994703293,
          -0.019337531179189682,
          -0.221879243850708,
          0.21069371700286865,
          -0.021605733782052994,
          -0.21465130150318146,
          -0.09460746496915817,
          0.12064529955387115,
          -0.15775971114635468,
          0.07441530376672745,
          0.2850973606109619,
          -0.1517290323972702,
          -0.06808515638113022,
          0.24277864396572113,
          0.08579044044017792,
          0.3853095769882202,
          0.3595746159553528,
          -0.03126298636198044,
          -0.060715317726135254,
          0.10270419716835022,
          0.18892981112003326,
          0.10862716287374496,
          -0.05169619247317314,
          0.05460609868168831,
          0.18938007950782776,
          -0.18221494555473328,
          0.050095316022634506,
          0.3737616240978241,
          -0.24836724996566772
        ],
        [
          0.09310424327850342,
          -0.04662581905722618,
          0.08704034984111786,
          -0.09122788161039352,
          -0.16756772994995117,
          -0.05524725466966629,
          0.23393049836158752,
          -0.08296263217926025,
          0.10751413553953171,
          0.04558546468615532,
          0.15728311240673065,
          0.014815566129982471,
          0.2449081838130951,
          -0.16456174850463867,
          0.035892046988010406,
          0.018953397870063782,
          0.048255521804094315,
          -0.11988882720470428,
          -0.07589637488126755,
          0.060976751148700714,
          -0.09834481030702591,
          0.028634265065193176,
          0.0019667090382426977,
          0.11152257025241852,
          -0.0634041428565979,
          -0.04056814685463905,
          0.008968272246420383,
          -0.018565937876701355,
          0.07400258630514145,
          -0.235113725066185,
          0.11129851639270782,
          -0.015531842596828938,
          0.012438252568244934,
          0.0037776147946715355,
          0.1423848420381546,
          -0.14751701056957245,
          0.24608346819877625,
          -0.13511379063129425,
          0.11979423463344574,
          -0.14022065699100494,
          0.04946741461753845,
          -0.32550540566444397,
          0.2589820623397827,
          -0.028851106762886047,
          -0.03347916528582573,
          -0.008482079952955246,
          0.05645574629306793,
          -0.012207577005028725,
          0.06734457612037659,
          -0.3605334162712097,
          0.09949129074811935,
          0.31603968143463135,
          -0.004516765009611845,
          -0.10114581882953644,
          -0.09269502013921738,
          0.21374578773975372,
          -0.04744389280676842,
          0.031256355345249176,
          0.014721822924911976,
          0.0656123012304306,
          0.08472216874361038,
          -0.012857787311077118,
          -0.08184216916561127,
          0.02273287996649742
        ],
        [
          0.059476885944604874,
          -0.014312619343400002,
          0.01106545701622963,
          0.26164498925209045,
          -0.24321164190769196,
          -0.06715290993452072,
          0.010183394886553288,
          -0.004810154438018799,
          0.038080520927906036,
          0.0777834877371788,
          0.012870565988123417,
          0.011813469231128693,
          0.13918638229370117,
          0.22916865348815918,
          0.0023797419853508472,
          -0.1149725690484047,
          -0.056991614401340485,
          0.03854827582836151,
          0.09035040438175201,
          -0.1677531599998474,
          -0.1768072098493576,
          -0.05308212339878082,
          -0.14697599411010742,
          0.11110464483499527,
          -0.16736985743045807,
          0.02999047376215458,
          0.021466419100761414,
          0.12029723078012466,
          -0.049104414880275726,
          -0.2713097333908081,
          0.10976020991802216,
          0.09937527775764465,
          0.20803146064281464,
          -0.05555898696184158,
          0.29342812299728394,
          -0.0998014286160469,
          -0.033616017550230026,
          0.15684279799461365,
          0.13739363849163055,
          0.04723883792757988,
          0.0212913379073143,
          -0.09372004121541977,
          -0.12847597897052765,
          0.06983277946710587,
          0.3581133782863617,
          -0.0698651596903801,
          -0.037035804241895676,
          0.17006191611289978,
          -0.060879699885845184,
          0.18519417941570282,
          -0.1920238435268402,
          -0.22697244584560394,
          -0.1141500398516655,
          -0.1132429763674736,
          0.2928892970085144,
          -0.3236457407474518,
          0.03135576471686363,
          -0.13271808624267578,
          0.03451268747448921,
          -0.06051036715507507,
          -0.18762582540512085,
          -0.08202200382947922,
          -0.10728047788143158,
          0.042439669370651245
        ],
        [
          0.0028999620117247105,
          0.10770776867866516,
          0.039101988077163696,
          -0.07817979156970978,
          -0.20643772184848785,
          -0.08810535818338394,
          0.27678215503692627,
          0.004302099347114563,
          0.04420064017176628,
          -0.12464281916618347,
          0.08520738035440445,
          0.011370143853127956,
          0.09109518676996231,
          -0.09124188870191574,
          0.10681428015232086,
          0.017422694712877274,
          0.015449654310941696,
          -0.07065947353839874,
          0.0875951275229454,
          -0.05103849992156029,
          -0.09329982101917267,
          -0.04725191369652748,
          -0.032527267932891846,
          0.0703866109251976,
          -0.009748736396431923,
          0.04333115369081497,
          0.13415245711803436,
          -0.0016321497969329357,
          -0.03223181888461113,
          -0.9844432473182678,
          0.07405181974172592,
          0.08020315319299698,
          0.09873849898576736,
          -0.07671549916267395,
          0.10022734850645065,
          -0.07331571727991104,
          0.19902703166007996,
          0.12425469607114792,
          0.3412143290042877,
          0.12642371654510498,
          -0.14168813824653625,
          0.04508683457970619,
          0.052499301731586456,
          -0.14152564108371735,
          -0.11905068159103394,
          -0.05574337765574455,
          0.011351118795573711,
          0.031675029546022415,
          -0.012052402831614017,
          0.1576264351606369,
          0.1416914463043213,
          0.14044778048992157,
          0.12308017164468765,
          -0.05625483766198158,
          -0.002047648886218667,
          0.1572972983121872,
          0.17624105513095856,
          -0.061188288033008575,
          0.09028232097625732,
          -0.04571184888482094,
          0.12925155460834503,
          -0.03915740177035332,
          0.03862278535962105,
          -0.14402347803115845
        ],
        [
          -0.15488652884960175,
          0.11267786473035812,
          -0.15334320068359375,
          -0.08293679356575012,
          -0.07237347960472107,
          -0.05960731580853462,
          0.08425033092498779,
          0.08104908466339111,
          -0.10404613614082336,
          0.0640091598033905,
          0.32990533113479614,
          -0.052054427564144135,
          -0.04750487953424454,
          -0.013764013536274433,
          -0.09348850697278976,
          0.044272806495428085,
          0.030047670006752014,
          -0.09173998236656189,
          0.07127106934785843,
          0.061327651143074036,
          -0.04123036935925484,
          0.020660806447267532,
          0.24278287589550018,
          0.07134433835744858,
          -0.20963555574417114,
          0.017675187438726425,
          0.0194694884121418,
          -0.03761643171310425,
          0.011087218299508095,
          -0.10711687803268433,
          0.1009191945195198,
          0.03686891123652458,
          -0.2051207572221756,
          -0.07966338843107224,
          0.11534368991851807,
          0.1621946096420288,
          -0.02306455932557583,
          -0.07947852462530136,
          0.16469769179821014,
          -0.060880325734615326,
          0.2195315659046173,
          0.17723824083805084,
          0.039487943053245544,
          -0.09996400773525238,
          0.02406132221221924,
          0.1363874077796936,
          0.030918583273887634,
          -0.06613069027662277,
          -0.06203654035925865,
          -0.07372245192527771,
          -0.17662835121154785,
          -0.07289939373731613,
          0.2689756453037262,
          -0.1071634441614151,
          0.07495734840631485,
          -0.45346516370773315,
          -0.06360562890768051,
          0.09082463383674622,
          -0.07519890367984772,
          -0.003114469349384308,
          -0.07418559491634369,
          0.00374167924746871,
          -0.0024121077731251717,
          -0.16566158831119537
        ],
        [
          -0.06848189979791641,
          -0.20896509289741516,
          0.00508400471881032,
          0.007846932858228683,
          -0.07420256733894348,
          -0.18482303619384766,
          -0.020851679146289825,
          -0.06276066601276398,
          -0.08182387799024582,
          0.30256858468055725,
          -0.03566470742225647,
          0.04129313305020332,
          0.07701225578784943,
          -0.3012954890727997,
          -0.07484880834817886,
          0.05911852791905403,
          -0.07100167125463486,
          0.1459420770406723,
          -0.00474691903218627,
          0.21999607980251312,
          -0.09942811727523804,
          0.013074600137770176,
          0.12972959876060486,
          -0.11540275067090988,
          0.0408354289829731,
          0.0008670651004649699,
          -0.1074335128068924,
          0.0031845485791563988,
          -0.12009742110967636,
          -0.2525855004787445,
          0.07446641474962234,
          -0.03600480407476425,
          -0.14483267068862915,
          -0.033584073185920715,
          -0.07709277421236038,
          -0.14724501967430115,
          0.1460409015417099,
          -0.02488480508327484,
          -0.026137080043554306,
          0.02674161083996296,
          0.06103434041142464,
          -0.07331110537052155,
          0.23097246885299683,
          -0.15660598874092102,
          -0.0628926157951355,
          0.05907360836863518,
          -0.00904406700283289,
          -0.07814048230648041,
          0.0880236029624939,
          0.15929989516735077,
          0.22124509513378143,
          -0.18261341750621796,
          -0.0851198062300682,
          -0.056608397513628006,
          0.11333547532558441,
          -0.06579987704753876,
          0.10657081007957458,
          -0.13927647471427917,
          0.02287280559539795,
          0.025807036086916924,
          0.023516489192843437,
          -0.08594074100255966,
          -0.07732627540826797,
          0.1636771261692047
        ],
        [
          0.3002950847148895,
          0.057451315224170685,
          -0.08029970526695251,
          0.20748482644557953,
          -0.12773174047470093,
          -0.0991448238492012,
          0.050355181097984314,
          -0.06409266591072083,
          -0.06667419523000717,
          0.09323281794786453,
          0.09868615120649338,
          0.14138458669185638,
          0.03409089148044586,
          0.043230507522821426,
          0.12623323500156403,
          -0.25799360871315,
          0.23528367280960083,
          -0.046339720487594604,
          0.11483417451381683,
          -0.05183643475174904,
          0.047040846198797226,
          0.024578968062996864,
          -0.1335466206073761,
          0.00471850112080574,
          0.16329960525035858,
          -0.2759910523891449,
          -0.13865964114665985,
          -0.02037232369184494,
          0.007337565068155527,
          0.11392706632614136,
          -0.049034059047698975,
          -0.01897277683019638,
          0.04672843590378761,
          -0.008280539885163307,
          0.22361400723457336,
          -0.13755488395690918,
          -0.018617046996951103,
          -0.12293657660484314,
          0.028253400698304176,
          -0.23553422093391418,
          0.08024703711271286,
          0.5926408171653748,
          -0.004939931444823742,
          0.07544762641191483,
          -0.10988707840442657,
          -0.09912507236003876,
          -0.011685876175761223,
          0.11329562962055206,
          -0.09163852035999298,
          0.059029895812273026,
          -0.0075232707895338535,
          -0.17014677822589874,
          -0.09235359728336334,
          0.07896393537521362,
          0.14382833242416382,
          0.06967432051897049,
          -0.27503249049186707,
          -0.13363017141819,
          -0.13702374696731567,
          -0.04672381281852722,
          0.0390198640525341,
          0.07627043128013611,
          -0.1242632046341896,
          -0.12747164070606232
        ],
        [
          0.10698486119508743,
          0.16561804711818695,
          -0.10011794418096542,
          0.15078161656856537,
          -0.002448779996484518,
          -0.026247305795550346,
          -0.018862145021557808,
          -0.023017212748527527,
          0.04872291162610054,
          0.012251519598066807,
          -0.027618281543254852,
          0.24270223081111908,
          0.09167011082172394,
          -0.08696283400058746,
          0.13346906006336212,
          0.06203160062432289,
          -0.23631282150745392,
          -0.01918705366551876,
          -0.04372914880514145,
          0.08633920550346375,
          -0.10199771821498871,
          0.0868651270866394,
          0.1370716094970703,
          -0.1170106902718544,
          -0.05392122641205788,
          -0.05399865284562111,
          0.021422196179628372,
          0.23701618611812592,
          -0.28330785036087036,
          -0.15453259646892548,
          0.1425723433494568,
          0.01157510094344616,
          -0.031775813549757004,
          0.013881547376513481,
          0.04393286257982254,
          0.07234033942222595,
          0.11899539828300476,
          0.01105023454874754,
          -0.0711660087108612,
          0.18375886976718903,
          0.01695549488067627,
          -0.28881973028182983,
          0.14586065709590912,
          0.048077542334795,
          -0.06606648117303848,
          -0.028537308797240257,
          0.16604624688625336,
          0.18845683336257935,
          0.07375852018594742,
          0.32958343625068665,
          -0.07184646278619766,
          -0.12605030834674835,
          0.283649742603302,
          0.06541968882083893,
          0.0038916845805943012,
          -0.17150692641735077,
          -0.03217090666294098,
          0.22603371739387512,
          0.19246426224708557,
          -0.007809765636920929,
          0.02140478789806366,
          0.09984743595123291,
          0.04480999708175659,
          0.031628161668777466
        ],
        [
          0.18624377250671387,
          -0.22256658971309662,
          0.038986124098300934,
          0.017919788137078285,
          -0.09135934710502625,
          0.3600786626338959,
          -0.016354860737919807,
          0.07380150258541107,
          -0.13084226846694946,
          -0.06519114971160889,
          0.06386526674032211,
          -0.12598340213298798,
          0.05045318230986595,
          -0.0852615088224411,
          0.09487144649028778,
          0.1710204929113388,
          0.049883563071489334,
          -0.0013036662712693214,
          0.138918936252594,
          -0.1773015409708023,
          0.06648890674114227,
          0.025109605863690376,
          0.3012924790382385,
          0.09530632197856903,
          -0.08610276132822037,
          0.09398020058870316,
          0.15199249982833862,
          0.11269642412662506,
          0.32565462589263916,
          0.0046520596370100975,
          -0.014388388022780418,
          0.09738621115684509,
          -0.14792846143245697,
          0.05224407836794853,
          0.11323771625757217,
          -0.09100786596536636,
          -0.07013004273176193,
          -0.04901352524757385,
          0.019855922088027,
          0.06731215864419937,
          0.0014249689411371946,
          0.18182504177093506,
          -0.05092862248420715,
          0.06662784516811371,
          -0.31825944781303406,
          -0.0001923317031469196,
          -0.1375153511762619,
          -0.03123382106423378,
          -0.055739276111125946,
          0.12400385737419128,
          0.043243348598480225,
          -0.07373727113008499,
          0.05587465316057205,
          -0.1352558434009552,
          0.2244761735200882,
          0.25700643658638,
          0.0682300552725792,
          -0.05364254117012024,
          0.021908897906541824,
          0.09005537629127502,
          -0.055983830243349075,
          -0.24584713578224182,
          -0.03916040062904358,
          -0.07870134711265564
        ],
        [
          0.001158547354862094,
          -0.19669386744499207,
          -0.019620174542069435,
          0.10881898552179337,
          0.35565611720085144,
          -0.01782064698636532,
          -0.1396961212158203,
          -0.07511891424655914,
          -0.29134756326675415,
          0.11361537128686905,
          0.06299156695604324,
          -0.09878233820199966,
          -0.048969805240631104,
          -0.10562789440155029,
          0.06191885098814964,
          -0.1714407056570053,
          -0.029354894533753395,
          0.06874846667051315,
          -0.03984440863132477,
          -0.12577301263809204,
          0.08197297900915146,
          -0.030231885612010956,
          -0.12369388341903687,
          0.17762905359268188,
          -0.09174778312444687,
          0.02062748372554779,
          0.08950574696063995,
          -0.039176229387521744,
          -0.07495665550231934,
          0.9649333953857422,
          -0.13387951254844666,
          0.10449627786874771,
          -0.04144030064344406,
          -0.03551504388451576,
          -0.005467606242746115,
          0.06801168620586395,
          -0.047686848789453506,
          -0.3583613336086273,
          -0.23294569551944733,
          0.05809773877263069,
          -0.11434996128082275,
          0.12279569357633591,
          0.17729249596595764,
          -0.045562032610177994,
          -0.0970354750752449,
          -0.017836203798651695,
          0.008350972086191177,
          -0.012654158286750317,
          0.012912193313241005,
          -0.06989956647157669,
          0.014880714006721973,
          0.08236844837665558,
          -0.07757481932640076,
          -0.09232889860868454,
          -0.0069737802259624004,
          -0.1433296650648117,
          0.04741169884800911,
          0.33029091358184814,
          0.07104546576738358,
          0.20798546075820923,
          0.12565430998802185,
          -0.04845575988292694,
          0.06358497589826584,
          0.15360045433044434
        ],
        [
          -0.01771368645131588,
          -0.06768669933080673,
          0.019478268921375275,
          0.1766103208065033,
          0.15902592241764069,
          0.038799285888671875,
          0.06770602613687515,
          -0.09483940899372101,
          -0.022013992071151733,
          0.2612263262271881,
          0.04313663765788078,
          0.0209564957767725,
          -0.03252458944916725,
          0.31886357069015503,
          0.1506732851266861,
          0.029323549941182137,
          0.017632227391004562,
          -0.02219303697347641,
          -0.023303696885704994,
          -0.0679023265838623,
          0.1452753096818924,
          -0.07972400635480881,
          -0.03546525910496712,
          0.1384841948747635,
          -0.14071659743785858,
          -0.0027332594618201256,
          0.03604167327284813,
          0.005725255236029625,
          0.15550005435943604,
          0.035173941403627396,
          0.01728069595992565,
          0.1161319687962532,
          0.07137230038642883,
          -0.11509265750646591,
          0.08915495872497559,
          0.1504184752702713,
          -0.0995476096868515,
          -0.004815009422600269,
          0.09778439253568649,
          -0.13358289003372192,
          0.4037748873233795,
          -0.20982757210731506,
          -0.1372826099395752,
          0.006832350976765156,
          0.04846801236271858,
          0.12061688303947449,
          0.04365118592977524,
          -0.09788558632135391,
          0.024988651275634766,
          0.05972251296043396,
          -0.05710949748754501,
          0.04886480048298836,
          2.7852356652147137e-05,
          -0.10866314172744751,
          0.05004047229886055,
          0.07394033670425415,
          0.13840259611606598,
          -0.003615681314840913,
          0.02734954096376896,
          0.04755678027868271,
          0.022815153002738953,
          0.014321256428956985,
          -0.06273477524518967,
          0.012645429000258446
        ],
        [
          0.016934910789132118,
          0.18435177206993103,
          -0.012195107527077198,
          0.023988323286175728,
          -0.09606063365936279,
          -0.05077798664569855,
          0.019829556345939636,
          0.057904064655303955,
          0.08764132112264633,
          -0.06170245260000229,
          -0.023864367976784706,
          -0.04721745476126671,
          -0.012825886718928814,
          -0.06416516751050949,
          0.05092396214604378,
          0.043347906321287155,
          0.11506058275699615,
          0.13858512043952942,
          -0.08348271995782852,
          0.07907931506633759,
          0.045548126101493835,
          0.3336639404296875,
          0.16582706570625305,
          0.18129654228687286,
          0.07375907897949219,
          0.04615027457475662,
          0.07028959691524506,
          -0.04173578694462776,
          0.1460876613855362,
          -0.44660815596580505,
          -0.049296632409095764,
          0.05496104434132576,
          0.10166404396295547,
          -0.10694585740566254,
          0.2458793818950653,
          -0.05338594689965248,
          0.05814081430435181,
          0.08940351754426956,
          -0.017545310780405998,
          -0.02338133566081524,
          0.1329832673072815,
          -0.02829161286354065,
          0.06422215700149536,
          -0.09697320312261581,
          0.059554100036621094,
          -0.07240316271781921,
          0.10103598982095718,
          0.051165636628866196,
          -0.05150744691491127,
          0.12061307579278946,
          0.2186347246170044,
          0.2079043984413147,
          0.11387047916650772,
          -0.11182694137096405,
          -0.07923100888729095,
          0.2135797142982483,
          0.1375555843114853,
          -0.025931380689144135,
          -0.036027826368808746,
          -0.09666334092617035,
          -0.04007450491189957,
          0.045545198023319244,
          0.09864618629217148,
          0.05174802616238594
        ],
        [
          -0.12747132778167725,
          -0.0734543725848198,
          0.12459945678710938,
          0.11163903772830963,
          -0.29120486974716187,
          -0.08006713539361954,
          0.16622520983219147,
          0.06436285376548767,
          -0.10811201483011246,
          -0.15985974669456482,
          0.016803482547402382,
          -0.11408049613237381,
          0.0015497409040108323,
          0.5890905857086182,
          -0.21774700284004211,
          -0.02138320356607437,
          0.3438502848148346,
          0.041329026222229004,
          0.13112075626850128,
          -0.1397179216146469,
          -0.4074075222015381,
          -0.1305418163537979,
          -0.15140624344348907,
          0.16172531247138977,
          -0.0333000011742115,
          0.08896389603614807,
          -0.11487657576799393,
          -0.12035483866930008,
          -0.07391577959060669,
          0.13360075652599335,
          0.007044869940727949,
          -0.15707620978355408,
          0.0028281761333346367,
          -0.019976843148469925,
          0.24260924756526947,
          -0.12286847829818726,
          -0.4319463074207306,
          0.3082887828350067,
          -0.025753473863005638,
          -0.27180150151252747,
          0.16642498970031738,
          0.22720587253570557,
          -0.08779339492321014,
          -0.1399150937795639,
          0.4522382616996765,
          -0.27902674674987793,
          -0.13404734432697296,
          -0.06507282704114914,
          -0.016397105529904366,
          0.2821950316429138,
          -0.1072005182504654,
          0.08665475994348526,
          -0.18008315563201904,
          0.09973116964101791,
          -0.10311192274093628,
          0.13861767947673798,
          -0.006104205269366503,
          -0.028994789347052574,
          -0.13326680660247803,
          -0.07185814529657364,
          0.03558105602860451,
          -0.17701758444309235,
          -0.18618540465831757,
          0.10709595680236816
        ],
        [
          -0.08079215884208679,
          -0.019379783421754837,
          0.005632889922708273,
          0.02237335778772831,
          -0.07859963178634644,
          0.09119421988725662,
          0.0032142624258995056,
          -0.004196822643280029,
          -0.09765717387199402,
          0.02056802436709404,
          -0.013963434845209122,
          0.0008217315189540386,
          -0.12490853667259216,
          0.022913556545972824,
          -0.045055847615003586,
          0.023672087118029594,
          0.050833605229854584,
          0.44676119089126587,
          0.05377095937728882,
          0.2164117842912674,
          0.027795851230621338,
          0.3435732126235962,
          -0.0005766208632849157,
          -0.05809768661856651,
          -0.008071898482739925,
          -0.021364420652389526,
          0.04828615486621857,
          0.06503070145845413,
          0.04610083997249603,
          0.024739118292927742,
          0.13638034462928772,
          0.008687772788107395,
          0.07330520451068878,
          -0.11245886236429214,
          0.24848820269107819,
          0.04233408719301224,
          0.03804755583405495,
          -0.06783074885606766,
          -0.05228916183114052,
          -0.042605239897966385,
          0.01636478118598461,
          -0.04094904661178589,
          0.08974616229534149,
          -0.0559571348130703,
          0.0330091156065464,
          0.012664406560361385,
          0.011612814851105213,
          0.012158248573541641,
          0.0004065477114636451,
          0.0334453210234642,
          0.147929385304451,
          -0.02180824987590313,
          -0.04159852862358093,
          -0.13587574660778046,
          0.10777146369218826,
          -0.007852512411773205,
          0.17182806134223938,
          -0.062299907207489014,
          -0.018923280760645866,
          0.04993181303143501,
          0.12258480489253998,
          -0.07472069561481476,
          0.12801998853683472,
          0.05610521510243416
        ],
        [
          0.22253960371017456,
          -0.07404492050409317,
          -0.17324747145175934,
          -0.043429043143987656,
          -0.0763760581612587,
          -0.06559132784605026,
          0.1321512907743454,
          0.01580357551574707,
          -0.11336299777030945,
          -0.03408085182309151,
          -0.1521940678358078,
          -0.10676097869873047,
          -0.0494234599173069,
          -0.1396452933549881,
          -0.057330239564180374,
          0.004340996965765953,
          0.05649938806891441,
          -0.4276270568370819,
          0.44196653366088867,
          0.0017096941592171788,
          -0.08823224157094955,
          -0.2441931962966919,
          -0.132108673453331,
          0.1641773283481598,
          -0.006097187288105488,
          0.03690281882882118,
          -0.06684687733650208,
          -0.15256187319755554,
          0.0681118443608284,
          -0.26618924736976624,
          0.3123958110809326,
          -0.032740820199251175,
          -0.0041814567521214485,
          -0.10460364073514938,
          -0.11168381571769714,
          -0.026453234255313873,
          0.09786594659090042,
          -0.09694677591323853,
          0.05934416875243187,
          -0.044368524104356766,
          0.08650489151477814,
          0.054279960691928864,
          -0.19261997938156128,
          -0.06807853281497955,
          -0.07540921866893768,
          0.32672566175460815,
          0.027486706152558327,
          0.011735592968761921,
          0.3521534502506256,
          0.020001741126179695,
          -0.12143442779779434,
          -0.08658744394779205,
          -0.09139610826969147,
          0.04627306014299393,
          -0.08580575883388519,
          0.20699037611484528,
          -0.08634741604328156,
          0.006367866415530443,
          0.3390156626701355,
          0.055154819041490555,
          -0.11080996692180634,
          0.006033454556018114,
          -0.06481247395277023,
          0.13680332899093628
        ],
        [
          -0.06538768112659454,
          -0.0730101689696312,
          -0.00924681220203638,
          -0.07459738105535507,
          -0.047922708094120026,
          0.005854074377566576,
          0.05685752257704735,
          0.002774149179458618,
          0.026590237393975258,
          1.3048617839813232,
          -0.09821263700723648,
          -0.02517535351216793,
          -0.059112317860126495,
          0.14729343354701996,
          0.0008224795456044376,
          -0.07798581570386887,
          0.035365521907806396,
          0.048370663076639175,
          0.07892701774835587,
          -0.26741519570350647,
          0.0038000314962118864,
          0.00909456517547369,
          0.01649349369108677,
          0.05892554298043251,
          0.06711088120937347,
          -0.009183731861412525,
          -0.025607984513044357,
          0.02385789342224598,
          -0.006239341106265783,
          -0.043653640896081924,
          0.11278840899467468,
          0.1789465844631195,
          0.0075860898941755295,
          -0.04016755893826485,
          0.11835267394781113,
          -0.04407406598329544,
          -0.07060708850622177,
          -0.12767620384693146,
          0.016243034973740578,
          -0.008324508555233479,
          -0.10418901592493057,
          -0.010020152665674686,
          0.15057384967803955,
          0.017185164615511894,
          -0.004330085590481758,
          0.09859219938516617,
          -0.07698033004999161,
          -0.0081869475543499,
          0.04514576867222786,
          0.04952520504593849,
          0.0075104995630681515,
          0.1278000921010971,
          -0.05749201402068138,
          0.022086244076490402,
          0.037324000149965286,
          0.16150644421577454,
          0.08741874247789383,
          0.08174489438533783,
          -0.008768808096647263,
          0.06365218013525009,
          -0.055724065750837326,
          0.03237824887037277,
          0.12848232686519623,
          -0.09709480404853821
        ],
        [
          0.11229903250932693,
          -0.16643217206001282,
          0.00324561377055943,
          -0.0035928396973758936,
          -0.11845523864030838,
          -0.059767935425043106,
          0.03631378337740898,
          0.04129794239997864,
          0.02056184411048889,
          0.055739760398864746,
          -0.0003387976612430066,
          0.0032679326832294464,
          0.07126222550868988,
          0.1355573982000351,
          0.07252875715494156,
          -0.008431057445704937,
          -0.11692346632480621,
          0.2548544704914093,
          -0.06950250267982483,
          0.16208899021148682,
          -0.0075808423571288586,
          0.11565646529197693,
          0.15658096969127655,
          0.2773762345314026,
          -0.09297210723161697,
          0.0026196097023785114,
          0.007145443465560675,
          -0.09417551755905151,
          -0.07837332040071487,
          -0.09657473117113113,
          0.15781357884407043,
          0.03396233543753624,
          -0.054985783994197845,
          -0.07837823033332825,
          0.12194563448429108,
          0.022597528994083405,
          0.00019630837778095156,
          -0.057352565228939056,
          0.09235004335641861,
          0.02367352694272995,
          0.18935993313789368,
          0.05101538822054863,
          0.18410834670066833,
          0.0887276828289032,
          0.03858187422156334,
          -0.02226398140192032,
          -0.12144524604082108,
          0.023978931829333305,
          0.1016513779759407,
          0.026049520820379257,
          -0.08240437507629395,
          -0.09255164116621017,
          0.12239695340394974,
          -0.10816018283367157,
          -0.01155870035290718,
          0.28981801867485046,
          -0.038177862763404846,
          0.13622872531414032,
          -0.014531806111335754,
          0.2408267855644226,
          -0.21088768541812897,
          0.17436785995960236,
          0.11208494752645493,
          0.18675117194652557
        ],
        [
          0.07416708767414093,
          0.1736089289188385,
          -0.004173473455011845,
          0.07993616163730621,
          0.14299380779266357,
          0.024788985028862953,
          0.07457645982503891,
          -0.08138683438301086,
          -0.006515714339911938,
          -0.2792819142341614,
          0.033306147903203964,
          -0.0468013621866703,
          -0.14949928224086761,
          0.5374224781990051,
          0.10818260163068771,
          -0.05676477029919624,
          0.041935961693525314,
          -0.16850504279136658,
          -0.04390545189380646,
          -0.18336446583271027,
          0.02789587900042534,
          -0.031436726450920105,
          -0.12806746363639832,
          0.10552357137203217,
          -0.17156267166137695,
          -0.019775081425905228,
          0.09080956131219864,
          0.02178221382200718,
          0.18050281703472137,
          0.2490573525428772,
          -0.048900309950113297,
          -0.028707467019557953,
          0.02774210460484028,
          0.07795960456132889,
          0.10493213683366776,
          0.19602100551128387,
          -0.1308414787054062,
          -0.01600119285285473,
          0.030145695433020592,
          -0.09288700670003891,
          -0.050466470420360565,
          0.12169086933135986,
          -0.1575596034526825,
          0.12620791792869568,
          0.07118654251098633,
          -0.0025204806588590145,
          0.0019922794308513403,
          0.05379509553313255,
          0.08488341420888901,
          -0.11113447695970535,
          -0.00929154735058546,
          0.13280484080314636,
          0.14253683388233185,
          -0.15612207353115082,
          -0.1315719485282898,
          0.025057250633835793,
          0.0337393693625927,
          -0.027103323489427567,
          -0.03908548131585121,
          -0.04488144442439079,
          0.02766239643096924,
          0.24254344403743744,
          0.11204000562429428,
          -0.19621603190898895
        ],
        [
          0.02055901288986206,
          0.20583315193653107,
          -0.023665862157940865,
          0.07846935838460922,
          0.20010702311992645,
          0.14245310425758362,
          0.16736847162246704,
          -0.07315300405025482,
          -0.30172356963157654,
          0.0004533346800599247,
          -0.002827760996297002,
          0.18875335156917572,
          -0.12918660044670105,
          0.3409634232521057,
          0.00596660515293479,
          0.12368089705705643,
          0.10193382948637009,
          0.06162116676568985,
          -0.2034635990858078,
          0.12282928824424744,
          -0.13120083510875702,
          0.07924053817987442,
          -0.027891330420970917,
          0.48523107171058655,
          0.07394915074110031,
          0.03544294834136963,
          0.02941594272851944,
          0.004344658460468054,
          0.004123372491449118,
          -0.15647879242897034,
          0.16552457213401794,
          -0.04818644002079964,
          -0.07420244067907333,
          -0.04490423947572708,
          0.011161409318447113,
          0.22414152324199677,
          0.09790938347578049,
          -0.09140696376562119,
          -0.006287628319114447,
          0.054301273077726364,
          0.15387500822544098,
          -0.06805736571550369,
          0.11033853143453598,
          -0.05418558046221733,
          0.1949755847454071,
          -0.054301582276821136,
          -0.07599133998155594,
          0.15958067774772644,
          0.02543744444847107,
          0.1859172135591507,
          0.07062675058841705,
          -0.11376528441905975,
          0.02555808424949646,
          -0.10029488801956177,
          0.4487103521823883,
          0.1211797297000885,
          0.2183680385351181,
          0.05562996491789818,
          0.025342391803860664,
          0.11362655460834503,
          0.3155595064163208,
          -0.2530582547187805,
          -0.013909525237977505,
          0.07273216545581818
        ],
        [
          0.08275433629751205,
          0.29665276408195496,
          -0.000980992685072124,
          -0.07800555974245071,
          0.5453581809997559,
          0.09800652414560318,
          0.08014939725399017,
          0.10537943243980408,
          -0.005681115668267012,
          -0.04549781233072281,
          -0.018161315470933914,
          0.12779264152050018,
          0.11491639912128448,
          0.3522963523864746,
          0.0643911138176918,
          0.08879536390304565,
          -0.0020330657716840506,
          0.15342731773853302,
          -0.25086191296577454,
          0.009788841009140015,
          0.013154990039765835,
          0.0911637395620346,
          0.2076382040977478,
          0.04770387336611748,
          0.056831419467926025,
          -0.04195490851998329,
          -0.23569639027118683,
          -0.07524218410253525,
          0.2897808849811554,
          0.8840382695198059,
          0.21620061993598938,
          0.03998294845223427,
          0.16645516455173492,
          -0.09909864515066147,
          -0.002868538023903966,
          -0.036888524889945984,
          0.1873604953289032,
          -0.158526211977005,
          0.04899189993739128,
          0.07343950122594833,
          0.16322749853134155,
          0.11709428578615189,
          0.1654406487941742,
          -0.019770627841353416,
          0.1598091423511505,
          -0.02317490428686142,
          -0.032542284578084946,
          0.08662783354520798,
          -0.07165516912937164,
          0.03094436600804329,
          0.07663201540708542,
          -0.22836418449878693,
          0.09389684349298477,
          -0.08057236671447754,
          0.38876667618751526,
          0.20160344243049622,
          0.043532777577638626,
          -0.1948443502187729,
          0.017911704257130623,
          0.26809221506118774,
          0.1230001300573349,
          0.07069744169712067,
          -0.04529677703976631,
          -0.11774402856826782
        ],
        [
          -0.2118527740240097,
          0.001858848030678928,
          0.15874718129634857,
          0.03691880777478218,
