{
  "model_type": "DeepONet",
  "meta": {
    "input_dim": 14,
    "output_shape": null,
    "param_bounds": [
      [
        0.4652281105518341,
        -0.9584252238273621,
        0.020294763147830963,
        0.008500431664288044,
        0.00850065890699625,
        0.008503000251948833,
        0.008501138538122177,
        0.008500218391418457,
        0.008501983247697353,
        0.00850468035787344,
        0.008504069410264492,
        0.008502279408276081,
        0.008500821888446808,
        0.008503429591655731
      ],
      [
        4.034492492675781,
        -0.0919187068939209,
        0.5046061277389526,
        0.1614972949028015,
        0.1614983230829239,
        0.16149872541427612,
        0.1614992767572403,
        0.16149911284446716,
        0.16149988770484924,
        0.16149939596652985,
        0.16149722039699554,
        0.16149982810020447,
        0.16149987280368805,
        0.16149172186851501
      ]
    ],
    "output_scaler": {
      "mean_": [
        0.2647770267062176
      ],
      "scale_": [
        0.09358992117780338
      ]
    },
    "strikes": [
      0.5,
      0.6000000238418579,
      0.699999988079071,
      0.800000011920929,
      0.8999999761581421,
      1.0,
      1.100000023841858,
      1.2000000476837158,
      1.2999999523162842,
      1.399999976158142,
      1.5
    ],
    "maturities": [
      0.10000000149011612,
      0.30000001192092896,
      0.5,
      0.699999988079071,
      0.8999999761581421,
      1.100000023841858,
      1.2999999523162842,
      1.5,
      1.7000000476837158,
      1.899999976158142,
      2.0999999046325684
    ]
  },
  "layers": [],
  "branch_layers": [
    {
      "W": [
        [
          0.009536544792354107,
          0.07657619565725327,
          -0.010766859166324139,
          -0.06960185617208481,
          -0.02891954407095909,
          -0.485128790140152,
          0.9837210178375244,
          -0.05572232976555824,
          -0.8725690841674805,
          -0.0467386394739151,
          0.3670811355113983,
          0.40811023116111755,
          0.20754443109035492,
          -0.06915655732154846,
          -0.018505986779928207,
          0.6663197875022888,
          -0.0036730486899614334,
          0.009253473952412605,
          -0.034119363874197006,
          0.016175996512174606,
          0.05992088466882706,
          0.1785772442817688,
          -0.25778427720069885,
          -0.17737388610839844,
          0.1492684930562973,
          -0.10994022339582443,
          0.32754963636398315,
          -1.0576106309890747,
          0.27365267276763916,
          0.06017248332500458,
          -0.2941955029964447,
          0.05216563120484352,
          -0.29933783411979675,
          -0.18056398630142212,
          -0.794218122959137,
          -0.14715826511383057,
          -0.008663928136229515,
          0.04346834123134613,
          -0.09444303810596466,
          0.3607773184776306,
          -0.11490637063980103,
          0.3851703405380249,
          0.42932504415512085,
          0.6714808344841003,
          -0.2992696464061737,
          -0.09095549583435059,
          0.43562954664230347,
          -0.3123965561389923,
          0.1750032901763916,
          0.38841214776039124,
          0.28306275606155396,
          0.35622265934944153,
          0.033048491925001144,
          0.0344633087515831,
          -0.03870268911123276,
          -0.0005854152259416878,
          -0.3968489170074463,
          -0.43497511744499207,
          -0.43659818172454834,
          -0.3846711814403534,
          -0.0009831128409132361,
          -0.22655437886714935,
          -0.13556256890296936,
          0.006301858928054571
        ],
        [
          0.013642558827996254,
          -0.010674219578504562,
          0.0416090153157711,
          0.02151390165090561,
          -0.04488405957818031,
          -0.909859299659729,
          -0.22706104815006256,
          0.49648377299308777,
          0.0017944284481927752,
          -0.03356776386499405,
          -0.23218633234500885,
          -0.2163332849740982,
          -0.05526847019791603,
          -0.034607838839292526,
          -0.24600668251514435,
          -0.01846705749630928,
          -0.03911504149436951,
          -0.059899020940065384,
          -0.015456166118383408,
          0.014680767431855202,
          -0.5437591075897217,
          -0.8043345808982849,
          0.045375145971775055,
          0.0503610335290432,
          -0.03792596235871315,
          0.036184266209602356,
          -0.043727971613407135,
          0.23967185616493225,
          -0.07694216072559357,
          0.06358098983764648,
          0.037193622440099716,
          -0.4800098240375519,
          0.04185497388243675,
          0.03202369436621666,
          -0.22765976190567017,
          0.028057236224412918,
          -0.014200374484062195,
          -0.02197343483567238,
          0.03864014893770218,
          -0.17935077846050262,
          0.015664536505937576,
          -0.26561686396598816,
          -0.0952291265130043,
          -0.14205937087535858,
          0.05127269774675369,
          0.025286348536610603,
          0.7938233017921448,
          0.06846504658460617,
          0.4250909388065338,
          0.027005882933735847,
          0.009050417691469193,
          -0.12484653294086456,
          0.019837524741888046,
          -0.04607737064361572,
          -0.03281131014227867,
          -0.04321150481700897,
          0.018611568957567215,
          0.14937417209148407,
          0.03556276485323906,
          -0.009235180914402008,
          0.0004809014208149165,
          0.06831417232751846,
          -0.01721136085689068,
          0.04704860970377922
        ],
        [
          0.0010183443082496524,
          -0.0053341262973845005,
          0.03854772821068764,
          -0.05905694141983986,
          0.029644370079040527,
          0.41493117809295654,
          0.20050324499607086,
          -0.04522990062832832,
          -0.14283865690231323,
          0.032716795802116394,
          -0.010392209514975548,
          0.18857888877391815,
          -0.1365126222372055,
          0.0484023317694664,
          0.12284626066684723,
          -0.46609213948249817,
          -0.19023087620735168,
          0.061282407492399216,
          0.07869376987218857,
          0.005459846928715706,
          -0.0013046769890934229,
          -0.13031958043575287,
          0.6222745180130005,
          -0.06593697518110275,
          -0.08506937325000763,
          -0.036596499383449554,
          -1.06794011592865,
          -0.2171364426612854,
          0.2984866201877594,
          0.3992718756198883,
          -0.14730499684810638,
          0.04156913980841637,
          -0.12175214290618896,
          -0.03007485345005989,
          0.17619942128658295,
          -0.0493646003305912,
          0.020650452002882957,
          -0.007985076867043972,
          0.37514570355415344,
          -0.2167343944311142,
          -0.10645993798971176,
          -1.0526773929595947,
          -1.0222994089126587,
          -0.10958439111709595,
          -0.12927182018756866,
          0.04118412360548973,
          -0.35906583070755005,
          0.8258165121078491,
          -0.1517210751771927,
          0.1980082392692566,
          0.027441060170531273,
          -0.02327403612434864,
          -0.01289273239672184,
          -0.36110004782676697,
          0.021029731258749962,
          0.0538485050201416,
          -0.6792696118354797,
          0.02870788238942623,
          -0.24540625512599945,
          -0.3616960644721985,
          0.0005019498057663441,
          -0.24998235702514648,
          0.034827571362257004,
          0.25320354104042053
        ],
        [
          0.018414026126265526,
          0.04000202938914299,
          0.0006070754607208073,
          0.025984857231378555,
          -0.9298062920570374,
          0.02982567809522152,
          0.053413569927215576,
          0.583416759967804,
          -0.006647208239883184,
          -0.014231107197701931,
          0.006286619231104851,
          0.06537685543298721,
          0.45927685499191284,
          -0.8579884171485901,
          0.0906190350651741,
          0.0404919758439064,
          0.3867643475532532,
          -0.04777803272008896,
          -0.04555884003639221,
          0.005965883377939463,
          0.00872905645519495,
          -0.008779922500252724,
          -0.006761549971997738,
          0.01103709451854229,
          0.02408509887754917,
          0.005774932913482189,
          8.661576430313289e-05,
          -0.05759941413998604,
          -0.9855260252952576,
          -0.12431755661964417,
          -0.007416674867272377,
          -0.5680127143859863,
          -0.005842242389917374,
          -0.011806358583271503,
          0.0001256886898772791,
          -0.004939158447086811,
          -0.978208601474762,
          0.004258699249476194,
          0.01285987813025713,
          0.2548453211784363,
          0.0019305286696180701,
          -0.002800481393933296,
          0.007838097400963306,
          -0.007566606160253286,
          0.0015243578236550093,
          0.008702426217496395,
          -0.031069014221429825,
          0.009582683444023132,
          0.06568984687328339,
          -0.0013122048694640398,
          0.017468325793743134,
          0.6004337668418884,
          0.003318187315016985,
          0.22111086547374725,
          -0.006861388683319092,
          -0.019816888496279716,
          -0.018994545564055443,
          -0.8102194666862488,
          -0.024616101756691933,
          -0.02534002624452114,
          0.006407925859093666,
          0.8215290904045105,
          -0.48480352759361267,
          -0.5273708701133728
        ],
        [
          0.0896911546587944,
          0.04039613530039787,
          -0.18174242973327637,
          0.01799287647008896,
          -0.005056573543697596,
          0.07698943465948105,
          -0.04220056161284447,
          0.5271662473678589,
          -0.000399121199734509,
          -0.022321343421936035,
          0.010519221425056458,
          0.03345244377851486,
          -0.050758689641952515,
          0.0169661957770586,
          0.04236806556582451,
          -0.0007502813241444528,
          0.4503076374530792,
          -0.9078071713447571,
          -0.16331587731838226,
          -0.03157131001353264,
          0.06417038291692734,
          0.01946999877691269,
          0.014877069741487503,
          -0.037239186465740204,
          0.12459386140108109,
          -0.03519757464528084,
          -0.003914447035640478,
          0.045561615377664566,
          0.3811885118484497,
          0.15485049784183502,
          -0.0024624501820653677,
          -0.514326274394989,
          -0.00941441860049963,
          -0.03966711834073067,
          -0.001114885089918971,
          -0.014782250858843327,
          0.006914721801877022,
          0.17852725088596344,
          -0.0046386681497097015,
          0.019786547869443893,
          0.0028140349313616753,
          0.003636033507063985,
          -0.002402952406555414,
          -0.0034929332323372364,
          -0.006032300181686878,
          -0.33777526021003723,
          -0.06988319754600525,
          0.015270599164068699,
          0.022580349817872047,
          -0.0045466492883861065,
          0.019824864342808723,
          -0.008154157549142838,
          0.008523952215909958,
          -0.27728769183158875,
          -0.017010539770126343,
          -0.060495201498270035,
          0.011085831560194492,
          0.008245388977229595,
          0.012387145310640335,
          0.00939094927161932,
          -0.012255199253559113,
          -0.3238448202610016,
          -0.011138075962662697,
          -0.6156307458877563
        ],
        [
          -0.01722678728401661,
          -0.06216367706656456,
          0.1859404593706131,
          0.018963756039738655,
          0.008011632598936558,
          -0.0038635253440588713,
          -0.09399130195379257,
          0.09162268787622452,
          -0.005768351722508669,
          -0.034658193588256836,
          0.0072373137809336185,
          0.01909233070909977,
          -0.0218536164611578,
          -0.003354244166985154,
          0.061376553028821945,
          -0.006986998487263918,
          -0.016875360161066055,
          0.021937474608421326,
          -0.24490231275558472,
          0.1290867179632187,
          0.021385420113801956,
          0.0035215856041759253,
          0.00986836850643158,
          -0.12622039020061493,
          0.1906653344631195,
          -0.2071111500263214,
          0.0004403638595249504,
          0.09917490929365158,
          -0.04798034206032753,
          0.05570792406797409,
          -0.00811729859560728,
          -0.08772719651460648,
          -0.013577400706708431,
          -0.04020430147647858,
          0.0018149929819628596,
          -0.01824718900024891,
          -0.002533917548134923,
          0.2608398497104645,
          0.04211818426847458,
          0.03345214203000069,
          0.01458700466901064,
          0.000946215761359781,
          -0.0035616059321910143,
          0.024651838466525078,
          -0.0205121710896492,
          -0.021957000717520714,
          0.005809190217405558,
          0.0075456504710018635,
          0.0029003936797380447,
          -0.026899093762040138,
          -0.00910187792032957,
          -0.048360515385866165,
          0.058812495321035385,
          -0.011478602886199951,
          -0.09549842029809952,
          -0.6118597984313965,
          0.0158050786703825,
          0.051684968173503876,
          0.03640499338507652,
          0.0312783420085907,
          0.31720873713493347,
          0.04116605967283249,
          0.0025317841209471226,
          0.024079352617263794
        ],
        [
          0.13769042491912842,
          0.01525700744241476,
          -0.034445684403181076,
          -0.031130576506257057,
          -0.012949725612998009,
          -0.0023637458216398954,
          -0.1260264664888382,
          0.008229129947721958,
          -0.008453112095594406,
          -0.04224894568324089,
          0.015132885426282883,
          0.027056409046053886,
          0.03876179829239845,
          0.009591375477612019,
          0.03464530408382416,
          0.0056867655366659164,
          -0.006493003107607365,
          -0.0073463828302919865,
          -0.21459601819515228,
          -0.006995236035436392,
          0.020585570484399796,
          0.0015389001928269863,
          0.01198820024728775,
          -0.10809054225683212,
          0.16673216223716736,
          -0.10401641577482224,
          0.00450464803725481,
          0.13409219682216644,
          -0.01936412788927555,
          -0.0003405642055440694,
          -0.015817144885659218,
          -0.008243530988693237,
          -0.018275905400514603,
          -0.0382254421710968,
          0.00700344517827034,
          -0.02367245964705944,
          0.007829534821212292,
          0.05561988055706024,
          0.038587529212236404,
          0.006443173624575138,
          0.01338321715593338,
          0.0013162110699340701,
          -0.0012021379079669714,
          0.02584201842546463,
          -0.02901032194495201,
          -0.0006883028545416892,
          0.003827951615676284,
          0.004222836345434189,
          0.001450393465347588,
          0.016854772344231606,
          0.0396653488278389,
          0.011958535760641098,
          0.2917306125164032,
          -0.005637417081743479,
          -0.4547678530216217,
          0.09305042773485184,
          0.011265071108937263,
          -0.02383073978126049,
          0.035796426236629486,
          0.020538248121738434,
          -0.003113610204309225,
          0.015393247827887535,
          -0.004002880770713091,
          0.008228752762079239
        ],
        [
          0.21031582355499268,
          0.0068751126527786255,
          -0.011595651507377625,
          -0.08878949284553528,
          0.013502169400453568,
          -0.004259555600583553,
          -0.13053695857524872,
          -0.010487748309969902,
          -0.016402725130319595,
          -0.35338476300239563,
          0.01229659654200077,
          0.027509605512022972,
          0.020065102726221085,
          -0.0017010790761560202,
          0.044685591012239456,
          0.0073298015631735325,
          -0.034750696271657944,
          -0.0020804288797080517,
          -0.16261263191699982,
          0.0019342713057994843,
          0.027537642046809196,
          0.003731262171640992,
          0.0036758955102413893,
          -0.11687561124563217,
          0.09880905598402023,
          -0.06372065842151642,
          0.0009040827280841768,
          0.1398378312587738,
          -0.013511136174201965,
          -0.014370092190802097,
          -0.02504693903028965,
          0.00945727713406086,
          -0.02288839779794216,
          -0.07057812064886093,
          0.005342716816812754,
          0.00341575825586915,
          -0.0013573559699580073,
          0.026799285784363747,
          0.020870888605713844,
          -0.01334416214376688,
          -0.0029726610518991947,
          0.000298582308460027,
          6.3759034674149e-05,
          0.01809054985642433,
          -0.028237853199243546,
          0.004805764649063349,
          0.007052532862871885,
          -0.0035987896844744682,
          -0.006974624004215002,
          0.03483976051211357,
          0.05377010256052017,
          0.06811751425266266,
          -0.09381446987390518,
          -0.003173008793964982,
          0.14326798915863037,
          0.024717092514038086,
          0.009009691886603832,
          -0.07895170152187347,
          0.016571559011936188,
          0.016589472070336342,
          -0.004340284038335085,
          0.01254950650036335,
          -0.00299890642054379,
          0.04404880851507187
        ],
        [
          0.04379630088806152,
          0.043947260826826096,
          -0.004378854297101498,
          -0.12184441834688187,
          0.01417818944901228,
          -4.9587317334953696e-05,
          -0.11768165230751038,
          -0.025575466454029083,
          -0.012084168381989002,
          0.06611893326044083,
          0.010708889923989773,
          0.043595172464847565,
          0.06656136363744736,
          0.00396660016849637,
          0.04953542351722717,
          0.01144986692816019,
          0.020370500162243843,
          0.0015786716248840094,
          -0.01937740668654442,
          -0.020782779902219772,
          0.0034716716036200523,
          -0.0008697096491232514,
          -0.0003558690077625215,
          -0.13667455315589905,
          0.04311060532927513,
          0.011685273610055447,
          0.005252984818071127,
          0.12582066655158997,
          0.04404022917151451,
          -0.04954775795340538,
          -0.006322233006358147,
          0.024879369884729385,
          -0.011304689571261406,
          0.13674139976501465,
          0.0012460834113880992,
          -0.1590583175420761,
          -0.00920631643384695,
          -0.06023992598056793,
          0.018160102888941765,
          0.0022279382683336735,
          0.010469883680343628,
          -0.004148624371737242,
          0.00034334114752709866,
          0.016827374696731567,
          -0.017214929684996605,
          -0.011371761560440063,
          0.002505374141037464,
          0.0016293034423142672,
          0.0073936982080340385,
          0.08214613795280457,
          0.04650816693902016,
          0.07488393783569336,
          -0.030359717085957527,
          -0.006117723882198334,
          0.045170385390520096,
          0.0014911473263055086,
          0.008259548805654049,
          -0.08048032224178314,
          0.019363412633538246,
          0.003524855710566044,
          0.07288336753845215,
          -0.03574074059724808,
          0.0002914298383984715,
          -0.02963917888700962
        ],
        [
          -0.10549362748861313,
          0.1281324326992035,
          0.0005410838057287037,
          -0.12609334290027618,
          -0.01792209967970848,
          -0.005943543277680874,
          -0.09221325814723969,
          0.0010027249809354544,
          -0.013322134502232075,
          0.029586922377347946,
          0.011608111672103405,
          0.04067651182413101,
          0.027055514976382256,
          0.015188611112535,
          0.031541455537080765,
          0.015040820464491844,
          -0.009242421947419643,
          0.0012086431961506605,
          -0.01712755486369133,
          -0.005514994729310274,
          0.019965192303061485,
          -0.0004999755183234811,
          -0.00013204095012042671,
          -0.12027401477098465,
          0.00711132911965251,
          0.04299702122807503,
          0.0013187029398977757,
          0.09726345539093018,
          0.005399611778557301,
          -0.01714945398271084,
          -0.03275377303361893,
          -0.00117106968536973,
          -0.01148951519280672,
          -0.026486719027161598,
          0.005601296667009592,
          0.01326694991439581,
          0.011910652741789818,
          0.03587036207318306,
          -0.007928673177957535,
          -0.0028318329714238644,
          -0.007328120991587639,
          0.0031038091983646154,
          0.00457187881693244,
          0.010307664051651955,
          -0.04025398939847946,
          0.013278924860060215,
          0.004844557959586382,
          -0.0006406221073120832,
          0.009116960689425468,
          0.08414608985185623,
          0.06256533414125443,
          0.03381987661123276,
          -0.012207645922899246,
          -0.0056145889684557915,
          0.018859632313251495,
          0.001498549827374518,
          0.010563104413449764,
          -0.043395768851041794,
          0.01322154700756073,
          0.009546127170324326,
          -0.02423704043030739,
          -0.0030767081771045923,
          0.000817894353531301,
          0.013814352452754974
        ],
        [
          -0.030226510018110275,
          0.15698584914207458,
          0.002073407405987382,
          -0.10322756320238113,
          -0.023895300924777985,
          -0.0051695844158530235,
          -0.0709891989827156,
          -0.016343988478183746,
          -0.010628863237798214,
          0.011812693439424038,
          0.007087784819304943,
          0.048993486911058426,
          0.027466684579849243,
          0.01966065540909767,
          0.030252376571297646,
          -0.002063845982775092,
          0.0015270714648067951,
          0.0008444622508250177,
          -0.007690876722335815,
          -0.006552434526383877,
          0.005762948654592037,
          0.0019741638097912073,
          9.23061597859487e-05,
          0.0553944893181324,
          -0.014733986929059029,
          -0.0722694918513298,
          -0.0004656198143493384,
          0.07772818952798843,
          0.014976508915424347,
          -0.01883435994386673,
          -0.02703084796667099,
          0.015269722789525986,
          -0.07184213399887085,
          -0.0005155222024768591,
          -0.0036726954858750105,
          -0.0015580951003357768,
          0.017223874107003212,
          -0.03721937909722328,
          -0.013627990148961544,
          0.004237036220729351,
          -0.02389650233089924,
          0.002212806837633252,
          0.005928141064941883,
          -0.001931927865371108,
          -0.030212286859750748,
          -0.041610099375247955,
          0.005373486317694187,
          5.728031101170927e-05,
          -0.009602071717381477,
          0.0677841529250145,
          -0.009939891286194324,
          0.04700438305735588,
          -0.002254707273095846,
          -0.0035416963510215282,
          0.004054857883602381,
          0.0031983854714781046,
          0.008576870895922184,
          -0.05973614752292633,
          0.007386660203337669,
          0.0001401619374519214,
          0.0254979208111763,
          -0.011836054734885693,
          -0.0016753001837059855,
          -0.00072433368768543
        ],
        [
          0.006947466172277927,
          0.06820967048406601,
          -0.001594866975210607,
          -0.07327551394701004,
          0.014484786428511143,
          -0.007984045892953873,
          -0.026534678414463997,
          -0.024441098794341087,
          0.008424165658652782,
          0.0015672246227040887,
          0.00011136064858874306,
          0.02132313884794712,
          0.02389100007712841,
          -0.0013535351026803255,
          0.020700043067336082,
          0.011314606294035912,
          0.003396151587367058,
          -0.005433840211480856,
          -0.009856129065155983,
          -0.012954424135386944,
          -0.004877880215644836,
          0.002325626788660884,
          -0.0035476605407893658,
          0.00952283013612032,
          -0.005574327427893877,
          -0.008485746569931507,
          0.0011237735161557794,
          0.029255961999297142,
          0.030416561290621758,
          -0.014601854607462883,
          -0.08427675068378448,
          0.02239679917693138,
          0.06082479655742645,
          0.004879436455667019,
          -0.0015784556744620204,
          -0.006365180481225252,
          -0.004628886003047228,
          0.016663523390889168,
          -0.003448349656537175,
          -0.02454797551035881,
          -0.061938196420669556,
          -0.003068396355956793,
          0.006041186396032572,
          0.0002049374597845599,
          -0.07722610235214233,
          -0.0022569468710571527,
          0.006937313359230757,
          -0.0004803729534614831,
          0.006227525882422924,
          0.015746334567666054,
          -0.09467955678701401,
          0.04872414842247963,
          -0.006533804349601269,
          0.0023495741188526154,
          0.008877573534846306,
          0.004693424329161644,
          0.008315779268741608,
          -0.06363890320062637,
          0.011874890886247158,
          -0.002124815247952938,
          0.010105972178280354,
          -0.027445560321211815,
          -0.0017578050028532743,
          -0.0027634943835437298
        ],
        [
          -0.0010589632438495755,
          0.02587704546749592,
          -0.002032735152170062,
          -0.0411314032971859,
          -0.019094154238700867,
          -0.011025743559002876,
          -0.0028578287456184626,
          -0.010487976484000683,
          0.008594337850809097,
          -0.005076660308986902,
          0.00046219347859732807,
          -0.00429498590528965,
          0.015331324189901352,
          0.016759756952524185,
          0.01873915269970894,
          -0.002689899643883109,
          0.004468496888875961,
          -0.0040249512530863285,
          -0.010221385397017002,
          -0.018924137577414513,
          -0.0004995222552679479,
          0.005749195348471403,
          0.0005999573622830212,
          -0.02841927297413349,
          0.024075213819742203,
          0.01949051208794117,
          0.0006165006197988987,
          0.0035382425412535667,
          0.008063701912760735,
          -0.000295354169793427,
          -0.09174154698848724,
          0.009668130427598953,
          0.00215846486389637,
          0.0017721018521115184,
          0.0003654689353425056,
          0.0015112520195543766,
          0.008281196467578411,
          0.035739339888095856,
          0.0009137384477071464,
          -0.003352827625349164,
          0.044826608151197433,
          -0.0032104752026498318,
          0.0049814945086836815,
          0.006651757284998894,
          -0.08735239505767822,
          0.020511245355010033,
          0.01047710794955492,
          -0.00015119770250748843,
          -0.0012327837757766247,
          0.005850690416991711,
          -0.06991608440876007,
          0.0005286652594804764,
          -0.007349066436290741,
          0.0055628432892262936,
          0.007392990868538618,
          -0.0030761188827455044,
          0.011229542084038258,
          -0.006122988183051348,
          0.005373886786401272,
          0.0003463585744611919,
          -0.013484334573149681,
          -0.007853592745959759,
          -0.003548206062987447,
          -0.002326495712623
        ],
        [
          -0.007294654380530119,
          0.015937216579914093,
          0.005035229492932558,
          -0.012344160117208958,
          0.019129332154989243,
          0.0014735484728589654,
          -0.0009692760067991912,
          -0.009802809916436672,
          0.007080563809722662,
          0.00728513253852725,
          -0.003791873110458255,
          -0.015404761768877506,
          0.011749869212508202,
          -0.013137071393430233,
          0.01322174072265625,
          0.001027256133966148,
          0.02295844815671444,
          -0.007152128964662552,
          -0.0009927044156938791,
          -0.001775976736098528,
          -0.011515116319060326,
          -0.0006666710251010954,
          -0.0010794273111969233,
          0.0006450207438319921,
          0.005692358128726482,
          -0.03429170697927475,
          -0.0016910511767491698,
          0.001029924489557743,
          0.008894958533346653,
          0.00028606667183339596,
          -0.04167817905545235,
          0.010194081813097,
          -0.09479757398366928,
          0.011112666688859463,
          -0.006696729455143213,
          -0.010588858276605606,
          -0.013352712616324425,
          -0.003201184095814824,
          -0.00015530973905697465,
          0.010505005717277527,
          0.09899311512708664,
          0.0002631779352668673,
          -0.0015128074446693063,
          -0.0019980664364993572,
          -0.04081592336297035,
          0.0122018251568079,
          -0.0012681058142334223,
          0.003516671247780323,
          0.001399495522491634,
          0.005795632489025593,
          -0.01590084098279476,
          -0.009130955673754215,
          -0.002750104758888483,
          0.0015881538856774569,
          0.0037403409369289875,
          0.002851273166015744,
          0.007576869335025549,
          0.009613828733563423,
          0.00021571177057921886,
          0.0007282873848453164,
          -0.011985342018306255,
          -0.004885164089500904,
          -0.0029271955136209726,
          -0.027117453515529633
        ]
      ],
      "b": [
        0.48645639419555664,
        0.4373302459716797,
        -0.017554210498929024,
        -0.08336547017097473,
        -0.6430217623710632,
        -0.3554084897041321,
        0.24191123247146606,
        0.11795944720506668,
        -0.36651352047920227,
        -0.259012907743454,
        0.09136929363012314,
        -0.28990188241004944,
        0.6894558668136597,
        -0.3929118812084198,
        -0.20068101584911346,
        0.5530176758766174,
        0.39585405588150024,
        -0.7431421875953674,
        -0.2883126735687256,
        0.12154038995504379,
        0.6310245394706726,
        -0.5767919421195984,
        -0.002678842516615987,
        0.41403478384017944,
        -0.10918642580509186,
        0.35428574681282043,
        -0.6721185445785522,
        -0.26027557253837585,
        -0.22171591222286224,
        -0.21714627742767334,
        0.08575676381587982,
        -0.11354533582925797,
        -0.05612337216734886,
        -0.04696708917617798,
        -0.4011249244213104,
        -0.01622958295047283,
        -0.8298572897911072,
        0.539092481136322,
        -0.17323926091194153,
        0.47487443685531616,
        0.13461896777153015,
        -0.6692981719970703,
        -0.34529945254325867,
        -0.21185381710529327,
        -0.11205731332302094,
        0.36197036504745483,
        0.31003472208976746,
        0.2748246490955353,
        -0.11605029553174973,
        -0.25676533579826355,
        0.501023530960083,
        0.4973864257335663,
        0.18676938116550446,
        -0.41187191009521484,
        -0.28393495082855225,
        -0.3933303654193878,
        -0.3153170347213745,
        -0.6358938217163086,
        0.29518789052963257,
        0.06723936647176743,
        0.3790058195590973,
        0.18342767655849457,
        0.1587793529033661,
        -0.5361522436141968
      ],
      "act": null
    },
    {
      "W": null,
      "b": null,
      "act": "relu"
    },
    {
      "W": [
        [
          0.0035107142757624388,
          0.11802124232053757,
          0.1793787181377411,
          -0.040288545191287994,
          0.06764592230319977,
          -0.2802831530570984,
          -0.08336708694696426,
          -0.008035616017878056,
          -0.023390214890241623,
          -0.03510993346571922,
          0.07253196090459824,
          -0.07443762570619583,
          0.013162786141037941,
          0.020996680483222008,
          -0.12023812532424927,
          -0.25221094489097595,
          -0.2243574857711792,
          0.05769798904657364,
          0.006374066229909658,
          0.0104378592222929,
          -0.09267851710319519,
          -0.05874219164252281,
          0.026866544038057327,
          -0.08187524974346161,
          -0.013520324602723122,
          -0.05995645001530647,
          0.6441307663917542,
          -0.013456822372972965,
          0.7147344946861267,
          0.2469138503074646,
          -0.002439502626657486,
          0.13109540939331055,
          0.05217611789703369,
          0.07908659428358078,
          0.25053632259368896,
          -0.22450271248817444,
          0.05907854437828064,
          0.08235529065132141,
          0.051443081349134445,
          -0.17114609479904175,
          0.07260739058256149,
          0.042055532336235046,
          -0.07697499543428421,
          -0.08649884164333344,
          0.020080970600247383,
          0.5407599210739136,
          -0.04892638698220253,
          -0.21230515837669373,
          0.14802345633506775,
          0.11089006066322327,
          0.14325876533985138,
          -0.21879732608795166,
          0.21936456859111786,
          0.11594986915588379,
          -0.043764807283878326,
          0.2277318686246872,
          -0.3278273642063141,
          0.009876961819827557,
          0.09675464034080505,
          0.0830296203494072,
          0.11827589571475983,
          0.06650153547525406,
          -0.310980886220932,
          0.22047044336795807
        ],
        [
          -0.016247816383838654,
          0.1740817427635193,
          0.10741148144006729,
          0.14774133265018463,
          0.08307436853647232,
          0.16479627788066864,
          -0.14906272292137146,
          -0.09658566862344742,
          -0.017085837200284004,
          0.03141959756612778,
          -0.010149185545742512,
          0.051412343978881836,
          -0.015446222387254238,
          0.02816416695713997,
          -0.3628070652484894,
          -0.1491677612066269,
          0.06322752684354782,
          0.09707579016685486,
          -0.03475644811987877,
          0.07606500387191772,
          0.26292088627815247,
          0.08066310733556747,
          -0.016012592241168022,
          0.04815259948372841,
          -0.24302132427692413,
          0.10437946766614914,
          -0.31640446186065674,
          0.19018907845020294,
          -0.2415395975112915,
          0.2544613778591156,
          -0.024003664031624794,
          0.06540926545858383,
          0.17193011939525604,
          0.16231411695480347,
          0.26138490438461304,
          0.5491205453872681,
          -0.12469145655632019,
          0.15413688123226166,
          -0.005453811958432198,
          -0.19195859134197235,
          0.1920384019613266,
          0.2283174991607666,
          0.2883758842945099,
          0.011539919301867485,
          0.24206335842609406,
          0.31306931376457214,
          -0.14779476821422577,
          -0.18320900201797485,
          -0.07913385331630707,
          0.11929807811975479,
          0.20531940460205078,
          -0.18342971801757812,
          0.022001968696713448,
          -0.0019230921752750874,
          0.03164871037006378,
          0.05246390029788017,
          0.1810622215270996,
          0.02484651654958725,
          0.019293110817670822,
          0.018524644896388054,
          0.12511985003948212,
          0.13807275891304016,
          0.19449108839035034,
          -0.02934417314827442
        ],
        [
          -0.06603389233350754,
          -0.017076702788472176,
          0.023000119253993034,
          -0.1829863041639328,
          -0.01158771850168705,
          -0.21370841562747955,
          -0.023946456611156464,
          -0.002408150816336274,
          -0.032931748777627945,
          0.08202821016311646,
          -0.013889351859688759,
          -0.03364253789186478,
          -0.13002361357212067,
          -0.1803452968597412,
          0.01694991998374462,
          0.268659770488739,
          0.036613598465919495,
          0.04247525334358215,
          -0.10764606297016144,
          -0.003894974011927843,
          -0.08116786181926727,
          0.10250542312860489,
          -0.06588834524154663,
          0.0718364343047142,
          -0.026554428040981293,
          0.08672308921813965,
          0.06794614344835281,
          0.0810856893658638,
          -0.1644328534603119,
          0.05930691957473755,
          0.19572171568870544,
          -0.09618540853261948,
          -0.0033762783277779818,
          -0.17604416608810425,
          0.08447600156068802,
          0.1817738264799118,
          0.11828827112913132,
          -0.14795593917369843,
          0.04069843143224716,
          -0.10272590070962906,
          -0.07101862132549286,
          0.14866524934768677,
          0.08128514885902405,
          -0.32871466875076294,
          -0.16579623520374298,
          0.14875668287277222,
          -0.7410888671875,
          0.16324834525585175,
          -0.03782643750309944,
          -0.0024998639710247517,
          -0.1361265778541565,
          0.28651949763298035,
          0.19279348850250244,
          -0.8651669025421143,
          0.24576684832572937,
          0.1590174436569214,
          -0.0724652037024498,
          0.12384363263845444,
          -0.14865687489509583,
          -0.07972508668899536,
          0.04552903398871422,
          0.06582127511501312,
          0.1350107640028,
          -0.04998136684298515
        ],
        [
          0.0891449823975563,
          -0.05600256472826004,
          0.13895602524280548,
          -0.06322307884693146,
          -0.022867508232593536,
          0.14241883158683777,
          -0.07847389578819275,
          -0.086265929043293,
          0.4930225908756256,
          -0.2052588015794754,
          0.1268705278635025,
          0.0671343207359314,
          0.16487930715084076,
          0.00814343523234129,
          0.21227440237998962,
          0.06734615564346313,
          0.16896486282348633,
          -0.048998408019542694,
          -0.05017181485891342,
          0.09118448942899704,
          -0.054943833500146866,
          0.06282880902290344,
          0.03783312439918518,
          0.08853033185005188,
          0.13842907547950745,
          0.02393791638314724,
          -0.1853732168674469,
          -0.023589588701725006,
          -0.1541750729084015,
          0.07156869769096375,
          0.049904026091098785,
          0.09107832610607147,
          0.07459317147731781,
          0.15484274923801422,
          0.04438130185008049,
          0.051612596958875656,
          0.5250996947288513,
          0.007224131841212511,
          -0.06423795223236084,
          -0.11213710159063339,
          0.07681852579116821,
          0.06831701099872589,
          0.3398161828517914,
          0.11875202506780624,
          -0.1856769472360611,
          0.20731011033058167,
          -0.04822565242648125,
          -0.07894352823495865,
          -0.010140258818864822,
          0.01733524724841118,
          0.31267592310905457,
          -0.2450503557920456,
          0.6389379501342773,
          -0.25581836700439453,
          0.03667355328798294,
          0.25866785645484924,
          -0.02810830995440483,
          -0.04940098896622658,
          0.08182534575462341,
          -0.06796645373106003,
          -0.05808175727725029,
          0.10378879308700562,
          -0.14080692827701569,
          0.10300386697053909
        ],
        [
          -0.09184964746236801,
          -0.09082702547311783,
          -0.14307720959186554,
          0.017828403040766716,
          0.061205167323350906,
          0.06261058151721954,
          -0.0778353288769722,
          0.6018713712692261,
          0.4382733404636383,
          -0.2685195207595825,
          -0.26536205410957336,
          0.0317220464348793,
          0.14155524969100952,
          0.04299907013773918,
          -0.017122583463788033,
          -0.08734680712223053,
          -0.01819458417594433,
          -0.0943031832575798,
          -0.08806277811527252,
          -0.04098322242498398,
          -0.021442960947752,
          0.06857475638389587,
          0.03334835171699524,
          0.2257804125547409,
          0.001801097416318953,
          0.20555076003074646,
          -0.005524988751858473,
          -0.11521220207214355,
          -0.03459226340055466,
          0.08325491845607758,
          0.023187866434454918,
          -0.008731028996407986,
          0.011701478622853756,
          -0.017787165939807892,
          0.6390271782875061,
          -0.035743020474910736,
          0.08226756006479263,
          0.20822875201702118,
          -0.06549607962369919,
          0.03128144145011902,
          0.04198025166988373,
          0.030083047226071358,
          -0.004735760390758514,
          -0.1575486958026886,
          -0.0330561026930809,
          -0.16031397879123688,
          -0.3251105546951294,
          0.14038687944412231,
          -0.06890210509300232,
          -0.06762585788965225,
          -0.020069492980837822,
          -0.09391528367996216,
          0.13828657567501068,
          0.06444074213504791,
          0.21038782596588135,
          -0.30888763070106506,
          -0.03300827741622925,
          -0.14429481327533722,
          -0.26577258110046387,
          0.0829143077135086,
          0.5345258712768555,
          -0.015283012762665749,
          -0.07193836569786072,
          0.04365921765565872
        ],
        [
          -0.0008169648936018348,
          -0.08478701114654541,
          -0.053580448031425476,
          -0.10120884329080582,
          -0.27500253915786743,
          0.12593364715576172,
          -0.2457752823829651,
          -0.10928348451852798,
          0.4798615872859955,
          -0.0966174378991127,
          -0.6292685866355896,
          -0.1491387039422989,
          0.43506234884262085,
          -0.06975024193525314,
          0.09668033570051193,
          0.02843131683766842,
          0.013478116132318974,
          -0.10069818794727325,
          1.039924144744873,
          0.08139296621084213,
          -0.09240524470806122,
          -0.1773519068956375,
          -0.13497662544250488,
          0.031279873102903366,
          -0.021543772891163826,
          0.18800577521324158,
          -0.08520569652318954,
          0.003554310416802764,
          -0.22091713547706604,
          -0.09685899317264557,
          -0.03194001689553261,
          -0.03147953003644943,
          0.09661028534173965,
          -0.027194702997803688,
          -0.0985540896654129,
          0.04548215493559837,
          -0.04352939501404762,
          0.26701128482818604,
          0.12581492960453033,
          0.06985601037740707,
          -0.1902848482131958,
          0.004203309770673513,
          -0.13368071615695953,
          0.28223928809165955,
          -0.007713057566434145,
          -0.004377975128591061,
          -0.01600414328277111,
          -0.05109763517975807,
          0.06098443269729614,
          0.08802462369203568,
          -0.018430907279253006,
          0.04592708498239517,
          0.11530732363462448,
          0.026378899812698364,
          -0.029463637620210648,
          -0.13455641269683838,
          -0.1469496786594391,
          0.1798824667930603,
          -0.21498388051986694,
          0.22924011945724487,
          -0.014023014344274998,
          -0.06329423189163208,
          0.044638462364673615,
          0.26807543635368347
        ],
        [
          0.4842125475406647,
          0.18512238562107086,
          -0.06961086392402649,
          -0.18208955228328705,
          -0.06946683675050735,
          -0.046816445887088776,
          -0.15060560405254364,
          -0.15912087261676788,
          -0.1560860574245453,
          0.217980295419693,
          0.10644523054361343,
          0.4088875651359558,
          0.1765056699514389,
          0.008495603688061237,
          -0.5935516357421875,
          0.12028029561042786,
          -0.01594766415655613,
          0.04295884072780609,
          -0.0494883693754673,
          -0.3397214114665985,
          -0.34195587038993835,
          0.38563838601112366,
          0.011867628432810307,
          -0.014158317819237709,
          -0.09158076345920563,
          -0.058940786868333817,
          -0.11514921486377716,
          0.5127865076065063,
          0.12113422155380249,
          -0.2157374769449234,
          -0.14689016342163086,
          -0.1864810734987259,
          0.06873270124197006,
          -0.14880116283893585,
          -0.022140968590974808,
          -0.05509200692176819,
          -0.0357881598174572,
          0.06212557107210159,
          -0.22657348215579987,
          -0.5967682600021362,
          -0.0725986436009407,
          -0.1728667914867401,
          -0.39858296513557434,
          -0.10525373369455338,
          0.22373081743717194,
          -0.5571239590644836,
          0.07591965049505234,
          0.12740790843963623,
          -0.014005781151354313,
          0.11149922013282776,
          -0.10876184701919556,
          -0.023666102439165115,
          0.26651155948638916,
          0.05796627700328827,
          -0.07472746819257736,
          0.5974099636077881,
          0.07642073184251785,
          -0.061414625495672226,
          -0.14847944676876068,
          0.11645442992448807,
          0.13510848581790924,
          0.06907299160957336,
          0.014876080676913261,
          0.00843467190861702
        ],
        [
          -0.06636235862970352,
          0.2448413372039795,
          0.3929324150085449,
          -0.036761172115802765,
          0.26532962918281555,
          0.17641252279281616,
          -0.029142891988158226,
          -0.21640631556510925,
          -0.20634451508522034,
          -0.14870111644268036,
          0.12321725487709045,
          -0.15718196332454681,
          -0.10042819380760193,
          -0.19319391250610352,
          0.0677943006157875,
          0.0632111132144928,
          0.1128268614411354,
          0.3259839117527008,
          -0.17012393474578857,
          -0.04468630626797676,
          0.010089421644806862,
          0.03139009699225426,
          0.04146570712327957,
          -0.16573910415172577,
          0.02126678079366684,
          -0.2488984316587448,
          -0.05466676130890846,
          0.07681094855070114,
          -0.06157946214079857,
          0.04244879260659218,
          -0.12179397791624069,
          -0.11340513825416565,
          -0.11256124824285507,
          -0.13312333822250366,
          -0.08572171628475189,
          -0.10922116786241531,
          -0.08219174295663834,
          0.013578338548541069,
          0.055322084575891495,
          -0.15134960412979126,
          -0.16254498064517975,
          -0.09852899610996246,
          -0.11940570175647736,
          -0.1840168535709381,
          -0.20763848721981049,
          -0.4553283751010895,
          -0.05880366638302803,
          -0.4626947343349457,
          -0.04059089720249176,
          0.12713615596294403,
          -0.06815867125988007,
          0.07113460451364517,
          -0.0351947546005249,
          -0.18275566399097443,
          -0.11794742941856384,
          -0.041577793657779694,
          -0.09317044913768768,
          -0.18312688171863556,
          0.012695761397480965,
          -0.06873111426830292,
          0.013348419219255447,
          -0.18643084168434143,
          0.14596086740493774,
          0.5887855887413025
        ],
        [
          -0.1871446967124939,
          0.22105126082897186,
          -0.15265709161758423,
          0.04312697798013687,
          0.16236931085586548,
          -0.1950947493314743,
          0.009536326862871647,
          0.021117765456438065,
          0.3539654016494751,
          -0.4155043363571167,
          -0.5870388150215149,
          0.05524365231394768,
          -1.0340989828109741,
          -0.07588667422533035,
          -0.3009193241596222,
          -0.02749568596482277,
          -0.14950114488601685,
          -0.131257563829422,
          -0.3349568247795105,
          0.4482438266277313,
          -0.034103766083717346,
          0.14351002871990204,
          0.05441698059439659,
          -1.828189492225647,
          0.08493378758430481,
          -0.2482510358095169,
          -0.20461750030517578,
          -0.7958340048789978,
          -0.06752046942710876,
          0.10760464519262314,
          0.1246679499745369,
          -0.26113829016685486,
          -0.5904991626739502,
          0.26004758477211,
          0.08249431103467941,
          -0.04318976402282715,
          -0.11068771779537201,
          0.10869534313678741,
          0.4753023386001587,
          -0.03218843787908554,
          0.054682593792676926,
          -0.2869555652141571,
          -0.13781896233558655,
          -0.5437194108963013,
          -0.017292680218815804,
          -0.06103886291384697,
          -0.4559765160083771,
          0.12459365278482437,
          -0.11793521791696548,
          -0.03202967718243599,
          -0.22298561036586761,
          0.1596682369709015,
          0.11808058619499207,
          -0.03657052293419838,
          -0.1212376207113266,
          0.1735679805278778,
          0.07572992891073227,
          0.009801016189157963,
          -1.0332999229431152,
          -0.004151911474764347,
          -0.15596933662891388,
          0.08058527112007141,
          -0.03670477494597435,
          0.042718566954135895
        ],
        [
          -0.0280474741011858,
          -0.12943200767040253,
          0.00335434777662158,
          -0.20491032302379608,
          -0.12065452337265015,
          -0.0046423193998634815,
          0.00033759570214897394,
          0.10746273398399353,
          0.07991734892129898,
          -0.17969031631946564,
          0.06090644374489784,
          -0.014689777977764606,
          0.0974685475230217,
          -0.11004320532083511,
          -0.09762007743120193,
          0.18025532364845276,
          0.3725779056549072,
          -0.02200303040444851,
          -0.07383283227682114,
          -0.051119983196258545,
          0.04151604324579239,
          -0.1260593831539154,
          -0.2775963842868805,
          -0.09523288905620575,
          -0.07893086969852448,
          0.3010215163230896,
          0.16920237243175507,
          -0.04266076534986496,
          0.07743523269891739,
          -0.030402934178709984,
          -0.04496091976761818,
          -0.14910878241062164,
          -0.005337318871170282,
          -0.030178267508745193,
          -0.00815003551542759,
          0.09752649813890457,
          -0.1306590735912323,
          0.01560679916292429,
          0.13600483536720276,
          -0.09130706638097763,
          -0.1344582438468933,
          0.004677860531955957,
          0.10945597290992737,
          -0.8991180062294006,
          0.14183741807937622,
          -0.09653408825397491,
          -0.2662942707538605,
          -0.13895581662654877,
          0.15534113347530365,
          0.00022573655587621033,
          -0.05446584150195122,
          0.48542511463165283,
          0.07786280661821365,
          0.21046783030033112,
          0.13303285837173462,
          -0.07905124127864838,
          -0.2559269368648529,
          -0.04564327374100685,
          0.0465690903365612,
          -0.003351402236148715,
          -0.052054598927497864,
          0.08567295968532562,
          -0.11703983694314957,
          -0.018127908930182457
        ],
        [
          0.17953583598136902,
          0.08982886373996735,
          -0.06599115580320358,
          -0.25210970640182495,
          0.2867189645767212,
          0.020311348140239716,
          0.15873321890830994,
          0.07671681046485901,
          0.3718457520008087,
          0.055385004729032516,
          0.09753295034170151,
          0.15708081424236298,
          0.2120610773563385,
          -0.01640317589044571,
          0.299835741519928,
          0.06250353902578354,
          0.02168622426688671,
          -0.04858064651489258,
          0.10343606770038605,
          -0.00201914319768548,
          0.04060249775648117,
          0.21221661567687988,
          -0.2862679958343506,
          0.08783033490180969,
          0.001051702187396586,
          0.012258903123438358,
          -0.006214831490069628,
          0.058479417115449905,
          -0.13289020955562592,
          -0.10942528396844864,
          0.05607026442885399,
          0.08272378146648407,
          -0.03815113753080368,
          -0.23252668976783752,
          -0.027907781302928925,
          -0.24145276844501495,
          -0.053530819714069366,
          -0.2706409692764282,
          -0.004824774339795113,
          -0.45866572856903076,
          -0.16700437664985657,
          -0.014659758657217026,
          0.10842910408973694,
          0.05606647580862045,
          -0.02419479936361313,
          -0.06743840128183365,
          -0.004920847248286009,
          -0.032386910170316696,
          0.040245845913887024,
          -0.05036172643303871,
          -0.09911296516656876,
          -0.11574223637580872,
          0.08504790812730789,
          -0.07793853431940079,
          0.04385383054614067,
          0.10377423465251923,
          0.052631769329309464,
          -0.0029458929784595966,
          0.0841597393155098,
          -0.016189727932214737,
          -0.04801987111568451,
          0.05724870786070824,
          -0.2652479112148285,
          -0.02967158704996109
        ],
        [
          0.23280690610408783,
          -0.018662407994270325,
          0.042443957179784775,
          -0.1201629489660263,
          0.0007895155576989055,
          0.09310708194971085,
          -0.015579386614263058,
          0.12466414272785187,
          0.3818747401237488,
          0.01372386422008276,
          -0.16231629252433777,
          -0.22552390396595,
          -0.048433080315589905,
          0.04507556930184364,
          -0.043970100581645966,
          -0.04758709296584129,
          0.14468500018119812,
          -0.09580936282873154,
          0.1285122185945511,
          -0.15834997594356537,
          -0.05247803032398224,
          0.2691424787044525,
          0.00880464632064104,
          -0.20247478783130646,
          0.23599544167518616,
          -0.14574965834617615,
          0.033198848366737366,
          0.22388902306556702,
          -0.03601798787713051,
          0.035741742700338364,
          0.03682316094636917,
          0.10483098030090332,
          -0.04459592327475548,
          0.07515997439622879,
          0.11780552566051483,
          -0.0788789689540863,
          -0.1859259456396103,
          -0.19780874252319336,
          0.05047588050365448,
          0.5007656216621399,
          -0.07651682943105698,
          0.14877744019031525,
          -0.09486818313598633,
          -0.1110554188489914,
          0.06679241359233856,
          -0.12831644713878632,
          0.13116885721683502,
          0.2735998034477234,
          0.08508621156215668,
          -0.035703785717487335,
          -0.24306124448776245,
          -0.14267267286777496,
          -0.0013183422852307558,
          0.07272901386022568,
          0.2580864429473877,
          -0.10567992180585861,
          -0.19832251965999603,
          -0.06995732337236404,
          0.09425410628318787,
          0.029984550550580025,
          0.06392329186201096,
          0.20782291889190674,
          -0.0769505426287651,
          -0.017524603754281998
        ],
        [
          0.10158789157867432,
          0.054244548082351685,
          -0.02484188973903656,
          -0.06040653586387634,
          0.045465994626283646,
          -0.01725824363529682,
          -0.16256311535835266,
          -0.09280137717723846,
          -0.12051665782928467,
          -0.0868750810623169,
          0.09742165356874466,
          0.13178107142448425,
          0.02406519092619419,
          0.08309485018253326,
          -0.13337571918964386,
          0.04482059180736542,
          -0.004082391504198313,
          0.4651419520378113,
          -0.07170518487691879,
          0.08662877231836319,
          -0.2003876268863678,
          -0.12988446652889252,
          0.1404537856578827,
          0.036454495042562485,
          0.08230975270271301,
          -0.10934440791606903,
          -0.024154160171747208,
          0.04727834835648537,
          0.1323738396167755,
          0.20612221956253052,
          -0.023225754499435425,
          0.14328902959823608,
          -0.04267141595482826,
          0.03860986977815628,
          -0.1205233559012413,
          0.0891544297337532,
          0.12371725589036942,
          0.06427370756864548,
          -0.031881850212812424,
          -0.12680506706237793,
          0.14823304116725922,
          -0.10695473849773407,
          0.22188858687877655,
          -0.010819941759109497,
          0.24331316351890564,
          0.330779492855072,
          0.18340136110782623,
          0.049862090498209,
          0.15932855010032654,
          0.08254417777061462,
          0.13448059558868408,
          0.07337469607591629,
          0.08802847564220428,
          0.0888100415468216,
          0.09370282292366028,
          -0.022137297317385674,
          0.08970415592193604,
          0.10077667981386185,
          0.031605955213308334,
          0.1328786462545395,
          0.021836023777723312,
          0.021938201040029526,
          -0.061453770846128464,
          0.04035452753305435
        ],
        [
          -0.11959575861692429,
          0.05936502292752266,
          -0.02248173952102661,
          0.05571157485246658,
          0.0921584963798523,
          -0.036912184208631516,
          -0.01527913473546505,
          0.28356245160102844,
          0.009285294450819492,
          -0.12324748933315277,
          -0.043571535497903824,
          0.060584232211112976,
          -0.04569169878959656,
          -0.0172355305403471,
          -0.10946224629878998,
          0.06484605371952057,
          -0.003394786501303315,
          -0.18592305481433868,
          -0.0015917069977149367,
          -0.007353363558650017,
          -0.014012574218213558,
          -0.05017787963151932,
          -0.10087766498327255,
          0.12130367755889893,
          -0.02490319311618805,
          -0.016499141231179237,
          0.016006512567400932,
          0.05704879015684128,
          -0.0067982859909534454,
          0.039013780653476715,
          0.041212938725948334,
          -0.0578174851834774,
          -0.05817369371652603,
          -0.04191051423549652,
          0.5924507975578308,
          0.06886885315179825,
          -0.0438455194234848,
          -0.030777454376220703,
          0.004966243170201778,
          0.042887695133686066,
          0.0768047347664833,
          0.006141341291368008,
          -0.0015394344227388501,
          -0.05770769715309143,
          -0.12700116634368896,
          -0.03350929915904999,
          -0.2314632087945938,
          0.058009590953588486,
          0.025465207174420357,
          0.029321519657969475,
          -0.07258886843919754,
          0.10594979673624039,
          0.048498477786779404,
          0.07804306596517563,
          0.015738533809781075,
          -0.09792204201221466,
          0.05963437631726265,
          -0.01931433565914631,
          -0.03003312088549137,
          0.10428408533334732,
          0.2623474895954132,
          -0.04773234203457832,
          -0.06342954188585281,
          0.09692142903804779
        ],
        [
          0.012761261314153671,
          -0.14037474989891052,
          0.17688056826591492,
          0.002263236790895462,
          -0.08643820881843567,
          -0.16156385838985443,
          -0.1194179430603981,
          -0.057048071175813675,
          0.2859554886817932,
          0.08362237364053726,
          0.0025180932134389877,
          0.15054498612880707,
          -0.025349987670779228,
          0.06829804927110672,
          0.41325443983078003,
          0.13875062763690948,
          0.13627517223358154,
          0.07930058240890503,
          0.22630003094673157,
          0.013566171750426292,
          -0.057202499359846115,
          0.4542846381664276,
          0.1467157006263733,
          0.05820874124765396,
          0.011670845560729504,
          -0.40938809514045715,
          0.06353100389242172,
          -0.027712814509868622,
          0.19544930756092072,
          0.1932738572359085,
          0.018043305724859238,
          -0.2975957989692688,
          0.11664401739835739,
          -0.10130109637975693,
          0.04893748462200165,
          0.026979859918355942,
          -0.023590315133333206,
          0.12553785741329193,
          -0.006643475499004126,
          0.05580621212720871,
          0.055157050490379333,
          0.10645308345556259,
          0.02936706319451332,
          -0.10031886398792267,
          -0.12155790627002716,
          0.06876816600561142,
          0.11742039769887924,
          0.14923378825187683,
          0.12417948991060257,
          0.10482172667980194,
          -0.0200656708329916,
          0.1592528522014618,
          0.024335386231541634,
          -0.1808202564716339,
          0.040472500026226044,
          -0.009814751334488392,
          0.04810776561498642,
          0.00733175128698349,
          -0.07120341807603836,
          0.05750323086977005,
          0.009615092538297176,
          -0.11062627285718918,
          0.3135611116886139,
          0.11321789771318436
        ],
        [
          0.111930251121521,
          -0.18366077542304993,
          0.15469707548618317,
          -0.11626371741294861,
          -0.020329143851995468,
          0.023069193586707115,
          0.13908632099628448,
          -0.07223125547170639,
          -0.0017182326409965754,
          0.2740546762943268,
          0.2390618771314621,
          0.11910486966371536,
          0.0733984187245369,
          0.00924557726830244,
          0.16997739672660828,
          -0.1540459543466568,
          0.06768950819969177,
          0.38320115208625793,
          -0.20343385636806488,
          0.17262402176856995,
          0.020287128165364265,
          0.18058350682258606,
          0.13231346011161804,
          0.17902423441410065,
          0.07773463428020477,
          0.00951398629695177,
          0.01763734221458435,
          -0.05209086462855339,
          -0.13923998177051544,
          -0.01943546161055565,
          -0.09807325154542923,
          0.02946576662361622,
          0.02076159231364727,
          0.009249876253306866,
          -0.07121726870536804,
          0.006658564787358046,
          0.07808323949575424,
          0.0039787027053534985,
          0.017122644931077957,
          0.07951896637678146,
          0.04488170146942139,
          0.19225874543190002,
          0.05180228501558304,
          0.01724715158343315,
          0.13139332830905914,
          0.23103958368301392,
          0.08023130148649216,
          -0.09057158976793289,
          0.18863661587238312,
          -0.2809326946735382,
          0.0117190508171916,
          0.11166071146726608,
          -0.03013746626675129,
          -0.22313594818115234,
          0.0796685740351677,
          0.11660956591367722,
          0.040739499032497406,
          0.033617883920669556,
          -0.03410613164305687,
          -0.05139994993805885,
          -0.11449787765741348,
          0.10608018189668655,
          0.05862361565232277,
          0.10805390775203705
        ],
        [
          -0.051944881677627563,
          -0.18195931613445282,
          0.23017489910125732,
          -0.10296716541051865,
          -0.19601623713970184,
          -0.08793358504772186,
          0.13257834315299988,
          -0.18506889045238495,
          0.008657955564558506,
          0.0815981850028038,
          -0.1097290962934494,
          -0.06510099768638611,
          0.1565008908510208,
          -0.04619438573718071,
          0.02669444866478443,
          -0.0439089834690094,
          0.10517514497041702,
          0.3673665523529053,
          0.14325471222400665,
          0.11097949743270874,
          -0.12006275355815887,
          -0.0441269688308239,
          -0.0485026016831398,
          0.025155669078230858,
          0.20341970026493073,
          0.1064215674996376,
          0.07080928981304169,
          -0.22796399891376495,
          -0.006013691425323486,
          0.07289960235357285,
          -0.0730166882276535,
          -0.00038834972656331956,
          -0.07423712313175201,
          0.20547914505004883,
          0.21461233496665955,
          -0.06967910379171371,
          -0.16252534091472626,
          -0.11842022091150284,
          0.029411721974611282,
          0.24178902804851532,
          -0.015874108299613,
          0.1887972056865692,
          0.23811864852905273,
          0.05022194981575012,
          -0.015958556905388832,
          -0.22718986868858337,
          -0.44066622853279114,
          -0.7432712316513062,
          -0.02869017980992794,
          -0.11692158132791519,
          0.3118486702442169,
          0.08935979008674622,
          0.021695107221603394,
          -0.3286750018596649,
          -0.19048993289470673,
          -0.04844257980585098,
          0.1692071408033371,
          0.1031842827796936,
          -0.01658293791115284,
          -0.060249652713537216,
          0.025129981338977814,
          0.059521809220314026,
          -0.0463913269340992,
          0.29143738746643066
        ],
        [
          -0.09597901999950409,
          0.10972431302070618,
          0.11436581611633301,
          0.09374726563692093,
          0.2494308352470398,
          0.20491982996463776,
          0.09185805171728134,
          0.12414508312940598,
          0.21298426389694214,
          0.053195152431726456,
          -0.1438383013010025,
          0.15974818170070648,
          -0.2832813858985901,
          0.32013165950775146,
          0.058887287974357605,
          -0.3435937762260437,
          0.41260474920272827,
          0.16108481585979462,
          -0.2967458963394165,
          -0.0956692323088646,
          -0.30429747700691223,
          -0.1396646499633789,
          0.029715491458773613,
          -0.04214250296354294,
          -0.01065207552164793,
          -0.03057587519288063,
          -0.0029300993774086237,
          0.09531208872795105,
          0.082919642329216,
          0.07668164372444153,
          0.33251991868019104,
          -0.3495001196861267,
          -0.0365295484662056,
          0.0684993714094162,
          -0.017625905573368073,
          0.3314462900161743,
          -0.09884148091077805,
          -0.15350234508514404,
          0.22357116639614105,
          -0.3576586842536926,
          -0.12859398126602173,
          -0.03961430862545967,
          -0.26721158623695374,
          0.1178334504365921,
          -0.19563961029052734,
          -0.000891192234121263,
          -0.02157263085246086,
          0.8650190234184265,
          -0.20322667062282562,
          -0.050985321402549744,
          -0.1475730836391449,
          -0.09723785519599915,
          -0.12977328896522522,
          0.005364314652979374,
          -0.15629065036773682,
          -0.09288106858730316,
          -0.0812811478972435,
          0.236673042178154,
          -0.04259604960680008,
          0.1043904572725296,
          -0.9215514659881592,
          -0.19158540666103363,
          -0.11590120196342468,
          0.21654604375362396
        ],
        [
          0.03171183168888092,
          -0.09552904218435287,
          -0.029894663020968437,
          0.2006782442331314,
          -0.03335578739643097,
          -0.030279505997896194,
          -0.08433344215154648,
          -0.033780112862586975,
          -0.03675384819507599,
          0.008447407744824886,
          -0.0007078222697600722,
          0.549052894115448,
          0.5058144330978394,
          0.34916815161705017,
          0.007295049726963043,
          -0.04168223962187767,
          0.34001198410987854,
          -0.017108766362071037,
          -0.09865369647741318,
          0.013049543835222721,
          -0.21572308242321014,
          0.17942123115062714,
          0.04284316673874855,
          -0.018660107627511024,
          0.16303758323192596,
          0.16394104063510895,
          0.0028733285143971443,
          0.04584939405322075,
          0.24722179770469666,
          0.16645678877830505,
          0.03038874827325344,
          0.011095774360001087,
          -0.17468757927417755,
          -0.06976772099733353,
          0.07642540335655212,
          0.05825267359614372,
          0.3273642957210541,
          0.026280703023076057,
          -0.05204746872186661,
          -0.13028405606746674,
          -0.023808998987078667,
          0.022615304216742516,
          0.3132399022579193,
          0.29815977811813354,
          -0.19690999388694763,
          0.02536492608487606,
          0.4994906485080719,
          -0.07967709749937057,
          -0.16013282537460327,
          -0.05938134342432022,
          0.4509861171245575,
          -0.12126482278108597,
          0.3685606122016907,
          -0.06319569051265717,
          0.01045998465269804,
          -0.1669800877571106,
          0.0859353095293045,
          -0.04690556600689888,
          0.21911115944385529,
          -0.1502659171819687,
          0.04058841988444328,
          0.022534765303134918,
          0.5942222476005554,
          0.4196942150592804
        ],
        [
          -0.07820172607898712,
          0.10492566972970963,
          -0.05792098492383957,
          -0.04496883973479271,
          0.11171706765890121,
          0.05583488941192627,
          -0.03094320558011532,
          -0.0004320870793890208,
          -0.18757928907871246,
          0.02335887774825096,
          -0.0451686717569828,
          0.10603270679712296,
          -0.028288578614592552,
          0.004831620957702398,
          -0.048433855175971985,
          -0.1593659222126007,
          0.04647364094853401,
          0.04354926571249962,
          0.04398982971906662,
          0.12086638063192368,
          -0.02205631136894226,
          -0.0046873246319592,
          0.09142346680164337,
          -0.11619175970554352,
          0.10202375054359436,
          -0.12204965949058533,
          0.10763055831193924,
          0.009902949444949627,
          -0.13504864275455475,
          -0.06886522471904755,
          0.16324806213378906,
          -0.06667185574769974,
          -0.10051534324884415,
          -0.08713133633136749,
          -0.03153243660926819,
          -0.06697744131088257,
          0.23999221622943878,
          0.002410796470940113,
          -0.010401778854429722,
          -0.1267494410276413,
          0.03062497451901436,
          -0.02497183158993721,
          0.02977827563881874,
          -0.20274606347084045,
          -0.0627339705824852,
          0.057026900351047516,
          0.005663503427058458,
          0.046548280864953995,
          0.05682956427335739,
          0.12306603789329529,
          -0.10918472707271576,
          -0.0700465738773346,
          -0.1796080768108368,
          -0.015042503364384174,
          0.2640024721622467,
          0.15647150576114655,
          0.12092521786689758,
          0.09385253489017487,
          -0.013917527161538601,
          0.04953000694513321,
          0.0803619772195816,
          0.06034863367676735,
          0.27354785799980164,
          0.15178631246089935
        ],
        [
          0.29994016885757446,
          -0.16660840809345245,
          -0.0901019349694252,
          0.028948405757546425,
          -0.3654851019382477,
          0.06179201230406761,
          -0.20727483928203583,
          0.1987735629081726,
          0.1407810002565384,
          0.05721379444003105,
          -0.1023760586977005,
          -0.11540301144123077,
          0.22412817180156708,
          0.0003331243642605841,
          -0.020165853202342987,
          0.05859612673521042,
          -0.13215622305870056,
          0.23622578382492065,
          0.36286163330078125,
          -0.00337537145242095,
          0.14254610240459442,
          -0.18552283942699432,
          -0.05489072948694229,
          0.07635605335235596,
          -0.03427779674530029,
          0.10793769359588623,
          0.11808343231678009,
          -0.12610659003257751,
          0.03961970657110214,
          0.12936396896839142,
          -0.08282507210969925,
          -0.1367473602294922,
          0.1652636080980301,
          -0.04062324017286301,
          0.1688748449087143,
          -0.1344202607870102,
          0.11091398447751999,
          -0.05910896509885788,
          -0.04895114153623581,
          -0.08366779237985611,
          0.04300038516521454,
          -0.06828819960355759,
          -0.01608267053961754,
          0.2688395082950592,
          0.1121411919593811,
          0.014207521453499794,
          -0.06433665752410889,
          -0.1138162761926651,
          -0.2522825002670288,
          0.04821786656975746,
          0.23505549132823944,
          0.009459499269723892,
          -0.005535666365176439,
          -0.1464746743440628,
          -0.025007998570799828,
          0.20520633459091187,
          -0.05630969628691673,
          0.4064914882183075,
          -0.061141908168792725,
          0.40293020009994507,
          0.10479266941547394,
          0.16579413414001465,
          0.059737347066402435,
          0.08023691922426224
        ],
        [
          0.3045186698436737,
          -0.49822548031806946,
          -0.12182291597127914,
          -0.16624614596366882,
          -0.29242077469825745,
          0.35464000701904297,
          0.264958918094635,
          -0.19655492901802063,
          0.5160821676254272,
          -0.3898463547229767,
          0.28109899163246155,
          0.02196379192173481,
          0.021407123655080795,
          -0.08526064455509186,
          -0.0139336958527565,
          -0.23640446364879608,
          0.2840615212917328,
          -0.2871116101741791,
          0.028602680191397667,
          -0.07042096555233002,
          0.16044659912586212,
          0.01348700188100338,
          -0.045904334634542465,
          0.23274774849414825,
          0.19277137517929077,
          -0.1915389597415924,
          0.010776077397167683,
          0.08525296300649643,
          -0.08775623142719269,
          0.33739525079727173,
          0.16047531366348267,
          0.06921210139989853,
          0.082395538687706,
          0.10923304408788681,
          -0.24236613512039185,
          0.31126219034194946,
          -0.2513616383075714,
          -0.08594819903373718,
          -0.23570437729358673,
          -0.02419382892549038,
          0.13161204755306244,
          0.10607873648405075,
          0.06384911388158798,
          -0.041372351348400116,
          -0.3829006552696228,
          -0.20722141861915588,
          -0.07215085625648499,
          0.053423646837472916,
          0.20231246948242188,
          -0.22588582336902618,
          0.10212335735559464,
          0.12584330141544342,
          0.2013593465089798,
          0.43604013323783875,
          0.06454643607139587,
          -0.15335629880428314,
          -0.5962569117546082,
          -0.025914760306477547,
          0.47900718450546265,
          0.18803314864635468,
          -0.09343191236257553,
          0.05947120487689972,
          -0.1515774428844452,
          0.17919789254665375
        ],
        [
          -0.11567804217338562,
          -0.046951133757829666,
          0.023730097338557243,
          0.012122686952352524,
          0.21734696626663208,
          -0.05211012810468674,
          0.12598931789398193,
          0.06998351961374283,
          -0.22193500399589539,
          -0.2568415701389313,
          -0.241193026304245,
          -0.0063125682063400745,
          -0.5265144109725952,
          -0.05697108432650566,
          0.2387731969356537,
          -0.012376651167869568,
          0.10185375809669495,
          -0.06699436157941818,
          -0.24980397522449493,
          0.1234038770198822,
          0.14761067926883698,
          -0.4509519338607788,
          0.049966584891080856,
          0.11259222030639648,
          -0.0063784983940422535,
          -0.23842039704322815,
          0.067829430103302,
          -0.13035066425800323,
          0.12395662069320679,
          -0.1600266844034195,
          0.11888439953327179,
          0.09131672233343124,
          -0.17307429015636444,
          0.12425833940505981,
          -0.031961552798748016,
          -0.15040041506290436,
          0.06915242224931717,
          -0.21290051937103271,
          0.19085568189620972,
          0.5091028809547424,
          -0.06954890489578247,
          0.1954006850719452,
          0.1397232860326767,
          -0.3017571270465851,
          -0.001429264317266643,
          0.016967905685305595,
          -0.27839231491088867,
          -0.10306163877248764,
          0.14992579817771912,
          0.29486241936683655,
          0.024213222786784172,
          0.02836347371339798,
          0.04738297685980797,
          0.09745019674301147,
          0.004185456782579422,
          -0.17650626599788666,
          0.04687502235174179,
          -0.09070653468370438,
          0.07344689220190048,
          0.0279178936034441,
          -0.313176691532135,
          -0.0593736506998539,
          0.20316453278064728,
          0.04559997469186783
        ],
        [
          0.06579653918743134,
          0.002992655150592327,
          0.06279022991657257,
          -0.17594535648822784,
          -0.037670303136110306,
          -0.05937739834189415,
          -0.11886153370141983,
          0.1314462423324585,
          -0.16226591169834137,
          0.069818414747715,
          0.104954794049263,
          0.12085293978452682,
          -0.07054252177476883,
          0.04861978068947792,
          0.3768892288208008,
          -0.0502830371260643,
          -0.059848107397556305,
          0.012686887755990028,
          -0.020336689427495003,
          0.08665484935045242,
          0.259608656167984,
          -0.2837064564228058,
          -0.1556529402732849,
          -0.1727539300918579,
          0.29097047448158264,
          -0.14972633123397827,
          -0.24716848134994507,
          -0.21714796125888824,
          0.4629795551300049,
          -0.16170628368854523,
          0.023149460554122925,
          0.004487952683120966,
          -0.2716809809207916,
          0.08632637560367584,
          0.06494617462158203,
          0.3831440806388855,
          -0.3131580054759979,
          -0.08648806810379028,
          0.1284053474664688,
          -0.05348910018801689,
          -0.19244958460330963,
          -0.0016075435560196638,
          -0.021760553121566772,
          -0.18946149945259094,
          0.1654108464717865,
          -0.0828714370727539,
          0.01372492965310812,
          -0.12646403908729553,
          -0.002178711351007223,
          0.0425371378660202,
          -0.1525254249572754,
          -0.17756949365139008,
          0.41367000341415405,
          0.09400893747806549,
          0.10907959938049316,
          0.05694390460848808,
          0.29072633385658264,
          0.07006660848855972,
          0.12886390089988708,
          0.012145469896495342,
          0.008005053736269474,
          -0.10784415155649185,
          0.12290947139263153,
          0.004961404949426651
        ],
        [
          -0.08594334870576859,
          -0.031214002519845963,
          -0.20344890654087067,
          0.1411505937576294,
          0.07570639252662659,
          -0.05826273187994957,
          -0.002507801167666912,
          -0.10535162687301636,
          -0.05172441899776459,
          0.3067667782306671,
          -0.011534018442034721,
          0.2309267669916153,
          0.12111762911081314,
          0.07730032503604889,
          -0.06354532390832901,
          0.0065573048777878284,
          0.45358172059059143,
          -0.0073888530023396015,
          -0.021595295518636703,
          -0.012839463539421558,
          -0.017260273918509483,
          0.34749647974967957,
          0.10834434628486633,
          0.1137014850974083,
          0.11090181767940521,
          -0.04449611157178879,
          -0.1001947894692421,
          0.050085365772247314,
          0.3233487904071808,
          0.31785139441490173,
          0.2358749657869339,
          -0.11905480176210403,
          -0.028895586729049683,
          -0.06594681739807129,
          -0.0017737087327986956,
          0.05961526185274124,
          0.2604459822177887,
          0.11647993326187134,
          -0.08677080273628235,
          -0.008643370121717453,
          0.11121285706758499,
          0.15123000741004944,
          0.08888102322816849,
          0.06650810688734055,
          -0.1097758486866951,
          -0.15518677234649658,
          0.27321088314056396,
          -0.10185053944587708,
          0.10973536968231201,
          -0.04502527788281441,
          0.2188512235879898,
          -0.05623385310173035,
          0.18614810705184937,
          -0.07469282299280167,
          -0.1990714967250824,
          -0.06749007850885391,
          0.17862288653850555,
          -0.015409068204462528,
          -0.06087184697389603,
          -0.05561893805861473,
          0.0004563113034237176,
          0.005576489958912134,
          0.2649470269680023,
          0.08014834672212601
        ],
        [
          -0.0037935744039714336,
          0.041418351233005524,
          0.1580955982208252,
          0.19425183534622192,
          -0.04252545163035393,
          0.28005507588386536,
          -0.1267434060573578,
          -0.015526777133345604,
          -0.06359446048736572,
          0.09488929808139801,
          -0.06980057805776596,
          0.20160993933677673,
          -0.058339424431324005,
          0.06223689764738083,
          -0.06307332217693329,
          -0.004064435604959726,
          0.07347286492586136,
          0.09433619678020477,
          -0.013378683477640152,
          0.16815099120140076,
          -0.20080043375492096,
          -0.3388100862503052,
          0.10107824951410294,
          -0.13832023739814758,
          0.42252302169799805,
          -0.089378222823143,
          0.09113505482673645,
          -0.1610581874847412,
          -0.38649532198905945,
          -0.11074189841747284,
          -0.0659167468547821,
          0.10953886061906815,
          -0.1666204035282135,
          0.03246644139289856,
          0.15807966887950897,
          -0.21823132038116455,
          -0.18080557882785797,
          -0.009875187650322914,
          0.07084574550390244,
          -0.03465358167886734,
          -0.18677441775798798,
          -0.017662296071648598,
          0.36245396733283997,
          -0.16087666153907776,
          0.23273427784442902,
          -0.020382462069392204,
          -0.1437818855047226,
          -0.09552524983882904,
          0.03858977183699608,
          0.09774268418550491,
          -0.048022203147411346,
          0.31015363335609436,
          0.2118397206068039,
          0.06636322289705276,
          -0.23615425825119019,
          -0.028942860662937164,
          0.2966265082359314,
          0.16378039121627808,
          0.15130774676799774,
          -0.012722373940050602,
          -0.014860703609883785,
          -0.12986081838607788,
          -0.049007292836904526,
          -0.1250525712966919
        ],
        [
          -0.21944771707057953,
          -1.2870855331420898,
          0.5833219289779663,
          0.13396598398685455,
          -0.5207213759422302,
          0.29077696800231934,
          1.2087101936340332,
          -0.08613699674606323,
          0.3758608102798462,
          -0.32775354385375977,
          0.319926381111145,
          -0.17509104311466217,
          -1.1213146448135376,
          0.19801583886146545,
          0.45304733514785767,
          0.1839320957660675,
          -0.0813525840640068,
          -0.03963429480791092,
          -0.24141569435596466,
          0.3204319477081299,
          -0.104402557015419,
          0.16033625602722168,
          -0.43313416838645935,
          0.20101524889469147,
          0.25863948464393616,
          -0.08284839987754822,
          0.05087936297059059,
          -0.18096761405467987,
          0.20409642159938812,
          0.08351295441389084,
          0.35066133737564087,
          -0.5547268986701965,
          -0.4304068684577942,
          0.04945502430200577,
          -0.0429937019944191,
          0.19311437010765076,
          0.3112422525882721,
          -0.00266372156329453,
          0.05574173852801323,
          1.4030390977859497,
          0.4754307270050049,
          0.3622943162918091,
          0.20504890382289886,
          -0.16137555241584778,
          -0.13290554285049438,
          0.13543546199798584,
          -0.357841432094574,
          0.045249685645103455,
          0.42185178399086,
          0.2588009536266327,
          -0.09694334864616394,
          0.1624899059534073,
          0.0147155886515975,
          0.11762602627277374,
          0.041539862751960754,
          -0.3031346797943115,
          0.1337941586971283,
          -0.4659770727157593,
          0.46537894010543823,
          -0.253439337015152,
          0.08534681051969528,
          0.08269032090902328,
          -0.008178479969501495,
          0.2266850620508194
        ],
        [
          -0.036468133330345154,
          -0.12552443146705627,
          0.10891342163085938,
          -0.003847024403512478,
          -0.062141187489032745,
          0.09035733342170715,
          0.17188416421413422,
          0.21864211559295654,
          0.2013353705406189,
          -0.22929805517196655,
          -0.0426037572324276,
          -0.06154294312000275,
          -0.4564540386199951,
          -0.0866038128733635,
          0.35976681113243103,
          -0.027061663568019867,
          0.23661787807941437,
          -0.2649453282356262,
          0.01918506994843483,
          0.8003116250038147,
          0.21119192242622375,
          -1.760489583015442,
          -0.0872967466711998,
          -0.16996391117572784,
          -0.18019910156726837,
          -0.06760894507169724,
          0.16577139496803284,
          -0.8218478560447693,
          -0.13724365830421448,
          -0.14566732943058014,
          0.21754184365272522,
          0.10966631770133972,
          -0.11274048686027527,
          0.05714954063296318,
          -0.04527093470096588,
          0.0538170263171196,
          0.024842871353030205,
          -0.4455049932003021,
          0.478960782289505,
          0.3838377594947815,
          -0.06718380749225616,
          0.22218269109725952,
          0.39466699957847595,
          -0.28282275795936584,
          -0.02320190891623497,
          0.8393480181694031,
          -0.1076631247997284,
          -0.051787395030260086,
          0.002880115993320942,
          0.02241411991417408,
          0.08345618098974228,
          -0.06717836111783981,
          -0.036354269832372665,
          -0.11861343681812286,
          -0.053261056542396545,
          -0.2649966776371002,
          -0.0054711271077394485,
          -0.0811394453048706,
          -0.018429407849907875,
          -0.23374664783477783,
          -0.1824689507484436,
          -0.2184184342622757,
          0.12142426520586014,
          0.29814228415489197
        ],
        [
          0.19565831124782562,
          0.19368937611579895,
          0.1538058966398239,
          0.015120468102395535,
          -0.059550072997808456,
          -0.15559162199497223,
          -0.06485512852668762,
          0.32113826274871826,
          0.3440401256084442,
          -0.008800103329122066,
          0.028267771005630493,
          0.03172101825475693,
          -0.08348728716373444,
          -0.1888313591480255,
          -0.18196158111095428,
          -0.06269506365060806,
          -0.018599245697259903,
          -0.21394765377044678,
          -0.07790651172399521,
          -0.045564502477645874,
          -0.11030898243188858,
          0.1280408650636673,
          0.1024722307920456,
          -0.18870246410369873,
          -0.005596960429102182,
          0.09914325922727585,
          -0.040923263877630234,
          0.15751253068447113,
          0.008707576431334019,
          -0.06550093740224838,
          0.009551605209708214,
          0.018677538260817528,
          0.07969723641872406,
          -0.05904346704483032,
          0.7988620400428772,
          0.03226068243384361,
          -0.06504121422767639,
          0.10481295734643936,
          -0.008240298368036747,
          -0.2731277048587799,
          -0.07541504502296448,
          -0.14713414013385773,
          0.15184751152992249,
          0.08614637702703476,
          -0.2028259038925171,
          -0.10390311479568481,
          -0.26161620020866394,
          -0.40044569969177246,
          -0.11807785928249359,
          0.051729533821344376,
          0.1689206212759018,
          0.09219403564929962,
          0.03688392788171768,
          -0.1172994002699852,
          -0.11256884783506393,
          -0.04646626487374306,
          0.017337627708911896,
          -0.05341359227895737,
          -0.0744200125336647,
          0.0871005654335022,
          0.18436791002750397,
          0.1099521815776825,
          0.12605923414230347,
          0.01781030185520649
        ],
        [
          -0.06345943361520767,
          -0.011050461791455746,
          0.15189218521118164,
          -0.16109037399291992,
          0.010265636257827282,
          0.0591544471681118,
          0.14437372982501984,
          0.024983109906315804,
          0.2988376021385193,
          0.28120186924934387,
          -0.2059611678123474,
          0.08051370084285736,
          -0.10826165229082108,
          0.1208205372095108,
          -0.03104296699166298,
          -0.010975363664329052,
          -0.13143673539161682,
          -0.003823712468147278,
          0.06406742334365845,
          0.0545356348156929,
          -0.005411131773144007,
          -0.13913984596729279,
          -0.13439339399337769,
          0.08545942604541779,
          0.046117525547742844,
          0.2610619366168976,
          -0.06264586746692657,
          0.06411294639110565,
          -0.29062244296073914,
          -0.18730148673057556,
          0.10372938215732574,
          -0.13147270679473877,
          -0.015566679649055004,
          0.08637801557779312,
          0.23957842588424683,
          0.135374054312706,
          0.056910667568445206,
          -0.13148541748523712,
          -0.07590238004922867,
          -0.16458752751350403,
          -0.02634068951010704,
          0.00487768929451704,
          -0.06151376664638519,
          -0.14018745720386505,
          -0.11330855637788773,
          0.20499838888645172,
          -0.3987135887145996,
          -0.270487517118454,
          0.002459228038787842,
          0.164452463388443,
          -0.05167219787836075,
          -0.019999925047159195,
          0.17632164061069489,
          -0.020205773413181305,
          -0.03322724997997284,
          -0.04079092666506767,
          0.010764478705823421,
          0.22282364964485168,
          -0.2902316451072693,
          -0.183719664812088,
          -0.04174397140741348,
          -0.011672855354845524,
          -0.23174241185188293,
          0.27712056040763855
        ],
        [
          -0.14038671553134918,
          0.0779910534620285,
          -0.06255627423524857,
          -0.11311070621013641,
          -0.04890715703368187,
          0.23479969799518585,
          -0.0022366573102772236,
          0.015589271672070026,
          0.1478911191225052,
          -0.09189417958259583,
          -0.10093922168016434,
          0.09491748362779617,
          -0.06534145027399063,
          0.14538799226284027,
          0.3506925404071808,
          0.22789600491523743,
          -0.32034075260162354,
          0.003690954064950347,
          -0.04203151911497116,
          -0.05559970438480377,
          0.23014970123767853,
          -0.12065747380256653,
          -0.1316768229007721,
          0.19375814497470856,
          0.1299554407596588,
          0.055050842463970184,
          -0.08465197682380676,
          -0.059956926852464676,
          0.13424257934093475,
          -0.016726652160286903,
          -0.08424509316682816,
          0.037114448845386505,
          -0.022313671186566353,
          -0.3511781394481659,
          0.21447376906871796,
          0.05535572022199631,
          0.37358006834983826,
          -0.2438267469406128,
          -0.000772332597989589,
          0.0015931212110444903,
          -0.013080520555377007,
          -0.1066015362739563,
          -0.25579217076301575,
          -0.22761082649230957,
          -0.0021791791077703238,
          -0.3218182921409607,
          -0.30708757042884827,
          -0.0829988494515419,
          0.06587722897529602,
          -0.016979403793811798,
          -0.11558645218610764,
          0.047029681503772736,
          0.20090991258621216,
          -0.028846897184848785,
          -0.2862549126148224,
          -0.006821831688284874,
          -0.38130855560302734,
          -0.021317152306437492,
          -0.11413320899009705,
          0.09289126843214035,
          0.05198882520198822,
          -0.15034547448158264,
          0.14543209969997406,
          0.12080498784780502
        ],
        [
          0.08392312377691269,
          -0.1593823879957199,
          -0.09097915142774582,
          -0.003635082161054015,
          -0.2368771731853485,
          -0.14607779681682587,
          0.036587201058864594,
          0.2546401023864746,
          0.16952632367610931,
          0.0313737615942955,
          -0.008856627158820629,
          0.2840443253517151,
          0.17105011641979218,
          0.33593377470970154,
          -0.10345221310853958,
          -0.1313667595386505,
          -0.0067618610337376595,
          -0.25068777799606323,
          0.13873568177223206,
          0.02630659192800522,
          -0.011660062707960606,
          0.10324453562498093,
          0.0062358323484659195,
          0.07839349657297134,
          -0.011984595097601414,
          0.2365308552980423,
          -0.02816220372915268,
          -0.07159188389778137,
          0.06019299477338791,
          -0.08373896777629852,
          0.1336536854505539,
          0.11280448734760284,
          0.08952642977237701,
          0.12630456686019897,
          0.04211939126253128,
          0.04487178102135658,
          -0.0485534705221653,
          -0.02758820727467537,
          -0.03264953941106796,
          0.06968250125646591,
          0.12182089686393738,
          0.10839185863733292,
          0.16519008576869965,
          0.12866827845573425,
          -0.08635608106851578,
          0.5258341431617737,
          0.16703052818775177,
          0.32856485247612,
          0.03688524663448334,
          -0.17827214300632477,
          -0.2103719264268875,
          -0.04494976997375488,
          -0.10526921600103378,
          0.21750681102275848,
          0.06810468435287476,
          -0.034878507256507874,
          0.08377903699874878,
          0.12804943323135376,
          -0.0551554337143898,
          0.5319135785102844,
          -0.12007886916399002,
          0.15036824345588684,
          0.0097697414457798,
          -0.3094007670879364
        ],
        [
          0.04753006249666214,
          -0.050429150462150574,
          -0.019814228639006615,
          0.3743661344051361,
          -0.0727744922041893,
          -0.25345441699028015,
          -0.021608231589198112,
          -0.1176624447107315,
          -0.1436048001050949,
          -0.1419697403907776,
          -0.13077689707279205,
          -0.007516868878155947,
          -0.23065148293972015,
          -0.002451727632433176,
          -0.16648712754249573,
          -0.6014821529388428,
          0.19854775071144104,
          -0.018375227227807045,
          -0.025257516652345657,
          0.04485020041465759,
          -0.5006883144378662,
          -0.07858863472938538,
          0.2102510780096054,
          0.022308602929115295,
          0.18571338057518005,
          0.03763272240757942,
          0.35439538955688477,
          -0.29496946930885315,
          -0.2918509244918823,
          -0.021434620022773743,
          0.12518852949142456,
          0.04914240166544914,
          0.029397908598184586,
          -0.63907790184021,
          0.027994757518172264,
          -0.20058296620845795,
          0.053929612040519714,
          -0.017107626423239708,
          0.12213236093521118,
          0.06165362149477005,
          0.1258516162633896,
          -0.06865379214286804,
          0.10962752252817154,
          -0.2643509805202484,
          0.15150828659534454,
          -0.05923961102962494,
          0.2827371656894684,
          -0.03571605682373047,
          0.2133890688419342,
          0.004015909042209387,
          0.06490974128246307,
          0.4354194402694702,
          0.13588353991508484,
          -0.11717969924211502,
          0.4503776729106903,
          -0.014331282116472721,
          0.3687423765659332,
          0.002570926444604993,
          0.004506944678723812,
          0.031033270061016083,
          -0.010306877084076405,
          0.02593098394572735,
          -0.25244686007499695,
          0.04966627061367035
        ],
        [
          -0.1437835842370987,
          -0.030507871881127357,
          -0.09775958955287933,
          0.11241443455219269,
